#ifndef WEIGHTS_H
#define WEIGHTS_H
#include "conv1.h"

const type_t W1[144] = {
-0.29403800, 0.41365379, 0.34735686, -0.77965522, -0.22438903, -1.01844335, 1.09429431, 0.65028048, -0.71663016, 0.38771370, 
    0.52040988, -0.55053902, -0.17971565, -0.49619102, 0.38207227, -0.57576907, -0.19141288, 0.29118654, 0.92350638, -0.62981689, 
    -0.73005015, -0.75693405, 0.30152515, -0.55340105, -0.52221119, -0.33906108, 0.86125582, -0.40811759, 0.45209402, 0.20033434, 
    0.67987144, 0.72010285, -0.40285596, -0.19506694, -0.90985280, 0.52488929, -0.10277541, 0.90177792, 0.08348133, 0.22854681, 
    0.03493402, -0.30707455, 0.72996545, 0.69031036, 0.50070286, 0.43371594, -0.54565293, -1.00292027, -0.23226094, 1.26135373, 
    -0.59767449, 0.25614536, -0.35635230, 0.39633062, 0.64548993, -0.37044513, 0.89867359, 0.18688194, 0.70593649, 0.11561999, 
    -1.04151297, -0.23632839, 0.20118512, 0.03693887, 0.26136097, 0.58414817, -0.24539524, -0.08153491, 0.51654786, 0.90528131, 
    0.92219388, -0.36158809, -0.02224775, 0.74696875, -0.78681749, -0.73505175, -0.10341322, -0.75937212, -0.89343518, 0.51898855, 
    -0.41777337, -0.47637606, -0.56677717, -0.45417136, 0.87693757, -0.52464330, -0.01905022, 0.97239214, 0.48912746, -0.32493532, 
    0.23673794, 0.94818485, 0.87192696, -0.52395171, -0.28225315, 0.21664295, -0.64582086, 0.02614042, -0.63296860, 0.42219490, 
    0.47621679, -0.88663501, -0.64396667, 1.30323398, 0.40619570, -0.35332587, -0.51203471, -0.48825356, 0.09555373, -0.33544096, 
    -0.74270254, 0.22556296, -0.50950742, -0.11790388, 0.90063506, -0.96379447, -0.41335416, 0.10561918, -0.41028503, -0.38009301, 
    0.49495780, 0.56343830, -0.83064002, -0.17135328, 1.06793582, -0.15612555, -0.13410394, -0.90598571, -0.77757084, -0.69157553, 
    0.22376800, 0.79734766, -0.14634269, 1.02496564, 0.11672105, -0.44927406, -0.63946730, 0.57741261, -0.48651499, 0.52512610, 
    0.78257197, -0.07457428, -0.26709396, -0.65820318
};

const type_t B1[16] = {
-0.20525114, 0.66329974, 0.07777740, 0.39001751, -0.42575860, 0.23856115, -0.22295746, 0.62341428, -0.12385477, 0.00250748, 
    -0.16451082, -0.36237404, 0.16526113, -0.30007935, 0.55522662, 0.39567804
};

const type_t W_fc1[5120] = {
0.22507624, 0.04896510, -0.04129326, -0.01088212, 0.03617286, -0.18990950, -0.00979629, -0.04036928, -0.22007868, -0.00692424, 
    0.13308120, 0.40042704, 0.31371906, 0.20929421, 0.24625009, -0.24623048, -0.28937691, 0.02212548, -0.11012449, 0.40985247, 
    0.26519993, 0.13062158, -0.02703542, -0.20877665, -0.16214183, -0.11345290, 0.27770406, -0.26456124, 0.06160275, -0.10788967, 
    0.07430970, 0.03583351, -0.15328957, 0.19438225, 0.14037064, -0.37643939, -0.01326641, -0.01387982, 0.02560505, -0.16740622, 
    -0.05729498, -0.08173718, -0.31476861, 0.01032391, -0.23338257, -0.18609294, -0.12028585, -0.31494579, 0.11740442, -0.03214070, 
    0.25691161, 0.12953170, -0.07471649, 0.10124405, -0.13028079, -0.52689308, -0.26156271, -0.32002336, -0.04116108, 0.41446382, 
    0.26828045, 0.02111782, 0.01502416, 0.19497363, -0.11270104, 0.16324528, 0.28797030, 0.17592576, 0.38455954, -0.07889654, 
    -0.20308037, -0.15808766, 0.06792984, 0.05051786, 0.12463640, 0.04730531, -0.19754604, -0.03314362, -0.07148860, -0.25211284, 
    0.00837569, -0.20851243, -0.06377595, -0.14176454, -0.10121857, -0.02726810, 0.04610930, 0.09843616, 0.28763866, 0.19852006, 
    -0.24418466, 0.06811213, 0.01379138, 0.07034680, -0.16681167, 0.10149239, -0.00019557, -0.05829566, 0.16124392, -0.22723369, 
    0.12256993, 0.05752573, 0.13782392, -0.00176003, -0.09392597, -0.16405927, 0.19255117, -0.17248324, -0.12291204, -0.32998273, 
    0.16990894, 0.15650156, 0.12636510, -0.17184445, -0.15603705, 0.06510844, 0.12246716, 0.05357171, 0.13859981, -0.03923932, 
    -0.26332200, -0.42460889, 0.12657385, -0.14748234, 0.19304687, 0.12854606, -0.29977387, -0.17281647, -0.18819509, 0.18994012, 
    0.01316178, -0.01071430, -0.17675015, -0.26176861, -0.18508661, 0.10040178, -0.11843532, 0.12109371, -0.07629826, 0.00072845, 
    -0.30957985, -0.02945936, -0.24282278, -0.20169228, -0.06659991, 0.17837001, -0.05721718, 0.55923420, -0.04741892, 0.37592909, 
    -0.15547997, 0.19918551, -0.17249714, 0.00501820, -0.24081753, 0.05011231, 0.31118384, -0.37870082, 0.31374380, 0.18685088, 
    0.39288568, -0.06704433, 0.16867125, 0.12657061, -0.13010214, -0.01038714, -0.03277676, 0.00165103, -0.16767053, 0.17566811, 
    -0.13467488, 0.00375194, 0.00173418, 0.08305518, 0.11965299, 0.17116000, -0.30164662, 0.24119379, 0.00689288, -0.28029701, 
    0.09440709, 0.21086887, 0.22859369, 0.28436512, 0.06049734, 0.10356709, 0.19693016, -0.11649139, 0.27977222, 0.04195086, 
    -0.06113386, 0.22376145, 0.14764373, -0.29182252, 0.09408329, -0.24778315, 0.05180864, -0.25911307, 0.02344900, -0.27953672, 
    0.17605862, 0.06555637, 0.08878418, -0.03914367, -0.02020374, -0.16620104, -0.24235891, 0.04600260, -0.16570735, 0.04371138, 
    0.19282530, -0.26365864, -0.05955815, 0.04428705, 0.12191179, -0.13788067, -0.07511343, 0.11731017, 0.05467435, -0.07774422, 
    -0.03725923, 0.15763648, -0.14821927, 0.24557526, 0.28165662, 0.18039770, 0.19443613, 0.17148592, 0.23480487, 0.16045161, 
    0.07469843, 0.24494988, -0.15181682, -0.06247636, -0.22672971, 0.13571379, 0.04190176, -0.06763034, -0.10629810, 0.08388053, 
    -0.22011860, -0.17706351, 0.23192915, 0.15223403, 0.03673191, -0.00168715, 0.16471031, -0.22036092, -0.16461307, -0.02213308, 
    -0.07529752, 0.08907013, 0.00029452, 0.24645318, 0.02190667, -0.11355432, -0.06851613, 0.11468684, -0.15967126, -0.03245415, 
    -0.01844243, 0.25998846, 0.09770577, 0.05169297, -0.16670431, -0.09030616, -0.12985197, 0.06869674, 0.28860921, -0.03985715, 
    0.12014820, -0.01393952, 0.01432347, 0.12439532, 0.41328579, -0.29957831, -0.07956626, 0.10232001, -0.16571030, 0.17541446, 
    0.02843120, 0.05336553, 0.04143784, -0.17467515, -0.03244029, 0.26393411, 0.24114156, 0.05562616, 0.22658305, 0.15460558, 
    -0.11563301, 0.01703116, 0.01463785, 0.10683700, 0.33821374, -0.06986095, 0.28031996, -0.14427049, -0.07514961, 0.25284722, 
    0.03109875, -0.24109310, 0.16622108, 0.30811787, 0.14770032, 0.01205056, 0.27651399, -0.08434720, -0.19457603, -0.10075092, 
    0.25733891, 0.00637723, -0.00656191, -0.27877143, 0.08281790, 0.16658808, -0.06401178, -0.07536110, 0.01128245, 0.20687397, 
    -0.19322166, 0.09567913, 0.02354502, 0.07210366, 0.29678929, 0.05926974, -0.26085860, 0.22567853, 0.11827876, -0.01825391, 
    0.12649779, 0.10394175, -0.04142631, 0.21989930, 0.09208340, -0.13243724, 0.10709627, -0.15598631, -0.18188633, 0.37562037, 
    -0.27562645, -0.22077201, -0.19136807, 0.07131759, -0.13058163, -0.12733312, -0.00958695, 0.16832525, -0.13840011, -0.24882387, 
    0.16338006, 0.22974925, 0.14353788, 0.21823314, -0.08822755, -0.16463955, -0.12161011, 0.05365205, -0.09245085, 0.08116740, 
    0.16531014, -0.12016246, -0.00666726, 0.08461569, 0.20185618, 0.03539662, 0.21863823, 0.05945383, -0.28604281, -0.14026456, 
    0.08863294, 0.16466720, -0.13928719, 0.31081274, 0.19497596, 0.14220835, 0.32154998, -0.06785975, -0.02125358, 0.22958171, 
    -0.17595279, 0.15419097, -0.03793672, 0.37421706, 0.14318459, 0.13413234, 0.00664064, -0.05177786, 0.14899515, 0.21049197, 
    -0.28073981, 0.12135157, -0.15990254, -0.24907702, 0.02767576, -0.21554367, -0.31252143, -0.14677286, 0.10692854, 0.00701827, 
    -0.06177022, -0.37124324, -0.16016847, -0.28874183, 0.10447676, -0.23860392, 0.02737652, 0.15020806, 0.17066658, 0.11358679, 
    0.14431356, -0.01496098, 0.09699404, 0.06087186, -0.43589282, -0.15682454, -0.08297709, 0.05712146, 0.07195571, -0.19471495, 
    -0.07437820, 0.00872063, 0.20761120, -0.06494159, -0.22736022, -0.28629118, -0.11746203, -0.09896545, -0.19974376, -0.27870750, 
    0.01346222, 0.15513474, -0.11725424, -0.28543139, -0.23763326, 0.36723912, -0.20998408, 0.00690425, 0.19207008, 0.28946292, 
    0.17795028, -0.04528158, 0.17796999, -0.26763743, 0.38865349, 0.18156670, 0.15033112, -0.11415563, -0.04808551, 0.31232369, 
    -0.09472429, 0.16490641, 0.19238824, 0.40399781, -0.17297742, -0.01434718, -0.13664202, 0.00354788, 0.00807337, 0.30648136, 
    0.13633038, -0.16215192, 0.00832221, 0.11464592, 0.07561728, 0.09025612, 0.17417924, 0.22785987, -0.06628303, 0.28051427, 
    -0.12325978, -0.11266921, 0.06712845, -0.28871727, 0.03729569, 0.04542192, 0.05463276, 0.31122345, 0.15896867, -0.17146824, 
    0.16007833, 0.24954997, -0.07610572, 0.12519649, 0.11904100, 0.27163526, 0.31872535, 0.08475059, 0.19000968, -0.05316085, 
    -0.14359742, 0.15195185, 0.03976336, -0.06871492, -0.07185803, -0.23818900, 0.04195987, -0.34053996, 0.00493419, -0.00412220, 
    0.17072970, 0.33662048, 0.29747698, 0.09270080, -0.08898716, -0.12836531, -0.12329241, -0.36131206, -0.18166442, -0.28764519, 
    0.38676083, 0.09080251, 0.23740618, 0.03212662, 0.15719348, 0.11829360, 0.07121702, 0.19126061, 0.23942019, 0.21396717, 
    -0.13276960, -0.17828448, -0.18770900, -0.07207390, 0.09697891, 0.03058850, -0.32618782, -0.38060087, 0.16691747, 0.25913343, 
    -0.04024512, 0.12885757, 0.18531716, -0.25710779, -0.22801606, -0.09547339, -0.25731942, -0.09608510, -0.27453166, 0.03556629, 
    -0.05746986, -0.27024522, 0.36042142, -0.10030669, -0.04020160, -0.06560260, -0.17284304, 0.10485052, -0.00634699, -0.19616629, 
    -0.19328767, 0.12040747, -0.03226127, -0.40120563, 0.13422655, -0.15898398, -0.01843524, 0.08716342, 0.05057391, 0.16400124, 
    0.03788067, 0.14942159, -0.16155037, 0.29744726, 0.29768839, -0.30265754, 0.06816454, -0.19773030, 0.11164348, 0.25654683, 
    0.06377362, -0.08381463, 0.23633021, -0.22140393, 0.19078480, 0.00451141, -0.12218421, -0.16691059, 0.05555081, 0.03748366, 
    -0.18149678, 0.07962146, -0.11131683, 0.30952567, 0.28998488, 0.10798905, -0.05810227, 0.06813671, -0.06663101, 0.19542779, 
    -0.06250378, 0.14197916, -0.07238223, -0.08053179, -0.05751501, -0.21818447, -0.21619344, -0.01980904, -0.18227890, 0.36414030, 
    -0.06086625, 0.29549506, -0.06655732, 0.19573602, -0.24041170, 0.23020752, -0.11739744, 0.20588158, -0.22351561, 0.23134226, 
    -0.09226031, 0.03758819, 0.14950851, 0.09396538, -0.13603468, 0.08755711, 0.24187103, 0.04148570, -0.01358859, -0.09929185, 
    0.02318779, 0.04463168, -0.23936723, -0.07447242, 0.12464540, 0.02019108, 0.20593238, 0.06030584, -0.08839346, 0.37098527, 
    -0.35038340, -0.16661184, 0.20345785, -0.44384730, -0.01298881, 0.21900159, -0.11607380, 0.11222062, 0.08781519, -0.13989188, 
    -0.12471153, 0.19612396, 0.12434470, 0.16392107, 0.04973418, 0.15859210, -0.10964505, -0.07799757, -0.06793362, 0.08599740, 
    0.24280527, 0.20186606, -0.08112964, 0.23146676, -0.00211650, 0.15118891, -0.05018262, -0.16991267, 0.27652597, 0.02468506, 
    -0.10262358, 0.19808863, 0.29138559, 0.27523756, -0.15622383, 0.20801774, 0.15103349, -0.19910498, -0.05128490, -0.17466399, 
    -0.03122746, 0.18698813, 0.33347797, -0.20203575, 0.12138209, 0.05152025, -0.29911435, 0.23707776, -0.24422358, 0.09672434, 
    0.22495969, 0.18179834, 0.07100233, 0.29120961, 0.16661583, -0.22520015, 0.15970251, -0.07329377, -0.01601013, 0.10708556, 
    0.27145809, 0.01582022, 0.17536598, 0.12935887, -0.08492680, 0.25003383, 0.12495519, 0.27611560, 0.31846943, -0.14970315, 
    -0.14969940, -0.00474768, 0.15315561, -0.15102620, 0.02813119, -0.12786528, 0.13477123, 0.08570027, -0.03242052, 0.31615841, 
    -0.19594654, -0.18275772, 0.10185543, 0.03379399, 0.17965955, -0.01245268, 0.12616962, 0.16802423, 0.17856017, 0.16801688, 
    0.03581486, 0.09519368, 0.01085277, -0.40035403, -0.10886204, -0.01645574, 0.20134099, -0.08018880, -0.03540246, 0.18583828, 
    -0.04077356, 0.03592305, -0.05796055, -0.11095288, 0.28523448, 0.19892408, 0.20676139, -0.01243311, -0.06893665, 0.11606903, 
    0.05736785, 0.05481624, 0.24958208, -0.17281437, -0.35540062, 0.13798726, 0.19045544, 0.04652991, 0.19479840, -0.00004696, 
    0.09718484, 0.22514538, 0.00273078, 0.49601614, -0.20574208, 0.08793428, -0.05935954, -0.07190480, -0.42321017, 0.15796754, 
    0.27636895, -0.05659485, -0.03614882, -0.01346587, 0.06336103, -0.17326376, 0.12162878, 0.04910203, -0.03348705, -0.17525807, 
    0.30875379, 0.50296670, 0.21233843, 0.49928162, -0.34311447, 0.25535288, 0.26152799, 0.20170771, 0.06839787, 0.04439008, 
    -0.09063700, -0.23169266, -0.20537369, -0.01028491, -0.47468293, -0.02005437, -0.13918920, -0.15902175, 0.37023255, -0.01712299, 
    -0.15581259, -0.00543812, -0.40361702, 0.18742350, -0.01579297, 0.11566424, -0.08912591, 0.02237176, 0.13043360, 0.11716457, 
    0.23244481, 0.30552140, 0.10244235, -0.14158402, 0.04112351, 0.08618449, 0.15134817, 0.18352875, -0.00920258, -0.11935514, 
    0.21749036, -0.00317369, -0.01623330, 0.05637486, -0.03291818, -0.17434102, 0.22748999, -0.30901459, 0.13132603, 0.13675182, 
    0.09507415, 0.01423873, -0.15049466, -0.04267329, -0.10025075, -0.28534210, 0.16013341, -0.17541634, 0.06884004, 0.18035582, 
    0.00741073, -0.08291088, 0.11266012, 0.01605752, 0.23073745, -0.21014060, -0.12404435, -0.01377901, 0.01067901, 0.25880322, 
    -0.10120504, 0.04904771, 0.01627540, -0.05285551, -0.25823238, -0.38189146, -0.28626806, 0.01701881, -0.03595411, 0.06023069, 
    0.14355980, -0.12132327, -0.17741492, -0.01798790, -0.28856221, -0.23644349, -0.11652126, 0.37748364, -0.03921380, 0.27513605, 
    -0.03459526, -0.50160432, -0.12969093, -0.16103670, -0.06596687, 0.28611180, 0.16915804, 0.30663997, -0.11466593, -0.29413211, 
    0.00351378, 0.14218067, -0.34819996, -0.15262288, 0.15588517, -0.41154584, -0.19644248, 0.17712089, -0.35349721, 0.03335185, 
    0.05639440, -0.18724018, 0.11443321, -0.00742001, -0.24108821, -0.25228775, 0.19847888, -0.09377678, -0.38469842, -0.24214981, 
    -0.08191017, -0.05411952, -0.19040099, -0.18013482, 0.18414298, 0.10646991, -0.13385831, 0.00163876, 0.05215318, 0.23893765, 
    0.15169892, 0.30324960, 0.16609406, 0.30694705, 0.04869153, 0.06197091, -0.11944012, -0.14670752, -0.08060267, 0.04442538, 
    0.19303931, 0.30596882, 0.15596786, 0.17880830, 0.09284130, 0.08660731, 0.24483961, -0.11343773, -0.22098832, 0.37662503, 
    -0.12494309, 0.00064538, 0.05036155, -0.05334542, 0.04711152, 0.08686219, -0.05168831, -0.07619815, 0.08317048, 0.22837478, 
    0.13781124, 0.44750321, 0.25762078, 0.13385849, 0.24450520, 0.08952397, 0.09114601, 0.24553230, 0.23497856, 0.01708372, 
    -0.09843113, 0.01043909, 0.00552722, -0.21513838, -0.23548442, -0.03848775, 0.36219007, -0.07641745, 0.39760390, 0.36763951, 
    -0.39910084, -0.09368610, -0.17706831, 0.10773435, 0.23435353, 0.24830960, -0.02438983, -0.00563785, -0.35671836, -0.04346491, 
    -0.21537894, -0.26253965, -0.09645314, -0.22474448, 0.12469086, -0.17290199, -0.20336901, -0.27386409, -0.17186049, -0.00451003, 
    0.05635547, 0.09218749, 0.19324040, -0.13740195, 0.16317414, -0.27073774, -0.01651893, 0.09854227, -0.24545886, -0.21964423, 
    0.11276650, -0.22696881, -0.15392300, 0.23841298, 0.16755792, 0.24935280, 0.21538363, -0.18029234, -0.18766421, -0.26216716, 
    0.09193146, -0.10633225, -0.25152928, -0.25116569, -0.05174538, 0.16704755, -0.12455495, 0.03093908, 0.18152905, -0.01106481, 
    -0.21432544, -0.01131162, -0.16544771, -0.28862756, 0.12789544, -0.26935610, -0.27422065, -0.14615005, 0.11355790, -0.20189589, 
    -0.05354355, -0.03380693, -0.15648344, 0.07175633, -0.06721054, -0.24508959, 0.07466519, -0.09442490, -0.12560895, 0.16168740, 
    -0.08411635, 0.24710535, -0.20345870, -0.01872115, -0.25687760, 0.04580139, -0.11747597, -0.10268483, -0.16790316, -0.17458722, 
    0.16738985, -0.10745472, 0.09639668, -0.24195053, -0.07386623, -0.02644473, -0.22666952, -0.07610108, 0.12964642, 0.17009044, 
    -0.10464485, -0.02615095, -0.13027607, 0.28871825, 0.31593987, 0.16648027, 0.21186216, -0.08326700, -0.13886277, -0.35514340, 
    0.04876860, -0.07869059, -0.10109892, -0.03953843, 0.05180817, -0.22776139, -0.15432976, -0.10737378, -0.03642136, 0.13702978, 
    -0.10065327, -0.17328659, -0.07587620, 0.08808923, -0.04735266, 0.06937153, -0.03961552, 0.12243266, -0.07512174, 0.10098862, 
    -0.04381803, 0.00088598, 0.16645436, 0.07221688, -0.03952855, -0.04956922, -0.03083188, 0.03416349, -0.04459926, 0.10084350, 
    0.08040318, 0.01066969, -0.24101980, -0.35901591, -0.22563998, 0.05275941, -0.11005098, -0.07698106, -0.05285643, 0.45369270, 
    0.20211178, 0.15532537, -0.36082399, -0.10185040, -0.49236652, -0.36496636, 0.08128205, 0.20253585, -0.04432705, -0.12208297, 
    0.10030741, 0.12531608, -0.29191089, -0.18438172, 0.17562631, -0.21532869, -0.06649522, -0.08939752, 0.14204377, 0.28025350, 
    -0.11461277, 0.22418587, 0.09642617, -0.01852168, 0.21274485, 0.05483272, 0.01667745, -0.17812954, 0.27595586, -0.22944650, 
    -0.22333282, 0.17032963, -0.04990944, -0.00305578, -0.05293629, -0.00578983, -0.18203442, 0.13803126, 0.12744127, 0.00284332, 
    -0.24080034, -0.24017277, -0.06958356, 0.12085348, -0.23234527, 0.25903413, 0.11226054, -0.26936415, 0.03676315, 0.10512323, 
    0.28220415, 0.15000860, -0.01279711, 0.01145212, 0.00703906, -0.27681318, 0.19282302, 0.19837639, 0.14733639, -0.01008860, 
    0.33182529, 0.09145382, -0.18782280, 0.33835155, 0.32399502, 0.00528458, -0.26663581, -0.21559402, 0.05440880, -0.15526353, 
    -0.07918970, 0.29336590, -0.02382765, 0.12545031, -0.07098684, 0.29144207, -0.12641667, 0.08178671, 0.08387215, -0.17255655, 
    0.11312701, 0.14889279, -0.03161723, -0.12219717, 0.33047119, -0.16215797, 0.17364147, -0.02349021, -0.04872268, -0.23473752, 
    -0.22963493, -0.06708335, 0.12793857, 0.05476048, -0.28399453, -0.21501887, -0.16308804, -0.06024832, 0.12055720, 0.08484515, 
    -0.33158472, -0.12095085, 0.10888621, 0.12807521, 0.08816575, 0.40675324, -0.21294864, -0.05456322, -0.31581166, 0.28633180, 
    -0.06267601, 0.02892471, 0.05138292, -0.19261736, 0.26745573, -0.25029716, 0.17147163, -0.09188189, 0.14694454, 0.30823368, 
    0.06462459, -0.06975000, -0.12310785, -0.03479761, -0.12972668, -0.18265843, -0.54848605, -0.03066192, -0.00339332, 0.25670296, 
    -0.23003428, -0.01555926, -0.43925983, 0.07717412, -0.43507931, 0.16701224, 0.08513861, -0.00378401, -0.07510640, 0.24339403, 
    -0.38430023, -0.07975754, 0.10721996, 0.01539965, -0.03367576, 0.01945532, 0.21917339, -0.06028576, 0.34106895, 0.01069128, 
    -0.10566899, 0.05406370, 0.02142491, -0.12689078, -0.19669272, -0.11898758, 0.06085583, 0.03312969, 0.01475643, -0.29325542, 
    -0.09160950, -0.05371145, 0.04467803, -0.21656072, 0.28802577, -0.09224138, -0.08169443, -0.13734938, 0.26732057, -0.02717680, 
    -0.24555993, 0.00253106, -0.24544653, -0.06916786, -0.02099722, -0.04149802, 0.06756683, -0.33437482, -0.06200048, -0.03759806, 
    0.16428615, -0.19562364, 0.07261374, -0.02805506, 0.09965509, 0.08561457, -0.17121051, -0.11073790, -0.04333073, 0.20850970, 
    0.09390833, 0.13780329, -0.18179388, 0.13272794, -0.16774270, -0.33185619, -0.15227321, -0.00841458, 0.14613678, -0.14689988, 
    0.05671529, 0.01577867, -0.13217035, -0.01824203, -0.02862950, 0.07116609, 0.07890931, 0.06446826, 0.28418633, 0.01379776, 
    0.05497514, -0.01418992, 0.18062872, 0.22774802, 0.25898123, 0.29679057, 0.42663807, 0.01944380, -0.29800627, -0.04106776, 
    -0.23080733, -0.09349829, -0.12101991, 0.10752106, 0.07431372, -0.23959295, 0.05139108, -0.32948756, 0.05062344, -0.09641168, 
    -0.22859369, -0.32171339, -0.15430222, -0.22354966, 0.02916403, 0.02934651, -0.20025501, -0.01765780, -0.17151651, -0.08850019, 
    0.08858795, -0.36570957, -0.17051366, -0.31928119, -0.27874690, 0.29794243, -0.17399235, 0.17261092, -0.11229189, 0.01645767, 
    -0.00342430, -0.03697998, 0.01836405, -0.05668766, 0.09386951, 0.21152513, -0.18596922, -0.19088988, 0.18399903, -0.16043128, 
    -0.17247519, -0.08134225, -0.09428414, 0.32578686, 0.07182144, -0.33021650, 0.12081163, 0.15783401, 0.32866335, 0.44999343, 
    0.16762035, -0.32352087, -0.35780472, -0.31258824, -0.03507312, -0.21643813, 0.02596687, 0.03897038, 0.17091271, -0.26258838, 
    0.16045584, -0.15212739, 0.03401586, -0.42220214, 0.05386088, 0.04368066, -0.03085664, -0.08591273, 0.22749698, -0.22809201, 
    0.08202642, 0.11213251, -0.48105964, 0.38083687, 0.21236472, 0.14359793, 0.06488972, 0.04855610, -0.12541948, -0.00476231, 
    0.01453994, -0.02344545, -0.11252481, 0.18038623, -0.11014602, -0.20957389, -0.07223625, 0.04211961, 0.26081416, 0.06167682, 
    0.07673019, -0.08727551, -0.07519726, -0.02896198, -0.10718445, 0.09938249, 0.08635862, 0.18351102, 0.13039760, 0.16968378, 
    0.26494896, 0.07540170, 0.09184663, 0.33221760, -0.09397609, 0.10602588, 0.20944926, 0.09986421, -0.06230682, 0.29570901, 
    -0.18714431, 0.10140434, -0.22677405, -0.10093746, -0.04562323, -0.21483979, -0.07581548, 0.23423871, 0.09738260, 0.01037907, 
    -0.00550081, 0.16995174, 0.24218506, -0.10301115, -0.32896101, 0.12768325, 0.10471668, 0.29213259, 0.00355595, -0.01526569, 
    -0.01372487, -0.25953808, 0.09121827, -0.20190306, -0.33245757, -0.22533140, 0.17369731, 0.07923660, 0.30468115, 0.21966209, 
    0.01932625, -0.19412899, 0.07955685, 0.11287609, 0.12465412, 0.27805394, 0.28470099, 0.00176395, 0.22787595, 0.28477103, 
    0.30455881, -0.02191700, -0.02288675, 0.19782332, 0.04514942, 0.14017296, -0.02312708, -0.06208353, 0.11639441, 0.20991550, 
    0.06481604, -0.06603912, 0.22476809, 0.01277486, 0.06005239, 0.29583874, 0.04115548, -0.06673495, 0.10032868, -0.00748962, 
    -0.18094203, -0.11227354, 0.11036670, 0.26106355, 0.21838495, 0.02163355, 0.25502282, 0.07846113, 0.15122806, 0.18877438, 
    0.11473985, 0.14848655, -0.17714190, 0.04223937, 0.20435786, 0.11188196, -0.29840896, -0.06230235, -0.21820030, 0.11977283, 
    -0.16467540, 0.26614201, -0.19182980, -0.15551119, -0.04211001, 0.17014062, -0.10635872, 0.17548686, -0.24045756, 0.17424659, 
    0.06463898, -0.02914275, -0.25638852, -0.10509010, -0.00207751, -0.19306478, 0.10015551, -0.09064834, 0.25575373, 0.12118293, 
    -0.17952585, 0.12980026, -0.01201581, 0.02430580, -0.22311538, 0.00004373, -0.07626121, -0.21234435, 0.27087542, 0.08170736, 
    0.24046566, -0.08241328, 0.18663807, -0.28595221, 0.09853151, -0.24110901, 0.11540236, 0.13041900, -0.27364612, -0.20465408, 
    0.14358741, -0.00864319, 0.12858948, 0.22072990, 0.15974405, -0.14728609, 0.16107410, 0.01980610, 0.03169985, 0.17374156, 
    -0.16227630, -0.00209742, 0.06970251, -0.12857227, -0.11465722, 0.08278631, 0.00960812, 0.07190673, 0.14197093, -0.09729069, 
    0.04322011, 0.26671714, 0.05491413, 0.23476566, 0.22573373, -0.18966712, 0.19317645, 0.30350217, -0.11925431, 0.13848940, 
    -0.32717136, 0.39175156, 0.01188579, -0.11588430, 0.17962997, -0.16391794, -0.40354618, 0.04881841, 0.15705834, 0.08690072, 
    0.01337577, -0.16532101, 0.04487837, -0.09339550, 0.15723996, 0.29281759, 0.23771887, -0.18642941, 0.19892637, 0.13464437, 
    -0.11992679, 0.27025613, 0.00872628, -0.25631154, 0.32375801, -0.03584296, -0.12315922, 0.21239789, -0.13935551, -0.01393113, 
    0.18772177, 0.08382010, -0.86074245, 0.04661741, -0.02847848, -0.23452513, 0.06401774, -0.10263123, 0.20170727, -0.05576232, 
    -0.21925317, -0.15487300, -0.21630946, -0.22090617, 0.02303384, 0.05960380, -0.06338796, 0.26569223, 0.08000703, -0.12819444, 
    -0.10748311, 0.42252550, -0.03126440, -0.09698877, 0.02477766, -0.23341501, 0.08028462, -0.24735153, 0.19770306, 0.27236146, 
    0.25013691, -0.17331922, -0.15893856, -0.17169020, -0.07330215, -0.14472900, -0.01224386, 0.19001016, -0.15575604, -0.09165379, 
    -0.16624740, -0.16093315, 0.10295325, 0.01766914, 0.11780255, -0.09527617, -0.27565154, -0.12036922, -0.15660681, -0.21204646, 
    0.03035567, -0.12771708, 0.11392874, -0.02809297, 0.06603467, 0.11693684, 0.09762246, 0.00301104, -0.41751224, 0.19664794, 
    -0.04958759, 0.08419117, 0.07948876, -0.26579487, 0.34086826, 0.04298719, -0.52946967, -0.03892454, -0.07637622, -0.50004649, 
    -0.20194356, 0.25238338, 0.03235326, -0.19174929, 0.01105428, -0.18287449, -0.17163140, -0.03841918, 0.17205133, 0.19761375, 
    -0.15736194, -0.25039434, 0.23613234, 0.19416896, -0.28934509, -0.15531170, 0.06700619, 0.22747195, 0.25908571, 0.12584026, 
    0.01526916, 0.12298128, -0.08094381, -0.05353957, 0.18286958, -0.03961752, -0.16374353, 0.14159524, 0.09788714, 0.10134345, 
    -0.42713115, -0.06047484, -0.09538165, -0.02089400, 0.03508980, 0.28289613, 0.02653672, 0.15406719, 0.07251255, -0.19357505, 
    -0.06058468, 0.13253222, -0.07150108, 0.01256143, 0.14155495, -0.05201048, 0.01193525, 0.08049278, 0.02451170, 0.04926574, 
    -0.23102817, -0.13757311, -0.10514104, 0.06368057, 0.08713236, -0.21924207, -0.10075663, 0.14021485, 0.16308354, -0.23943751, 
    0.04849348, 0.15822375, 0.01213820, 0.28273699, -0.09863723, -0.29166979, 0.16077603, 0.24835616, 0.13831528, -0.06303996, 
    -0.28853878, -0.13594449, -0.05204864, 0.04208715, 0.19617915, -0.13675381, -0.17376445, 0.01445554, 0.14106338, -0.07564918, 
    -0.11443202, 0.01552479, 0.11416583, 0.06649389, 0.00734888, -0.05190817, 0.01424119, 0.16457891, -0.22731927, 0.00794161, 
    -0.18760476, 0.13182861, -0.05669791, 0.04941431, 0.02986347, 0.22412151, -0.05627818, -0.04041133, 0.14195336, -0.12833932, 
    0.19434874, 0.36001647, 0.16980374, -0.08549513, -0.00623937, 0.21689060, -0.02189101, 0.05287670, 0.02023508, -0.20322177, 
    -0.10779116, 0.06971432, -0.25552782, 0.20361231, -0.37332699, 0.12546499, -0.19062231, 0.31148210, 0.19722068, -0.07201954, 
    0.01475995, 0.19187772, -0.24200055, -0.37518695, -0.34898761, 0.05160774, -0.14486265, 0.00714810, 0.20020276, 0.13067406, 
    -0.17415304, 0.20043935, 0.13019992, 0.07863762, -0.13151880, -0.13226444, 0.17734776, 0.28808114, -0.16628836, 0.33578652, 
    -0.11114528, -0.13055865, -0.05711392, -0.09737966, -0.13012728, 0.00604342, -0.10583102, -0.02003664, 0.06472711, -0.14880639, 
    0.14775492, -0.09842598, 0.13354328, -0.18362811, -0.07716685, -0.22937962, 0.20330958, 0.03141703, 0.17846480, -0.03812110, 
    -0.23277842, 0.01173418, -0.04139353, -0.33574638, 0.06075620, -0.03825288, 0.04233709, 0.15720001, -0.08479903, 0.23058520, 
    0.31800303, 0.05749334, 0.22314674, -0.17846535, -0.31125939, -0.20446052, -0.38577074, -0.21276453, -0.03067948, 0.09098700, 
    0.20411216, -0.03812744, -0.31917140, 0.02202667, -0.14166738, -0.00837067, -0.00975727, -0.03145624, 0.27887645, 0.39649799, 
    0.40050048, 0.12821703, 0.10407040, -0.22860613, -0.11576090, -0.14084466, 0.16373143, 0.24034929, 0.01450945, -0.05559894, 
    -0.38226295, -0.31520015, 0.22309317, -0.35942236, -0.11886106, 0.46498275, -0.10193652, 0.15336400, 0.02520946, 0.10582420, 
    0.08770484, 0.13056068, 0.05337414, 0.17140877, 0.19871269, -0.10859449, 0.10101547, -0.09995777, -0.11043385, -0.00246917, 
    -0.33994249, -0.31037652, -0.17999086, 0.08368748, -0.04696960, 0.23449127, -0.38535449, -0.60169339, 0.03580827, -0.21858568, 
    -0.03032158, 0.22631033, 0.17110881, -0.06952788, 0.02375989, 0.28898150, 0.47694433, 0.13890135, 0.04434222, -0.09189017, 
    0.31387430, 0.28277272, 0.23734027, 0.45336828, -0.02981476, 0.10606761, 0.20648633, 0.23751651, -0.21094289, -0.03764527, 
    0.32624272, -0.02892684, 0.33531484, -0.16401964, -0.06727610, 0.30019525, 0.13379337, -0.14737667, -0.15492745, -0.21113601, 
    0.08706123, -0.18530430, 0.10568383, 0.42273650, -0.03161929, -0.33263898, 0.13691352, -0.20422788, -0.07919343, 0.28537977, 
    0.14136374, -0.02364563, 0.28302482, 0.26351237, 0.15080644, -0.02102414, 0.06915671, 0.23047273, 0.18540820, -0.06172899, 
    0.09892976, 0.06081171, 0.26653963, 0.06639265, 0.28104833, 0.13367724, 0.30766928, 0.06769376, 0.13886708, -0.04814795, 
    0.06592449, -0.26552075, -0.08882889, -0.03109599, -0.13411859, 0.12388115, -0.18027593, 0.18543097, -0.23042682, -0.22084901, 
    0.09138374, 0.30471274, 0.08536576, 0.11617998, 0.12455279, 0.05035462, 0.04054566, -0.10977909, -0.22658189, -0.09407775, 
    0.18608086, 0.05399109, 0.35999012, -0.03613833, 0.06537443, -0.02549745, -0.22113562, -0.06871334, 0.17494889, -0.05861789, 
    0.24309811, 0.00889981, 0.04893395, 0.39377269, 0.17866211, 0.13265511, -0.10745711, -0.09148586, -0.18550460, -0.29241735, 
    -0.02187524, -0.00084076, 0.17304906, -0.10263561, 0.16848987, 0.13498950, 0.05399468, -0.20660701, 0.06556574, 0.12943798, 
    -0.02456661, -0.08904942, -0.21633387, -0.00346781, 0.15003246, 0.32199487, -0.10697936, 0.21582714, 0.19293126, 0.32457724, 
    -0.19123933, 0.13283357, -0.31541446, 0.09813079, -0.05401924, -0.30804929, 0.06101374, 0.13800696, -0.36012408, 0.32446599, 
    -0.01013374, -0.05488363, 0.07370830, 0.31465828, 0.09131455, 0.03293226, 0.00023223, -0.20076989, -0.02047960, -0.28983375, 
    -0.02864359, -0.28600472, -0.22876382, -0.06871559, 0.23616001, -0.13893345, -0.19865020, 0.18606029, 0.15798427, 0.29075330, 
    0.27360222, -0.02374634, 0.12925912, 0.01483982, 0.17092165, 0.00848571, -0.00943045, -0.17569956, 0.33675441, 0.16698401, 
    -0.07192498, 0.14591737, 0.19146794, 0.05345511, 0.21636516, -0.22813617, -0.13065395, 0.25437146, 0.05975001, 0.02033247, 
    0.00517883, -0.08288944, -0.20922868, 0.03329952, -0.12260809, -0.35940558, -0.12399346, 0.24310881, 0.21124263, -0.09307808, 
    -0.04718719, 0.09365538, -0.07123177, -0.05500713, 0.16026272, -0.27123576, -0.10988311, -0.06133700, -0.35176009, -0.02257045, 
    0.12914655, -0.16160356, -0.51070553, -0.23206168, -0.05811938, 0.23199989, -0.36364225, 0.07936497, -0.17464495, -0.29335815, 
    0.05066159, 0.16075477, -0.17296141, 0.13794127, 0.06914834, 0.17850523, 0.42396307, 0.05219571, 0.01155346, 0.14119829, 
    0.00249216, 0.14267516, -0.11948363, 0.34198368, 0.12937960, 0.16977631, 0.00026881, 0.15715280, 0.25543568, -0.00175647, 
    -0.11174294, -0.11987748, -0.30392388, -0.35789680, -0.06250589, 0.30147436, -0.11271743, 0.07698778, 0.40157470, -0.01729049, 
    0.03423901, 0.25020373, -0.01571260, -0.02070351, -0.06179998, 0.36716673, 0.02570829, -0.20638022, 0.01040273, -0.13318901, 
    -0.21069032, -0.25110909, 0.14312088, 0.10988320, -0.51278132, -0.27293724, 0.40572870, -0.15089872, 0.16046596, 0.14204209, 
    0.10515378, 0.19176123, -0.24754499, 0.19074734, 0.27318749, -0.18961790, 0.14386927, -0.00635592, -0.01856305, 0.06821826, 
    0.30536360, 0.02264593, -0.49584919, -0.06819322, 0.09967952, 0.05968124, -0.11429127, 0.28548390, 0.14470737, 0.10038570, 
    -0.36729053, 0.02748252, 0.09306188, -0.03635750, 0.05333801, 0.26146823, 0.08070347, -0.04622979, 0.22986153, 0.00234135, 
    0.08144261, 0.21851411, 0.09201822, 0.27118006, -0.03115868, -0.10689726, -0.11720184, -0.28592333, -0.03552596, -0.20250084, 
    0.25343111, -0.03623636, -0.03536469, -0.34638247, -0.14516973, -0.21048778, 0.01568481, -0.15906793, -0.07502773, -0.26336086, 
    -0.23456267, -0.03531310, -0.05464577, -0.24480751, -0.20745124, -0.53128606, -0.19642510, -0.00687208, -0.17908613, -0.33037078, 
    -0.11091810, -0.19338332, 0.05593786, 0.08018031, -0.27944180, -0.35679033, -0.13101035, 0.02495432, -0.13832515, -0.09017038, 
    -0.06924205, -0.30473247, -0.04819870, 0.05593077, 0.09207805, 0.31592780, -0.44539323, -0.50367558, 0.40940300, -0.47668001, 
    -0.04900597, 0.32508612, 0.07780845, -0.14341269, 0.04925396, 0.03196041, 0.06177067, 0.02858321, -0.01116085, 0.18985620, 
    0.24447545, -0.01804364, 0.18049811, 0.19705780, -0.01587401, 0.35854039, -0.14098674, 0.07535966, -0.00436748, 0.14881742, 
    -0.32852408, 0.06405596, -0.18376206, -0.00519076, 0.04811645, 0.25007346, -0.11344864, 0.11398062, 0.17371283, -0.07381213, 
    0.04035679, -0.22335844, -0.33038846, -0.25054696, -0.07553798, 0.00546298, -0.00710869, 0.28545526, -0.19901934, 0.10003579, 
    0.02902308, 0.13690151, -0.14033432, -0.18423897, 0.03707693, 0.09265637, -0.04308672, 0.19934621, -0.19899160, 0.02112119, 
    0.00617540, -0.14258726, -0.27488521, 0.06503353, 0.03714325, 0.08317991, 0.08075722, 0.33799699, -0.04348804, 0.05935804, 
    -0.15031458, -0.13101992, 0.05095186, -0.22093248, -0.07305852, -0.17146985, 0.11309576, -0.26885161, 0.30955100, 0.19097991, 
    0.07017911, 0.00242186, 0.21812451, -0.25110099, 0.15810043, 0.17215022, 0.07738753, -0.19980851, 0.04147067, 0.03007497, 
    0.07786460, 0.21197163, 0.23133615, 0.28834018, 0.24999465, -0.01124782, 0.08506382, -0.03393689, -0.06699717, -0.12286206, 
    0.47261101, 0.10565160, 0.16773172, 0.22229336, 0.35348868, 0.08105415, 0.16229746, 0.02413015, 0.18423617, 0.15374877, 
    0.26697886, 0.07330960, 0.00903850, 0.30161729, 0.12199925, -0.12368207, -0.26308390, -0.16384283, 0.08542245, 0.05321676, 
    0.43394428, 0.01858281, 0.13265401, 0.22239876, 0.12455685, -0.13458836, -0.27370664, 0.13306159, 0.02704108, -0.08181195, 
    0.20758151, 0.53457797, 0.13882303, 0.07479205, 0.30927345, -0.23660477, -0.11974865, 0.00186048, 0.22216851, -0.13749209, 
    -0.02699396, -0.04010647, 0.15706371, -0.02647131, 0.21210854, 0.29770035, 0.43458655, 0.66660225, 0.72185391, 0.45329779, 
    0.03768527, 0.23956497, 0.45847192, 0.65193254, 0.45233244, 0.51948857, -0.16535120, 0.21079685, 0.20690159, 0.29585266, 
    -0.09190047, 0.27973977, -0.20838331, 0.34633258, 0.22784849, 0.25015658, 0.48787612, 0.18784875, 0.05018487, 0.47901869, 
    -0.25992513, -0.09360516, -0.08929636, 0.01290276, -0.26459754, -0.18315586, -0.16842997, -0.18925449, -0.32451928, 0.08643074, 
    0.01245286, 0.01444269, -0.17527664, -0.03969076, -0.17467397, -0.08012158, -0.28083447, -0.18490438, -0.13907331, 0.21944742, 
    0.30042309, -0.12157476, 0.11594247, -0.39500538, 0.08013071, -0.36227334, 0.24268655, 0.11883412, -0.06755041, 0.19201003, 
    0.37008056, 0.35112965, 0.27540839, 0.35870889, 0.26954094, 0.10054868, 0.18256350, 0.08295958, 0.06409808, 0.16773194, 
    -0.10310333, 0.18236566, 0.07396816, 0.11489873, 0.27762905, -0.15637773, 0.15064770, 0.32235882, -0.07241994, 0.08614226, 
    0.09338355, -0.36976993, -0.32422951, -0.30900565, -0.33230728, 0.03932190, -0.17320706, 0.25425875, 0.19212961, -0.37593770, 
    0.04862776, 0.01153608, -0.04022862, 0.24228755, -0.38625056, 0.25286061, -0.11759457, 0.24684583, -0.07704414, -0.23413101, 
    0.14496042, -0.02718205, -0.25047758, -0.14829065, -0.28328046, 0.19335777, 0.28314257, -0.14622910, 0.18654935, 0.53006351, 
    0.01119572, -0.22145562, 0.36673537, -0.21286194, -0.07651306, 0.06714476, -0.26568612, 0.24840078, -0.07142927, -0.39219767, 
    0.18313095, -0.01860638, 0.25910613, -0.00166146, -0.21248007, -0.17412050, -0.10633212, -0.21637808, -0.13940899, 0.22549672, 
    0.05187802, -0.06847091, 0.09512770, 0.17018826, 0.26840064, 0.10980979, 0.04802839, 0.11687863, -0.08736895, 0.31663448, 
    0.02749900, -0.06639248, -0.11718586, 0.14316773, 0.01754353, -0.11304927, -0.06167864, -0.06817695, -0.23574108, -0.15197641, 
    -0.00106753, 0.36032310, 0.01748274, -0.08499826, 0.00543522, -0.04792441, 0.05189556, 0.04346547, 0.15255055, -0.28440988, 
    -0.21778421, -0.30428007, -0.00081155, 0.20011368, 0.17644742, -0.04416845, 0.02967308, -0.12734462, 0.54251915, 0.02118485, 
    -0.12556875, 0.04818176, 0.27404514, 0.03591230, 0.20879224, -0.01809351, 0.08321800, -0.23486593, 0.15703994, 0.29413423, 
    -0.19649753, -0.10717106, 0.05094644, 0.00240348, 0.12735052, 0.07695267, 0.22347672, -0.06956622, 0.01057675, 0.08916040, 
    -0.06215846, 0.29662210, -0.00202635, 0.15403457, 0.01396632, -0.11140861, 0.04508361, -0.11126506, 0.10702156, -0.09607272, 
    -0.10424830, 0.17931420, 0.08385564, -0.02612826, -0.11001398, 0.04282253, 0.19204943, 0.32699364, -0.03510138, 0.02950142, 
    0.21438657, -0.12246186, -0.03308138, 0.02364271, 0.18693420, -0.02060327, -0.37417829, 0.26395443, 0.06476527, 0.01511993, 
    -0.16824833, 0.14890417, -0.27178475, -0.04603967, 0.29601899, -0.16908282, -0.30803081, -0.13457006, 0.11259916, 0.26128349, 
    0.01762535, -0.44063205, -0.29356161, -0.51690573, -0.17601033, 0.12347305, 0.03244842, -0.03638689, 0.05488995, 0.39901873, 
    0.36024880, 0.18544130, 0.00352938, 0.00097278, -0.27278289, -0.01009835, 0.38075629, 0.22534150, 0.07048091, -0.00759730, 
    0.18183854, -0.05985885, 0.09697355, 0.02273289, -0.09735776, -0.14472342, 0.11870643, -0.02846616, 0.16224021, 0.26172677, 
    -0.46305364, 0.13992397, 0.04420151, 0.10997556, 0.17362125, 0.19117725, 0.29814875, 0.02374998, 0.10079521, -0.08593457, 
    -0.25049812, -0.07637346, -0.17384493, 0.10531189, -0.07246287, -0.05348371, -0.32778946, -0.34127256, -0.23798519, -0.21431373, 
    0.10910155, -0.06019555, -0.09210861, -0.20266674, 0.02275812, 0.21521251, -0.00991911, -0.16136479, -0.16312903, 0.10314376, 
    0.11447148, -0.08624026, -0.11856554, -0.07065311, 0.20456100, 0.29689032, 0.07209042, -0.06268133, -0.19153726, -0.10425944, 
    0.17278759, -0.02419542, -0.02222257, 0.15416628, -0.30609441, 0.17481300, -0.39610457, -0.22177319, 0.18966201, -0.07721344, 
    -0.16947743, -0.10839079, 0.17307420, 0.17489217, -0.00987952, 0.12464336, 0.19959256, 0.15509035, 0.21448091, 0.19664630, 
    -0.07085811, 0.21339734, -0.17137443, 0.08315084, -0.22216314, -0.16839755, 0.12344523, 0.10255674, -0.12746030, 0.16562548, 
    -0.23217537, -0.02853905, -0.12085487, 0.15845007, -0.08093913, -0.13252592, -0.06084107, -0.13090199, -0.02619655, -0.11343904, 
    0.06585589, 0.16897406, 0.15536639, -0.02362403, 0.00853370, -0.01881405, -0.14855179, -0.20324630, -0.09824277, -0.43379834, 
    -0.12838164, 0.11597130, 0.11900866, 0.14058387, 0.08725060, 0.31826317, 0.21497750, -0.15588185, 0.25661415, 0.04985242, 
    0.02068004, 0.32877222, 0.36979344, 0.26759166, 0.24401541, -0.01877371, -0.27756146, 0.02230319, 0.08974887, 0.16326445, 
    0.18960106, 0.02415041, -0.06814526, -0.00249138, -0.25679070, -0.14289123, 0.32495797, -0.06766462, 0.17082453, -0.04636995, 
    -0.11671738, 0.09212656, -0.11649261, -0.00125982, -0.09203537, -0.03176143, -0.08011467, -0.35368592, 0.27734256, -0.15130262, 
    0.03305569, -0.14570697, -0.18634069, -0.05798550, 0.21927987, 0.14636317, 0.22096968, 0.37905070, -0.01689523, 0.10843300, 
    0.10351719, 0.27485210, 0.16513713, -0.11390781, 0.03012691, 0.16570595, -0.01440242, 0.04822325, -0.09744025, -0.15643360, 
    0.23784551, 0.06264768, 0.07485142, 0.12481699, 0.20769185, 0.14512122, 0.04054035, -0.24074157, 0.15459190, 0.09520479, 
    -0.04002300, -0.22504452, -0.01002300, -0.11409002, 0.13610737, -0.21146794, -0.15832053, 0.19660304, -0.01703696, -0.18483248, 
    -0.25910357, -0.16515982, 0.00312368, 0.15213160, -0.12226678, 0.16333045, 0.12424877, 0.11340745, -0.10317253, -0.19920678, 
    -0.38530439, -0.22148508, 0.22283332, 0.17624663, -0.29211265, 0.01565277, 0.10050721, -0.04783165, 0.46883222, -0.09359570, 
    -0.13548647, -0.30987960, 0.07797503, 0.20618042, -0.03505824, -0.04979755, -0.41436476, 0.00636816, -0.27571604, 0.25663593, 
    0.13724780, -0.04202574, 0.04879754, -0.06349620, -0.14679092, 0.28140491, -0.27372324, 0.23626919, -0.20484376, -0.09714004, 
    -0.12990832, 0.04848128, 0.12694678, 0.15393169, -0.05941956, 0.00056971, 0.18187578, 0.14344458, 0.03749615, 0.11740764, 
    -0.41713536, 0.21524115, 0.02741224, 0.21361351, -0.19381262, 0.19042543, -0.09674673, -0.04451426, -0.31140727, 0.02609915, 
    -0.15362179, -0.18918933, -0.15111372, -0.07679644, -0.06934292, 0.23415144, 0.10433861, -0.08193672, -0.07519664, 0.09527371, 
    0.27682549, 0.17731710, 0.08247805, 0.04172496, 0.08046488, -0.06059515, 0.01312383, -0.07537407, -0.00714755, 0.18072554, 
    0.00512613, 0.02068100, -0.03120102, -0.04545326, -0.08329667, 0.04270747, 0.10940983, 0.12158354, 0.30581263, -0.23037127, 
    -0.02113124, 0.16676228, 0.04558849, 0.27174255, 0.38243380, -0.02859347, -0.01987693, 0.23973617, 0.19813140, -0.11125863, 
    0.02823936, 0.19129008, -0.29217115, -0.04519025, 0.07778276, 0.08041839, 0.03561090, -0.24733439, 0.22388457, -0.06944024, 
    0.22824259, -0.00290016, 0.21599020, 0.09361265, 0.02126021, 0.18647043, -0.18048814, -0.28018844, 0.00818243, 0.27013177, 
    -0.15467688, 0.16183400, 0.13031361, 0.12311324, -0.01979983, 0.03772715, -0.18171127, -0.23674251, 0.07611109, -0.08907301, 
    -0.05886472, 0.16925548, -0.15251867, -0.06044414, -0.14149083, 0.09955974, 0.01424884, 0.24218397, 0.09797232, -0.16103779, 
    0.04158174, 0.12023889, 0.06859566, 0.02445316, -0.24575661, 0.17835830, -0.08778116, -0.18661997, 0.30064699, 0.15054603, 
    -0.04480447, -0.16659652, -0.12008815, 0.20338820, 0.11687387, 0.08100332, 0.06021658, -0.10405178, -0.03972971, 0.30900466, 
    -0.05069916, -0.30859861, 0.13856231, -0.17887089, -0.10085154, 0.14454967, 0.21605726, 0.01469005, 0.05384002, -0.01265610, 
    0.06975013, -0.27670911, -0.19528404, -0.43331134, -0.17703007, -0.18871933, 0.10511471, -0.05327479, 0.05382350, 0.00540741, 
    -0.06992427, 0.22407328, 0.10501052, -0.05423892, -0.09802572, 0.06659637, -0.12096129, 0.25729546, 0.21100004, 0.19494811, 
    0.14822544, -0.04053490, 0.55412823, 0.19525063, -0.29046389, 0.07679141, 0.03279484, -0.17760648, -0.21755829, -0.11878233, 
    0.21278022, 0.21865256, 0.21708649, 0.35597885, 0.25645536, 0.08839797, -0.14167531, -0.01560854, -0.13083358, 0.10616454, 
    -0.00925571, -0.18532439, 0.03150553, -0.08576803, 0.09757783, 0.23186325, -0.06514463, 0.01599481, 0.15249014, 0.12345625, 
    -0.08735308, 0.00681195, 0.20082110, 0.09332866, -0.12771879, -0.22917245, 0.12761064, 0.41018209, -0.30377546, 0.18338545, 
    -0.02522900, 0.23861308, -0.11677020, -0.13410549, 0.36192825, -0.06502771, -0.17354423, -0.15871376, 0.13285233, -0.13181725, 
    0.37271801, -0.09814801, -0.03616265, -0.13174684, -0.21355194, 0.25877327, 0.08092649, -0.00453360, 0.24438490, -0.35290644, 
    -0.28924435, -0.19870381, 0.20035289, 0.21887147, 0.14184275, 0.09655425, -0.27153826, 0.08766785, 0.08454525, -0.14960796, 
    0.14294772, 0.28069669, -0.07338012, -0.28557751, 0.18334448, -0.17786439, -0.08635910, 0.05200044, -0.01227137, -0.29073218, 
    -0.01275220, -0.03641025, 0.10739045, 0.38141254, -0.01795355, 0.10733780, 0.31498921, 0.11959698, 0.28661430, 0.03739879, 
    0.16656749, -0.00817006, 0.24269378, 0.15757594, -0.16120538, 0.01369685, -0.04591818, -0.19836928, -0.08039349, 0.01016093, 
    -0.18519136, 0.19949420, 0.00637215, 0.16435534, 0.21463442, 0.25829688, 0.13700955, -0.08900176, 0.03008071, -0.23316792, 
    0.02187934, 0.32498243, -0.06148708, 0.27499154, 0.02771997, 0.33174571, 0.02988791, 0.18210223, 0.13126954, -0.04406074, 
    -0.00070831, 0.00316742, -0.05925095, -0.21103384, -0.17347096, -0.02805199, 0.15177356, 0.30881232, 0.11461262, -0.00643177, 
    -0.01523118, 0.27255100, -0.34594691, 0.12204120, -0.10178040, 0.20501430, 0.14044520, -0.14957722, -0.20569670, 0.24579705, 
    -0.35463992, -0.07779220, 0.37302324, 0.04062456, -0.13427064, 0.41013795, 0.00834941, -0.08936705, 0.17533942, -0.10539467, 
    0.18772016, 0.20127364, 0.13728249, -0.21936813, 0.27626532, -0.16201906, 0.09783408, 0.11550621, 0.05643660, -0.09994990, 
    0.09022193, -0.11611315, 0.14228781, -0.12432000, -0.24737148, 0.02305831, -0.41305423, 0.08927093, -0.14417568, -0.28571859, 
    0.41520390, -0.18315141, 0.20149694, -0.08180632, 0.26118729, 0.30207554, 0.10198986, -0.18042459, -0.01110761, -0.39224079, 
    -0.06607404, 0.09515904, 0.18248317, 0.24935487, -0.08362348, -0.26725423, 0.30599868, -0.01817761, 0.19467171, 0.24147315, 
    0.23457767, -0.02741532, -0.24858709, 0.16485716, 0.25111392, -0.11556935, -0.11055461, 0.16715655, -0.35388547, 0.09158809, 
    -0.29746890, 0.10565263, -0.10455794, 0.09632101, -0.07110814, -0.06495190, 0.12412577, 0.32601419, 0.10408756, -0.21338804, 
    0.28953049, -0.06036979, -0.10757886, 0.11905625, -0.08525895, 0.24216212, 0.01879933, -0.11742204, 0.13593683, -0.13952677, 
    -0.21762812, -0.14173457, 0.15521502, -0.00029990, -0.20086332, 0.04489513, 0.28866813, 0.09285618, 0.18304358, -0.28103325, 
    -0.37157986, 0.15198480, 0.34737039, 0.11360681, 0.24967945, -0.22443891, 0.23704426, -0.16418210, -0.18682940, -0.09850552, 
    0.19445491, 0.08429560, 0.36293876, 0.01720687, -0.18846998, -0.23842366, -0.09257853, 0.11955245, -0.02757127, -0.15955046, 
    0.35211858, 0.28601333, -0.06394364, 0.19222733, -0.26667428, 0.22286141, 0.12929685, -0.12656499, -0.07452463, -0.06942981, 
    -0.04112795, -0.10076109, 0.31266886, -0.15662275, -0.07777803, 0.46869209, -0.16935749, 0.17450152, 0.12957264, 0.09980820, 
    -0.20086052, 0.14763340, 0.09219527, 0.22228444, -0.27371076, 0.13195257, 0.24125548, 0.03974653, -0.03720444, -0.46107996, 
    0.00358143, -0.12207395, 0.25631425, 0.01584978, -0.11923693, -0.24471499, -0.11544304, -0.12929490, -0.24604161, 0.03694100, 
    0.25606209, -0.09337014, 0.05010595, 0.25538397, 0.14030585, 0.18628217, -0.12150422, 0.10726215, 0.15119629, -0.26954859, 
    0.01148515, -0.20226821, -0.29158187, -0.19015713, 0.04311382, 0.03418897, 0.21677211, -0.32065335, -0.50489706, 0.00154322, 
    0.06585883, 0.15014526, 0.00574072, 0.10023030, 0.03208001, 0.10386748, -0.21007821, -0.14228837, -0.18089348, -0.03814450, 
    0.30380219, -0.19303021, 0.05708769, 0.20537059, 0.00970676, 0.09763900, 0.20995545, 0.09558146, -0.01361751, 0.13205081, 
    0.22138599, 0.27271968, 0.30168736, 0.10776717, 0.31525803, 0.11757161, -0.21622688, -0.13230130, 0.30943426, -0.17244886, 
    -0.01605340, -0.10991015, -0.25082627, 0.18052018, 0.17357902, -0.01872250, 0.13078068, 0.06306972, 0.40279770, -0.07802690, 
    0.15569836, 0.23157164, -0.00775610, 0.26165789, 0.15601636, 0.17115892, -0.04476285, -0.01717214, 0.33294141, 0.05963901, 
    -0.00124725, 0.02261425, 0.18229133, -0.12836860, -0.23444748, -0.10872701, 0.20693226, 0.02118519, -0.15397204, 0.25833791, 
    0.02758224, 0.07472676, -0.30562818, -0.03159720, 0.13061807, -0.17365672, -0.26340282, 0.23513985, -0.16796854, 0.10313795, 
    -0.22710928, -0.10736801, -0.11121976, -0.11068177, -0.02563063, 0.14182445, 0.21703707, -0.02380572, -0.10367203, 0.13276275, 
    -0.06482247, 0.36087766, 0.20577332, 0.18943271, -0.06750870, -0.16182911, -0.15733060, -0.02083308, -0.12588848, -0.24776597, 
    -0.26705402, 0.16360351, 0.17706344, 0.14888997, 0.12785520, -0.05615268, -0.11764273, -0.24142681, -0.00580704, -0.36062971, 
    -0.16053082, 0.06620125, -0.13222116, -0.11479320, 0.04414363, 0.16522002, -0.23318872, -0.32148552, 0.27108157, 0.11781596, 
    0.22220050, -0.19197102, 0.07627115, 0.30960512, 0.26103252, 0.15886527, -0.05132809, 0.06862421, 0.17479374, -0.04843581, 
    0.19191630, 0.14255138, -0.18087074, 0.21389283, -0.47017840, -0.17103954, -0.07257606, 0.05039310, -0.04588507, -0.02588869, 
    0.41210842, -0.22283541, 0.42146334, 0.07658496, 0.08016684, -0.17589818, 0.16509710, -0.09295921, 0.13303360, 0.12848653, 
    0.19235411, -0.16094995, 0.05767924, 0.09672496, -0.05843088, 0.01233791, 0.08217824, 0.01409807, -0.07570107, 0.01512957, 
    0.04724468, -0.04003325, 0.12528755, -0.29064631, -0.13899128, -0.22856328, -0.27243054, -0.09475051, -0.26940212, -0.21615744, 
    0.14820582, -0.27717632, -0.01048672, 0.06304507, -0.17979959, -0.14620155, -0.22451171, 0.12525462, -0.13579731, 0.13554701, 
    -0.21998474, -0.17447844, -0.06117049, 0.06589660, 0.19158992, 0.10729212, -0.23161121, -0.09190928, -0.24909830, 0.17878331, 
    -0.07629503, 0.12748370, -0.07218713, -0.21702388, 0.10366425, 0.09301852, -0.10169189, 0.18285364, -0.19675489, -0.02008765, 
    -0.26336393, -0.25216720, 0.02756520, 0.05320391, 0.13951245, 0.13993789, -0.33255541, 0.18652143, 0.04445491, -0.09390622, 
    0.14060730, 0.19064131, 0.03679281, -0.18370971, -0.02057524, -0.01610015, -0.25817758, 0.05967317, 0.20612307, -0.21889597, 
    0.03233486, -0.09982800, -0.30139208, -0.24625771, 0.06465891, 0.12864673, 0.16503504, -0.25925496, 0.10819332, -0.24585897, 
    -0.00860486, 0.14668638, -0.19743806, -0.19644165, -0.00134970, -0.27171341, -0.27556431, -0.01471932, 0.20042814, 0.09491120, 
    -0.39599630, 0.11481767, 0.20098794, 0.07709910, 0.00462760, -0.09570005, -0.15979113, -0.15551755, 0.32194090, -0.10472339, 
    -0.08413446, 0.05633984, 0.15419023, 0.03066855, 0.13195544, 0.00258879, 0.24059066, 0.13383062, -0.05229465, -0.20857500, 
    0.27491349, -0.13576844, -0.28966650, -0.25726157, -0.21863081, 0.06873347, -0.26017341, -0.03839808, -0.22996639, -0.23258723, 
    0.08551630, 0.11535338, 0.17093387, 0.32245097, 0.06115906, -0.25758952, -0.25027227, -0.33387151, -0.32014203, -0.02627214, 
    -0.20014711, -0.04455202, 0.13417137, 0.30769068, -0.13780791, 0.05987665, -0.05555208, -0.03120539, 0.02218000, 0.17778689, 
    0.16450721, -0.10364620, 0.15711005, 0.07455026, 0.22721247, -0.10490824, -0.00680061, 0.18188800, -0.12183800, -0.01466760, 
    0.03138774, -0.11750842, 0.00186248, -0.10681341, 0.01539627, -0.05560720, 0.15904823, 0.20202248, 0.03604592, 0.23908213, 
    -0.01134086, 0.11800840, -0.12407265, -0.20004286, 0.07897881, 0.14068790, 0.22289383, -0.19527002, 0.07529646, -0.26242995, 
    -0.27571547, -0.07729352, -0.02644413, -0.18923567, 0.20501569, 0.18753619, -0.16000417, 0.16363184, -0.17205144, -0.37869209, 
    -0.05720708, 0.08918536, 0.11159575, 0.05461824, -0.27403629, -0.17764929, -0.09794930, -0.34506822, 0.17946915, 0.09556035, 
    -0.54441100, -0.10279118, -0.24927498, 0.01223368, 0.06589871, -0.21167918, 0.31499141, 0.05906722, -0.20946044, 0.00535628, 
    0.20123613, -0.16274519, 0.06913728, 0.12073354, 0.19694453, 0.19439870, 0.01672384, 0.11201139, -0.03280620, -0.05005380, 
    0.28685358, 0.03028775, -0.15455167, -0.05762896, -0.02027171, -0.29937452, -0.03598110, 0.03614981, 0.40823886, -0.21622668, 
    -0.22319075, 0.34678850, 0.18859281, -0.03733698, 0.22001438, -0.04740660, 0.06154103, -0.26734391, 0.20531340, -0.05666832, 
    0.05535236, 0.22693220, -0.02710344, 0.06450610, 0.00276898, -0.39412698, 0.24215806, 0.27708784, 0.00740710, 0.30140886, 
    0.26758546, -0.47515374, -0.26965353, 0.07917560, -0.34052271, -0.32007289, -0.21080916, 0.05425141, -0.49147812, 0.25016066, 
    0.14294574, 0.04151219, 0.12061533, 0.23655978, -0.03820562, -0.15171568, -0.12436422, -0.26504925, -0.10789680, 0.17651792, 
    -0.04955234, -0.16646831, -0.15671939, 0.13119303, 0.34472898, -0.09180734, -0.07211903, -0.16869983, 0.01041434, -0.36182678, 
    -0.02396242, 0.27815273, -0.34028432, -0.10711881, -0.05533050, 0.06411407, 0.18543467, -0.02157919, 0.32972836, 0.10080225, 
    -0.44319510, 0.09312799, 0.06035709, 0.41721803, -0.06658413, 0.09861373, 0.19837117, 0.08655046, 0.18536125, 0.03083033, 
    0.01413988, 0.19179063, 0.11102760, 0.14036140, 0.05476492, 0.24308386, -0.18310186, -0.24170139, 0.24018566, 0.16360158, 
    -0.47535267, 0.24348797, -0.07879566, -0.24879564, -0.01563022, 0.02552423, 0.26879099, -0.31013626, 0.34380060, -0.02074222, 
    0.16261087, 0.15723760, -0.06957303, 0.10104836, 0.09389268, -0.07006971, 0.30814829, 0.20471530, -0.26466292, -0.02414041, 
    -0.13154334, 0.11852796, -0.07013991, -0.09653946, -0.13565221, -0.00222633, -0.24588376, -0.33063236, 0.06695736, -0.22926441, 
    0.14337799, 0.26469627, 0.05544560, -0.14019193, -0.24315813, -0.07749841, 0.08107849, 0.02934980, 0.06312945, -0.06707142, 
    -0.20241252, -0.03466396, -0.02729457, -0.11052727, 0.14573537, 0.38567197, 0.09014768, 0.08350947, 0.26077893, 0.26630118, 
    -0.06784541, -0.19988133, -0.06480120, -0.00036850, 0.01897307, 0.14032280, -0.08894930, 0.31397444, 0.13880661, -0.10399887, 
    -0.14831728, 0.17340320, -0.08894444, 0.14799684, 0.23574381, -0.14685114, -0.17306402, -0.02237325, 0.17280951, 0.00534451, 
    0.30167869, 0.24792646, 0.21524307, -0.05042262, -0.23349205, 0.10830873, -0.04947545, 0.13355589, -0.11193342, -0.14944223, 
    0.14235705, 0.01693453, -0.00994141, -0.02650219, -0.12068096, -0.21033520, 0.14359824, -0.03499733, -0.25251833, 0.12937506, 
    -0.02513211, -0.06280843, -0.10373143, 0.20843874, 0.35904592, -0.03841462, -0.12354337, -0.23476808, 0.23578404, 0.22295006, 
    -0.03483455, 0.15594473, 0.13008502, -0.06831612, -0.19421867, 0.20324214, -0.12326559, -0.21444945, 0.06459533, 0.05828699, 
    -0.16409886, -0.19321223, 0.27178094, -0.00237199, 0.14991830, 0.38109356, 0.06809054, -0.02409292, 0.08955842, 0.09505907, 
    0.11924572, -0.27075446, 0.14181775, -0.10797116, 0.08395076, 0.23807070, 0.23927522, 0.09138219, 0.21369416, 0.12287322, 
    -0.05901278, -0.17370942, -0.27326271, 0.09800214, 0.13462254, -0.08876089, -0.03335534, -0.24450076, 0.05417280, 0.15772103, 
    0.02535638, 0.06674856, -0.14104363, -0.22236548, -0.04547939, 0.04972296, -0.27366549, -0.09732129, -0.42152467, -0.03375354, 
    0.21091573, -0.14616068, -0.19544832, 0.07907448, -0.06500384, -0.19135948, -0.08479360, -0.32222989, -0.22539860, -0.20741779, 
    0.01525332, -0.13022077, 0.20754528, 0.15893230, 0.33619729, -0.01369677, -0.15483402, -0.02524967, 0.26990855, 0.14240459, 
    -0.14151342, -0.13601388, 0.15521017, -0.07114541, -0.01058637, -0.09323949, -0.16347103, -0.13477574, 0.17768894, -0.12597561, 
    -0.16055672, -0.20077938, 0.15891394, 0.31269056, -0.15271279, -0.07618987, 0.22444925, 0.36253959, -0.06455775, -0.01372731, 
    -0.23030482, 0.07689182, -0.34507746, -0.28925738, -0.07207422, -0.08259396, 0.11296256, -0.24780588, 0.04080307, 0.19342388, 
    -0.14585248, 0.04132139, -0.06790267, 0.29951665, -0.00876043, -0.01355660, 0.18006614, 0.24079293, -0.15401876, 0.09900504, 
    -0.00770362, 0.12487757, 0.02393104, -0.21526322, 0.15556827, 0.24578647, -0.11582295, 0.27496019, 0.02419531, 0.00363708, 
    -0.16767024, 0.27089557, 0.06131924, 0.17343934, 0.28443471, -0.54293615, -0.21456683, 0.33340460, -0.33154702, 0.08318754, 
    -0.42349368, -0.29315493, -0.07868101, -0.26406860, -0.21647997, -0.22118005, 0.12508541, -0.00022682, -0.02943095, 0.11468517, 
    -0.05874637, -0.05549568, 0.17926089, 0.28874367, 0.17725794, 0.05422020, 0.06614859, -0.13337988, -0.27180478, 0.12552992, 
    -0.16977362, -0.13620456, -0.22473451, -0.01517931, -0.01030593, 0.12433431, -0.14220683, -0.01896844, -0.35774031, 0.13996796, 
    -0.10225128, 0.15931602, 0.33644930, -0.22642517, -0.03619505, 0.19342229, 0.09300743, -0.18267390, -0.02503767, -0.11155414, 
    -0.03336677, -0.07880669, 0.16458653, 0.01608025, -0.22058372, 0.12760681, 0.19360788, -0.03184573, 0.13352202, 0.02676744, 
    0.06185382, -0.10550553, -0.32045579, 0.28949594, 0.34167242, 0.01889939, -0.06440576, 0.06622288, -0.12740070, -0.09261227, 
    -0.17528027, 0.06480216, -0.19869117, 0.14459553, -0.06767078, 0.10351626, -0.01895521, -0.29379866, 0.20217448, 0.16080230, 
    -0.16508219, 0.05131841, 0.00915464, -0.15314926, 0.26620018, -0.22506288, 0.15327705, 0.20658584, -0.22819220, 0.05364765, 
    -0.08636352, 0.08215789, 0.04030055, -0.07359891, -0.02796986, 0.11538906, 0.08643879, -0.18240395, 0.00383796, -0.42420456, 
    -0.27816662, 0.27588075, 0.21726438, -0.20422304, 0.02447637, -0.15513664, 0.08683374, 0.20015551, -0.16714947, -0.02903307, 
    0.33039442, -0.07616270, -0.33631438, -0.24892700, -0.27220762, -0.35711309, -0.03134199, -0.23677044, 0.30157894, -0.07956810, 
    0.07077984, -0.18330628, -0.27862266, 0.09199675, 0.02301703, -0.07107832, -0.05592337, -0.01490716, -0.35148972, 0.17345788, 
    0.32175815, -0.07921597, -0.00772467, -0.05118567, -0.13033812, -0.20777111, 0.01295401, 0.23704676, -0.12252222, -0.02498840, 
    -0.13540205, -0.37343115, 0.07651333, 0.09341948, -0.25877407, -0.16621767, -0.10964738, 0.21320105, -0.07163396, -0.04692614, 
    0.32209554, -0.16080642, -0.32216480, 0.05881487, 0.38487136, 0.15101266, -0.16951898, -0.21263684, 0.02900866, -0.08513056, 
    0.21556132, 0.21343429, -0.12053133, 0.10500552, -0.15476851, -0.11571278, 0.14346054, -0.05195006, -0.19115841, -0.24325050, 
    0.26585850, 0.25533220, -0.11314031, -0.32776943, 0.03570791, 0.04737972, 0.08141134, 0.14489818, -0.31054857, 0.32570314, 
    0.26854527, 0.16364416, 0.29974225, 0.10834370, -0.03992629, 0.17003638, -0.13982806, 0.16457295, 0.07361222, 0.01868237, 
    -0.03707950, 0.25321329, -0.13733470, -0.05800812, -0.15827951, 0.06871995, 0.24671374, -0.14653322, -0.04772568, -0.05711895, 
    -0.14243589, -0.16193345, 0.25550583, -0.06250253, 0.11023719, -0.22537231, 0.05632052, 0.22096218, 0.13864125, 0.16727670, 
    -0.01034761, 0.09938516, -0.11572900, 0.10283200, 0.27201810, 0.20022771, 0.05382534, -0.20017904, 0.01388029, -0.44606858, 
    -0.04105448, 0.24288188, 0.17158058, -0.15791063, 0.01401091, -0.03841011, -0.19048409, 0.01363930, 0.02638705, 0.09306610, 
    -0.02436312, 0.11050226, 0.51889008, 0.23869015, -0.05240595, -0.12164974, -0.13028550, -0.05802809, -0.13709305, -0.05147709, 
    0.36181232, 0.32647535, -0.27166772, -0.12459689, -0.09569405, -0.10270939, -0.02731701, 0.06911967, 0.09129737, 0.15028638, 
    0.37979403, -0.06051796, 0.15017653, 0.23516607, 0.29070351, 0.13910423, 0.20899430, -0.23414259, -0.18806662, -0.11269926, 
    0.08966542, -0.31581014, -0.50042969, -0.19658223, -0.21053061, -0.20434009, 0.08477384, -0.19800106, -0.68296468, -0.66592491, 
    -0.71467292, -0.29139119, 0.13599877, -0.02747530, 0.18811472, -0.21657622, -0.10728206, -0.21718796, -0.24875128, -0.36616600, 
    -0.06125154, -0.04115535, -0.00269375, 0.18075217, 0.14966063, -0.16001227, -0.11140331, 0.04239481, -0.10028869, 0.01633616, 
    -0.08793901, 0.24751325, 0.34794784, -0.04530700, 0.22676149, 0.16423556, -0.34269130, -0.13392034, -0.18517689, -0.14561407, 
    0.14304544, -0.33811662, -0.25497207, 0.25983500, -0.07606093, 0.22681457, -0.18511936, -0.07599093, 0.07326624, -0.00967284, 
    -0.06549205, 0.49756664, 0.07491855, 0.24288653, 0.35665765, 0.08499933, 0.34241468, 0.20306905, 0.06877683, 0.26766863, 
    -0.19415346, -0.03978962, -0.03189037, -0.32882023, -0.00740921, -0.47969922, -0.14451376, 0.31766644, -0.01160996, 0.11792680, 
    -0.39732832, 0.42772558, 0.30079165, -0.14651963, 0.15495034, -0.01470624, 0.54508770, 0.45486185, 0.32993293, 0.22271357, 
    -0.24079803, -0.13445519, 0.02339053, 0.24602361, 0.26213974, 0.30222487, -0.04759416, -0.03681096, 0.22867526, 0.20884621, 
    0.04385738, 0.07394456, -0.21223821, -0.02144667, 0.14081050, 0.25221533, 0.09740657, 0.52185184, 0.15240477, 0.22267590, 
    0.02020985, 0.16032875, -0.06532969, 0.16479330, -0.02675104, -0.01295171, -0.10294969, -0.28422156, -0.15853627, -0.23773006, 
    -0.17157350, 0.03878468, -0.24219626, -0.12945822, -0.11628328, -0.22443333, -0.21768402, 0.06400863, 0.05111429, -0.18053637, 
    0.04104358, -0.26977867, 0.04838936, 0.00586225, -0.30033407, -0.27201468, -0.09794412, 0.01683310, 0.30037612, 0.35313320, 
    -0.24735707, -0.13024071, -0.12449412, -0.18405062, -0.07263941, -0.16835317, -0.24471378, 0.01854698, -0.08584592, -0.00801251, 
    -0.07274973, -0.06365856, 0.25813949, 0.21681395, 0.23359035, -0.18213272, 0.23709534, -0.26519984, 0.02565137, 0.09182501, 
    -0.02098371, -0.24895152, 0.02802206, 0.11848630, 0.06668768, -0.25360477, 0.34933013, 0.18092325, 0.08245584, 0.11190142, 
    0.17184636, 0.08512080, -0.13391759, -0.10291080, 0.37483922, -0.10564269, 0.10794455, 0.23754135, 0.29282415, 0.27603492, 
    -0.09955975, 0.04502243, -0.04904390, -0.04124023, -0.21491343, -0.19129220, 0.00828604, -0.32302824, -0.10093496, -0.34366944, 
    0.25259316, 0.00691994, -0.11866622, -0.14536837, -0.06061755, 0.08870365, 0.03205191, -0.02274900, 0.09064823, -0.06089842, 
    -0.15198366, -0.10600936, 0.10018224, -0.24934596, -0.04028292, -0.07140341, 0.08106988, 0.15560167, -0.26680979, 0.18648465, 
    0.06236230, 0.13337277, 0.04110242, 0.16890550, 0.25409248, -0.29089832, -0.19580375, -0.18806906, -0.31619191, -0.07610468, 
    0.10629816, 0.03355275, 0.30003446, 0.07129532, -0.10881424, -0.10599069, -0.24578060, 0.02666656, 0.08492459, 0.18092185, 
    0.27089074, 0.17558779, 0.02994105, 0.10970476, 0.43337148, 0.28526261, 0.10121041, -0.30119887, 0.02488952, -0.11452670, 
    0.13502793, -0.01226519, -0.13922171, -0.06389611, -0.00092037, -0.29254186, 0.28240865, 0.25120991, 0.00893737, 0.03570221, 
    0.28092805, -0.02278727, 0.08622980, 0.40074971, -0.04758964, -0.02420700, 0.10306709, 0.09044966, 0.00881830, -0.03447616, 
    -0.28043386, -0.24532355, -0.12320445, 0.00833770, -0.23468009, 0.03028813, -0.05319801, -0.06769973, -0.02518279, 0.11330292, 
    0.35811415, -0.15555966, -0.22121757, 0.40064740, -0.21057235, 0.32090068, 0.12219910, 0.20603408, -0.02657022, -0.06172735, 
    0.28044736, 0.08543199, 0.34790584, 0.06775535, -0.16026713, 0.06877391, -0.12584484, 0.20444159, 0.07754184, -0.12002611, 
    0.15583986, 0.20845936, 0.05270655, 0.22055547, -0.02630168, -0.04223905, 0.26293680, -0.07743143, 0.03887727, 0.22675838, 
    -0.03731051, 0.06248071, -0.43962789, -0.09292109, -0.14459357, -0.01144410, 0.17616999, -0.20993066, 0.13412243, -0.40449795, 
    -0.09131270, -0.17062195, -0.01041340, -0.28661951, 0.22175545, -0.25507808, -0.01582467, 0.26592484, -0.36869904, 0.23372391, 
    0.03299032, -0.15212800, 0.18359599, -0.27765086, -0.03757427, -0.18649328, 0.05926674, 0.13381101, 0.18931918, -0.13779417, 
    -0.11773612, 0.12934631, 0.06858037, -0.33746967, 0.07346305, -0.03219699, 0.31143266, -0.14776601, 0.35329565, 0.06897976, 
    -0.08587293, -0.11945961, 0.09254828, 0.21408470, -0.18811069, -0.05448953, 0.32848334, 0.35307556, 0.09665674, 0.20078705, 
    0.13652982, 0.17509836, -0.07455394, 0.08368872, -0.26972580, 0.00859918, 0.18059568, 0.12100277, -0.37280357, 0.16254124, 
    0.39465457, -0.12767065, 0.00592869, -0.14887598, 0.20492017, 0.27656633, 0.17042935, 0.07654061, 0.20478989, 0.07625578, 
    -0.34490672, 0.19388053, -0.12550315, 0.22069539, -0.02141086, -0.40196764, 0.03147513, 0.09885107, 0.02743005, 0.17911512, 
    -0.29794383, 0.23885523, 0.05751233, 0.07270104, -0.02181024, -0.01188121, 0.10687881, -0.27619120, 0.18541129, 0.22929424, 
    -0.01983710, 0.03833476, -0.10451595, 0.04767501, -0.07345758, 0.08647644, -0.13257401, -0.17022561, -0.07924505, -0.03612293, 
    0.13519973, -0.12332541, -0.17634957, -0.10108098, 0.07579982, 0.21992971, -0.18092023, -0.16745298, 0.06789567, -0.39283654, 
    -0.19705455, 0.10522922, 0.08575121, 0.18964033, -0.04553900, 0.08070042, -0.39795858, -0.33319160, -0.13078663, -0.34254700, 
    -0.12679727, -0.40963212, 0.15939374, -0.35573000, 0.35630143, -0.03066157, 0.06867862, 0.12018506, 0.21457586, -0.22399867, 
    0.31253889, 0.04187651, 0.08767167, 0.06990978, -0.04828280, 0.30804908, -0.08901301, 0.18011336, 0.08671256, -0.11870225, 
    -0.02049134, 0.22584979, -0.35831010, 0.18424380, -0.12595254, -0.10395900, 0.35295281, 0.21137863, 0.05724305, 0.03032416, 
    -0.28302583, -0.00733161, -0.05953714, 0.16700131, 0.01376176, -0.04883404, 0.03814049, -0.10985338, 0.21149944, -0.22293673, 
    -0.16983575, 0.08400296, -0.20060913, 0.16431738, -0.17355257, 0.38188383, 0.25894055, -0.39374763, 0.15079913, -0.13837098, 
    0.31079537, 0.07010853, -0.13619512, -0.17639519, 0.01898457, -0.02408163, 0.01726236, -0.08844730, 0.16935854, 0.13413505, 
    -0.37294334, -0.29358006, 0.14017536, -0.06719547, 0.00155139, -0.12888588, -0.11635796, -0.25542796, -0.05923583, -0.35894370, 
    -0.01206404, -0.12108884, 0.29129481, 0.34443787, 0.03286353, 0.02885858, 0.12309530, 0.29385656, -0.32218772, 0.10495522, 
    -0.34573066, -0.27201581, -0.12421012, -0.17737813, -0.22387405, 0.27858689, -0.24504943, -0.51575959, 0.18591255, -0.41555417, 
    -0.34856021, 0.11591665, -0.00918350, -0.36038291, 0.16721316, 0.10192701, -0.16047689, -0.08917101, 0.34915993, -0.21811502, 
    0.19906986, 0.10055296, -0.14656897, 0.01681181, 0.02548313, -0.18654369, -0.23278686, -0.13496682, -0.26375487, -0.05558855, 
    0.34410509, -0.01781964, 0.20058310, -0.10240477, 0.13802885, 0.14594026, 0.20269783, -0.20200182, -0.01159135, 0.02873146, 
    0.06510346, 0.07406800, -0.20005251, 0.24167344, -0.03618943, -0.01024803, -0.11012693, 0.10855987, -0.13181564, -0.16683061, 
    0.17567658, 0.50911683, 0.19070202, -0.05566337, 0.07390198, 0.26624143, -0.10193378, 0.16393705, -0.11528695, 0.02085531, 
    -0.04204417, -0.30438504, 0.21855415, 0.28399485, -0.06023954, 0.07680964, 0.36534336, 0.30385113, 0.17198947, 0.43899497, 
    0.15693197, 0.20691384, 0.02500154, 0.35751188, 0.12232047, 0.02935792, -0.11420497, 0.18975896, -0.17024630, 0.01106459, 
    0.35694349, -0.22827168, -0.09049261, 0.03944253, -0.17284800, 0.03565177, 0.07045536, 0.12942649, -0.11590619, 0.19186695, 
    0.17101869, 0.06426878, 0.15738423, -0.06774696, -0.09403512, -0.31191212, 0.36810407, -0.16362908, 0.26712254, 0.04580028, 
    -0.10141359, -0.11132605, 0.00084129, 0.05560286, 0.18346322, 0.25365266, 0.21063371, -0.30729181, -0.00301671, -0.14658555, 
    -0.13353175, 0.10927626, -0.07241951, 0.02770505, -0.39239064, -0.26776972, -0.24394880, -0.00558755, 0.03702169, -0.14588538, 
    -0.25226313, 0.02670559, -0.26175040, 0.11414865, 0.39406815, -0.18159468, -0.16381495, 0.34544143, 0.22597954, 0.19023260, 
    -0.28876603, -0.24103178, -0.26209563, -0.15563160, -0.78819788, -0.10645542, 0.04033158, 0.36592594, 0.10714854, 0.02455885, 
    0.13141119, 0.17211676, 0.19754536, -0.33771983, -0.02049763, 0.18665160, 0.01741794, -0.23691881, 0.13932005, 0.36746478, 
    0.18116011, 0.09644973, -0.04663443, -0.07028463, -0.01009633, -0.14569081, 0.02332636, 0.03931516, -0.48651302, -0.34669325, 
    -0.01762455, 0.09037825, -0.15133488, 0.14751618, -0.00401668, -0.22766723, 0.42157993, 0.13347405, -0.01227801, -0.21173273, 
    -0.14668721, -0.18107800, 0.09771201, 0.22447588, 0.07971387, 0.14232884, 0.02666623, -0.19514081, 0.04326638, -0.40185773, 
    0.31201816, 0.05810864, 0.20224844, -0.18102325, -0.01973009, -0.33420557, -0.04919223, 0.03857237, -0.05253221, 0.09611584, 
    0.41895229, 0.21613449, -0.11681753, -0.06560227, 0.11673484, -0.01646362, -0.14401841, 0.03969916, 0.01422655, 0.14857820, 
    0.24422202, -0.03839242, 0.37378058, 0.01865939, 0.16020323, -0.06969817, 0.26653519, -0.15613465, 0.24988136, 0.14028962, 
    -0.05804915, 0.31025124, 0.16255935, 0.36868814, 0.35561913, -0.04445320, -0.21657981, -0.19364317, -0.13620692, 0.14167349, 
    0.23342958, -0.18264246, -0.05151604, 0.12817217, -0.21390921, 0.06804147, 0.36346513, 0.50271028, 0.56083357, 0.35941663, 
    -0.08326572, 0.07948024, 0.03974599, -0.07798287, 0.03572381, 0.40532023, 0.08845899, -0.17718875, 0.42322615, 0.15584491, 
    0.23535128, 0.04551127, 0.15378408, -0.00259154, -0.16690262, 0.11190181, 0.30068776, 0.18525600, 0.27850088, 0.56452429, 
    0.15556599, -0.06630391, 0.21928900, -0.22082214, -0.17641723, -0.28598413, 0.01553577, 0.07172916, 0.06341428, 0.22888629, 
    -0.15850559, 0.22841240, -0.29884633, -0.05583277, 0.11538564, -0.06595203, -0.16532779, -0.12527007, -0.06367893, 0.27589169, 
    0.05233708, -0.03481928, 0.04796628, -0.09896997, -0.01321327, -0.03836940, 0.07020330, 0.29942754, 0.15350051, -0.13935016, 
    0.28110763, -0.09740865, 0.06698263, 0.02642441, 0.08781234, -0.02884230, 0.11083058, -0.16681226, 0.23442131, -0.08815026, 
    0.31532291, -0.16046497, -0.22527365, 0.16759123, 0.12001585, 0.26589078, -0.10938920, 0.05617818, -0.15943037, 0.01565474, 
    0.28969145, 0.14703070, -0.25458431, 0.28243020, -0.10824489, -0.04891144, -0.09856069, 0.07109816, 0.13859007, -0.24191262, 
    -0.26177934, -0.09240741, 0.03896799, -0.23178425, 0.24490817, -0.00902501, 0.21271430, 0.06541051, 0.06889063, 0.19808775, 
    0.23068513, 0.09957848, -0.18889996, -0.17186335, 0.17117962, 0.11013292, -0.31970811, 0.15016773, 0.06688770, 0.01523071, 
    -0.02441575, 0.01084293, 0.29854029, -0.00593777, -0.12189741, -0.18124242, 0.26154011, 0.11154289, 0.33010539, -0.12133663, 
    0.25250304, -0.06782738, -0.22783218, 0.00166228, -0.00531575, -0.06557681, 0.04486914, -0.10710836, -0.04557950, -0.13477987, 
    0.07160975, 0.11530434, -0.07124276, -0.20474620, 0.39264771, -0.20434421, -0.14691089, -0.00012709, -0.45628083, 0.02326082, 
    -0.45479107, -0.08504508, -0.00192881, -0.12552497, 0.01849841, 0.00990571, -0.00081351, -0.31467345, 0.24620423, -0.21843888, 
    -0.21499260, 0.11260643, -0.17957747, 0.31388134, -0.07983205, -0.13385560, -0.00247001, 0.19919674, -0.26954609, -0.05471804, 
    0.06492741, -0.19735003, -0.11697804, -0.15715066, -0.37337840, 0.20671465, 0.12581088, 0.09948327, 0.27538648, 0.20322779, 
    -0.02378982, 0.45748141, 0.13546985, 0.06266087, -0.44110659, -0.00114440, 0.18208535, -0.21751241, 0.08090784, 0.13904673, 
    -0.00869395, 0.30424803, 0.35117120, -0.01495140, 0.02108262, -0.02628723, -0.21466322, 0.16764918, 0.19646530, -0.03477471, 
    0.23036526, 0.30752987, 0.26861188, 0.18766674, -0.16461363, 0.05663381, -0.02651509, 0.16267999, -0.13396135, 0.15213738
    
};

const type_t B_fc1[64] = {
-0.04516354, -0.02634180, -0.59586829, -0.30143780, 0.11055055, -0.19603793, 0.58730876, -0.52231789, -0.63192981, 0.06071261, 
    -0.29445061, -0.15122576, -0.02414978, 0.09342688, -0.23937835, 0.21930668, -0.14347740, 0.15871775, 0.56279957, -0.14027591, 
    -0.14544041, 0.53256887, 0.36127472, 0.12063917, -0.33988392, -0.14638400, 0.06334965, -0.19146080, 0.43720075, -0.11921357, 
    -0.19526023, -0.52523220, -0.16269650, 0.67456597, -0.38453937, -0.16138342, -0.45682272, -0.23458326, -0.36065122, -0.00201550, 
    0.22734293, -0.19595349, 0.33471289, -0.05534862, -0.00239497, -0.01455599, 0.26601565, 0.46764097, 0.30010185, 0.12135863, 
    0.00887349, 0.03737778, 0.12997918, -0.14429125, -0.02279854, 0.24345155, 0.08456010, 0.08213721, 0.58619928, -0.22232825, 
    0.13252391, -0.28835437, -0.22320397, -0.18824594
};

const type_t W_fc2[384] = {
-0.19304316, 0.30488005, 0.20761986, 0.13750406, -0.08610208, 0.24500406, -0.48945409, 0.46793702, 0.32453895, 0.09314433, 
    0.43210754, -0.09425982, 0.03617653, -0.29229364, 0.56322563, 0.21544543, 0.47382635, -0.21079709, -0.31870127, 0.08800020, 
    0.23248956, -0.31571269, -0.03533997, -0.42411804, 0.49737290, 0.05513857, 0.00046517, 0.77252895, -0.06747866, 0.18752624, 
    0.18987259, 0.36055818, 0.37724176, -0.29170653, 0.14994544, 0.21480690, 0.29106948, 0.14581493, 0.13556375, 0.31696522, 
    -0.02155285, 0.22443078, -0.35938844, -0.25072286, 0.27785555, -0.62863702, -0.10470100, -0.04252630, -0.32675034, -0.34653100, 
    -0.46455526, 0.05950255, -0.46967033, 0.11552979, -0.02086444, -0.18180345, -0.09709067, 0.06628656, -0.56805897, 0.23970327, 
    0.09614524, 0.27867591, 0.19895388, 0.48755550, 0.78533149, -0.75299704, 0.03636323, 0.24819145, -0.56198138, -0.65140456, 
    0.31296679, -0.07106961, -0.02784928, 0.45749247, -0.29018673, -0.29890591, 0.27342603, 0.49597767, 0.01233553, -1.00488710, 
    -0.60880345, 0.31196722, 0.22194794, -0.15061472, -0.25603619, 0.22617254, 0.04183363, 0.38562506, -0.34593934, 0.42182782, 
    -0.61312175, -0.49034473, -0.05559438, 0.27869454, -0.61032355, 0.04952071, -0.64607543, 0.09509958, -0.04682565, -0.59734833, 
    0.10029690, -0.60388541, 0.18152125, -0.46249771, 0.51531297, -1.00290728, 0.03029908, 0.24522504, 0.09529889, 0.82130802, 
    -0.69195062, 0.19186242, -0.11273013, 0.45440686, 0.29424161, 0.43782553, 0.62209594, 0.19404623, -0.12969948, -0.85643810, 
    -0.16390809, -0.40291154, 0.16750544, 0.35651177, -0.93681234, 0.13668709, -0.11233098, -0.46940362, -0.22966021, 0.22385390, 
    -0.09473146, -0.19778761, 0.22928368, -0.08795951, 0.12098272, 0.12391447, -0.16027972, 0.03255320, 0.28872603, -0.36193362, 
    -0.03423506, -0.08619984, 0.09114152, 0.41162977, 0.31313929, -0.36048022, 0.05331784, -0.01247365, 0.22023585, 0.28280476, 
    0.15195209, -0.22837324, -0.10993041, -0.32186970, 0.17401686, 0.31932703, 0.27850828, 0.14926931, -0.04590287, -0.38488570, 
    0.03085722, 0.14042823, -0.05184575, -0.03775256, 0.14356463, 0.37430146, -0.29472592, 0.33645198, -0.14610898, -0.00313356, 
    0.39031515, 0.14861891, 0.25841972, -0.17888670, 0.27898914, 0.12546505, 0.37091944, -0.11415628, -0.39517272, -0.00311161, 
    -0.14868772, 0.16849546, -0.65003514, 0.55374879, 0.27484629, -0.02032381, -0.07243884, 0.12795883, 0.20086199, 0.07122537, 
    -0.23334689, 0.19572942, -0.54721552, 0.30303743, -0.21635513, -0.24962375, -0.01402540, 0.18362381, -0.09284468, 0.07368959, 
    0.01408796, 0.07845652, -0.10477946, 0.08690435, 0.12834454, -0.33975279, -0.16580875, 0.31918344, -0.07862990, -0.30542833, 
    0.06326664, 0.24835594, -0.40640387, 0.05728627, 0.06067085, -0.40793255, -0.18210453, -0.27914405, 0.32839257, 0.00265486, 
    0.22497773, 0.29964209, -0.03153677, -0.15403733, -0.06334164, 0.11699753, -0.27677533, 0.26638290, -0.04366358, -0.07452867, 
    -0.28671589, 0.36742082, 0.09068973, -0.18469790, -0.20995770, 0.12782526, -0.33043024, -0.21063167, 0.16966489, 0.24876203, 
    0.26028994, -0.35078010, -0.25302458, -0.36547539, -0.03660401, -0.00824337, -0.23442918, -0.14605588, 0.35240048, 0.45787168, 
    0.06480492, 0.00954457, 0.36282143, 0.26026487, 0.10481473, -0.20406987, 0.16653669, 0.16000076, 0.34344059, -0.42037407, 
    -0.60038167, -0.20197643, 0.51626796, -0.48500919, -0.33741623, -0.30435240, -1.43945563, 0.27461335, 0.21184707, 0.14009497, 
    -0.65291953, 0.38936111, -0.50847983, -0.35280368, 0.20386991, -0.07886433, -0.20851643, 0.34359586, -0.21869797, 0.41187423, 
    0.61306441, -0.00280282, -0.39781260, 0.15109804, 0.27289465, -0.72810411, 1.07830358, 0.02717326, -0.17710795, 0.19274613, 
    -0.00262713, 0.26846114, -0.42705294, -0.35733414, 0.07365194, -0.07690975, 0.48882303, -0.01054724, -0.11359767, 0.17834538, 
    -0.02121586, -0.22040468, 0.19671278, -0.12535970, 0.03081536, 0.14725359, -0.31416860, -0.49765193, -0.50190675, -0.34458062, 
    -0.31297606, 0.41373628, -1.58579683, 0.50803989, 0.07812947, -1.03338647, -0.50593626, -0.73243767, 0.08417138, -0.28233558, 
    0.25924265, 0.10255785, -0.11073610, -0.67629153, 0.61593521, -0.46785259, 0.31533271, -0.60627782, -0.11347295, -1.05583799, 
    0.13513353, -0.43193319, 0.27575940, -0.19721033, -1.40542853, -0.04668941, 0.30581775, -0.42078534, 0.29539746, -0.17077039, 
    0.46444374, -0.08068051, 0.12604181, 0.04965671, -0.17781767, -0.71667415, 0.31308615, 0.56060112, 0.07917985, -1.02828586, 
    -1.07187188, -1.36433172, -0.46061286, 0.35452080, -0.14668976, -0.88778687, -0.38459486, 0.15502135, -0.43400994, -0.42425233, 
    -0.97134781, 0.55697924, 0.16796644, -0.13186571, -0.13152456, 0.08301507, 0.51693243, 0.37993112, 0.47679567, 0.06183840, 
    -0.17422193, -0.90528226, -0.54422390, -1.37350810, 0.32983911, 0.11030333, 0.44229370, -0.30928957, 0.35501474, -0.68897545, 
    -0.09036529, -1.12494099, 0.33095816, 0.35820347
};

const type_t B_fc2[6] = {
-0.67477971, 0.05677483, 0.22538440, 0.12753789, 0.25640193, 0.13178818
};

#endif // WEIGHTS_H
