#ifndef WEIGHTS_H
#define WEIGHTS_H
#include "conv3.h"

const type_t W1[54] = {
-0.11232118, -0.01176351, 0.47743121, -0.54275489, 0.14378957, -0.64621389, -0.08970942, 0.75462699, 0.60316432, -0.62635863, 
    -0.43822119, -0.98521698, -0.02824243, -0.03771742, -0.20473380, -0.78551823, 0.62216991, -0.35495481, 0.06483104, 0.77935028, 
    -0.32526195, -0.42614174, 0.07621346, 0.78079879, -0.41168484, -0.79248405, -0.45429036, -0.39588240, 0.27402449, 1.13557398, 
    0.18740118, -0.33222392, -0.24028404, 0.02258207, -0.85322613, -0.32840189, 0.11580994, 0.77553827, -0.68480819, -0.14643069, 
    1.01260436, -0.00185731, -0.02273375, 0.07812897, 0.56691700, 0.47024027, -0.17678581, -0.15178898, 0.98293310, 0.29851601, 
    0.00388109, -0.43951881, -0.73025674, 0.81104213
};

const type_t B1[6] = {
0.30180249, 0.22198768, 0.02930034, 0.52600163, 0.07903706, 0.49257052
};

const type_t W2[216] = {
0.59535694, -0.15921037, -0.64470202, -0.48136276, 0.13728069, 0.27785814, -0.42434043, -0.24389414, 0.46384239, 0.19950633, 
    0.45515531, -0.68123114, 0.31892404, 0.15288952, -0.56471729, -0.54437661, 0.65148520, 0.36002740, 0.08692801, 0.02697052, 
    -0.51925886, -0.28030971, -0.14359728, 0.12122621, 0.43980289, -0.12391009, -0.05966401, -0.08086278, -0.28151053, -0.07836365, 
    -0.11380319, 0.03982997, 0.50765812, -0.06555060, 0.10406065, -0.09055022, -0.38791245, 0.06213737, 0.32446787, 0.45792416, 
    0.00777628, 0.15214343, -0.45687160, 0.01157748, -0.57108897, -0.72099149, -0.30617025, -0.47232825, -0.34176803, 0.58409524, 
    -0.08334582, -0.05351859, 0.01878236, 0.34678468, 0.53040427, -0.70147586, 0.47767374, -0.27513251, -0.07013624, -0.08943824, 
    0.20870714, 0.29021433, 0.12373344, -0.14734276, -0.40565249, 0.67869473, 0.47383407, -0.23121296, 0.12087089, 0.17309238, 
    0.60355777, 0.57090104, -0.76624417, -0.24132432, -0.23513843, -0.69506508, -1.01886749, 0.07871405, -0.19737488, -0.32302418, 
    -0.06244082, 0.25352672, -0.01191685, 0.34662765, -0.20990598, -0.00910833, -0.06351310, -0.15015398, 0.21451624, -0.84409595, 
    -0.18507557, -0.30575901, 0.32935572, 0.41954666, -0.11255290, 0.39138469, 0.54300535, -0.26581335, 0.41451257, 0.05910259, 
    0.52044207, 0.44486219, -0.32244366, 0.24407069, 0.46998045, 0.06087341, -0.42254582, -0.43523389, -0.16760932, -0.26568240, 
    -0.28729901, 0.17109507, 0.65473390, 0.26669756, 0.09661794, -0.04625569, -0.46324492, -0.40226403, -0.12479710, 0.32687193, 
    -0.62010682, 0.59306729, 0.58333999, 0.26511180, 0.21363428, -0.08808468, 0.02928241, -0.04914195, 0.06177465, -0.05189200, 
    -0.62463492, -0.29684061, 0.18480642, -0.12491671, -0.22023487, -0.40785208, 0.45962986, -0.61867249, -0.68704468, -0.23887043, 
    0.12673210, -0.19437237, 0.32437637, 0.08881304, -0.04498309, -0.34127891, 0.15855880, -0.45185515, -0.39185444, -0.26562506, 
    0.68363279, 0.24025500, 0.42924279, 0.36946735, -0.02218514, 0.14480953, -0.65806705, 0.46942642, -0.02415775, 0.29144245, 
    -0.32760015, -0.26366261, 0.78118557, -0.07852735, 0.26680240, -0.28485313, -0.17315847, -0.06159732, -0.25233814, -0.07556952, 
    -0.07867511, 0.49193123, 0.30251300, -0.31913877, -0.35038239, 0.46475703, -0.11894491, 0.53146082, -0.39623132, -0.10130489, 
    0.70580173, -0.35595471, 0.68040401, 0.55439377, 0.40815854, -0.31416622, 0.00440574, 0.43716413, 0.57174814, -0.13537887, 
    0.09486691, -0.25631005, 0.19834791, -0.11665431, -0.00140470, -0.27512580, 0.09071531, 0.45325792, 0.15668418, 0.28107733, 
    -0.50375980, 0.61423779, -0.11719996, 0.38645658, -0.47160411, 0.28438863, 0.12698987, -0.07867052, 0.17861161, 0.16370541, 
    -0.49839291, -0.08094073, 0.71397901, 0.53173429, -0.32750556, 0.35654810
};

const type_t B2[12] = {
0.53955364, 0.09605537, -0.00516818, -0.14011940, -0.20458491, -0.24294062, -0.18813172, -0.25509468, -0.04914971, -0.02603530, 
    -0.18740398, 0.23030889
};

const type_t W3[576] = {
-0.48418331, 0.22328235, 0.24775861, -0.52004892, -0.50467932, -0.39698032, -0.02073186, 0.43663132, 0.39670664, 0.12400173, 
    0.42817947, -0.34870479, -0.39650911, -0.41864958, -0.03900320, -0.25403464, 0.07257257, -0.18405186, 0.02839733, 0.18138316, 
    -0.35934177, -0.72771633, 0.06597330, 0.24971466, 0.23447944, -0.60381430, -0.45119619, 0.16351697, 0.24677813, 0.06942718, 
    0.24487685, -0.23323268, -0.06342218, -0.09525821, -0.38975033, -0.18116207, -0.00829319, -0.19606496, -0.31926766, 0.32294926, 
    0.13984303, -0.14324890, 0.55480337, 0.02853533, -0.30622211, 0.37483117, -0.08521312, 0.16013213, -0.32197842, 0.03361864, 
    0.01942262, -0.18645054, 0.34626281, -0.14942920, -0.24058266, 0.25374269, -0.21888430, -0.34204185, 0.10375763, 0.14079130, 
    0.20339482, 0.30579093, 0.00554492, -0.07000785, 0.65299529, 0.00597930, -0.38414952, -0.08364519, 0.31002295, -0.27518597, 
    -0.14865810, 0.03023173, -0.34802866, -0.30684581, -0.05155527, 0.45054948, -0.26661414, 0.47127822, -0.25102231, -0.20866676, 
    0.12702204, -0.11169112, 0.10696184, 0.22066465, 0.19114687, 0.66160643, -0.12446974, 0.52828330, 0.30762455, 0.05927916, 
    -0.13279259, 0.02179215, 0.08136162, 0.29061785, 0.19952850, 0.43372053, 0.47081351, -0.06887928, 0.09742662, 0.40447932, 
    0.32776868, 0.24927476, 0.32813221, 0.20939259, -0.18282492, -0.05030442, -0.26208571, -0.18168457, -0.16687357, -0.13134694, 
    -0.05671724, 0.28501165, 0.41502652, 0.35016128, 0.05454529, 0.01179851, 0.26663759, 0.37598020, 0.02991853, 0.24584170, 
    0.52615160, 0.87262946, -0.08472677, -0.38194236, -0.53997499, 0.04336614, 0.27473190, 0.59973133, -0.14999585, 0.09644104, 
    0.21126828, -0.09415293, -0.05798701, -0.11509521, 0.04001890, 0.32206765, 0.32498479, 0.17619221, 0.33809057, 0.01891289, 
    0.17387751, 0.01975688, -0.10678338, 0.15518923, 0.12453163, -0.40687677, -0.35902673, 0.08332027, -0.33658594, 0.11196645, 
    -0.18480553, 0.24558638, -0.10205306, 0.06920394, 0.40969101, -0.16099605, 0.58256513, 0.11189448, -0.10583593, -0.31790259, 
    0.46923062, 0.29895118, -0.46674043, -0.22569418, -0.08930525, 0.04241092, 0.31733477, 0.00693747, -0.65078986, 0.32594344, 
    0.08897620, -0.57041132, 0.03834569, -0.34009764, 0.32283771, 0.15457049, -0.37853834, -0.44171533, 0.47176734, -0.16143468, 
    0.06307694, -0.13008617, 0.33103830, -0.09790133, -0.43596023, 0.34440109, 0.44187042, 0.09942762, 0.06040747, -0.30400288, 
    -0.37655964, -0.16165361, 0.63883460, -0.14236143, -0.55541873, -0.41041100, -0.10050686, -0.17259522, 0.02747871, 0.04597982, 
    -0.45967132, -0.10798724, 0.10738848, 0.01919023, 0.04728782, 0.29414022, 0.14189462, -0.00010488, -0.20989202, 0.15065236, 
    -0.06761730, 0.50402242, 0.42386737, 0.05140132, 0.20818825, 0.00779897, -0.21653345, 0.06783862, -0.22267319, 0.06077126, 
    0.41155216, -0.09689576, 0.01302154, 0.09231282, -0.08617799, -0.16089545, 0.28443614, 0.42530081, 0.18361910, 0.13868852, 
    -0.73719716, 0.17120206, 0.00026688, 0.34291226, 0.47560540, 0.11071798, -0.12794058, 0.13249730, 0.39741081, 0.28379214, 
    0.07687654, -0.27505636, 0.03471978, 0.02384572, 0.34287697, -0.06806275, -0.50679934, -0.28878838, 0.40493295, -0.32664436, 
    0.16308355, 0.08297747, 0.35401997, 0.03743672, -0.17258215, -0.39129072, 0.47982377, -0.11052301, 0.56681937, 0.13484104, 
    -0.18583333, 0.00993044, -0.02044088, -0.15019763, -0.23066637, -0.07966252, -0.11577521, 0.13632588, -0.02721597, -0.03079511, 
    0.00114825, 0.11258335, 0.40960515, 0.40420625, -0.53361005, -0.00492766, -0.34980986, -0.16727334, 0.12979217, -0.10536502, 
    0.28426552, -0.11616924, 0.36403710, -0.24774759, -0.42144221, -0.21059977, -0.29510242, 0.42008433, -0.14750084, -0.33854404, 
    -0.10636139, 0.30003813, -0.20759869, 0.13653852, 0.51173007, 0.71690589, 0.04605931, -0.02690829, 0.14974017, -0.13034059, 
    0.61269218, -0.28840753, 0.55058134, 0.22422357, -0.41145632, 0.26519445, -0.08480621, -0.00110435, -0.10547518, -0.20899224, 
    0.37412885, 0.35488483, -0.02749792, 0.31255078, 0.14066005, 0.27986565, 0.17920552, 0.16320838, 0.29742974, 0.55054295, 
    0.30550998, -0.26444176, 0.21470565, -0.15846600, 0.49043494, -0.01179770, 0.04162373, 0.27442035, -0.47790056, -0.03880598, 
    -0.43113989, -0.24994288, -0.19157572, 0.22058333, 0.32133666, -0.08459001, -0.15546791, -0.33574510, -0.53224474, 0.30301887, 
    0.02155598, -0.15635863, -0.20474553, -0.14512171, -0.03376240, -0.12122297, 0.53102380, -0.36943156, 0.04763399, 0.36664996, 
    0.30237311, 0.29924276, 0.22090641, 0.01839012, -0.30231804, 0.00939070, -0.18645926, -0.03641799, 0.10077457, -0.08414996, 
    -0.12201636, 0.09992204, -0.25159612, 0.17091042, -0.16751966, 0.15768510, 0.36573172, 0.23003128, -0.31014952, 0.17757033, 
    -0.18141048, 0.29771343, -0.40105838, 0.50594634, 0.19620152, -0.22433598, 0.27235165, 0.12688170, -0.22258742, -0.08978491, 
    0.03538529, -0.16069072, -0.22648567, -0.27740160, 0.08187363, 0.01195048, 0.40681878, 0.25250414, 0.00761202, -0.25904229, 
    -0.13075970, 0.51153415, 0.39283961, -0.09770823, 0.10120204, -0.01143452, -0.08719467, -0.05910202, 0.29948068, 0.03961609, 
    0.24241407, -0.27551615, -0.07457200, 0.04587004, 0.32181507, -0.35152215, 0.25827587, -0.05677879, -0.51749110, 0.29444185, 
    -0.02702732, 0.18355128, 0.34224668, 0.43551317, 0.29496512, 0.26210788, -0.23085806, 0.20831338, -0.26017466, 0.22913155, 
    -0.02569015, 0.02718461, -0.37094766, -0.06443156, -0.04524826, -0.56635982, 0.19318201, -0.15357740, 0.11328331, -0.01531212, 
    -0.35726917, 0.15068571, -0.01964847, -0.10463505, -0.10338596, -0.23628440, 0.44123235, -0.00848262, 0.00981771, 0.18775080, 
    0.23289298, -0.18256414, 0.13789895, 0.20252985, 0.03498298, 0.04406566, -0.71718842, -0.04758220, -0.09885338, 0.24040049, 
    0.41926804, -0.06220408, -0.31952131, 0.04943743, 0.39589942, 0.26118222, 0.27092487, -0.21932904, -0.07905577, 0.41011044, 
    0.00836364, -0.29478985, -0.14053610, -0.46316561, 0.25651497, 0.32907578, -0.31434199, -0.17575262, 0.11118424, -0.15593785, 
    -0.19256990, -0.02726257, -0.52549905, 0.05307350, -0.39385441, 0.00199092, -0.18238303, -0.04720400, 0.29091027, -0.08925765, 
    0.58396524, 0.30325976, 0.32426307, 0.39274031, -0.36419249, -0.13989574, 0.27093613, -0.13672112, -0.10016645, -0.02182289, 
    -0.10475624, -0.35250372, -0.19693726, 0.44729099, -0.36604258, 0.37592810, -0.03522182, 0.02727186, -0.32039055, -0.11826088, 
    0.54597193, -0.39076805, 0.05304315, 0.41100636, 0.37714350, 0.12872241, -0.30680272, 0.12721409, 0.42649680, -0.35137415, 
    0.16485187, -0.18318009, -0.05428311, -0.32043695, 0.08283907, -0.31333867, -0.11250547, 0.16907720, 0.13297719, -0.17647216, 
    -0.31384113, -0.34901696, -0.26612994, 0.11216321, 0.34062403, -0.28123733, -0.26211476, -0.02450674, -0.03576972, -0.04625777, 
    0.22793278, 0.11148822, 0.03607535, -0.23931423, 0.09148355, -0.13714974, 0.34948498, 0.40462267, -0.25154740, 0.29597539, 
    -0.18191355, 0.43698394, -0.31693777, 0.12419085, 0.83768028, -0.13132338, -0.51719099, -0.06918584, -0.21027707, 0.11589834, 
    0.22152752, 0.40214959, 0.54316348, 0.58684254, 0.12887309, -0.12716147, -0.27229038, 0.05768795, -0.13737707, 0.45119178, 
    0.20670055, -0.45970246, -0.18070969, 0.07816068, 0.06024081, 0.48093274, -0.20272684, -0.46771902, 0.41685140, 0.07220762, 
    -0.28033683, 0.24626955, -0.30149445, 0.14748479, 0.16607201, -0.26857504
};

const type_t B3[16] = {
0.33588436, 0.32584807, -0.38351205, -0.23084475, -0.16840628, 0.40758780, -0.19266930, -0.09281311, -0.35618308, 0.53852779, 
    -0.48996639, 0.16396870, 0.02913150, 0.06764208, 0.32763058, -0.05841372
};

const type_t W_fc1[5120] = {
0.11873248, 0.48269713, 0.25571355, -0.17273125, 0.01701642, 0.04403237, -0.18336964, -0.13883519, -0.16464712, -0.10328643, 
    0.45652866, 0.08527441, -0.03292433, -0.07031141, -0.11647367, 0.15698171, -0.05822420, 0.10027473, 0.05757407, 0.09556630, 
    0.03389306, -0.04117991, -0.39172545, -0.15618668, 0.06158084, -0.17557541, 0.01015196, 0.15711190, 0.23641939, -0.07783952, 
    -0.07213394, 0.10273866, -0.29583859, -0.11425208, -0.19474955, 0.28709230, -0.03494292, -0.12863900, -0.05312587, -0.20649913, 
    0.28786340, -0.12433981, -0.05703463, -0.16921182, -0.08725460, -0.19090329, 0.00333200, -0.01837219, 0.21675034, -0.03135001, 
    -0.25052372, -0.03369117, -0.17795351, -0.23531209, -0.38240537, 0.22757670, -0.13878287, 0.12759984, -0.19382222, -0.04698686, 
    -0.10041133, 0.03401146, 0.54251659, 0.07531714, 0.18223722, -0.12768930, 0.13230149, -0.09022316, 0.10963540, -0.10170472, 
    -0.08744670, -0.02999952, 0.19459298, 0.38082612, 0.08441370, -0.27537584, -0.22089955, -0.28568962, -0.07962607, 0.18739633, 
    0.30759668, 0.18818626, -0.01486485, -0.06239871, -0.35666138, 0.12775055, -0.13689284, 0.11238542, -0.06705091, 0.21039265, 
    0.22551420, 0.36690784, 0.21166794, 0.33647361, 0.08375714, -0.06110511, 0.37460524, -0.03099786, 0.09745448, -0.00699107, 
    0.17402408, 0.30534309, 0.34713829, 0.11038218, 0.09699174, -0.12814367, 0.12841274, 0.08691444, 0.08113438, 0.04376900, 
    0.07069419, -0.00439636, -0.08196366, -0.09564007, 0.48450974, 0.16404729, 0.20252275, -0.08217246, 0.02073653, -0.19184758, 
    0.16201718, -0.07074373, 0.24880695, 0.12721962, 0.38600427, 0.10422314, 0.03170369, 0.11350481, 0.09629989, -0.19266531, 
    -0.06951123, 0.24561425, 0.44895437, 0.35459340, -0.00154383, 0.05023199, -0.26880246, -0.04958978, -0.17051239, -0.05500438, 
    0.23181279, 0.41390154, -0.01916546, -0.04512439, -0.03209295, 0.20629628, -0.05562581, -0.18654293, -0.15236363, 0.14555632, 
    -0.09533843, -0.34047517, 0.13514462, -0.20362175, -0.02758623, 0.12962504, 0.06424355, -0.07051681, 0.04508710, -0.01460634, 
    0.01053140, 0.15910871, -0.05180369, 0.03422363, -0.05969656, 0.23993561, -0.09597529, 0.06790113, -0.38334095, -0.02267402, 
    -0.05541775, 0.20849994, -0.00624638, -0.22101329, 0.19533473, 0.27613524, -0.15262052, -0.01000230, 0.31343120, 0.08681376, 
    -0.38162017, -0.15231408, -0.15449499, 0.11482587, -0.10774153, 0.31462109, 0.14099240, -0.13136107, 0.09684557, -0.14287508, 
    0.10201722, -0.30741569, 0.22578925, -0.18340185, 0.14546387, -0.02015803, 0.26327968, -0.19517712, -0.07773097, -0.24471462, 
    0.25116065, -0.02646798, 0.20629838, 0.05024744, 0.07418766, 0.26951626, -0.06482521, -0.01138672, -0.22733422, -0.17422865, 
    0.26138145, -0.00168555, 0.04744550, -0.19566011, -0.10669211, -0.21216974, -0.01543983, 0.24131750, -0.12509614, 0.08685445, 
    0.32246444, -0.07355212, 0.15497045, 0.19382083, -0.00375224, 0.05471884, -0.03068797, -0.15804754, 0.15611784, 0.04389065, 
    -0.00466540, 0.09055111, 0.17368993, 0.10564981, 0.22746040, -0.17718120, 0.30022794, -0.21137637, 0.08682102, -0.16546084, 
    0.10227542, 0.04160937, -0.00722147, 0.25460756, 0.12027690, -0.06043409, 0.18519557, 0.27521616, -0.03794642, -0.03792897, 
    -0.22234891, -0.28677660, -0.13378440, -0.13522983, -0.34732875, 0.11540763, 0.09035145, -0.06936220, 0.17681499, -0.06288728, 
    -0.09609331, -0.05246290, -0.20064463, -0.11616553, -0.14418297, 0.08152768, 0.16783720, -0.04018784, 0.20056742, -0.16131216, 
    -0.18896304, -0.09591175, 0.08661826, 0.02506749, -0.04412848, 0.09780388, -0.17846377, 0.14531864, 0.11590043, 0.06935479, 
    -0.38554999, 0.00310069, 0.03403299, -0.20395319, -0.31368616, 0.35473034, 0.27492502, 0.05442128, 0.11200033, 0.26061964, 
    -0.05076556, -0.17487784, -0.35758707, -0.05594443, -0.37710449, -0.24996182, 0.00884052, 0.04055610, -0.05969919, -0.04795870, 
    0.31459367, -0.30105707, 0.21274382, 0.01205249, 0.17824788, 0.13599369, 0.26559803, -0.16346703, -0.08172700, -0.00000415, 
    0.13054906, 0.22072256, -0.10183291, 0.11380111, -0.01557563, -0.00030196, -0.20095938, 0.00841804, 0.13326034, 0.15599205, 
    -0.19951992, -0.13807677, -0.05735981, -0.07404675, 0.31953159, 0.04991074, 0.05273519, 0.03037449, -0.24198399, -0.22576636, 
    -0.02386008, 0.24829838, -0.08505438, 0.24370770, 0.00995748, -0.21292953, 0.21985994, 0.01147429, -0.17507206, 0.19368887, 
    0.14103797, 0.06657140, 0.10088891, 0.21862586, -0.16485584, -0.16358744, -0.11647737, 0.02513395, -0.03144877, 0.13391495, 
    0.04281123, 0.04652663, -0.24851398, 0.23116712, 0.16321222, 0.16129124, -0.06589954, -0.13156649, -0.09329493, -0.01533114, 
    0.13437217, 0.03612703, 0.04167755, 0.25500190, -0.12600730, 0.16886047, 0.27506754, -0.26751733, -0.12886192, 0.27120212, 
    0.11344909, 0.32514572, 0.13116233, 0.02404530, 0.27653456, 0.25347230, 0.08917129, -0.24572802, -0.00626009, 0.28112036, 
    0.15173124, -0.14088272, -0.02099503, 0.08634930, -0.13018072, -0.07351580, 0.15433621, -0.02268856, 0.07754182, -0.17054622, 
    0.23002370, -0.08174888, 0.02177548, 0.05162153, -0.30525735, 0.10761375, -0.01390044, 0.24809627, 0.08823126, 0.11415285, 
    0.20848660, 0.00913808, 0.08481944, 0.04476527, 0.25227731, 0.02381622, 0.14888106, -0.07405640, 0.06197645, -0.06517545, 
    -0.22101858, -0.01903569, -0.16503803, 0.13886602, -0.11812752, -0.03401933, -0.17081261, -0.24230044, 0.25549465, 0.16368327, 
    -0.15129739, 0.23090170, 0.18224280, 0.08767402, -0.09093555, 0.32174999, -0.05924552, 0.23599118, 0.18962222, -0.13066377, 
    -0.03434654, 0.16600248, 0.05958152, 0.29532418, -0.01851453, 0.03228128, 0.02451569, 0.18866296, -0.23398878, 0.35061452, 
    -0.14759496, -0.14474231, -0.10859633, -0.09884159, -0.15399399, 0.08510560, 0.15819167, -0.01101197, 0.21515997, 0.13337865, 
    -0.14626947, 0.18897866, -0.01384361, -0.25939453, -0.13870914, 0.20620783, 0.20396087, 0.23251946, 0.01374334, 0.14693940, 
    0.37874502, 0.10427617, 0.10596384, 0.16160187, 0.03201377, 0.30945608, -0.09891138, -0.10700861, 0.33043346, -0.17938624, 
    -0.14131443, -0.18338528, 0.08362475, 0.07024137, 0.14497696, 0.27040881, -0.08197848, -0.12824549, -0.05664691, 0.31699494, 
    0.12691166, 0.09406164, 0.06906922, -0.10704697, -0.01686613, -0.04599240, 0.15435210, -0.14271444, 0.02372075, -0.21714248, 
    -0.21775426, -0.05488227, -0.09466550, 0.17297597, 0.27913690, 0.09182902, 0.12850530, -0.20184198, 0.25215486, 0.11168023, 
    -0.17481788, -0.40315595, 0.24757965, 0.26110911, -0.01951276, 0.06894856, 0.12980117, 0.34502915, -0.16426489, -0.25438893, 
    0.15107472, -0.30563363, -0.01857749, 0.29797146, -0.16180165, 0.16437240, 0.25219953, -0.05728630, 0.10469406, 0.11585142, 
    0.01074434, -0.01984908, 0.05489979, -0.05078772, -0.25292945, -0.00668352, -0.02557508, 0.18181625, -0.12135652, -0.08285177, 
    0.23127535, 0.11242452, 0.16546278, -0.10172493, -0.09580602, -0.10975946, 0.08879596, -0.04551094, 0.02682784, 0.05813570, 
    -0.24290743, -0.01536806, -0.26755127, 0.13089994, 0.07375735, 0.18338317, 0.12376558, -0.31414652, -0.16257055, -0.52657050, 
    -0.00071538, 0.04397703, -0.22805460, 0.27370414, -0.14347614, -0.08816461, -0.21849301, 0.23669754, -0.19813250, 0.05711528, 
    0.38256916, 0.29680371, 0.00186412, -0.10528581, -0.36598882, -0.07540914, 0.01792935, -0.19833854, 0.06666151, 0.05750433, 
    -0.41441628, -0.13408042, 0.06148297, 0.22074731, -0.33801025, 0.03428365, 0.24153326, 0.30113307, -0.09882719, 0.11224119, 
    -0.14452595, 0.08911049, -0.04454320, -0.00048996, 0.05293731, 0.01626031, 0.04251462, -0.01608030, -0.11355562, -0.19404709, 
    -0.01264342, -0.27645960, 0.20473357, 0.06962317, 0.08323087, 0.33653197, -0.19824478, -0.04220429, -0.23423502, -0.23115867, 
    -0.22370142, -0.04424993, -0.10772027, -0.03003770, 0.31910121, -0.28430310, 0.02950262, -0.08352806, -0.28837150, -0.20260857, 
    0.09968638, 0.30914634, 0.28987312, 0.08548941, -0.02446216, -0.07262759, -0.08243211, 0.25237608, -0.03831258, -0.04318722, 
    -0.15936041, -0.12788408, -0.01766729, -0.03137096, -0.23379441, 0.25896782, -0.06857632, -0.07871087, -0.34671900, 0.39912781, 
    -0.04946806, -0.45809898, -0.25091484, -0.11749481, 0.21238044, 0.39473513, -0.06684096, 0.06337107, 0.20357344, 0.17252196, 
    -0.20280732, 0.29019064, -0.10804782, -0.08982128, -0.06240499, 0.16968293, 0.07261461, 0.18525288, 0.08299896, 0.18955943, 
    -0.22527620, 0.14238469, 0.41544902, -0.03953592, 0.02513901, -0.16307764, 0.05269198, 0.44415835, -0.05852151, -0.01263903, 
    0.09732646, 0.12502955, 0.03346177, 0.10041621, 0.10068946, 0.13680534, 0.19562168, 0.26176754, -0.10160840, 0.03596706, 
    0.19535577, 0.11926921, -0.05255079, 0.08742560, 0.30511391, 0.26482552, 0.06435917, -0.05000507, 0.20612971, -0.18611249, 
    -0.17037483, 0.38716385, 0.05837892, 0.06032661, 0.41568339, 0.27602348, -0.29207820, -0.36841729, 0.13666897, -0.18322048, 
    0.10381141, 0.25787911, 0.24690980, 0.15124989, -0.04115754, -0.03435544, 0.14034821, -0.11262956, -0.31293288, 0.07932980, 
    0.03951212, -0.18517351, 0.24659072, 0.33953309, 0.02805076, -0.02422769, -0.04501333, 0.15630552, 0.32701358, -0.10648956, 
    -0.18044871, 0.18759552, 0.10701229, 0.04968658, -0.23268235, 0.11555754, 0.07202286, -0.18875876, 0.09859048, -0.11304697, 
    0.14211939, 0.24194348, -0.29926220, 0.13562082, 0.01249620, 0.16455859, 0.13878308, -0.17375028, 0.04428883, 0.37328672, 
    0.19267468, -0.12917283, 0.36080289, 0.09654871, 0.01715277, -0.16205832, 0.11262361, -0.10663773, -0.24741749, -0.04236537, 
    -0.24661273, -0.24510288, 0.04381628, -0.00103435, 0.02075818, 0.06412419, -0.09832823, 0.07222746, 0.15684329, -0.05980096, 
    0.27488890, 0.10053267, -0.11565051, 0.18934192, 0.02821386, 0.16577913, -0.16977437, -0.21538652, 0.19930679, -0.28963822, 
    -0.09867636, 0.15343651, -0.16338338, -0.09582673, -0.07154703, 0.14517868, 0.04701188, -0.11546248, 0.34761587, 0.00391578, 
    0.13470878, -0.16781007, 0.03320867, 0.24492732, -0.30539897, 0.07757518, 0.03194520, -0.01971388, 0.18482523, 0.04226384, 
    0.23788697, -0.06911459, -0.10494357, 0.14789525, -0.29296073, 0.26026517, -0.07695156, 0.12574774, -0.28059545, -0.02288801, 
    0.20965634, -0.13239492, -0.23832326, 0.18594395, 0.14718501, -0.05432552, 0.16574225, -0.16490509, -0.00925180, 0.10210984, 
    0.19182594, 0.19391739, -0.02498776, -0.21789114, 0.07386419, 0.06752770, -0.02027361, 0.08734313, -0.07608249, -0.01139254, 
    -0.53158915, -0.23536566, 0.16567819, -0.11906084, 0.06870595, -0.16428940, 0.19051528, -0.15387145, -0.24026528, 0.17822039, 
    -0.02721534, 0.24207427, -0.07951134, 0.02116792, 0.12732752, 0.21409839, -0.18408427, -0.09651832, 0.29526299, 0.02277534, 
    0.22499155, 0.09087833, -0.00852130, 0.13761878, 0.25168011, 0.04296974, 0.17327164, 0.18729737, 0.30366063, 0.28384539, 
    0.08496866, 0.22371209, 0.21237688, 0.01595302, -0.14414673, 0.20697373, 0.12763132, -0.11599648, -0.24227382, 0.28137296, 
    -0.19380207, 0.03347860, 0.23449610, -0.05883437, -0.09303258, -0.11348014, -0.15683794, -0.03597826, 0.23070475, -0.11801352, 
    -0.39880493, 0.22805592, 0.09478733, 0.12245250, -0.01893369, 0.07619938, -0.26748395, -0.10649695, -0.25314546, 0.28092131, 
    -0.15088163, 0.25010172, 0.24977337, -0.27446651, 0.10759103, -0.22629708, 0.09199430, 0.05043238, 0.02375905, -0.32077518, 
    0.13563405, 0.02919177, 0.18357313, -0.09161246, 0.25073463, -0.13033836, 0.32462144, -0.09808410, -0.04602576, 0.13110606, 
    0.19668463, 0.17568536, 0.13062750, -0.00570230, -0.15142210, -0.03256886, -0.09317946, -0.17166424, -0.04336701, -0.00418140, 
    -0.04164733, 0.13106199, -0.02349967, -0.23950277, 0.20186387, -0.18767476, -0.06144737, 0.16915849, 0.15397543, 0.09819292, 
    0.22088878, -0.11272480, -0.18571012, -0.04370446, 0.03709978, -0.10433108, 0.06981103, -0.00326317, -0.01746288, -0.13001186, 
    0.01760644, -0.16200146, 0.15428716, 0.21358554, 0.07054430, -0.22345258, -0.09416112, 0.24136938, -0.10764772, 0.09840713, 
    -0.01584406, 0.03844420, -0.10615861, 0.22258894, 0.06469969, -0.15538654, 0.23159376, -0.26958075, -0.23020230, 0.11278019, 
    0.09367647, 0.23909917, 0.14718200, 0.21547030, -0.12070203, -0.10926793, -0.13667934, 0.20016740, 0.12421859, -0.03133449, 
    -0.27194601, -0.18961455, 0.05245274, 0.32388657, -0.25387532, -0.05935686, -0.27117240, -0.12139627, -0.20460936, -0.09917816, 
    -0.31791267, -0.21473116, 0.19140461, -0.30343801, -0.13397877, -0.14965510, -0.05328627, -0.41306180, -0.15800741, 0.00369773, 
    0.10833384, -0.28514734, 0.14296187, -0.07895699, -0.21056792, 0.17444928, 0.02463307, -0.14723949, 0.00432339, -0.05532847, 
    0.19739573, 0.25248829, 0.11010116, 0.00146262, 0.14760076, 0.02681587, 0.17531721, -0.06893626, 0.29464239, 0.08904920, 
    -0.08591101, 0.20842957, 0.01863261, 0.26061097, -0.12188131, 0.22337458, -0.01786261, 0.32294255, 0.11960828, 0.21577130, 
    -0.06675376, 0.01068627, 0.25455347, -0.16684359, 0.17776489, -0.25806123, 0.34653932, 0.02311391, -0.09594247, 0.09516108, 
    0.21729535, -0.18292531, -0.14664660, -0.06152703, 0.28744549, -0.03258061, -0.15359378, -0.00920051, -0.16800590, -0.19453621, 
    -0.00160312, -0.29983056, 0.14384584, 0.03243616, -0.27855536, -0.07025333, -0.03353969, -0.02545784, -0.28033924, 0.07048826, 
    -0.01520428, 0.31946394, 0.24169339, -0.09585574, -0.12529410, 0.06156175, -0.11849550, -0.16658290, -0.16359667, -0.12293715, 
    0.00681963, 0.33589208, 0.15526089, -0.08503342, 0.07351677, 0.05698002, -0.04168878, 0.20111679, 0.11305518, 0.02413182, 
    0.17786589, -0.18940240, 0.20328328, 0.15223730, 0.23270400, 0.23729257, -0.15572955, 0.02405295, -0.14976905, -0.03873590, 
    0.02511191, 0.01859616, -0.05391613, -0.15942807, 0.18133655, -0.11931153, 0.18380776, -0.13331720, -0.01393719, 0.27673060, 
    0.07420363, -0.03555052, 0.31297830, 0.02891935, -0.00995179, 0.05957593, 0.07638860, -0.39181700, -0.09232581, 0.09616919, 
    0.01686472, 0.33391166, 0.15371174, -0.03940327, 0.12105291, 0.09155394, -0.21425293, 0.10005200, -0.23267183, -0.13882554, 
    -0.17041871, 0.12851070, 0.15466936, -0.07209580, 0.27862400, 0.13425460, -0.19478527, 0.18357186, 0.17634238, 0.02122536, 
    0.12727262, -0.00784053, 0.25088215, 0.02637111, 0.28972730, 0.08805574, 0.21463390, 0.08414534, 0.05164869, -0.17557888, 
    0.09968100, -0.28146446, 0.22325462, -0.07439903, -0.14636946, 0.05748937, 0.33343190, -0.11994440, -0.08556335, 0.25677299, 
    0.15013714, -0.07722573, 0.13618706, -0.05818248, 0.02584627, -0.08785219, -0.20879248, -0.41878101, -0.00322226, -0.18564874, 
    -0.03754858, -0.00390615, -0.04065274, 0.06436229, 0.02801294, 0.02025660, -0.29305133, -0.00906888, 0.13162600, 0.04923614, 
    0.00228329, 0.47158366, -0.08999430, 0.01505712, 0.13346583, 0.36171097, 0.17942952, -0.16406454, -0.35645446, -0.42443654, 
    -0.30081147, -0.03717720, 0.06962994, 0.20485352, 0.23991558, 0.06278491, -0.23078164, -0.17364717, 0.10170312, -0.17225078, 
    0.11705515, 0.03941148, -0.13441667, 0.21379329, -0.37965778, 0.05983360, -0.28952920, -0.17261168, -0.25497174, 0.12137256, 
    -0.05318316, 0.11961184, 0.22964528, -0.05597068, -0.02804013, 0.26876348, -0.14257747, 0.09495071, -0.23289618, 0.34966752, 
    0.30070844, -0.38500944, 0.14654943, 0.00129163, 0.15307698, 0.13094203, 0.05586998, 0.07396773, -0.10974156, 0.14429095, 
    0.00465797, -0.07937918, -0.04835292, -0.02969069, -0.20137848, 0.00212356, -0.11170116, -0.30099720, 0.16933741, -0.03239722, 
    0.39579639, -0.04110831, 0.03014380, 0.20031941, -0.14443931, -0.07544895, 0.16373970, -0.11915683, 0.09898647, 0.27323118, 
    -0.45133048, 0.10353395, 0.23344083, -0.09258048, -0.21705589, 0.19385940, -0.11534319, -0.22374286, -0.02961622, 0.05466016, 
    -0.03522503, 0.46952662, 0.14479403, 0.03557027, 0.18030383, -0.15434316, -0.22280066, 0.10540557, -0.20088233, -0.06953514, 
    -0.11185852, -0.15032443, -0.01734050, -0.04408060, -0.22483423, 0.30826539, 0.16422236, -0.04533217, -0.41210636, 0.23773649, 
    -0.33507121, 0.01519056, -0.03315864, -0.20306520, 0.15378009, 0.12946437, 0.25920108, 0.23888016, 0.14516416, -0.01942107, 
    0.00181516, 0.00144320, 0.22429642, 0.32261077, -0.18699922, -0.16600294, -0.30013475, -0.19050094, -0.27364326, -0.30314887, 
    -0.44618878, -0.03716555, -0.03831046, 0.08104639, 0.23647302, -0.18261138, 0.21698251, 0.05945111, 0.00024753, -0.30604202, 
    0.05017338, -0.21052825, -0.02327406, -0.01788736, -0.07025348, -0.15117136, 0.00798086, 0.06216519, -0.21219318, -0.06114215, 
    0.19282599, -0.15311401, -0.10405442, 0.28033346, -0.01302921, 0.04824348, -0.02028766, -0.13603342, 0.05372881, 0.19554763, 
    -0.00263478, -0.10626850, -0.22123164, -0.21585311, 0.13219683, -0.23096895, 0.06209313, 0.18747467, 0.14009207, 0.03852189, 
    -0.26775834, -0.26226947, -0.01951193, 0.00051303, -0.33508858, 0.28108460, 0.21122178, -0.04300432, 0.07512074, 0.21197475, 
    -0.11320332, 0.08539057, -0.15302686, 0.07424561, -0.21186064, -0.13773508, -0.07096472, 0.02791837, 0.01845467, 0.35082218, 
    -0.00583766, -0.20178916, -0.09513732, 0.01132216, 0.05103286, -0.11892360, 0.39456570, 0.26527864, 0.05864872, 0.21994151, 
    -0.19300641, -0.22333822, 0.02447055, 0.10496867, 0.04815850, 0.23388821, 0.12822184, 0.03901595, -0.07918593, 0.00042111, 
    0.19505805, -0.20298769, -0.26009989, 0.18247095, -0.39852467, 0.32779998, 0.03338157, -0.00285310, 0.16409391, -0.30518705, 
    -0.04090591, 0.02681122, 0.07941429, 0.23915729, 0.50450450, 0.04976526, -0.05005547, 0.21491140, -0.18020050, 0.04659198, 
    -0.33377105, -0.08391654, -0.02652462, -0.16409279, -0.03298599, 0.11070138, 0.27323741, -0.15795927, -0.16711552, -0.08955354, 
    0.19556059, -0.24042410, 0.13540715, -0.10154070, -0.11436783, 0.27001590, -0.11603515, -0.01376732, -0.03645990, 0.38990435, 
    -0.05049321, 0.16990566, 0.06638770, -0.19404182, 0.02084292, -0.11982227, 0.15703149, 0.26644117, 0.39482948, 0.14044163, 
    -0.36412311, -0.20603891, -0.28014997, 0.14577298, -0.10264967, 0.06905189, 0.26366696, -0.13647120, 0.12392775, 0.45772764, 
    0.18087748, -0.05777946, 0.17973495, -0.06592974, 0.22529113, 0.09147610, -0.35650808, 0.14643417, -0.14456336, 0.06743892, 
    0.11427215, 0.17091514, -0.07629336, -0.21461758, -0.33153993, 0.08198959, -0.09976590, 0.27501947, -0.00351120, -0.23608263, 
    0.09105047, -0.05756644, -0.09176923, 0.01488853, 0.37953043, 0.00246955, -0.13871923, -0.03122331, 0.10920206, 0.03713882, 
    -0.19580208, -0.05606445, 0.01336449, 0.26842645, 0.01712031, -0.33233809, 0.08418930, -0.10303298, 0.20786041, -0.16520269, 
    -0.00788094, 0.01269258, -0.34296721, -0.03304995, 0.49421322, 0.02220386, 0.05243786, -0.12344162, -0.10566668, 0.11122578, 
    -0.05347215, 0.25170684, 0.02195579, 0.13300931, 0.05635309, -0.04238366, -0.25451159, 0.03357099, -0.12152919, -0.24302244, 
    0.36225188, -0.16369613, -0.33300361, 0.19849513, -0.18542552, 0.03750628, 0.16353378, -0.17416048, 0.00858335, 0.31401715, 
    -0.01450512, 0.14958137, 0.11619715, -0.06116702, -0.09994826, 0.22229992, -0.06348386, -0.00083426, 0.15446368, -0.00381444, 
    -0.21934846, -0.06107680, 0.18733273, -0.04970202, 0.34904009, 0.08675691, 0.14097916, -0.11694453, 0.01122478, -0.23894049, 
    -0.24785766, 0.24451609, 0.05593181, 0.23160779, 0.06448164, -0.09649768, -0.10407417, 0.01412978, -0.18753923, 0.14362721, 
    0.40939987, 0.15600623, 0.22936751, -0.21656525, -0.18469170, -0.00460421, 0.30790091, 0.13856584, 0.11894299, 0.11364813, 
    0.08452557, 0.24632125, -0.26312995, -0.09314026, -0.04991243, 0.25654802, 0.17347218, -0.41557378, -0.37276375, -0.37935576, 
    -0.46377799, -0.19865140, 0.32950193, -0.05114819, 0.22882909, 0.03338274, 0.18668529, 0.19199039, 0.16724136, -0.33892426, 
    -0.04639008, 0.17520288, 0.13616428, -0.18178119, -0.17479047, 0.01426624, 0.02727799, -0.13274764, 0.01913946, 0.04806520, 
    0.07252438, -0.24153736, -0.27758306, -0.16092128, 0.13038307, 0.16871597, -0.21151331, 0.10081396, 0.12114403, -0.16856200, 
    -0.04920487, -0.22219971, -0.15498193, 0.18553331, 0.24432078, -0.19263490, -0.19769913, 0.00056215, 0.25674239, -0.00094829, 
    0.05984290, -0.12600255, 0.00924785, -0.25307447, -0.07969653, 0.24953763, -0.15121056, -0.03781495, 0.25426233, -0.08844668, 
    0.23194300, 0.26309511, 0.11474408, -0.27412102, 0.28244808, -0.13021018, -0.20945118, 0.13765298, -0.18588126, -0.15254714, 
    -0.25808722, 0.02541901, -0.22721092, -0.21031372, -0.23162420, -0.15398085, 0.07448277, -0.00917664, 0.19634545, -0.06517847, 
    0.06025595, -0.07736502, 0.16541322, 0.23839027, 0.04534256, -0.01249596, 0.17644635, 0.26714748, 0.26023108, 0.04924306, 
    -0.23362486, 0.26070893, 0.08012234, -0.17569935, -0.22131789, 0.22304028, -0.06863186, -0.21237598, -0.20046106, -0.14350039, 
    -0.01421355, -0.06627392, -0.19551799, -0.03073695, 0.21174026, 0.07518835, 0.31140295, -0.08681995, -0.20858234, 0.15876594, 
    -0.09350120, -0.23678456, 0.04147452, -0.02115813, 0.26997826, -0.40695372, -0.00404420, 0.07562671, 0.16880307, -0.05099389, 
    0.13468029, 0.05989957, 0.19209707, -0.25051525, 0.21046081, 0.19311444, -0.36319360, 0.25056204, 0.32698762, -0.36752695, 
    0.13574101, 0.01592659, 0.09077069, -0.05729201, -0.32509813, 0.00143993, 0.22540377, 0.25157338, -0.29069811, 0.26899481, 
    0.05820234, 0.10959164, -0.19257122, -0.30821204, 0.16141260, -0.35331511, -0.18495609, 0.04797730, -0.11836913, -0.23972277, 
    0.19155528, 0.16828504, 0.14377846, 0.02442460, -0.09787343, 0.13859326, -0.16192770, -0.00120138, 0.17289603, -0.16661417, 
    0.33587351, 0.05278710, 0.11144484, 0.29774299, -0.30079082, 0.07190464, 0.08735269, -0.26081577, -0.03152176, 0.04709193, 
    -0.03682294, 0.04856478, 0.13703959, -0.33262044, -0.11793078, 0.06800879, -0.13064216, 0.07668199, 0.05061793, -0.06051135, 
    -0.22206466, -0.08458949, 0.03559143, -0.30002716, 0.04218533, 0.08144176, 0.12063873, 0.13315232, -0.26562160, -0.28495693, 
    0.11949267, 0.29193580, 0.14693095, -0.14487776, 0.26206702, -0.15934353, 0.19243053, -0.42664191, -0.05105855, -0.11405063, 
    0.00887037, -0.07160066, 0.05619757, 0.29276103, -0.03830827, 0.20785934, 0.16856678, 0.36268663, -0.27569717, -0.16689025, 
    -0.11419299, 0.09161920, -0.19978151, -0.34170678, 0.14967528, 0.39558223, 0.09131379, -0.03229988, 0.03294431, 0.11027330, 
    0.04111939, 0.07282810, 0.14571327, 0.07307436, -0.28739738, -0.14693111, 0.10506471, -0.14373365, 0.12658769, -0.10254838, 
    -0.01821755, 0.27689755, -0.01109743, 0.06532913, 0.12993370, -0.21799493, 0.24029034, -0.09946328, -0.38975331, -0.34547752, 
    0.05764076, -0.07743664, 0.04778872, 0.02158580, -0.02131617, 0.00021662, -0.20323175, -0.04992335, 0.24514690, -0.31989959, 
    -0.08671639, 0.03123083, 0.25906074, 0.17252532, -0.26235482, 0.24907245, 0.05445916, 0.19716620, -0.27510294, 0.22340742, 
    -0.34290040, 0.02433138, 0.07706740, 0.04320425, 0.12423537, 0.08972604, 0.30476150, 0.02423629, -0.18857034, -0.19369799, 
    0.18001707, 0.04671100, 0.05627859, -0.04070067, -0.11022922, -0.13729890, -0.21514001, 0.18443608, 0.09378419, 0.27575839, 
    0.17633229, 0.11847930, -0.07070319, 0.10288607, 0.17778893, 0.02573095, 0.06580614, -0.12203708, 0.02110647, 0.05411766, 
    -0.23244594, 0.05560726, -0.27659699, 0.22827148, -0.07474931, 0.19724862, 0.01954531, -0.09866537, -0.05748285, 0.14546072, 
    -0.00759770, -0.23643424, -0.13644558, -0.19255415, -0.05860693, -0.07106749, -0.16097376, 0.13589548, -0.28092813, 0.15469469, 
    0.04311927, 0.27497029, 0.12861426, -0.05635031, 0.14118358, -0.25622782, 0.18287194, -0.07342257, 0.01516248, -0.10867064, 
    0.11379057, -0.07287880, 0.26527485, 0.21262763, -0.05097600, -0.04984033, 0.13436788, 0.23754573, 0.15920338, -0.16740882, 
    -0.01948451, 0.03080275, 0.03185640, 0.08449900, -0.00947135, -0.04195965, -0.26333335, -0.11059678, -0.00161067, -0.18506496, 
    0.18620235, -0.00810559, -0.11626876, 0.18622234, -0.10402948, -0.01758767, -0.05011899, -0.13983001, 0.14792788, 0.13585100, 
    0.25762293, 0.28170785, -0.34954420, 0.24902143, 0.19103056, 0.12507071, 0.28696534, -0.10506299, 0.00304855, 0.08503225, 
    0.23022591, -0.07799291, 0.15417825, 0.27968517, 0.00409177, -0.38404146, 0.09545159, -0.11948642, -0.24828109, 0.08848409, 
    0.03990236, 0.35668018, 0.22483870, 0.10605755, 0.23834433, -0.17345384, -0.27461466, -0.32982889, -0.04655827, -0.30828699, 
    0.13911065, 0.33800811, 0.08598201, 0.00035847, -0.25007585, -0.16949338, -0.08145626, -0.20082827, 0.04394430, 0.17012985, 
    0.15540245, -0.03461729, 0.17379358, 0.14450917, -0.59834152, 0.30818379, 0.20718902, 0.17997488, -0.10747200, -0.18245333, 
    0.01174132, 0.02578603, -0.00775557, -0.14721051, -0.01846674, -0.08352810, 0.10455718, -0.18838166, -0.09527487, -0.07545976, 
    -0.08253757, -0.16555843, -0.19627105, -0.04775568, 0.25589705, -0.15812853, -0.13520345, -0.03861808, 0.05375721, 0.11092672, 
    -0.07308302, -0.06357126, 0.26381630, 0.36459708, 0.20535618, 0.22549713, 0.17184216, 0.02832570, 0.22090052, 0.22541469, 
    0.18921268, -0.09920971, 0.08579924, -0.22019739, 0.24251530, 0.17391573, -0.21264409, 0.00020491, 0.25351918, -0.14640786, 
    0.19120611, -0.13635713, -0.01621768, 0.22102602, -0.08657460, -0.17396532, -0.08244651, 0.10064661, -0.02328566, 0.18998937, 
    -0.04663583, 0.11249914, -0.01320746, -0.10708598, -0.00119413, -0.22165065, -0.12593001, -0.07939384, 0.04396918, -0.21548712, 
    -0.16616620, 0.05234158, 0.02761086, 0.21884403, 0.13248612, -0.12659733, -0.07308973, 0.04558517, 0.21527386, -0.20029181, 
    -0.34890220, 0.31643274, -0.05277742, -0.07455249, 0.28471014, 0.13214362, 0.15678117, -0.10994581, -0.11518412, -0.05436445, 
    -0.20619830, 0.13933557, 0.24806239, -0.02822622, 0.17959467, -0.05199526, 0.01864873, -0.14815795, 0.12464508, -0.15163888, 
    0.01591198, 0.30829072, 0.06025480, 0.25920117, 0.21671510, -0.05779744, 0.30282980, 0.33492991, -0.04194175, 0.14667866, 
    -0.22697355, 0.18900068, 0.15533330, 0.02472549, -0.30134761, 0.01652645, -0.13320784, -0.08726209, 0.14389084, 0.05649529, 
    -0.05254146, -0.04298310, -0.28728196, 0.13210025, -0.02457367, 0.02228354, 0.14546952, 0.01853486, 0.01876298, 0.20907743, 
    -0.01030802, -0.10438567, 0.06089690, -0.23017177, 0.04578072, -0.13243425, -0.25706023, 0.20648901, -0.23327719, 0.16538714, 
    0.21168359, -0.09598514, -0.00191046, 0.05050016, -0.04452258, 0.23573272, -0.15115720, -0.02031175, 0.25318742, -0.24748702, 
    -0.03725544, -0.09853297, -0.12520112, -0.17770471, -0.02438781, 0.25598419, -0.02554948, -0.00509945, -0.17937374, 0.20598219, 
    -0.02518350, 0.05428615, -0.17555165, 0.19422290, 0.23924918, -0.05961389, -0.00716386, 0.14266881, -0.27899015, 0.27124354, 
    -0.02513287, 0.35208690, 0.09342729, -0.23230290, 0.09220144, -0.19898890, -0.22813788, -0.13905552, -0.31397757, 0.24206629, 
    -0.04659630, -0.29037735, -0.68063998, 0.36480385, 0.07767499, 0.39590737, 0.29963282, -0.10651937, -0.18180837, 0.14675839, 
    0.07266682, 0.56991845, 0.27748781, 0.17178917, -0.16332717, 0.13569629, 0.52520645, 0.55197358, 0.19586726, 0.49188906, 
    -0.11432968, -0.05881907, 0.47228539, -0.15479749, -0.21816565, -0.00995160, -0.01162519, -0.18321270, 0.02490605, 0.16833274, 
    -0.22421072, -0.28949088, 0.24281201, -0.17431961, 0.73269147, -0.00998159, 0.12617521, 0.05902699, 0.36829218, 0.24323721, 
    0.40875858, 0.11115789, 0.10815774, 0.32964951, 0.26569739, -0.34264880, -0.21247332, -0.12136769, 0.23816070, 0.03081480, 
    0.18691735, 0.27454352, 0.27861422, 0.62763566, 0.02167570, 0.21950614, -0.20929757, -0.00589209, -0.45119634, -0.13228159, 
    0.03435244, 0.05267568, 0.35193881, 0.47495180, 0.06577270, 0.16341870, -0.06013414, -0.30690160, 0.14256452, -0.07018137, 
    0.15616794, -0.04069499, -0.06029177, 0.02878115, 0.29442084, -0.16359119, 0.01641858, -0.12730920, -0.05252377, -0.03472352, 
    0.04310049, 0.14902002, -0.26051438, -0.20173284, 0.11377195, 0.17401436, -0.26674786, 0.15218203, -0.13517213, -0.22291741, 
    -0.14131916, -0.12815483, -0.15059412, 0.10646939, -0.17319010, 0.05624725, -0.14239515, 0.06217756, 0.08004250, 0.03370484, 
    -0.24770083, -0.02712250, 0.18317348, 0.01649380, -0.26597652, 0.16954473, 0.03943896, -0.02110525, -0.26917601, -0.19617690, 
    -0.30961388, 0.03405833, -0.31839702, -0.26866534, 0.13640527, 0.12417530, 0.24098264, 0.20594546, -0.00286810, -0.13535774, 
    -0.27634072, 0.14353088, 0.00670794, -0.08306962, 0.09606857, 0.19038267, -0.22310010, -0.27342275, 0.01738798, 0.19043072, 
    0.11158373, 0.06831069, -0.06224765, 0.09543402, -0.12397960, -0.01888971, 0.02969222, -0.27060032, -0.23705903, 0.04203480, 
    -0.14513144, -0.23489906, -0.09791407, -0.10810922, -0.22321172, -0.17958437, -0.27943274, -0.20769162, -0.18727857, 0.05110910, 
    -0.06193749, -0.18874428, 0.02722506, -0.22963311, 0.07029966, -0.10131963, -0.25710887, 0.15389587, -0.05278961, 0.08266985, 
    0.19852398, -0.12152281, -0.12472886, -0.02140094, -0.24443905, 0.18004629, 0.03827897, 0.23341157, 0.36150375, -0.08041356, 
    -0.04917627, 0.03793907, 0.03113055, 0.37025541, 0.01805941, 0.10919921, -0.14482096, 0.29639819, 0.17647292, -0.09479384, 
    -0.14030212, -0.05976155, 0.31254259, -0.20450196, -0.13522375, -0.13575499, -0.05472094, -0.08301228, -0.17880474, -0.15765487, 
    -0.18644388, -0.21489617, 0.08259478, 0.20366982, 0.06276981, 0.21955284, 0.00680835, -0.04070498, 0.06561448, 0.06973740, 
    -0.23034127, 0.31027880, 0.23240201, 0.13775159, 0.19899929, 0.05150303, -0.33246160, 0.08174322, -0.12848127, 0.05561890, 
    0.29705566, 0.17918698, 0.31026110, 0.05669895, 0.17575532, -0.15360524, 0.12280617, -0.16011830, 0.08162851, 0.15775517, 
    0.06339255, 0.14339472, 0.38255078, 0.16048759, -0.11167552, 0.02808065, 0.13582462, 0.13695623, 0.10333157, -0.14309722, 
    0.14255989, -0.23534107, 0.24840601, -0.14234795, 0.10160097, -0.03305047, 0.05473079, 0.16486506, -0.15306546, 0.18799315, 
    0.14202844, 0.15780413, 0.07779871, -0.25170895, -0.05727698, -0.22675203, -0.06638841, -0.28785023, 0.00497038, -0.10416557, 
    -0.39011219, -0.14824674, 0.14931241, -0.20677367, -0.36864907, -0.03672288, 0.02794241, -0.20763548, -0.20949894, -0.03384885, 
    -0.26185530, 0.20563050, -0.13398540, -0.11271635, 0.05936245, 0.26997697, 0.10644175, 0.23098795, 0.20467655, 0.13156129, 
    0.11876557, -0.20855206, 0.02664485, 0.22219232, 0.03711925, -0.22045276, -0.09776247, -0.07957494, -0.09896374, 0.02096347, 
    -0.08617111, -0.13698597, 0.19994584, -0.13875419, -0.02713660, 0.18935479, 0.00574460, 0.29986739, 0.25807843, 0.09649099, 
    -0.14581499, -0.27398086, -0.08771677, -0.09298097, -0.32261854, -0.02738800, -0.00077541, 0.28411454, 0.20160916, -0.18791983, 
    0.08767632, -0.30266088, -0.07138143, 0.31060162, -0.12871894, -0.08734068, -0.25243258, -0.09314563, -0.29628164, 0.03875330, 
    0.11025009, 0.15306948, 0.16120884, 0.09923305, 0.25795594, -0.21284123, -0.06122051, -0.05236910, -0.12954901, -0.10596915, 
    0.18464567, -0.09722792, -0.06528604, -0.13112408, 0.14958775, 0.06762381, -0.28407434, -0.15429339, 0.04951929, -0.23629512, 
    -0.02883864, 0.29090372, 0.08071949, 0.21207121, 0.17308277, 0.08876976, 0.10311270, 0.30413181, 0.17394467, 0.24486428, 
    -0.22575808, 0.01995516, 0.20795128, 0.12036173, 0.16458417, -0.07019094, 0.13246678, -0.28479999, 0.08252737, 0.24295168, 
    -0.07257076, 0.03107108, -0.05234978, 0.15883908, 0.05955542, 0.34700102, -0.10513467, 0.19570683, 0.35054299, 0.15024115, 
    0.05273552, -0.07100819, 0.17861119, -0.14416586, 0.20466132, 0.09206174, 0.07459770, -0.10076331, -0.03285635, -0.10683274, 
    -0.14536698, 0.09541310, 0.23946393, 0.20796666, 0.04563293, 0.06550508, -0.10240359, -0.25787315, 0.19708402, 0.22990480, 
    -0.14905491, -0.10408705, -0.03832801, -0.16758645, 0.23929547, 0.27712807, -0.32848388, -0.24373245, 0.04226774, 0.32496554, 
    -0.18807670, -0.00377591, 0.30743787, 0.09705661, -0.02554257, 0.06298415, -0.21433957, -0.10326188, 0.28519610, -0.00225217, 
    0.18748777, -0.18822446, -0.23674791, 0.17314209, -0.10472868, -0.07815837, -0.11372021, -0.01812422, -0.04973487, -0.25574368, 
    0.14856924, 0.00918169, 0.01542680, 0.20826393, 0.16488011, 0.01549029, 0.07647328, 0.20232391, 0.11695298, -0.06424619, 
    0.06601585, 0.18271022, 0.32999262, 0.13874674, 0.05911557, -0.00494899, -0.12718852, 0.04366127, 0.16981919, -0.16350006, 
    -0.14961873, -0.01308617, 0.03052295, -0.11532637, -0.20287287, 0.13334174, 0.02376231, -0.05057399, 0.26151818, 0.14463426, 
    0.06413996, -0.00651385, -0.00491419, -0.21230324, 0.28569096, -0.20314576, 0.02324025, 0.01401798, 0.22125883, -0.16872688, 
    0.19000542, 0.11455975, 0.26458070, 0.22091015, 0.11951767, -0.07558141, -0.12593392, 0.02672154, -0.31224474, -0.21517743, 
    0.16720587, -0.10847161, 0.05516048, -0.14439216, 0.10191753, 0.08944652, 0.21245743, -0.24417724, -0.17095552, 0.26050958, 
    -0.19607575, 0.12637357, -0.12326608, 0.07851225, 0.02969641, -0.13156945, 0.13345456, -0.11764453, 0.20126624, 0.03555236, 
    -0.22402538, -0.29953951, -0.33609572, -0.38283518, -0.22432545, -0.13363692, 0.19610627, 0.05352139, 0.40232909, 0.31462801, 
    0.15231340, 0.14268844, 0.36519742, -0.01502874, -0.22811888, -0.18603817, -0.22941977, -0.26427677, 0.04439769, -0.12646462, 
    0.25013199, 0.09265489, 0.32509068, -0.16556010, -0.10515188, 0.12068599, -0.12495543, -0.10129456, 0.10780879, -0.12945573, 
    -0.08041624, -0.10266871, 0.31554347, -0.01265471, 0.20078307, -0.07673946, 0.07489810, -0.06574808, 0.05165373, -0.16921751, 
    0.35542440, 0.24340358, -0.09193870, 0.16152045, 0.05725762, -0.08167694, -0.08881615, -0.04253185, -0.15746547, 0.13266219, 
    0.00472877, -0.06065682, 0.06348763, -0.05582878, 0.11566367, -0.10194103, 0.17214034, -0.02009432, -0.16223869, 0.17554025, 
    -0.33726048, 0.12239434, 0.07791567, 0.05477989, 0.13996218, 0.07795487, -0.35620791, -0.31800291, 0.01528386, 0.04908024, 
    -0.10189973, 0.02737575, 0.04165305, 0.18785711, -0.10727818, 0.13871375, -0.18942980, 0.17642638, -0.17167960, 0.21286458, 
    0.03855158, 0.27684191, 0.12313809, 0.34654191, -0.42906961, -0.09991878, -0.38539946, -0.21167344, -0.35551956, -0.20837981, 
    0.03005977, -0.17077817, 0.02358944, 0.14859545, -0.11408087, 0.01751991, -0.12418647, 0.03490001, -0.04807529, -0.69935572, 
    -0.08526988, -0.06332710, 0.14247425, -0.35116482, -0.18387978, -0.06538450, 0.14560410, 0.13353530, -0.21804743, 0.35665542, 
    -0.06066649, 0.03202014, 0.10894296, -0.24367429, -0.04747783, 0.12850299, -0.07441583, 0.30655092, 0.07902414, -0.09835090, 
    -0.26996166, 0.09088923, 0.02937440, -0.27636713, -0.14211123, 0.09267760, 0.05213426, -0.01884549, -0.23964579, -0.07698710, 
    0.20062515, -0.00832553, -0.03420261, -0.25365704, 0.14873530, 0.22001226, -0.08889353, 0.18011683, 0.29247180, -0.01733160, 
    0.06222310, -0.37574056, -0.19883907, -0.05056349, -0.37768567, 0.03106519, -0.27987060, -0.14780605, 0.15954411, -0.07913589, 
    0.24228652, 0.25283661, -0.10720406, -0.06374684, -0.25295678, 0.08392779, 0.24227093, -0.14387316, 0.00640075, 0.25302473, 
    -0.31900030, 0.10903717, 0.17165911, 0.24625966, -0.14201382, 0.04030119, -0.12383954, 0.21033859, -0.21953844, 0.14729302, 
    0.36543623, 0.18448386, 0.04769524, -0.32385066, -0.30699283, -0.23709843, 0.14621748, -0.17653163, 0.11588523, 0.01710964, 
    0.17817530, 0.10725161, -0.03970137, -0.16664627, 0.34529746, 0.13972899, 0.06340871, 0.06071149, -0.03222491, -0.29205695, 
    0.10018133, -0.07727885, 0.20861474, -0.17214435, 0.37012038, 0.17015232, 0.09916698, 0.08995943, 0.18095553, 0.14129923, 
    -0.09147999, 0.01351142, 0.02333732, -0.22911188, 0.13993166, 0.07886108, -0.03736915, -0.16445583, 0.07595640, 0.22486381, 
    0.01222182, -0.02775440, -0.01548966, 0.27533975, 0.07041178, -0.00155018, 0.00116617, -0.10821361, -0.03188844, 0.12368417, 
    -0.20693864, 0.13120106, -0.24337886, 0.17222100, 0.09848354, -0.26370680, -0.09620494, -0.17743309, 0.10127492, 0.23659624, 
    0.19419296, -0.14546207, -0.10429741, 0.08744905, -0.23845479, 0.14379762, -0.31299379, 0.06894901, -0.22424144, 0.19660792, 
    -0.46661347, 0.07548343, -0.15805660, -0.19725919, 0.17440617, 0.09623481, 0.00663404, 0.05543672, 0.10181501, 0.48979396, 
    0.39217442, 0.12601267, 0.32685816, -0.06222457, -0.05446372, -0.10502741, -0.01027711, 0.05661518, 0.03823885, -0.28157666, 
    0.01974195, -0.10461357, -0.29801765, 0.08515389, 0.02477568, -0.05073652, 0.13409084, 0.06292301, -0.18896897, 0.14923531, 
    0.08524542, -0.04002670, 0.08442624, 0.15285900, 0.17313488, -0.06483097, 0.00435128, -0.36719546, -0.04535729, -0.15279594, 
    -0.08112642, 0.08485509, 0.16200283, -0.13914056, 0.02841757, -0.15188430, -0.11520261, -0.26003122, 0.18828487, 0.28589517, 
    -0.13382852, -0.03420390, -0.12404040, -0.18193276, 0.02050153, -0.16640949, 0.24804181, 0.27895340, 0.09403191, -0.25602460, 
    0.26968440, -0.06793174, 0.16284893, -0.16917808, -0.31502464, -0.08671269, -0.01455329, 0.12106909, 0.03495864, -0.10498143, 
    0.00776320, -0.08074894, 0.15195125, -0.26832339, 0.00876490, -0.13289547, -0.36480644, -0.10685876, -0.01701310, 0.36307877, 
    -0.32004151, -0.12058111, -0.24114609, -0.34554943, -0.15427145, -0.03836949, -0.11224876, -0.38382620, 0.18305516, -0.10595959, 
    0.04152420, -0.36861682, 0.15215065, -0.12615636, 0.11673284, 0.04254805, -0.12412859, -0.05965417, -0.15458031, 0.28611410, 
    -0.24489488, 0.22347789, 0.19090101, 0.18965437, 0.40976179, 0.41381690, -0.11353829, 0.28308618, 0.02994846, -0.10452516, 
    0.02275812, -0.40578488, -0.04895458, 0.04810073, -0.02529247, -0.07852586, 0.11897307, 0.14474325, -0.05617114, 0.07791723, 
    0.08915962, 0.04254524, -0.06099161, 0.24132244, 0.31865421, 0.28183472, -0.00255976, 0.07259485, -0.27165380, 0.01440970, 
    0.03101332, 0.38775587, 0.16532445, 0.05609439, 0.01490034, -0.44565031, -0.17280385, 0.03192238, -0.23648873, -0.13618991, 
    0.36187384, 0.15123148, -0.47568485, -0.31035551, -0.46862596, -0.56306046, 0.26450619, 0.12329064, -0.50841355, 0.19616763, 
    -0.33322972, -0.11597233, -0.17506891, -0.12666054, 0.25751197, 0.03534709, -0.28709754, -0.06780122, 0.04014313, 0.13308720, 
    0.25990871, 0.00294145, -0.31268594, 0.01931493, -0.16950442, 0.23083428, 0.11373337, -0.13799822, -0.46432975, -0.03610724, 
    -0.11017293, 0.20430322, -0.02057803, -0.07790209, -0.08310736, 0.22387360, 0.02996098, -0.05518656, 0.19412221, 0.30762526, 
    -0.21948697, -0.15777615, -0.65549129, -0.36118484, -0.51324290, 0.16354673, 0.19375724, -0.16782436, -0.20760386, -0.02113455, 
    -0.14779167, -0.09980455, -0.13993721, -0.07262819, 0.12780651, 0.02346539, -0.28736100, -0.30505496, 0.04607744, 0.21167833, 
    -0.56630695, -0.13963859, -0.06270577, -0.03191735, 0.11150996, 0.25783873, 0.09659019, 0.05821184, -0.22264619, -0.08917170, 
    -0.06996852, -0.14537808, 0.13899253, -0.05635679, -0.30112103, 0.30798402, 0.04733285, -0.25617588, 0.27161196, 0.06689996, 
    0.08635883, 0.05665130, 0.17355675, 0.18383525, 0.05331095, -0.22966903, 0.09600197, -0.07115570, 0.12340691, 0.04706318, 
    -0.23759158, 0.14410883, -0.06967691, 0.20218486, 0.08166697, -0.20925663, 0.13531879, 0.22269541, -0.11413135, 0.16368753, 
    -0.21395785, 0.23759514, -0.06885280, -0.37888816, -0.34354353, -0.10346332, -0.11210206, -0.09735683, -0.05542443, 0.21933977, 
    -0.31666988, -0.33089253, -0.29899439, -0.34391147, 0.07735200, 0.21751909, 0.12200577, -0.28206620, 0.02821788, -0.08343341, 
    0.19743785, 0.21821019, 0.19546850, 0.30797109, 0.44826007, -0.18094639, -0.05812485, -0.14980543, -0.29900864, -0.13738254, 
    -0.11475663, -0.03695433, -0.01842144, -0.13653457, -0.16022465, 0.05465710, 0.04555210, 0.05659923, 0.13977011, -0.05483510, 
    0.13859212, 0.14238499, 0.00674849, -0.29214007, -0.10105263, 0.07926272, 0.30301726, 0.07920060, -0.14624067, 0.23372971, 
    0.07490125, 0.04040695, 0.21803033, 0.02045579, -0.23230459, 0.31010392, 0.07004914, 0.04037552, 0.16758314, 0.31804514, 
    -0.76556885, -0.62844950, -0.42500308, -0.27383322, -0.12251120, 0.04521935, 0.17508376, -0.21535112, -0.17265186, -0.19040731, 
    -0.12248422, 0.23144078, -0.10271443, -0.32076895, 0.18350405, -0.15995711, 0.02001650, -0.02786635, 0.06279582, 0.15194757, 
    0.22997716, 0.02200565, 0.05764030, 0.05378040, -0.22561550, -0.02102574, -0.06244732, 0.15873861, 0.02956373, -0.14893363, 
    0.15244110, 0.10721941, -0.14468740, 0.27146286, 0.16620952, 0.13791029, 0.05132414, 0.14129038, 0.29556882, 0.12573661, 
    -0.25349861, 0.06125259, 0.06311607, -0.12462106, 0.03467470, 0.05733806, 0.03022447, 0.22191299, -0.16892742, -0.06199171, 
    0.14804715, 0.06758334, 0.19444107, 0.20001747, -0.03289134, -0.24567294, -0.06198167, 0.09991223, 0.20263079, 0.10166657, 
    0.16628537, 0.03985544, 0.02220461, -0.27849075, 0.02564814, -0.13070615, 0.11161527, -0.30560094, -0.24852556, 0.06615374, 
    0.06629831, -0.12832625, -0.15671493, -0.10700174, 0.07631017, 0.05181435, -0.02539655, -0.15537639, -0.01348103, 0.06568885, 
    0.12505673, 0.05842744, -0.03412078, 0.14244567, 0.00140214, -0.06560718, 0.06393631, 0.16672908, -0.22409131, -0.04171157, 
    0.00597481, 0.05199895, -0.29279038, -0.21587512, 0.05682379, -0.02643366, -0.04597083, 0.03807751, -0.00713468, 0.04100738, 
    -0.26721802, -0.17076717, 0.12867624, -0.20283885, -0.16213378, 0.02267866, 0.26197362, 0.16296375, 0.01398240, -0.10352803, 
    0.08914303, -0.12220144, 0.11883424, 0.10495914, -0.08926528, -0.11031168, -0.09149761, 0.13447644, 0.23665284, 0.05014499, 
    0.05998647, -0.10354146, -0.17121193, -0.23818111, 0.20684478, -0.34902173, 0.23300463, -0.11497065, 0.05963784, -0.11122391, 
    0.07812998, 0.11454846, -0.08156320, 0.11291464, -0.30527058, -0.02383100, 0.15711634, 0.22789460, -0.12020012, -0.03126347, 
    -0.10915358, 0.13998480, 0.11704599, -0.06376103, 0.07817572, 0.26763460, 0.06469818, 0.20468749, 0.06649666, -0.01869443, 
    -0.13093831, -0.31548965, -0.36059749, -0.00548110, -0.03875506, 0.18346709, 0.07257903, -0.32950720, 0.17569707, -0.27394831, 
    -0.24626561, -0.14972813, -0.36731625, 0.09751978, -0.14254203, -0.16651893, 0.02503163, 0.26943064, -0.15722071, 0.14930595, 
    -0.01133156, 0.02671276, 0.04485884, 0.04072103, 0.19254883, -0.26314607, 0.05836069, -0.05651337, 0.23516329, -0.18563190, 
    -0.14378245, -0.25200385, -0.41580006, -0.31420389, 0.12874062, -0.10196433, 0.30312046, -0.35016954, 0.02796458, 0.22674139, 
    0.19124690, 0.09873714, -0.05056140, -0.06816392, -0.06932480, 0.11415333, 0.04666733, 0.22793847, 0.13782373, 0.07332119, 
    -0.02377150, -0.00815911, -0.26503170, 0.08541211, -0.22193484, 0.03402372, -0.34550995, -0.29099509, -0.15868056, -0.34986439, 
    0.23281144, 0.05723470, -0.22908297, 0.17349818, 0.35212028, -0.26750678, 0.26118773, -0.14230542, -0.21455264, -0.32153922, 
    0.13215147, -0.04348810, -0.10414871, 0.10409436, -0.20999847, -0.11246974, -0.09518174, 0.12530085, 0.18295337, 0.27818206, 
    -0.17295264, -0.06697693, 0.06987665, -0.06846128, 0.06926608, 0.25430974, -0.04628906, 0.11024967, 0.12575623, -0.24992436, 
    0.36022422, 0.06349131, 0.35337272, -0.16208673, -0.18080929, -0.02431064, -0.29175422, -0.17117900, 0.00951298, -0.06335346, 
    0.01352254, 0.26059994, -0.29888824, -0.12456501, 0.01858720, -0.12249016, 0.32252285, 0.33185121, 0.21113242, 0.31428936, 
    0.21787164, -0.32845843, -0.22244000, -0.09003352, -0.15715608, 0.13730820, -0.04917031, 0.25922567, -0.03335607, 0.02564134, 
    -0.17457519, -0.01288333, 0.10485440, 0.23494950, 0.21201205, -0.20367913, 0.17426196, 0.32126606, 0.11669259, 0.46245873, 
    0.00449368, 0.03591250, 0.14827025, -0.06448005, -0.00880198, -0.11518972, 0.24450420, 0.13441701, 0.00604761, -0.02789663, 
    -0.40955272, -0.15065517, -0.04797342, -0.02639951, 0.15515186, -0.11158897, 0.14983231, 0.07358653, -0.11563645, 0.03773008, 
    -0.11201487, -0.16220282, 0.09654933, -0.30364230, -0.17839891, 0.25409612, -0.23121424, 0.06890620, 0.03602721, 0.12256041, 
    0.14741425, 0.35523665, -0.17863265, 0.22421256, -0.16198246, -0.28396550, -0.25456506, -0.20374399, -0.16559573, -0.04561208, 
    0.23330185, 0.10519151, 0.14743835, 0.07508959, 0.02528466, -0.16702962, 0.28638294, -0.20365770, -0.12111828, 0.20455632, 
    0.08729554, -0.07262670, -0.27819714, -0.02250940, -0.00650438, -0.21024381, -0.03607596, -0.01238005, 0.25790930, 0.17843832, 
    0.09516613, 0.19539464, 0.30405143, -0.11808510, -0.04364367, 0.10535313, -0.06120388, -0.15771116, 0.13666531, 0.17129363, 
    0.30452496, 0.01350548, 0.12894686, 0.01953073, -0.09211461, 0.12560976, 0.18326291, -0.14707589, 0.01608169, 0.26461738, 
    -0.31129345, -0.03806285, 0.11491790, -0.19308195, 0.25655210, 0.30189282, 0.10238966, 0.16660264, 0.26215237, -0.10023677, 
    0.03335418, -0.25308949, -0.16872443, -0.01808865, -0.15060657, -0.21909332, -0.08347589, -0.35973942, -0.32146707, -0.22563215, 
    -0.17222634, 0.36513430, 0.08809941, 0.16389279, 0.00857738, 0.22518076, 0.05134495, -0.15609580, -0.39483282, -0.17084438, 
    -0.14609209, -0.15134798, 0.12548415, -0.10291352, -0.20756705, -0.36376154, 0.02640191, -0.09928598, -0.11161945, -0.36303097, 
    0.16612028, 0.05204024, -0.01569292, -0.02485815, -0.16304792, -0.16058877, 0.11169490, 0.11533158, -0.56892556, 0.43376845, 
    0.18812488, -0.05464824, 0.22214200, 0.14245802, -0.21023890, -0.09425019, -0.11376504, 0.16941974, 0.01392558, -0.00191105, 
    -0.02434018, 0.10751870, -0.01084231, 0.38465750, -0.21569854, 0.14631259, -0.06319308, 0.10417986, -0.20989297, 0.02545594, 
    0.30596918, 0.27764100, -0.02773769, -0.10720452, -0.03317826, 0.10115122, 0.33092818, -0.13920681, -0.10554587, 0.36448288, 
    0.19318838, 0.23970087, -0.00306289, 0.16135886, -0.11950501, 0.05654716, -0.17929092, -0.08823333, 0.02932754, 0.10041243, 
    0.20240785, 0.08890491, -0.08956996, -0.12504369, 0.24429850, 0.00777270, 0.13513158, 0.36520800, -0.16367112, 0.18969697, 
    0.02550046, 0.34459212, 0.15624373, 0.27961901, 0.28661615, -0.11610478, -0.15606865, 0.03660903, -0.32180473, -0.13887021, 
    0.04529118, 0.35675609, -0.08539935, 0.29157576, 0.24188358, -0.15999821, -0.11722926, 0.23046140, 0.10269441, 0.02891797, 
    0.09437694, 0.35971075, 0.00539537, 0.26324582, 0.03037603, 0.15375298, -0.06919524, 0.25900760, 0.16301034, 0.02021875, 
    0.13002975, -0.09551901, -0.13713621, 0.01237242, -0.34929177, 0.30804542, -0.03274810, -0.07219724, 0.03610004, -0.04722502, 
    -0.14104448, -0.25924516, -0.16289152, 0.08985183, 0.29287305, -0.02889176, -0.05048175, 0.22248343, -0.32521603, 0.20614503, 
    0.09311628, 0.02052156, 0.14262792, 0.16619225, 0.10096416, 0.20635046, 0.13248484, 0.22167265, 0.12901352, 0.00417993, 
    -0.13782655, -0.18121441, 0.09690385, -0.28879157, 0.13848834, 0.18066384, 0.06904498, 0.02073844, -0.11008386, 0.19069615, 
    0.20217025, 0.19488715, -0.29589286, -0.22122362, -0.07534918, 0.08013055, -0.03703722, -0.07816222, 0.03257447, -0.15881453, 
    0.19718616, -0.09469180, -0.21837935, -0.12913023, -0.29007575, -0.05355528, -0.07270521, 0.17965946, -0.03015066, 0.27250212, 
    -0.09132549, 0.06723851, -0.06123098, -0.24741548, -0.23378082, -0.08086006, -0.27535361, -0.06507901, 0.17658171, -0.17126894, 
    0.01414731, 0.07960763, -0.39778930, -0.11581183, -0.23262694, 0.17593880, 0.04743819, 0.04133075, -0.17916170, -0.22301239, 
    0.26257595, 0.14747524, 0.07225035, 0.31734315, 0.27836177, 0.16692866, 0.12424726, -0.20975070, -0.01334589, 0.24548012, 
    0.05703420, -0.06295632, -0.18540969, 0.04609398, 0.28051320, 0.24736184, 0.15017803, 0.12483099, 0.12194246, -0.05357669, 
    -0.20704120, 0.16177766, -0.19901307, -0.16899602, 0.01870839, -0.01888740, 0.21632987, 0.29727170, 0.17655906, -0.16269210, 
    -0.44458938, -0.16756621, 0.13448863, -0.01146122, -0.18254404, -0.04846346, -0.09622318, -0.09800906, 0.16196895, 0.26438284, 
    -0.19594598, 0.16633852, 0.09294871, 0.03719000, 0.11964069, -0.14352995, 0.01210328, -0.06860203, 0.05250712, -0.23888153, 
    0.02058040, -0.11035803, -0.37365881, 0.13082206, 0.03663830, -0.09645323, -0.29223222, -0.18564087, -0.15321560, 0.15598068, 
    -0.10145720, -0.19072394, -0.09413193, -0.45419905, -0.38335741, 0.03379796, 0.15951861, -0.08857892, 0.02828764, 0.08060211, 
    0.00770494, -0.33805329, -0.11949113, -0.14994961, 0.46076733, 0.12876342, 0.27052197, 0.03758417, -0.24511975, -0.04105612, 
    0.28471538, 0.24049823, -0.02229341, 0.28419480, -0.05854645, -0.02133559, -0.09156859, -0.11806653, -0.01585872, 0.10198891, 
    -0.06131215, -0.20550175, -0.29858211, 0.17727652, -0.14760688, -0.27347779, 0.20465101, -0.23155491, -0.13212352, -0.24387556, 
    0.11467295, -0.08906957, -0.17469405, -0.25047886, 0.24410036, -0.14596713, 0.02454796, 0.16072820, 0.18507896, -0.28733239, 
    -0.24053498, 0.06551753, 0.18164940, 0.12642397, -0.04989150, -0.03506100, 0.21963778, 0.01130790, -0.17424864, 0.03562927, 
    -0.23480974, -0.00389105, 0.10821296, -0.19497053, -0.10379260, -0.28035477, -0.14813624, -0.07574786, -0.23317778, 0.04860706, 
    -0.08137228, 0.19927554, -0.28056020, 0.09429102, -0.25209248, -0.26642397, -0.26316053, 0.09268628, 0.19970672, -0.28640044, 
    0.12517756, -0.28712434, 0.04326430, 0.06644724, 0.12876040, -0.31541362, -0.18599148, 0.07340434, 0.02890486, -0.11509888, 
    -0.13517924, 0.10845589, 0.17744482, -0.26205233, 0.21914269, -0.13135977, -0.17701913, -0.15119550, 0.06166663, -0.11734314, 
    0.20067325, -0.20013018, -0.08149561, 0.24335724, 0.19864054, -0.03723185, -0.30150607, 0.19976342, -0.18345837, -0.32740900, 
    0.09429374, 0.01567027, -0.06223122, 0.17755234, 0.04340154, 0.28548798, -0.01491544, 0.35659584, 0.02880752, -0.27774215, 
    -0.07453282, 0.25253093, -0.17899710, -0.22552782, 0.10818466, 0.31848758, -0.02759918, -0.18431409, -0.18722092, -0.18744893, 
    0.12776196, 0.03414052, 0.08812484, 0.06392692, -0.16763557, -0.20254743, 0.02266113, -0.12589481, -0.35659897, 0.21058787, 
    -0.23948099, -0.15819351, 0.06168315, -0.17093122, -0.12998623, -0.05114873, -0.30017623, -0.19890432, -0.12759012, 0.08393651, 
    -0.06185611, 0.08878578, 0.16988908, -0.09817502, 0.18753153, 0.08658452, 0.19938029, 0.13573481, 0.22419147, 0.21274211, 
    0.09965099, -0.22360761, 0.23643741, 0.24985342, -0.00054619, -0.19822785, 0.13046086, 0.20410660, -0.25155225, -0.15632007, 
    -0.13767008, 0.08141813, 0.09438784, -0.00385287, 0.34362012, -0.31905580, -0.12581310, -0.32055727, -0.06665742, 0.03390655, 
    0.24969311, -0.10078634, -0.18943672, 0.10164915, 0.08522572, 0.08670846, -0.14271593, -0.01491942, -0.18426403, -0.03665818, 
    -0.20202048, 0.19101138, -0.12774397, -0.10601643, 0.12597153, -0.02033280, -0.02899406, -0.27972475, -0.15155104, -0.01299404, 
    0.25955686, 0.04125015, -0.10675429, -0.06244204, 0.05600068, -0.16865547, 0.07100695, 0.25576657, -0.25668585, -0.23762099, 
    -0.08804207, 0.29691687, 0.13948901, -0.02779904, 0.01630873, 0.00886178, -0.18514192, 0.01340884, 0.36238995, -0.15705088, 
    -0.18908823, -0.29993990, -0.07362650, 0.15830420, -0.09241123, 0.19983846, 0.05507245, 0.23367998, -0.22480522, 0.17075829, 
    -0.11204083, 0.18070664, -0.17674801, 0.14051305, 0.17438444, 0.23117876, 0.21348120, -0.25354996, -0.19836043, 0.12042946, 
    -0.01197493, 0.25578797, 0.23099737, 0.36885029, 0.26635262, -0.25865740, -0.07816992, -0.08349796, 0.08322283, -0.27013567, 
    -0.17663579, -0.05429221, -0.22115751, -0.15914534, 0.35487345, -0.09218467, -0.02710744, -0.11049785, 0.30559909, 0.05924561, 
    0.01928419, -0.02039478, -0.11259806, 0.13115256, 0.15708406, 0.31742144, 0.07120973, 0.02413793, -0.20212577, 0.04949320, 
    -0.24955846, -0.26824632, -0.22012562, -0.25441808, -0.07174000, -0.44028866, -0.32296693, -0.31740451, -0.39499912, -0.27951029, 
    0.08112168, 0.15669884, -0.16928375, 0.24593267, -0.19159886, -0.15755612, -0.23793320, -0.05271965, -0.16313186, -0.06931482, 
    -0.21215577, 0.04412257, -0.11676770, -0.22183466, 0.28898427, -0.29887548, -0.13066532, -0.12948632, 0.15627241, -0.13834481, 
    -0.00734548, 0.21404971, 0.13667297, 0.01240362, -0.19355883, -0.08248847, 0.10609176, 0.08335288, 0.10263634, -0.20487817, 
    -0.15858445, 0.31732285, 0.17879041, 0.14238943, 0.28060335, -0.05306906, 0.12262584, 0.10712021, -0.11077781, -0.08267369, 
    -0.15042800, 0.03976057, 0.01538740, 0.03599191, 0.21571933, -0.13251844, 0.19856787, 0.09430190, 0.15225670, 0.05342995, 
    -0.12958899, -0.59039438, -0.33922327, -0.38911027, -0.14153993, 0.05629780, 0.06894410, 0.02252595, 0.07276611, 0.24008229, 
    0.22974795, -0.18734582, -0.06911289, -0.23499922, -0.14292295, -0.28901467, -0.26579300, 0.11537552, -0.24088481, -0.08677285, 
    -0.53516436, -0.13980819, 0.28992915, -0.02894883, 0.07050031, 0.21740542, 0.11991334, 0.05787369, -0.16666257, -0.01173708, 
    -0.13322808, -0.19081575, 0.04771883, 0.09119478, 0.11417983, -0.17832631, 0.12011080, -0.01532469, 0.14297488, 0.05153017, 
    0.22801140, -0.10631538, 0.08596685, -0.15898573, 0.18387321, 0.05548956, 0.01800924, 0.26557693, 0.11220291, 0.12587401, 
    -0.20850711, 0.29602045, 0.15876079, -0.09886723, 0.02896096, 0.00699417, -0.02015368, -0.29759029, -0.06216252, 0.16262563, 
    0.04196243, 0.13981879, 0.12529007, -0.16861247, -0.07153655, -0.10924484, -0.38725272, -0.09122654, -0.01551023, -0.01225792, 
    -0.07929831, 0.10758913, -0.20528008, 0.27652723, 0.14694794, 0.17429207, 0.29033753, -0.07224336, 0.01466112, 0.10082338, 
    0.17832442, 0.17737259, 0.30120626, 0.17103773, 0.25223860, -0.15101926, -0.26016313, -0.11428402, 0.02135177, -0.10766575, 
    -0.18961149, -0.00113680, 0.07884405, 0.18192635, 0.03916283, 0.30202022, -0.02388814, 0.02975142, 0.04631857, 0.24521537, 
    0.36328441, 0.44405818, 0.26942173, 0.48107931, 0.29169255, -0.69497406, 0.26589051, 0.32088560, -0.13406536, 0.14963880, 
    -0.27353245, -0.11773618, -0.42275506, -0.28251025, -0.07750081, -0.06558896, -0.16761567, 0.15296109, -0.21121429, -0.09578625, 
    -0.18430793, -0.07019178, -0.31849623, 0.08869186, -0.21975708, 0.20782839, 0.29514050, -0.04497447, 0.06688334, -0.22261748, 
    -0.12432929, 0.00963654, -0.21447855, -0.31930393, -0.17522220, -0.22782533, 0.20837109, 0.13930972, 0.16028982, -0.02930228, 
    -0.09251640, -0.09467221, -0.07016233, -0.12494797, -0.10470103, 0.05097329, 0.01483919, 0.43540272, -0.04462174, 0.18117517, 
    -0.08169555, -0.13754497, -0.45512643, -0.01062364, -0.27722830, -0.10540558, 0.02592886, -0.24389188, 0.19183826, -0.01551546, 
    -0.44758397, -0.14397794, -0.09753120, 0.34805796, -0.04526339, 0.10900965, -0.25420547, -0.17539439, 0.05467973, 0.13550496, 
    -0.18422148, 0.17208557, -0.01689724, -0.07606969, 0.03147967, 0.12091096, 0.08255125, -0.18125014, 0.40118366, -0.25445339, 
    -0.40024251, -0.23148985, -0.11981311, 0.07612457, -0.27737466, 0.18504056, -0.29919073, -0.20408498, 0.15393533, 0.25590760, 
    0.23089482, -0.02646232, 0.00678823, -0.14211237, -0.14519677, -0.34556413, -0.30239448, -0.27974176, -0.11212862, -0.02526378, 
    -0.59703940, -0.18216805, -0.33982542, 0.18143071, -0.18346052, 0.17804553, -0.07976600, -0.05487214, 0.03085382, 0.37363246, 
    0.02710754, -0.28948051, -0.19983247, 0.19785734, 0.23138656, -0.24886689, -0.11299598, -0.28990012, 0.20989713, 0.01196953, 
    -0.35436875, -0.18895413, 0.25577292, 0.03820118, 0.40545255, -0.09351359, 0.10327926, 0.14465386, -0.16336362, 0.16865838, 
    -0.27164617, -0.17584194, 0.05460133, -0.08119460, 0.16273582, -0.28486955, 0.17231570, 0.02209777, -0.01003283, -0.03918510, 
    0.40495819, 0.24584301, 0.33351207, 0.24716879, -0.12049972, 0.06162512, -0.12963989, -0.06568144, 0.07016116, 0.38672140, 
    -0.13132767, 0.19511420, 0.06887385, -0.25730744, -0.13814439, 0.02650574, -0.41043985, 0.28815681, 0.24856181, -0.05110118, 
    0.11544508, 0.21716432, 0.06403724, 0.01377886, -0.23261078, 0.05745293, -0.11088991, 0.01500945, 0.22603226, -0.06536838, 
    0.19187170, 0.20179693, 0.30760217, -0.12983350, 0.02270884, -0.12318139, 0.10300144, -0.21834952, 0.08918353, 0.02292303, 
    -0.32131338, 0.13366792, -0.33267355, 0.03978914, -0.30053639, -0.19439834, 0.12123220, -0.45675698, -0.24172452, 0.11063277, 
    0.12896411, 0.25789559, 0.11061157, -0.15076581, 0.22093403, 0.23246323, 0.16728306, -0.18064113, 0.10428852, 0.42680019, 
    -0.05329120, -0.03467727, 0.08577404, -0.12050804, -0.00061448, -0.16232766, -0.14496362, 0.03638466, 0.08964770, 0.22945039, 
    0.18485644, 0.05653982, 0.04568054, -0.23621820, 0.03005399, 0.17875919, -0.07374486, -0.25152269, -0.27873126, -0.12718891, 
    -0.09360691, -0.17449152, -0.09582633, -0.05177114, 0.22848038, -0.12786983, 0.03167268, 0.18742703, -0.03159554, -0.22546190, 
    0.14936818, 0.22426675, -0.02721321, 0.06034285, -0.17864977, 0.19183245, 0.01789122, 0.06138999, -0.10483614, -0.01840363, 
    -0.39177373, -0.09802101, -0.17663805, 0.25511888, -0.23335958, 0.03340230, 0.06093771, -0.04909765, 0.12702653, -0.02269902, 
    -0.02396001, 0.16370943, -0.06972723, -0.16742446, 0.11471855, -0.04169821, -0.23563313, -0.19805361, -0.13770559, 0.08404504, 
    -0.19286564, -0.24749494, 0.23792079, -0.08187483, 0.05941964, -0.02400866, 0.00810957, 0.03446046, -0.21190077, 0.24122454, 
    0.24541755, -0.05995855, -0.27428815, -0.14439367, -0.11638041, -0.21797435, -0.01259812, -0.16117479, 0.06851970, -0.19594032, 
    -0.46696517, -0.15582800, -0.15364358, -0.08758356, 0.14248678, 0.25896588, 0.12890507, -0.11606708, 0.19912915, 0.26572329, 
    0.27062842, -0.23364010, 0.24334218, 0.03025957, 0.10570022, -0.01712263, -0.04618746, 0.08561081, 0.31050980, 0.04722938, 
    0.12165547, -0.11647175, -0.08916275, 0.01964357, 0.13191278, -0.01212937, 0.02242703, 0.01304700, 0.21501522, -0.22244801, 
    0.24513233, -0.03924511, 0.18317066, 0.14225383, -0.14754453, 0.08359859, -0.05575195, 0.27674094, 0.10052961, -0.18707730, 
    0.38442135, -0.16966714, -0.10341261, 0.20909511, -0.21475926, -0.16209671, -0.24773882, -0.06215452, 0.02528563, -0.21261646, 
    -0.04533201, -0.11055008, 0.38377535, -0.27347875, -0.06537327, -0.07188887, 0.14891897, -0.21230367, 0.19834577, 0.18319429, 
    -0.06084191, 0.23957285, 0.33830902, -0.35941160, 0.05462234, 0.15380073, 0.07661137, 0.12547737, 0.12794118, -0.18950070, 
    -0.14943074, 0.05704941, -0.00331023, -0.01619258, 0.04536698, 0.08365218, -0.06913549, -0.13576829, 0.34073862, -0.05405295, 
    -0.19631326, -0.15984970, -0.00377206, -0.21559931, -0.09647130, 0.24336222, 0.18988432, -0.14571208, -0.32163474, 0.08112594, 
    0.05684399, -0.07693250, 0.02842289, -0.02793753, -0.04047760, -0.27267113, -0.10836823, 0.10244227, 0.22249776, -0.22862379, 
    0.33680606, 0.27411702, 0.15736999, -0.02736674, 0.02960505, 0.14499155, 0.00282414, 0.11726197, 0.16611461, 0.15432873, 
    -0.16824085, 0.13363528, 0.21779245, 0.11227705, -0.26388028, -0.46819004, 0.05252229, -0.26323533, -0.07704230, -0.13311484, 
    0.32102475, -0.13820748, 0.41540775, 0.17881311, -0.08851951, -0.10642517, 0.02588044, 0.24219635, -0.16623533, 0.17689894, 
    0.02486017, 0.14362466, -0.18008557, -0.03329112, -0.08204555, -0.12293087, -0.12680635, 0.25096640, -0.21156262, -0.02930421, 
    -0.02209678, -0.15712403, 0.06675257, -0.22563830, 0.12986776, 0.14214689, -0.00891778, -0.02993758, 0.33924639, 0.10363050, 
    0.16841154, 0.29924425, 0.12006543, 0.19268322, -0.02318172, 0.11273318, -0.27141744, -0.11384559, -0.01754104, -0.11418141, 
    -0.09433921, 0.36693448, -0.18171526, 0.03575532, 0.12520690, -0.08461256, -0.02171825, -0.06432044, -0.10370460, -0.22308207, 
    -0.04642712, 0.33410892, -0.03238693, 0.30751866, -0.03825258, -0.10312454, 0.16140844, 0.15316793, 0.04417412, 0.12276382, 
    -0.15481907, -0.06947514, 0.00860833, -0.21053062, -0.14235625, -0.21692489, -0.02279299, -0.00011434, -0.18984698, 0.05082036, 
    0.27742097, -0.03015234, 0.00021935, 0.20077321, -0.28843254, -0.27927220, 0.03726284, -0.46158859, 0.05755699, 0.10765959, 
    -0.39534989, -0.08891513, 0.15245514, -0.31543830, -0.19972561, 0.25902101, 0.03629918, 0.17847420, -0.06545012, 0.12318638, 
    0.16382967, 0.11669898, -0.14008731, -0.24046120, -0.17522262, 0.08506363, -0.03723580, 0.02217073, -0.24745370, -0.05025187, 
    -0.05224045, 0.17052193, 0.24826300, 0.20071301, 0.28758880, -0.39230540, 0.34013578, 0.00872361, -0.29799673, 0.20917356, 
    0.20004852, -0.18694675, 0.29655555, 0.07380281, -0.09339330, -0.14168711, -0.20345771, 0.20126201, 0.30546957, 0.11845313, 
    0.22668388, 0.08499958, 0.08299245, -0.16364577, 0.08576057, 0.12102687, 0.13973226, -0.33610418, -0.15990172, 0.12823358, 
    -0.02483795, 0.01598997, 0.12221347, -0.05729162, -0.09201915, 0.14220083, 0.05649639, -0.11908825, 0.27237678, 0.07305766, 
    0.16719081, 0.15692149, 0.07150061, 0.19730611, -0.05587232, -0.07843535, 0.28960904, -0.00898908, -0.11154775, 0.27009183, 
    0.02740875, 0.11680988, 0.00904982, -0.15655302, 0.19673117, -0.17241845, 0.34283936, 0.02635724, -0.14280933, -0.16802782, 
    0.18377927, 0.35095209, 0.01925895, 0.03704267, 0.06946979, 0.13018830, -0.25324789, 0.10319041, 0.29359049, -0.25169909, 
    -0.05338043, 0.05481958, 0.17732011, -0.16144583, 0.13638014, -0.12202986, -0.18111141, 0.02664655, 0.03490167, -0.01445587, 
    0.01225052, 0.02537402, -0.14093354, -0.42856637, -0.46010891, -0.20408814, -0.08722360, -0.16802473, 0.21918145, 0.01635809, 
    -0.15738177, -0.34287813, -0.18458706, 0.16850331, -0.09915940, 0.20423153, -0.05102669, -0.11390051, -0.34017834, -0.22800693, 
    0.07963702, -0.07090674, 0.25823772, 0.12058444, 0.04264227, 0.15732920, 0.36683574, 0.16121064, 0.02968482, 0.09115081, 
    0.28427845, -0.01024968, 0.24872372, -0.30329734, -0.22560547, -0.28175899, -0.07570208, 0.17519729, -0.11278835, -0.01157910, 
    0.12862988, -0.14879601, -0.14037286, 0.28293023, 0.38936332, 0.19151516, -0.09239688, -0.04846515, -0.10671602, 0.34142783, 
    0.25353843, 0.13225608, -0.21184509, 0.11227370, 0.08772431, -0.01251523, -0.31260675, 0.04094259, -0.04652161, -0.25614774, 
    -0.20361850, 0.03540074, 0.09474829, -0.13135098, 0.10099374, 0.00139485, -0.08892833, 0.05135760, 0.10999426, -0.11515614, 
    0.05628036, -0.06459286, 0.22751802, -0.02190749, 0.01148480, 0.18553832, -0.04590619, 0.22723790, -0.25516918, -0.15283701, 
    -0.04510760, -0.01389576, 0.18733102, -0.03667486, 0.27850771, -0.14919201, -0.16227634, 0.21357678, 0.22208737, -0.02824066, 
    -0.13541687, -0.19707136, 0.20232597, 0.13825047, -0.27856573, -0.19403765, 0.24191117, -0.04734992, 0.02849555, -0.00221467, 
    0.13524285, 0.27228078, 0.30530632, 0.09739541, -0.14377901, -0.02932252, 0.00123704, 0.02918880, -0.20812225, -0.10314616, 
    0.03432030, -0.01857372, 0.15338932, -0.05725089, 0.32227868, 0.06385045, 0.22639030, 0.20756054, 0.03048949, 0.11211394, 
    -0.15694481, 0.15244086, 0.06905366, -0.30252567, 0.00327187, 0.18225357, -0.16412616, -0.11584152, -0.17690444, 0.16949670, 
    0.22410804, 0.21396382, 0.01640883, 0.21085690, -0.11392616, 0.04952473, 0.37540385, 0.06864151, 0.26850873, -0.24020393, 
    -0.04493767, -0.17180878, 0.10016605, -0.02831352, 0.10544433, -0.13963753, -0.00381066, 0.13182598, 0.34003344, 0.33815536, 
    0.10810415, 0.07392157, 0.31891984, 0.15655518, -0.05683588, 0.22792262, 0.13335627, 0.05277510, -0.08575080, 0.15748309, 
    0.31135097, -0.19717924, 0.16489778, -0.19860283, 0.21208861, 0.37453455, 0.06444892, 0.19625598, 0.08382972, 0.13750671, 
    0.19277681, 0.08417143, -0.17158215, -0.14940679, -0.23955840, -0.11257812, -0.05475361, -0.02808020, 0.15015668, 0.21306278, 
    0.10908891, 0.35871142, 0.06141982, 0.31644323, 0.09660579, 0.10389937, 0.07101835, -0.25410560, -0.23190944, -0.19516166, 
    -0.22959808, -0.13000071, -0.13192095, 0.13811404, 0.08171044, -0.19569619, -0.04303956, -0.30891359, 0.20874272, -0.23870397, 
    0.23004456, 0.10918488, -0.07531315, 0.22881283, 0.28471342, -0.07731787, -0.16233909, -0.18584660, -0.04543506, 0.06194263, 
    -0.04051280, 0.16456166, -0.15668692, -0.16796719, -0.06134387, -0.33473700, 0.17401153, -0.01015224, -0.19261479, 0.14662881, 
    0.44042486, 0.00918200, -0.01927114, -0.25207153, -0.23036744, -0.05452400, -0.13497351, 0.09944639, 0.19956149, -0.08918583, 
    0.22177593, 0.10468049, 0.25037342, -0.08176027, -0.21950644, 0.09121301, 0.27446452, -0.02078384, 0.42218825, -0.01711180, 
    -0.07171104, 0.00641091, 0.01638968, 0.18439235, -0.11414296, -0.02574255, -0.01760750, -0.18631613, 0.12653553, -0.15482637, 
    -0.00686558, -0.05012057, 0.11367077, -0.03849858, 0.09554309, 0.03464836, 0.16202118, 0.25685394, -0.09818467, 0.07846683, 
    0.35357803, -0.10929122, 0.33547959, 0.20963667, 0.03089685, -0.11230034, 0.04183947, -0.04573061, 0.16673201, -0.02578154, 
    0.06794009, 0.18419865, 0.32135803, -0.09792344, -0.14890490, 0.07488353, -0.19904323, -0.44620663, -0.37923336, -0.21487062, 
    -0.22376405, 0.02863821, 0.19477920, 0.24722911, 0.13866605, 0.03984033, -0.06154667, 0.18247397, -0.11977568, -0.19901751, 
    -0.27360764, -0.19316605, -0.14818370, -0.11589094, 0.30159971, -0.03707159, -0.04080800, 0.04594850, -0.21602060, 0.06776141, 
    -0.01782879, 0.09219913, -0.16229169, 0.20127554, 0.11544933, 0.21718954, 0.11072591, -0.07135140, 0.05882142, -0.06072919, 
    0.18748207, 0.23159060, 0.23228189, 0.03510652, 0.26417342, 0.23888166, -0.00627738, 0.04187808, 0.23847221, 0.12130014, 
    -0.01149725, -0.04649266, 0.09265698, 0.06284090, 0.12298747, -0.00808562, -0.07990264, -0.00549291, -0.28342640, -0.01543775, 
    0.07600424, -0.32603744, 0.19357504, 0.28132555, 0.29462132, 0.08432014, -0.15232892, -0.22354779, -0.11979274, -0.36585036, 
    0.27008224, -0.19650578, 0.15450574, 0.25906077, 0.09954408, 0.05213441, 0.03753841, 0.03386377, -0.33588511, -0.06498851, 
    0.05775743, 0.09189712, 0.21698138, -0.16395302, -0.23510881, 0.01397781, 0.19920368, 0.08922993, 0.05402755, 0.15398136, 
    0.15420380, 0.02788060, 0.36168090, 0.26142898, 0.07997196, 0.17302901, 0.02624606, 0.14354901, -0.02075547, 0.14152247, 
    0.09992895, 0.14007047, 0.08208731, 0.01020924, 0.05625912, 0.03620394, -0.06175182, -0.12307761, -0.16996320, -0.13648777
    
};

const type_t B_fc1[64] = {
0.02369997, -0.14116183, -0.25327769, 0.40394285, -0.29912370, 0.46806979, -0.00426095, -0.33440802, -0.01923352, 0.21753775, 
    0.12930439, -0.01472871, -0.17184646, 0.03362685, 0.14023221, 0.08109736, 0.43793577, 0.03495910, -0.06594443, 0.06881395, 
    0.12873065, -0.00932649, 0.22174311, 0.39421937, -0.47414517, 0.30419692, -0.07050248, -0.05626766, -0.17212957, 0.08564305, 
    -0.33930546, -0.44702616, -0.23813729, 0.18614963, -0.15881687, -0.24680568, -0.09098957, 0.08070310, 0.04643071, -0.24837059, 
    -0.04466997, -0.16376276, 0.16598809, 0.24095474, -0.41446590, 0.11572295, 0.19471344, -0.01735793, 0.11056256, -0.29342705, 
    0.02891667, 0.15054405, 0.05225424, 0.14528371, -0.42255241, 0.29243079, -0.05828098, -0.03171329, 0.00073684, 0.24757364, 
    -0.09898590, -0.08000179, -0.20229955, 0.09992943
};

const type_t W_fc2[384] = {
-0.01061438, 0.18989579, 0.32030484, -0.24522406, 0.19787648, -0.35044590, 0.28395891, 0.32277653, 0.04343434, -0.22554702, 
    0.00487625, 0.03625133, 0.08078667, -0.09579794, -0.44148755, -0.50552499, -0.23985429, 0.24023004, 0.27723807, -0.22260141, 
    -0.26082906, 0.21961361, -0.18420658, -0.30564448, 0.32763872, -0.36471552, 0.18516375, -0.18160319, 0.08123162, -0.06817339, 
    0.03418469, 0.21520709, 0.32463670, -0.09262484, 0.26947612, 0.20174529, -0.23290455, -0.33577394, -0.39888793, 0.22237200, 
    -0.03509457, 0.12154017, -0.30431709, -0.58186918, 0.33512837, -0.24365042, -0.55053198, -0.17621602, -0.48668125, 0.28865474, 
    -0.26032913, -0.00471416, 0.14032571, 0.00173892, 0.25989479, -0.07292443, 0.24835874, 0.11150907, -0.04805031, -0.27834430, 
    0.03971063, 0.42002919, 0.28676978, -0.07572644, -0.75893003, 0.02082423, 0.21010815, -0.19608863, 0.13950495, -0.26160988, 
    -0.62190747, -0.61554527, 0.18167706, 0.00259814, -0.13943304, 0.09352400, 0.28686252, 0.05874603, 0.67246425, 0.57328290, 
    -0.10547902, -0.57108152, -0.51545668, 0.18112716, 0.40896893, -0.49432150, -0.28663516, 0.12115610, 0.01010392, -0.14712209, 
    0.14685941, -0.22298175, -0.01364415, 0.27838713, -0.06674960, 0.06913418, -0.48331061, -0.58727062, -0.51671857, 0.32829019, 
    0.31643796, 0.40613392, 0.53507626, -0.22280803, 0.22004072, -0.61643648, 0.53279370, 0.54010171, 0.17274471, 0.14532183, 
    0.35562888, -0.24398643, 0.43278080, 0.40850565, 0.02791433, 0.19133927, -0.71985000, -0.05517781, -0.00510249, -0.18238412, 
    -0.29375494, -0.43434957, 0.13894570, 0.38107002, 0.16846348, -0.55462855, -0.21723886, 0.14967823, 0.36914778, 0.12981743, 
    0.02420093, 0.21765582, -0.26206312, -0.00951683, -0.09597123, -0.18810271, 0.12229025, 0.26855221, 0.22051182, -0.11631658, 
    0.11236555, -0.00313593, -0.22247779, -0.19118924, -0.06696200, 0.22850585, 0.15337661, -0.01944778, 0.00528741, 0.22592130, 
    -0.14217579, 0.28199020, -0.27541935, 0.42673987, 0.12263843, 0.06767461, 0.17534883, -0.47662476, -0.00953026, -0.11851517, 
    0.36464447, 0.41416723, -0.10846617, -0.38092732, 0.04235237, -0.41549578, -0.43097547, -0.16608074, -0.21613941, 0.04124181, 
    -0.05161515, -0.09120212, -0.00711955, -0.21191189, -0.17792340, -0.28280044, 0.03434841, 0.17278220, 0.24760106, 0.10806397, 
    0.22919503, 0.33951244, -0.09129054, 0.13714874, 0.32486573, -0.09223695, -0.04819355, -0.23428170, -0.02090933, 0.33739579, 
    0.17614342, -0.07375085, 0.12963949, 0.22409801, 0.00735651, -0.03865479, -0.25186035, 0.07681645, 0.03377309, -0.25133497, 
    0.13051632, -0.19573228, 0.20933937, -0.35768050, -0.25816172, -0.10751809, -0.47629687, -0.03898205, -0.15505587, 0.32128707, 
    0.13193329, -0.28537333, -0.07544977, 0.38702786, 0.18084060, -0.13697119, -0.19276464, -0.11286807, 0.19335589, 0.04365391, 
    -0.07702142, -0.08992247, -0.26384324, -0.17030977, -0.17875411, 0.36879960, 0.16851293, -0.38958737, -0.46590915, -0.46546847, 
    -0.05168724, 0.16616154, -0.11936063, 0.02197482, 0.18454207, 0.03574861, 0.16552483, -0.20397948, -0.24411458, 0.18481451, 
    -0.34518468, 0.05772941, 0.38616040, 0.24007267, 0.07893075, 0.49126983, -0.28502935, 0.27987188, -0.39337662, 0.19929644, 
    -0.01868958, 0.06369315, -0.14059424, -0.00321618, 0.32643935, 0.19041279, -1.18094742, -0.38341981, -0.32973674, 0.00726125, 
    -0.07620158, 0.30610958, 0.13955456, 0.06365350, -0.61851472, 0.43095040, -0.11170756, 0.17210294, -0.50046772, -0.40615585, 
    -0.05172416, -0.40174198, 0.53256536, -0.12624577, 0.22591870, -0.01868859, -0.36897808, -0.62291253, -0.22615628, -0.14491419, 
    0.38434061, -0.27370921, 0.29497325, -0.22137527, -0.68882722, -0.11459967, -0.68403357, -0.81040251, -0.19223762, 0.67975676, 
    -0.59003890, -0.40764177, -0.49850899, 0.20578362, 0.17448105, -0.15087642, -0.49547857, 0.54540622, -0.19717059, -0.21492146, 
    -0.46935889, 0.49669492, 0.17528340, -0.21363696, 0.24509969, -0.70026773, -0.06223847, -0.37856174, 0.10073079, -0.48866785, 
    0.06779113, -0.00745023, -0.09478118, -0.27332246, -0.17964366, 0.53377968, -0.47433937, -0.02786340, 0.34237227, -0.11466078, 
    1.12944186, -0.53026992, -1.02380049, 0.28531128, -0.11404323, 0.01453543, -0.10096011, 0.10917079, -0.57270318, -0.23096336, 
    0.24225262, -0.01116679, 0.33093914, -0.26421160, 0.15703720, -0.37157890, 0.16706407, -0.26387671, 0.04273047, 0.51047254, 
    0.39205799, -0.02500754, -0.09553513, -0.03470390, -0.44481939, 0.08548290, -0.96906012, 0.26265067, -0.78928483, -0.18108213, 
    -0.40539089, -0.30337289, -0.06469288, -0.54777223, -0.17091522, 0.22348377, -1.55867231, -1.22257614, 0.00311172, -0.07027449, 
    0.32890025, -1.11372089, -0.86907595, 0.06608804, -0.51109093, 0.28622374, -0.28723297, 0.28387275, -0.45789704, -1.27556717, 
    0.02801888, -0.27273050, 0.43352538, -1.36008608, -0.53113842, 0.28453323, -0.23732160, 0.25411731, 0.08572573, 0.21993032, 
    0.09173030, 0.33063051, 0.01849322, -0.35676923
};

const type_t B_fc2[6] = {
-0.52847862, 0.00188591, 0.09092034, 0.21182364, 0.18360597, 0.15622929
};

#endif // WEIGHTS_H
