#ifndef WEIGHTS_H
#define WEIGHTS_H
#include "conv3.h"

const type_t W1[54] = {
 0.38029134,  1.23223460, -1.09053349,  0.33957055,  0.18783969, -0.36022797,  0.47444031,  0.44641480, -0.26810592, -0.55406243, 
     0.35880932,  0.75440586, -0.70733303, -0.66610593, -0.20274600,  0.29778516, -0.80234569, -0.55377913,  0.83009112,  0.00076891, 
     0.26591447,  0.35040319,  0.76057458, -0.71715611, -0.65430319,  0.13144675, -0.11948586, -0.00938206,  0.00778568, -0.31933868, 
     0.63061684,  0.80701578, -0.02591578,  0.73396766, -0.07452198, -0.95248383,  0.75466222,  0.18178992,  0.11848339,  0.01421201, 
     0.00010919,  0.26107064, -0.32172328,  0.44671831,  0.02182927, -0.16190916, -0.47681299,  0.08416922,  0.20866029, -0.35216293, 
    -0.29901952,  0.12595612,  1.19118071, -0.28875688
};

const type_t B1[6] = {
 0.23518012,  0.46216893,  0.35353732,  0.60168421,  0.65483999,  0.30414233
};

const type_t W2[216] = {
 0.12194011, -0.13866830,  0.33263513, -0.41188276, -0.46006742,  0.37525243, -0.39821458,  0.64402169,  0.03192251,  0.29244503, 
     0.47956294, -0.31353602,  0.42492449,  0.13750240,  0.18149324,  0.19405909, -0.31802461,  0.04211157, -0.35251933, -0.05370047, 
    -0.28760579,  0.49666807,  0.57319057,  0.01155321,  0.03526960,  0.17607461,  0.14820306,  0.58020014,  0.44483921,  0.00508909, 
    -0.38575336, -0.27671453,  0.44690296,  0.65823728,  0.06350441,  0.45801097,  0.34353450,  0.59402078,  0.51786453, -0.09916169, 
     0.31873211, -0.02601473,  0.11145871,  0.06904475, -0.48982415, -0.17454918,  0.44532508, -0.24069025,  0.73543024, -0.48371765, 
     0.44465303,  0.54198223,  0.56873083,  0.49379718, -0.19981129, -0.08694868,  0.13563217,  0.40166274, -0.08609860, -0.14583911, 
    -0.32379067,  0.13758263, -0.33153650, -0.35437468,  0.34178400,  0.25786647, -0.57782823, -0.03811025,  0.18996687,  0.58710110, 
     0.39113569, -0.19087492, -0.21933059, -0.30555198,  0.16266899,  0.08036887,  0.35297513,  0.25800300, -0.50596958,  0.04769189, 
     0.27151331,  0.55352038, -0.10774713,  0.47154570,  0.35953972,  0.30626592, -0.03710220, -0.35520416, -0.00484516,  0.29739636, 
    -0.04573677,  0.62570596, -0.29387069,  0.22485366, -0.38757598,  0.38935977,  0.07937949, -0.17833211, -0.36061394,  0.58846807, 
     0.39761823,  0.34068352, -0.53649372, -0.30035371, -0.30441567,  0.41918519, -0.58995903,  0.49096283,  0.60144591, -0.45045155, 
    -0.10557548,  0.02924836,  0.60465133,  0.53572112, -0.30477574,  0.28476444,  0.30784333,  0.33719718,  0.30134609, -0.39152089, 
     0.15182975,  0.01109370,  0.64755726,  0.54757220, -0.36763003,  0.46678782, -0.03238037, -0.13296740, -0.72946632,  0.33855820, 
    -0.16626716, -0.18618721,  0.23746473, -0.10521322, -0.11875531,  0.26883602, -0.24760155, -0.19958560, -0.06333616,  0.47810906, 
     0.11907919,  0.59396750, -0.22588503, -0.17258549,  0.37902963,  0.38253424, -0.38705468, -0.05063970, -0.15152226,  0.51457494, 
     0.19270682,  0.34241110, -0.49037164, -0.12013073, -0.02074024, -0.25017378, -0.25466731, -0.41514403,  0.53455317, -0.02594208, 
     0.56261533, -0.46024212, -0.04621880, -0.13473111,  0.04307434, -0.38457105, -0.25423920,  0.26323873,  0.04298323,  0.54210436, 
     0.16942963,  0.65686834,  0.28441000,  0.57709628, -0.08138826, -0.12000641, -0.07048762, -0.27974719,  0.35661769,  0.31010467, 
    -0.20966813, -0.18852574,  0.05342260, -0.10514600,  0.15587731,  0.54685658,  0.46403629, -0.54890424,  0.92185205,  0.08462292, 
     0.01019176,  0.32296926,  0.07674213, -0.35645676, -0.26647112, -0.37228656, -0.57029796,  0.19505426,  0.52024531,  0.18843545, 
    -0.15289754,  0.05960115,  0.09902968,  0.23914067, -0.31813562,  0.76178074,  0.02837365,  0.50641614, -0.09293263, -0.49946100, 
     0.24157949,  0.14763783, -0.11426510, -0.40598503, -0.60599488, -0.65114152
};

const type_t B2[12] = {
 0.48672342, -0.27110016,  0.02475542,  0.07508088,  0.54729140,  0.38036677, -0.20975386,  0.42756519,  0.05519895, -0.25779024, 
    -0.06016703, -0.26455143
};

const type_t W3[576] = {
-0.26888445, -0.24464276, -0.30810121,  0.37510499,  0.35410151,  0.15768145,  0.20768504,  0.06802899,  0.32515496, -0.45272338, 
     0.23006676, -0.23070551, -0.10560868,  0.09486303,  0.25167236,  0.13776480, -0.35269445,  0.05452733,  0.07410695,  0.02513856, 
    -0.22631383,  0.24351652, -0.17282265,  0.27483615,  0.27639744, -0.51236963, -0.11523067, -0.30687252, -0.26742980,  0.09104537, 
    -0.05691614, -0.01251017,  0.38432518,  0.31015977, -0.16430429,  0.10282126, -0.10134782, -0.38420254, -0.12451012, -0.00033297, 
    -0.44650388,  0.49253547, -0.22881669,  0.10044419,  0.12259672, -0.06061035, -0.37804657,  0.01388429,  0.10544916,  0.25421211, 
    -0.13476665,  0.32232171,  0.04679078,  0.02537611, -0.07027993,  0.08628939,  0.25385010,  0.50610477,  0.11627540,  0.35675523, 
     0.11160989, -0.00483190, -0.19739090,  0.09330671, -0.32636112, -0.09311458, -0.33495653,  0.04050789,  0.18155450, -0.15897314, 
    -0.37091300,  0.01724785, -0.18275423,  0.11809085, -0.27327514,  0.34546423,  0.25942487,  0.02758853,  0.11065947, -0.14621909, 
    -0.14947490,  0.32353720, -0.32574645,  0.25798097, -0.46075773,  0.15910564, -0.21437661,  0.14325178, -0.00555261, -0.52694714, 
     0.09400415, -0.33938277,  0.01184238,  0.24045095,  0.04127591,  0.20570427, -0.38280192,  0.07040307, -0.07912096, -0.60964739, 
     0.41888121,  0.11123495,  0.02516800,  0.26554221, -0.26440486, -0.08605260,  0.38633734, -0.39341593, -0.00452107, -0.10689609, 
    -0.11131014,  0.25277624, -0.28145108, -0.20032969, -0.07866378, -0.17455611, -0.35855713, -0.00985576,  0.54665303,  0.23351812, 
     0.37233505, -0.09984869,  0.18147370, -0.12408420, -0.23948711, -0.30983424,  0.52390623,  0.09755976,  0.03736906, -0.14885637, 
     0.08309123,  0.16036673,  0.47685879, -0.11686020,  0.07681446, -0.12717806, -0.06462735,  0.07232954, -0.15554470, -0.54091400, 
    -0.48504737,  0.21959022,  0.04071362, -0.25466004,  0.25567380, -0.14052378, -0.21193074,  0.35121140,  0.25435057, -0.40577552, 
    -0.00461889, -0.09242619,  0.03023102, -0.43852830,  0.32056829,  0.26247349, -0.30336002,  0.42848185, -0.15977962, -0.53220898, 
    -0.16872488,  0.38276336,  0.09433366, -0.40737307, -0.13581359, -0.15735558, -0.18873179,  0.22797355,  0.39349282, -0.27742681, 
     0.07004796,  0.24064234,  0.41927585,  0.19684625,  0.02976960,  0.37880713,  0.10680269, -0.35734081, -0.24618059,  0.05107779, 
    -0.33860132,  0.43366569, -0.20639047,  0.05747391, -0.19251381, -0.22523661, -0.14697091,  0.03762168,  0.46330506, -0.25473961, 
     0.08597638, -0.53081691,  0.00130858, -0.37020719, -0.40693766,  0.34254146, -0.33497655, -0.26107702,  0.38344979, -0.28892022, 
     0.13700281,  0.20717537,  0.41143158, -0.27850297,  0.14917479,  0.19804555,  0.41106164, -0.14991194,  0.33729666, -0.04720537, 
     0.20044278,  0.24303494, -0.32542297, -0.40883872, -0.12205762, -0.27239680, -0.31034091,  0.23884802,  0.32904992, -0.39608228, 
    -0.36931655,  0.05659343, -0.43687943,  0.18521638,  0.06224927, -0.07735351, -0.00304738,  0.13570133,  0.15316701,  0.13366769, 
     0.27516145, -0.15026490,  0.07940207,  0.10828944,  0.05958619,  0.08786669,  0.03672004,  0.09934741,  0.27198550, -0.03221407, 
     0.40829945, -0.17690472, -0.50535786,  0.00420798,  0.06895811, -0.14209785,  0.28620332,  0.08320829, -0.36963227,  0.26023719, 
     0.26934302, -0.19824342, -0.45347738,  0.16598849,  0.31022471,  0.19264092,  0.38511509, -0.06463923, -0.03993728,  0.12006627, 
    -0.29521722, -0.11056690,  0.42518771,  0.03727664, -0.43141764, -0.22090925,  0.22075789,  0.23484388,  0.38625297, -0.00358900, 
     0.21403377,  0.26740640, -0.43169913, -0.43202540, -0.37456584,  0.05192560,  0.19745915,  0.53237832, -0.06351395,  0.20688230, 
     0.14016017, -0.43199694,  0.38503742,  0.39155877,  0.26683345,  0.35453773,  0.14437652,  0.29001927, -0.23475739,  0.42544687, 
     0.08941208, -0.07517306, -0.35713413, -0.26183286, -0.04934949, -0.23642209, -0.07228704, -0.15734108,  0.28925520, -0.46049094, 
     0.29085287,  0.27675277,  0.44016951,  0.27648315,  0.17703083, -0.44041163, -0.12176895, -0.20578411,  0.47414601,  0.50280923, 
     0.41259602,  0.03737203,  0.34710035,  0.20970990,  0.22248922,  0.14432104, -0.03176152, -0.30011556,  0.05569650,  0.02791516, 
    -0.44156709,  0.16764721, -0.36163148,  0.10244597,  0.37959835, -0.00151782, -0.03050731, -0.06272443, -0.38889721, -0.03556392, 
     0.24876228,  0.45277283, -0.25631037,  0.03077872,  0.38779834,  0.20000581,  0.11558118, -0.24770734, -0.30006400,  0.10010689, 
    -0.17602566, -0.28860673,  0.03954180, -0.28416881,  0.26529947,  0.08115598,  0.52545148, -0.12474147,  0.35975963,  0.15021391, 
     0.29554954,  0.27345347, -0.28826666, -0.55543244, -0.21056004, -0.00878729,  0.53764302,  0.36401564,  0.38689265,  0.29743928, 
    -0.26707530, -0.20257366,  0.10316046, -0.04626015,  0.25986314, -0.02083709,  0.01406526,  0.08879033,  0.38780791, -0.03210156, 
     0.40825665, -0.59910029, -0.14442731, -0.22544567, -0.18495578, -0.26559749, -0.33708280, -0.29316002, -0.01341642,  0.49621192, 
     0.04004857,  0.00338222,  0.36644173,  0.17824200, -0.18549573, -0.31258512, -0.08477648, -0.24796861,  0.32364619,  0.38567287, 
     0.39187300, -0.22296834, -0.42183474,  0.03457900,  0.05150635,  0.42994004, -0.39355156,  0.50113505, -0.13293518,  0.30234098, 
    -0.17074494, -0.07863522, -0.39158431,  0.23200504,  0.08934565, -0.09863686,  0.32511351,  0.07095282, -0.05004211, -0.08745215, 
     0.07912875, -0.36825305,  0.43669459, -0.22494332,  0.31192791, -0.14203504,  0.14080523, -0.13408993, -0.09308069,  0.01801781, 
    -0.13591827, -0.12861049,  0.12324807, -0.08858018,  0.35830924, -0.02613732, -0.35010055,  0.30318886, -0.07247524,  0.50941610, 
     0.21607360,  0.07818004,  0.41787302,  0.07575573, -0.14239399,  0.10259835, -0.27912384, -0.12547117, -0.16345973,  0.08047553, 
     0.35284925,  0.21707860, -0.02446953,  0.15816517, -0.44796735,  0.07978781,  0.18206127,  0.22007728,  0.31708163, -0.23058687, 
    -0.08968864,  0.30880529, -0.17545457, -0.31993431, -0.30800736, -0.23725130,  0.16932489, -0.29304689,  0.38144934,  0.21786471, 
    -0.19126742,  0.25034952, -0.05681674,  0.33285573,  0.24605253,  0.35730731, -0.26328871,  0.29558188, -0.26471514, -0.08052187, 
    -0.08236939,  0.28540349, -0.20980147,  0.41319519, -0.06699499, -0.27537537, -0.09529731, -0.35774258,  0.38008347,  0.01761372, 
    -0.33527294, -0.20391206, -0.25550866, -0.03275066,  0.00544639, -0.12245201,  0.01715234,  0.24013522,  0.16251040, -0.11088356, 
    -0.04200002,  0.24567959, -0.08284865,  0.54183853, -0.06860620,  0.27402118,  0.27400792,  0.58847553, -0.06401695,  0.65222007, 
    -0.18035801,  0.20102759,  0.19504796,  0.19186898,  0.13319825, -0.31972831,  0.27728283, -0.15237610, -0.25030857,  0.17198303, 
     0.10469829,  0.01628798,  0.43988401,  0.20498905,  0.64040887,  0.03269481,  0.16443142,  0.03931591, -0.42840213, -0.01198378, 
    -0.09233181,  0.19777405,  0.33071685, -0.26621211, -0.03257288, -0.11319792, -0.22029749,  0.00643287, -0.24052869, -0.05400239, 
    -0.30574682,  0.09634881,  0.11994652, -0.30153415, -0.32763985, -0.05807327, -0.21891662,  0.37125957,  0.06132901,  0.14044411, 
    -0.12969993, -0.29690456,  0.50673378,  0.14889805,  0.08585905,  0.23368359,  0.21358727, -0.09833135, -0.06800027,  0.58350855, 
     0.15952849,  0.04746886, -0.09283309,  0.29340929,  0.20302984,  0.47925812, -0.18917575,  0.30199662, -0.31260127, -0.00779493, 
    -0.00885444,  0.35910794, -0.19756113, -0.28993705,  0.08709870, -0.22280119, -0.26754907,  0.35664573, -0.14163670, -0.08925794, 
    -0.18547502, -0.29048687, -0.02693181, -0.42796215,  0.02944367, -0.44103479
};

const type_t B3[16] = {
 0.18901080,  0.20917015,  0.08376376, -0.13118443,  0.01826893, -0.26807684,  0.41860178, -0.26157779,  0.39295167,  0.03824176, 
    -0.40177822, -0.05958662, -0.33999059, -0.14415179,  0.03221676,  0.06684168
};

const type_t W_fc1[5120] = {
-0.33571237, -0.10097077,  0.01678278, -0.04056676, -0.17238519, -0.04857707,  0.09538762,  0.19371437, -0.23430128, -0.13403820, 
     0.20980118, -0.25500587, -0.03291141, -0.14136118,  0.10575300,  0.12124090,  0.12870155, -0.14598101, -0.16774680, -0.23998611, 
     0.25533038,  0.14294678,  0.31068084,  0.18640010, -0.03931933, -0.26237765,  0.27292803,  0.17570339,  0.11921256,  0.14878809, 
    -0.17198135, -0.02714474,  0.09293246,  0.25669336,  0.23703691, -0.21568108, -0.09646995,  0.00333941,  0.29866260, -0.15194331, 
    -0.24546047,  0.15867649,  0.07471391, -0.03216299,  0.11767352, -0.02391680,  0.07332730,  0.05515439,  0.21752349,  0.07772847, 
     0.02966245, -0.04841198, -0.04553861,  0.13242644, -0.15557839,  0.06013974,  0.06593202, -0.14543024, -0.06796846, -0.22830799, 
     0.20181470,  0.02780808,  0.10551534,  0.10526600, -0.04521878, -0.10642251, -0.02578574, -0.02363143, -0.10347904, -0.36164436, 
     0.20896851,  0.03465040,  0.08904720,  0.04868878, -0.28861171,  0.08657605, -0.03272170, -0.09889795,  0.23136099, -0.29069638, 
    -0.39148605, -0.05547490, -0.18870866, -0.04598270,  0.20643218,  0.03422824, -0.27394867, -0.00198682,  0.13414197,  0.00137115, 
     0.10424209, -0.10086297, -0.16767970, -0.08719952, -0.27238530, -0.00335633,  0.19824684, -0.26494977,  0.39828339, -0.19506243, 
     0.02564638,  0.30781999,  0.03487940, -0.20730560,  0.08165684,  0.03418140,  0.15075956,  0.19375968,  0.32866868,  0.04184992, 
     0.14519565, -0.28701362,  0.01621351, -0.14169265,  0.09633966,  0.15235052,  0.06385954,  0.00295770, -0.07200824, -0.06651895, 
    -0.29520544,  0.10504856, -0.32739991, -0.07079472,  0.19415845, -0.13985601,  0.11826267,  0.15066397,  0.08721465,  0.09374017, 
     0.32897371, -0.15705924, -0.00032646,  0.04337702, -0.15922049, -0.11695911,  0.16177574,  0.19370212, -0.17951091,  0.16460148, 
    -0.02003876, -0.23494859,  0.30967045, -0.07102916, -0.23368379, -0.11239307,  0.29181370,  0.28508168, -0.14909090, -0.20961002, 
     0.06641250, -0.04018462,  0.20185113, -0.03495447,  0.11021842,  0.16111229,  0.16216914, -0.06448353,  0.13301705,  0.04745203, 
    -0.15135652,  0.03742943,  0.04932810,  0.24000336,  0.24706125,  0.20477258, -0.23404856,  0.12358803,  0.01221002, -0.13033615, 
    -0.02619311,  0.19304588, -0.16765821, -0.05266723, -0.22933951,  0.18701605,  0.31513301, -0.02466730,  0.03675443,  0.07956725, 
     0.00549987,  0.22146781, -0.09430192, -0.05306845, -0.04699318,  0.16616711, -0.10588116, -0.15343247, -0.29480293,  0.29042020, 
     0.04976355, -0.03051404, -0.22900584, -0.18815073, -0.00975914,  0.33316660,  0.15695986, -0.11166184,  0.18305092,  0.03602957, 
    -0.26952183, -0.16855061, -0.16392177,  0.01071142,  0.05656353,  0.08692615,  0.37117088, -0.03905344,  0.35826617, -0.00759184, 
    -0.05119360,  0.12715735,  0.01378999,  0.11756142,  0.15065493,  0.14521973, -0.21034820,  0.26577577,  0.30713424,  0.00901356, 
     0.15166645,  0.01205950,  0.23017962,  0.31894204, -0.12428477,  0.00228046,  0.23126191, -0.06723595,  0.29829496,  0.01294067, 
    -0.00269110,  0.04213804, -0.03468484,  0.18721284,  0.29154214,  0.16886769, -0.02492823,  0.27386096, -0.06356151,  0.01446102, 
    -0.04387931, -0.06417630,  0.03531358, -0.04604018,  0.11329600, -0.30331174, -0.18422098,  0.09366265, -0.21169661,  0.42013639, 
     0.04244643,  0.02694946, -0.17934874, -0.02980843, -0.02297787,  0.07532196,  0.13588810, -0.29453716, -0.23678714, -0.31411383, 
    -0.04977658,  0.18807061,  0.10827968,  0.27231944, -0.26825234, -0.10769987,  0.24033912,  0.03223398, -0.37969831, -0.32734859, 
     0.24781741,  0.16627406,  0.02239809, -0.05013456, -0.17461514, -0.18054213, -0.10195754, -0.11937124,  0.06367109, -0.36103886, 
    -0.41885763, -0.27131745, -0.08288810,  0.09635261,  0.20231572, -0.16448723, -0.28892002, -0.21690622,  0.16747206,  0.24448301, 
    -0.02181487, -0.19268644, -0.27348512, -0.30552024, -0.26103157, -0.20559832, -0.09158935, -0.13151969, -0.09219782, -0.04037582, 
     0.12335052, -0.30974287, -0.25757408,  0.25491580, -0.12247882, -0.01775705,  0.22924905, -0.05601215, -0.27273634, -0.01379157, 
    -0.01895090, -0.17317323,  0.30830032, -0.36109143,  0.15434183,  0.07234335,  0.19789512,  0.29893780,  0.25736544,  0.31056800, 
    -0.27750647, -0.04127857, -0.33799282,  0.15090889, -0.12439442, -0.21053480,  0.06937983, -0.28918922, -0.15578663,  0.22270192, 
     0.35816440, -0.03015993,  0.01186616,  0.10953901, -0.05174882, -0.09427589,  0.09299161, -0.35328767, -0.22210556,  0.43040532, 
    -0.22914402,  0.02005619, -0.25835651,  0.16545293, -0.09208149,  0.24049370,  0.06367072, -0.18474944, -0.08815749,  0.19426939, 
     0.08760092,  0.05414305, -0.20898546,  0.29393023, -0.05160807, -0.24951063,  0.07122234, -0.07919422,  0.11781494, -0.16019575, 
     0.26322976, -0.07369953,  0.20819640,  0.11023125,  0.19271110, -0.04029635,  0.15038763,  0.08664422, -0.03504751,  0.22866675, 
    -0.07246483, -0.03713155, -0.03947168,  0.06877297, -0.23204896,  0.24964076, -0.28432024, -0.04603016,  0.03520505,  0.04982163, 
     0.02075117,  0.07470595, -0.05287809,  0.22020970, -0.33563146,  0.10391616, -0.08534581,  0.09028544, -0.49138013,  0.33393490, 
    -0.12886126, -0.43667811, -0.23581368,  0.02669964,  0.25870815, -0.10752297, -0.20182569, -0.15660793,  0.09956175, -0.01086442, 
    -0.21806870, -0.19466037,  0.20600288,  0.07197060,  0.19000244,  0.05620485, -0.07329220, -0.11304874,  0.12400378,  0.33509859, 
    -0.20280562, -0.23627853, -0.05408908,  0.22875164, -0.16439092, -0.28396243, -0.11227011, -0.18441375, -0.31532973,  0.11504558, 
    -0.10248610, -0.19006297,  0.11024344, -0.07794640, -0.25515300, -0.24856219,  0.02114354, -0.26337367,  0.11179055, -0.11073682, 
     0.02032061, -0.18819380, -0.02259860,  0.04628976,  0.35173255, -0.22647835,  0.00886381,  0.01536295, -0.11605573, -0.16296786, 
     0.24974142, -0.16851358,  0.07000148, -0.14290887,  0.28796420,  0.23526528,  0.09226952,  0.07523835, -0.17244805,  0.10935695, 
    -0.16611879,  0.04534018,  0.14002900,  0.34034982,  0.17164540,  0.20089285,  0.06809498, -0.08586513,  0.22776385, -0.12691227, 
     0.00077875, -0.00380612, -0.25476959,  0.22778377,  0.00329376,  0.02027171, -0.23347332,  0.06332590, -0.15762798,  0.00445974, 
    -0.08874573,  0.06338701,  0.07839692,  0.11083861,  0.10113700, -0.05068915,  0.04573118, -0.18625973,  0.24457194,  0.10306051, 
     0.30468908, -0.33162296, -0.10242727,  0.03493251,  0.19719188, -0.30371734,  0.24081767, -0.12869303,  0.02327681, -0.04603599, 
    -0.51895487, -0.10638718,  0.15713842,  0.39274767,  0.49148348, -0.06621639,  0.10954989, -0.05220800, -0.27144924, -0.23558214, 
    -0.13753185, -0.10607200, -0.03680432, -0.04926025,  0.36633387, -0.14301705,  0.25328264, -0.02644000, -0.04179068,  0.22635448, 
    -0.28978208, -0.07578615,  0.42612380, -0.19119066, -0.07848050,  0.13953534, -0.07093989, -0.15138884, -0.10924596,  0.02697858, 
     0.06178422,  0.01554456,  0.15035711,  0.33647823, -0.02029461,  0.20608817, -0.23807569, -0.38634038, -0.03427668, -0.06141866, 
    -0.10734344,  0.18445805, -0.00358299,  0.30163112, -0.08369271, -0.15380576, -0.01983621,  0.03270536,  0.09280095, -0.02726106, 
    -0.13695045,  0.03912332,  0.27347243, -0.26053432,  0.15923797, -0.22403194,  0.16248943, -0.09360446, -0.12516220, -0.29411522, 
    -0.20515975,  0.28845191,  0.19341131, -0.01182725,  0.20127136, -0.10067455, -0.13053182, -0.16536780, -0.14125998, -0.28744906, 
     0.02587435,  0.00405928,  0.24549924,  0.02662445, -0.12245569,  0.14979945,  0.21639329, -0.06222386,  0.09045777,  0.15136744, 
    -0.09564169,  0.37360111,  0.12370209,  0.19194271,  0.21767119, -0.07077294,  0.26289085,  0.05740216, -0.02388279, -0.25137001, 
    -0.14277975, -0.35345259, -0.23818088,  0.22355989,  0.00952682,  0.19655851,  0.38280711, -0.10109388,  0.00312115, -0.22059007, 
     0.04035137, -0.16099322, -0.06458998,  0.16715473,  0.17858988,  0.17991243, -0.01057474,  0.06842429, -0.09124173,  0.09987172, 
     0.15526751, -0.19271018, -0.25444961,  0.11470722,  0.08561283, -0.07442005, -0.05857485, -0.03033753, -0.33613038, -0.25264120, 
     0.20191543, -0.08273020, -0.06948707,  0.32828990, -0.49710852,  0.18000305,  0.25802401, -0.23335047, -0.09778237,  0.19537489, 
    -0.27504846, -0.10427271, -0.23388095,  0.05638492,  0.01956814, -0.18080258,  0.11114907, -0.24638224,  0.39979556, -0.02352718, 
     0.17683834,  0.06854898, -0.39690056, -0.34853613, -0.26357672,  0.19931163, -0.00671829, -0.22506118,  0.12250593,  0.11865187, 
    -0.11171085, -0.00518808, -0.25511307,  0.09770101, -0.10569608,  0.31987861, -0.09094496, -0.08882524, -0.08513291,  0.12797044, 
     0.40650609,  0.34170032,  0.22064784, -0.20641281,  0.07073272, -0.08200561, -0.11702330,  0.30919749,  0.15412037,  0.13532007, 
    -0.12245268, -0.12400919,  0.02060430, -0.05573138,  0.06029409, -0.13056527, -0.22900897,  0.23807490,  0.38783744,  0.09539700, 
     0.20119406,  0.18343034, -0.06244826,  0.25462952, -0.38754019,  0.30102849, -0.00864440, -0.21087880, -0.02165444,  0.14850594, 
     0.52049249,  0.14824422, -0.22590324,  0.17036191,  0.06045590, -0.18794568,  0.02703278, -0.15481550, -0.18128160,  0.24688050, 
    -0.17351824,  0.13310117, -0.03149985,  0.17057241, -0.24508007, -0.15588441, -0.44346792,  0.09250113, -0.03603362, -0.23025770, 
    -0.23045641, -0.02114172,  0.02064680,  0.05904261, -0.25592768, -0.38682622, -0.08678704, -0.11790205, -0.19607620, -0.21337138, 
    -0.15612486,  0.22746450,  0.15831153, -0.02301589, -0.00360163,  0.49260634, -0.10395014, -0.05776031,  0.21355930, -0.21290128, 
     0.02108779, -0.14717798, -0.16211225, -0.12293395,  0.09084328, -0.09999724, -0.26807874,  0.10398798,  0.04888080, -0.16074291, 
    -0.09583095,  0.43049595, -0.24605566, -0.13660465, -0.09522128,  0.08317839, -0.50296444,  0.08262893,  0.07691514,  0.02713683, 
     0.29885846,  0.10347136,  0.18651631,  0.10641105,  0.11692633,  0.12771271, -0.14017388,  0.05954132, -0.08647166, -0.03199263, 
     0.23856568, -0.13014576,  0.01030145,  0.29903904,  0.30000994, -0.08775231,  0.20358509, -0.15699211,  0.26249111, -0.12556225, 
     0.15573013, -0.02593445,  0.31071824, -0.16942674, -0.09657640, -0.14042774,  0.16075048, -0.10647113,  0.04789017,  0.05837466, 
    -0.10512716,  0.24454895,  0.24767050, -0.20123625, -0.27171698,  0.38425800, -0.24755578,  0.30356422, -0.15579632, -0.17057036, 
    -0.01137091, -0.10788678,  0.07738183,  0.02320830,  0.29960039,  0.04752704, -0.23304082,  0.21889205,  0.11873805, -0.15483381, 
     0.02355652, -0.18070760, -0.08682080, -0.03314649, -0.08395280,  0.00815102, -0.18689369, -0.14519079,  0.05006432, -0.30757219, 
    -0.04627289, -0.04705480,  0.27910903, -0.14040892,  0.06457002, -0.39000219, -0.04867624, -0.19390772,  0.21960188,  0.04684686, 
    -0.59591335, -0.67715138,  0.02471263, -0.11714540, -0.17507805,  0.28076249, -0.25851098, -0.00544224, -0.09151009,  0.14010154, 
    -0.33584088, -0.18370242, -0.36070278,  0.01957059, -0.08493617,  0.13990811, -0.26066005,  0.13801953, -0.13497081,  0.30528504, 
    -0.00941177, -0.02236366, -0.01418553, -0.06382141, -0.11099449,  0.29297554, -0.06161267,  0.03113987,  0.01718953, -0.06422417, 
     0.11509731,  0.03870624,  0.02384797, -0.08925558,  0.06044075, -0.03769813, -0.02909194,  0.30732611,  0.12337597,  0.29545325, 
     0.15419342,  0.18516770,  0.03003052,  0.20660105, -0.16442816,  0.09801518,  0.05709799, -0.14192863, -0.12789765, -0.29275596, 
    -0.08260448,  0.23882160,  0.06519836, -0.04892883,  0.15059493, -0.13854958, -0.19832025, -0.03993851, -0.03839704, -0.10512242, 
    -0.32237452, -0.10032964,  0.00905113,  0.09832063, -0.04475173,  0.13441762, -0.19312394, -0.24566072, -0.21472971,  0.16000620, 
    -0.07527422, -0.22915885, -0.05784642,  0.01716020,  0.12927154,  0.02908391, -0.14449252,  0.17292294,  0.16122572, -0.17308715, 
    -0.07231709, -0.09958573,  0.21468215, -0.26737314,  0.09099469,  0.43415630, -0.08032450,  0.31903389, -0.21112627,  0.11191469, 
    -0.35343003, -0.05524815, -0.17764007, -0.02708192, -0.11713320,  0.23292270,  0.02064439,  0.11026146,  0.21319306,  0.29372573, 
    -0.05719008, -0.27510282,  0.20047951,  0.07199851, -0.02528872,  0.16790952, -0.17028917,  0.26454255,  0.07643972,  0.39324015, 
    -0.27412075,  0.25960755, -0.22339663, -0.27386838, -0.30882624,  0.14131036, -0.23385707, -0.16267043,  0.19037531, -0.15295343, 
     0.32220972,  0.23628901,  0.18482228,  0.20524931, -0.05160756, -0.09862457,  0.06444349, -0.01349669,  0.21139295,  0.12450431, 
     0.05256008,  0.23402537,  0.05275918,  0.02583855,  0.03745044, -0.19831391, -0.15110976,  0.17883195, -0.21252996,  0.10076640, 
     0.08942207,  0.02639365,  0.06499767,  0.22778165, -0.09894742,  0.05544605,  0.17930888,  0.09567206,  0.15414949,  0.09405693, 
     0.08989257,  0.29464558,  0.06646156, -0.06806187,  0.27662474,  0.02367583, -0.19726244, -0.11651158, -0.17480521,  0.15960848, 
     0.34840766,  0.05946338,  0.10524675, -0.01564146, -0.15968147,  0.11611032,  0.04331655, -0.07956068,  0.29694584,  0.05360564, 
     0.15265474, -0.05703972,  0.16488551,  0.06523232, -0.14306283,  0.13379796, -0.04148849,  0.32100311,  0.06470935, -0.07110931, 
    -0.04826475, -0.28335148, -0.36019281,  0.19388667, -0.15305713,  0.29318029,  0.07774906,  0.14510095,  0.01553703,  0.20824194, 
    -0.14322469, -0.23360233, -0.06878167, -0.23577410, -0.06981887,  0.06634223,  0.01075606, -0.24182853,  0.16277994, -0.01479245, 
     0.14476749,  0.12368540,  0.23343711, -0.02683821,  0.11758836, -0.07981953,  0.15039390,  0.09251443, -0.11529066, -0.04879380, 
     0.27354461,  0.07497206,  0.04505882,  0.20939881,  0.08073627,  0.13108310,  0.19677508,  0.30688158, -0.01751620, -0.06176079, 
     0.04419452,  0.08304338, -0.15225361,  0.10737880,  0.19189578,  0.13383129, -0.03603767,  0.03922681,  0.17298162, -0.07314494, 
     0.14351277, -0.10061710, -0.34205553, -0.02263423,  0.15300581,  0.06323326,  0.11292619,  0.17430796, -0.44059372,  0.20624369, 
     0.19703139, -0.08321515,  0.08967978, -0.32295680,  0.09819058,  0.27544644,  0.03486577,  0.30722356,  0.37886590, -0.18838884, 
    -0.08675117, -0.14920080,  0.36797559,  0.16543515, -0.11072402,  0.04322702, -0.04362585,  0.22910851,  0.17638001,  0.14824647, 
    -0.28446609,  0.00843438,  0.05081682, -0.26662952, -0.16993612, -0.09036452,  0.00442348, -0.33058816, -0.16406201,  0.29059413, 
     0.27059519,  0.24577953,  0.10379726, -0.06530458, -0.17385417,  0.07305242, -0.04481018, -0.18514176, -0.18195869, -0.07256323, 
    -0.11326020,  0.19901247,  0.25632441,  0.43616965,  0.02740825, -0.16724740,  0.19847637, -0.09785207,  0.00227880,  0.18954770, 
     0.13926305,  0.02035450,  0.13088530, -0.11461833,  0.08870163, -0.33235005,  0.11230043,  0.22986399, -0.39580759,  0.22413711, 
    -0.17272250,  0.01308674,  0.04648192, -0.14976470,  0.10504772,  0.13021328,  0.05158830, -0.16731226, -0.20235898,  0.01299321, 
     0.11614677,  0.06170622, -0.13165863,  0.04950633, -0.07886741, -0.06098308, -0.25488544,  0.26633218, -0.28627881,  0.04371676, 
    -0.09511352, -0.03412593,  0.32246387, -0.01409648, -0.21881890,  0.15001234, -0.14202385,  0.22765923,  0.06689411, -0.07539554, 
     0.22632582,  0.09369605,  0.28921092, -0.16593452, -0.02801519,  0.10437089,  0.30265647,  0.00184875,  0.23682497, -0.37446025, 
    -0.34357703,  0.15823495, -0.04791852, -0.13859157, -0.10919439,  0.09397057,  0.04541283, -0.00324482,  0.11621805, -0.10439043, 
    -0.11877819,  0.21541062,  0.09940176, -0.05927162, -0.11997986,  0.36577553, -0.07491806,  0.07338399, -0.03351932,  0.02340660, 
    -0.05765785, -0.14732768, -0.21134150, -0.01315996, -0.30690944,  0.08567020, -0.33250749, -0.11984679, -0.20458573,  0.01164369, 
    -0.20122781, -0.02352374,  0.19450544,  0.04398056,  0.04856044,  0.32874969,  0.03255319,  0.27872953, -0.13874505,  0.30933172, 
     0.04129286,  0.16877003,  0.14768416,  0.25019416,  0.04316568, -0.24974087,  0.08024756,  0.18955667,  0.14119223, -0.04015141, 
    -0.02602685, -0.28202683, -0.13037075,  0.04472991, -0.08651290, -0.06684329, -0.03484913, -0.12156700, -0.01593501,  0.13042784, 
    -0.06242375,  0.08731490, -0.20858143, -0.32346258, -0.14876375,  0.14243746,  0.17855929,  0.01403541,  0.05692679, -0.24254121, 
    -0.06084353, -0.20434965,  0.23899576, -0.13763946, -0.23856325, -0.07435767, -0.10364535,  0.12484334, -0.07042640, -0.29772604, 
    -0.27472523,  0.17534834, -0.29002681, -0.07725985, -0.01166347, -0.05840668,  0.11774998, -0.25777853,  0.16394816, -0.11976019, 
     0.13868760, -0.16670646, -0.31585115, -0.29711163, -0.15090886, -0.19416668,  0.13707963, -0.23288170,  0.13392539, -0.00947996, 
    -0.15438963, -0.16175732,  0.08939698, -0.17757426,  0.03238343,  0.13082835,  0.12671080,  0.22310899,  0.06125526, -0.21505257, 
     0.22377421,  0.07114138, -0.28216344, -0.27323684, -0.26813474,  0.04808177, -0.01035907,  0.13221903,  0.10507949, -0.05747673, 
    -0.22396128,  0.02389155,  0.07043295, -0.17995939,  0.04734445,  0.23017003, -0.05639414, -0.04385193, -0.20716052, -0.13309023, 
    -0.21864194, -0.07399248,  0.02134217,  0.02158186,  0.15583874, -0.26237142,  0.03809999,  0.03399456, -0.16057441, -0.07136956, 
    -0.03535013, -0.27364954, -0.07938487,  0.02883678, -0.24501131, -0.22947088, -0.04201519,  0.12679027,  0.10312465, -0.13516757, 
    -0.33275288, -0.51929742,  0.14624542,  0.16782002, -0.41585693,  0.09943934,  0.17127709,  0.08514137,  0.01520423, -0.26049146, 
    -0.10521664,  0.37749046,  0.13636924,  0.20240039,  0.25012916,  0.09034395, -0.32963201, -0.03807875,  0.08075320, -0.11585856, 
     0.24081381,  0.16882764,  0.01405535,  0.08379845,  0.00226861, -0.08735831,  0.04619412, -0.11165290, -0.09162586,  0.03283571, 
     0.01861134,  0.07616164,  0.09637434, -0.21856475, -0.03175429, -0.10517593,  0.20888156, -0.05741049, -0.16129106,  0.13488738, 
     0.14251432, -0.23490368, -0.02596713, -0.14796206,  0.03761473, -0.05873390, -0.01841864, -0.22335190, -0.10225095, -0.05876691, 
    -0.15400359, -0.02705469, -0.10498149, -0.08902030, -0.20414226,  0.06555873,  0.04341445,  0.15816320,  0.05094291,  0.21470778, 
    -0.03874397, -0.15010621,  0.09957481, -0.07656015, -0.04136807,  0.13066480,  0.04846364, -0.33429417, -0.19104104,  0.06639072, 
     0.01080645,  0.08916931,  0.15162925, -0.07063311, -0.03121877,  0.21144834,  0.18465754,  0.13889585,  0.12881504,  0.04280802, 
    -0.12814844,  0.29087415, -0.31946254, -0.15312171,  0.11982320, -0.31574395, -0.09895297, -0.28707179, -0.06156570, -0.24535131, 
    -0.27380794, -0.20561345, -0.01202089,  0.16984177,  0.14067085,  0.18369442, -0.18902589,  0.19043732, -0.06625480,  0.11366415, 
    -0.00583301, -0.19940592, -0.21204217, -0.15534122, -0.05952898, -0.04007873,  0.12473007, -0.20087074, -0.14604463, -0.04639616, 
     0.33338147, -0.02391203,  0.00940283,  0.28296247,  0.34040782, -0.06001972,  0.28857529, -0.15110570, -0.21247129,  0.15666170, 
    -0.20353532,  0.02592609,  0.21006063,  0.08707652, -0.14068253, -0.03414167,  0.17034385,  0.15263321, -0.03160895, -0.21463355, 
     0.08769051,  0.28883231,  0.10425488,  0.10805172,  0.24159123,  0.20116937,  0.16109805,  0.07109963, -0.13392943,  0.33062336, 
    -0.11605713,  0.18588638, -0.11842230,  0.06147207,  0.07858300, -0.14712134,  0.08756346, -0.10584660, -0.05628180,  0.19753037, 
    -0.17197719,  0.13010699,  0.02660231,  0.04426271,  0.24442451,  0.17978665,  0.07812010,  0.25978488, -0.19934227, -0.21124305, 
    -0.16516185, -0.02354961,  0.23255841,  0.14532004,  0.17517304, -0.07112940,  0.10977797, -0.03214243, -0.00888108,  0.13521311, 
    -0.20311399,  0.04662471,  0.00086715, -0.06874751, -0.20511845, -0.11573122, -0.22704470,  0.09057797, -0.06427168,  0.26146653, 
     0.07610892, -0.04502705, -0.04535349,  0.15589224,  0.14462958, -0.19353467,  0.00421044, -0.02170025,  0.14652765,  0.08848713, 
    -0.13058324,  0.10839723,  0.25616246, -0.11029627, -0.18213423, -0.16281170, -0.21424231,  0.01594269,  0.05326517, -0.12982702, 
    -0.27590963,  0.10785287, -0.19972585,  0.11694956, -0.09280323, -0.19074816, -0.08158189, -0.04403616,  0.22590773,  0.00296444, 
     0.05605287, -0.09137851,  0.20696336,  0.30534512, -0.00482118, -0.00652857, -0.20471273, -0.02153330,  0.33719566,  0.27141213, 
     0.30864358, -0.06180869, -0.20606057,  0.04370641,  0.05765946, -0.18174832,  0.09975518,  0.13815252,  0.24261598, -0.16935289, 
    -0.10249881,  0.20229542, -0.37343836, -0.15805212,  0.01648383, -0.00590407,  0.01375263,  0.07037234, -0.00859972,  0.04915112, 
     0.10379535, -0.21048200,  0.10454223, -0.06232359,  0.14329064,  0.09483355, -0.18479158,  0.10938636, -0.09520286, -0.14362520, 
    -0.06528749,  0.28063124, -0.10730083,  0.06362578, -0.19886178, -0.27241063,  0.15260124, -0.15186593,  0.30849123, -0.06510428, 
     0.14405221, -0.04167219, -0.13347591,  0.18419780, -0.01346328,  0.11009768,  0.17600322,  0.06688157,  0.20316824, -0.01486547, 
    -0.08100858,  0.17092133,  0.18752442, -0.28088775, -0.15484211, -0.06511446,  0.06901197,  0.05398006,  0.19088814,  0.34025627, 
     0.07700329, -0.14899758,  0.35005367,  0.28306502, -0.12077905, -0.31938544, -0.12314299, -0.10695585,  0.02963992,  0.10637522, 
    -0.13158527, -0.07311691, -0.09739706,  0.18117863, -0.18913756,  0.10941352,  0.03632295, -0.17412819,  0.27761722, -0.25679433, 
     0.12646830, -0.08722489,  0.21364298, -0.20670336, -0.03265970, -0.24669039,  0.05234482, -0.17538720,  0.04255023,  0.00078258, 
    -0.26883709, -0.10340384, -0.01667715,  0.28125858, -0.17286359,  0.23193674, -0.20641491, -0.12105588,  0.29371274, -0.22490427, 
    -0.07236795,  0.02950259,  0.03263881, -0.04729305, -0.08478551,  0.12990347, -0.27102432,  0.10572236,  0.28020200,  0.18148585, 
     0.30027187,  0.10090074,  0.01150783,  0.14471219, -0.03045287,  0.03638987,  0.19829173, -0.07967376,  0.11502577, -0.07579995, 
     0.14864962,  0.19170108,  0.09635918, -0.10534517,  0.20869395,  0.16885091, -0.15665846, -0.19291399,  0.19160345, -0.21294567, 
    -0.26745865,  0.28700903, -0.01375005,  0.05112286, -0.09478441,  0.05647688, -0.09476408, -0.02584797, -0.05240517, -0.14980139, 
    -0.04552197,  0.03123655,  0.28325492,  0.14113182, -0.08609106,  0.12351485, -0.07320880,  0.28749871,  0.13990347, -0.12945677, 
    -0.04717219, -0.08875006, -0.24748810,  0.30674401,  0.11875636,  0.21315376,  0.01621848,  0.14384291,  0.21336536, -0.05968689, 
     0.13078512, -0.08742282, -0.03153523, -0.04683140,  0.09614924,  0.12483870,  0.10296514, -0.21253128, -0.27094060, -0.15467876, 
    -0.39464194, -0.04626678, -0.03262317, -0.10662289, -0.12978765,  0.25356454,  0.18686807,  0.21683137,  0.28679016, -0.01216130, 
    -0.00956846, -0.07038169,  0.16432205,  0.10550273,  0.07652669,  0.16510975, -0.15337455,  0.15032206, -0.27026236,  0.06576883, 
    -0.22593442, -0.14347415,  0.02338072,  0.14435302, -0.13018401, -0.11437994, -0.20132682, -0.15587957, -0.11622924, -0.23582841, 
    -0.10513779,  0.26401961,  0.06962808, -0.26591954, -0.35197344,  0.39548928,  0.28295979,  0.17270035,  0.07884957,  0.20067944, 
    -0.11487069,  0.41869733,  0.37883323, -0.12824157,  0.25096592,  0.36403477, -0.05183002, -0.09626257,  0.06533074, -0.20585822, 
     0.07230389,  0.28929192, -0.21132794, -0.23487021, -0.29748577, -0.00873976, -0.08355130, -0.29246950, -0.11378781,  0.09779870, 
    -0.19974761,  0.20095891, -0.12680504,  0.05459729, -0.26131740, -0.15697397, -0.10101697,  0.15534499,  0.13619183,  0.16739962, 
     0.00797637, -0.09621765,  0.05659412,  0.02253717, -0.09282239, -0.05723780, -0.08166759, -0.33988044, -0.04998916, -0.09508209, 
    -0.04070506, -0.20579554,  0.09833504, -0.22929053, -0.19138990,  0.11623584,  0.09110036, -0.30442750,  0.22491638, -0.06022791, 
    -0.06588072,  0.30103967, -0.24535669, -0.24766621,  0.15033646, -0.12465921,  0.06981685, -0.32420018, -0.31088752,  0.00700398, 
     0.07076779, -0.05355867,  0.10501607, -0.05272669, -0.15773030,  0.27546740,  0.21517979,  0.09439249, -0.34636346, -0.07163177, 
     0.14257041, -0.30092058, -0.09291036,  0.11281670, -0.01931336,  0.01705441, -0.17031747, -0.13823366,  0.19214754,  0.30596271, 
     0.04770690,  0.07696747,  0.07906475,  0.11809135,  0.03641919,  0.25414875, -0.14419588, -0.15819061,  0.20673324, -0.11789574, 
    -0.02647678,  0.04507433, -0.20879117, -0.14745523, -0.19087183, -0.21493848,  0.13461894,  0.27378866, -0.04150455,  0.22930157, 
    -0.03842958, -0.07789799, -0.32953241,  0.06022021,  0.19942768,  0.16490389, -0.16245927,  0.29391840,  0.14534184,  0.33145916, 
     0.21444874, -0.10393555,  0.02430767,  0.07380036, -0.18887651, -0.13482188, -0.06765509, -0.08835489,  0.02671269, -0.08905441, 
     0.05770403, -0.22439300,  0.29561177,  0.03755124, -0.23334140, -0.03277097, -0.02478683, -0.19380490,  0.20824268,  0.11470690, 
    -0.04918108, -0.17420211,  0.23101716, -0.10042489,  0.16743867, -0.26745793,  0.05177236,  0.20455463, -0.26107326,  0.04481199, 
     0.22319295, -0.03599898, -0.14057301,  0.06459201, -0.12296859, -0.40680650,  0.02457061, -0.06825098,  0.09095515, -0.30203676, 
     0.23912258, -0.06257563,  0.08934939, -0.02986833,  0.27650067,  0.16428439, -0.13290517, -0.07826515, -0.11324243, -0.13387692, 
    -0.37068397, -0.01073395, -0.21679081,  0.00618072,  0.12117201,  0.15299878, -0.13223393,  0.13220610, -0.07814260, -0.22410260, 
    -0.08676466, -0.18121670, -0.05905911, -0.00682418,  0.22893663,  0.03431584,  0.07242984, -0.19587177, -0.27927804,  0.00137701, 
     0.06609429,  0.03402318, -0.08813149,  0.15389328, -0.07455709, -0.06062696, -0.02158947,  0.19327079,  0.16846810,  0.24518631, 
     0.31930965,  0.20258398,  0.04613924, -0.16662659,  0.24398261, -0.05600315, -0.14284503, -0.02644685, -0.19839253,  0.18197848, 
     0.00919365,  0.12918176,  0.26235682, -0.21894628,  0.18339826,  0.08397696,  0.03140312,  0.10302778,  0.17959769,  0.04636339, 
     0.26171848, -0.01225959,  0.06548738, -0.05922544, -0.14932096,  0.10381005, -0.10490604, -0.13041365, -0.04403817, -0.21992128, 
    -0.01664244,  0.16123496, -0.07694297,  0.20042668,  0.17491609, -0.24167107, -0.04912368,  0.17691626, -0.01173826,  0.00396553, 
    -0.00490184, -0.20538913,  0.21593823,  0.04555985,  0.00426497,  0.26996154,  0.38208094,  0.31420237, -0.04239742,  0.22719082, 
     0.02331313, -0.15889762, -0.11867915, -0.20926590, -0.08873339, -0.09292495,  0.26022658,  0.20159110,  0.20162337,  0.07892134, 
    -0.15897813, -0.03273604, -0.14167027, -0.02368925, -0.17284553,  0.15045226, -0.06785162,  0.07943516, -0.07385051,  0.25190130, 
     0.32499534,  0.20954207,  0.30037910,  0.34418103, -0.05372049, -0.18476442,  0.09049234, -0.08764548, -0.21552859, -0.25747553, 
    -0.29653004,  0.13806696, -0.15516037, -0.11507703,  0.19422987,  0.09030449,  0.17661381,  0.17707390,  0.06146953, -0.09650382, 
    -0.18945840,  0.11389748,  0.05859620,  0.20424959,  0.23568952,  0.35478881, -0.20357309, -0.12628880, -0.17779337, -0.16029353, 
     0.08812036,  0.04348825, -0.14278966,  0.19381179, -0.09743900,  0.17343956, -0.21489489,  0.10314652,  0.28286791,  0.03431980, 
     0.22210445, -0.30874798, -0.10928866, -0.26392239, -0.34373090,  0.10372373,  0.14686538,  0.25409514, -0.04629145, -0.10343050, 
    -0.19868818,  0.15947706,  0.00603518, -0.03582897, -0.00661913, -0.08802545,  0.02449450,  0.04158622,  0.20274128, -0.19823098, 
     0.28165463,  0.22622758, -0.19071180, -0.28971478, -0.00802237,  0.05983546, -0.28570235, -0.05843529, -0.02086819,  0.31096089, 
     0.15501177, -0.02996848, -0.03329461,  0.25135195,  0.06494118, -0.22594498, -0.05174794, -0.30959633, -0.19967319, -0.08960293, 
    -0.03154397, -0.14181703, -0.24765745,  0.26706159, -0.34679180, -0.17395425,  0.15199085,  0.38637730,  0.33024600,  0.17134984, 
     0.22862354,  0.23716767, -0.15181565, -0.13529095, -0.13537985,  0.25255129,  0.02005555, -0.18578073, -0.03758515, -0.25350490, 
    -0.16803081, -0.15852734, -0.11323585, -0.15078597, -0.24982396,  0.55207592,  0.04134415,  0.05427166,  0.29263631,  0.12089225, 
    -0.02168595, -0.17579956,  0.20988292,  0.18832473, -0.14660318,  0.28549615, -0.05309127,  0.18380599,  0.09902234, -0.16662365, 
     0.18050297, -0.07184178, -0.01324954, -0.27392071, -0.03713866,  0.29328132,  0.15152839,  0.08052372, -0.15308197,  0.01230154, 
    -0.17771856, -0.21372335, -0.04858038, -0.41473758, -0.27461407, -0.04332737,  0.16065922,  0.01724700, -0.15138748,  0.10551602, 
    -0.10152388,  0.33452624,  0.35106930, -0.27873799,  0.38909274, -0.25826877, -0.34854916,  0.20610812,  0.18546571,  0.11296634, 
     0.21174374, -0.07438885, -0.12665264,  0.13865533, -0.05252556,  0.24143420,  0.11872078, -0.12203153,  0.11134441,  0.19709644, 
     0.04287833,  0.21177083,  0.19179580,  0.12151578,  0.22927791, -0.17632788,  0.02127598,  0.24401736,  0.27234578,  0.24201934, 
     0.11486333, -0.07079700,  0.21443485,  0.08946597, -0.09736111, -0.00853432, -0.02062812, -0.03281445, -0.15509559, -0.15100561, 
    -0.28625128, -0.24859373,  0.07610391,  0.03798689, -0.33112529, -0.06678692, -0.11091325,  0.16331367,  0.07445607, -0.04125645, 
    -0.09578345,  0.22549304, -0.10177870, -0.05708734,  0.22688478,  0.02828358,  0.11107215,  0.22272125,  0.32441691,  0.03205062, 
     0.00102347,  0.03050834,  0.00564678, -0.03733447, -0.17432924,  0.24444716,  0.13875788,  0.27826151, -0.09915285,  0.41596621, 
    -0.24618946, -0.06183918, -0.03335435,  0.17130008, -0.04948117, -0.13330047, -0.25360045,  0.06298765, -0.28873199,  0.09553645, 
    -0.07649808,  0.03178411, -0.00031912, -0.04723673,  0.24895638,  0.12090546,  0.03783217, -0.06634822, -0.09601401,  0.03538904, 
     0.28869438,  0.07470376, -0.11648933,  0.02017317,  0.30357295, -0.07476397, -0.01047220,  0.11645000,  0.00030097,  0.16769457, 
    -0.00077587,  0.07903334,  0.19554467, -0.01107775, -0.09794137, -0.13574255, -0.17217670,  0.07073588,  0.29591861, -0.14413318, 
     0.31008711,  0.23267202,  0.02206379,  0.00299992, -0.07252765, -0.09850244, -0.13816647,  0.16847910,  0.07943267, -0.06805129, 
    -0.07347512,  0.14798507,  0.15926741,  0.12066429, -0.35125023,  0.22466080, -0.15826194,  0.03717798, -0.23257393, -0.12338477, 
     0.27998707,  0.04057140, -0.24280091,  0.17186782, -0.19778313, -0.25125307, -0.33941972, -0.33686960, -0.04268600,  0.15226211, 
    -0.17364796,  0.14461617,  0.29173109,  0.01599266, -0.07283594, -0.05927510, -0.13578545, -0.11242687, -0.13497232,  0.29721692, 
    -0.05340968,  0.07254507, -0.12197205,  0.01502125,  0.11094394,  0.08066600, -0.09808347,  0.24341947,  0.24703309, -0.16882205, 
    -0.17589696,  0.17801870,  0.22079231, -0.13611755, -0.00458864,  0.15406226,  0.06522725,  0.05885097, -0.20406428, -0.06199279, 
     0.00180059, -0.03191349,  0.22527568,  0.03962940, -0.35317439,  0.10935701,  0.16536090, -0.05445125,  0.20621821,  0.32504481, 
    -0.18022095, -0.02126280,  0.16998217,  0.15528515,  0.20524788, -0.20593131, -0.28591707,  0.21647808,  0.24775560,  0.22004113, 
    -0.21659985, -0.00872744,  0.20987549,  0.14933814,  0.08995610,  0.00165170, -0.01512579, -0.12922505,  0.18069910,  0.06275720, 
    -0.05835294,  0.03316937,  0.28616372, -0.16524498,  0.14976712,  0.27537423,  0.12812585,  0.18100429, -0.07191893, -0.02938135, 
     0.24765465, -0.08722334, -0.17438146, -0.13376725,  0.09918972, -0.27857867,  0.07689740,  0.27272612,  0.19969705, -0.02811870, 
     0.06133341,  0.28216320,  0.17297691,  0.04153077,  0.10967655, -0.07280780,  0.35041869, -0.10284216,  0.08196647,  0.25716165, 
    -0.03298164,  0.18501180, -0.00632182, -0.06546567,  0.21686259,  0.11495119,  0.13101275,  0.14060640,  0.28588298,  0.05267119, 
    -0.09015359,  0.06094876,  0.20922056,  0.16538548,  0.15963447, -0.04672888,  0.08831624, -0.08314316, -0.01989595, -0.06006126, 
     0.09943806,  0.03800248,  0.18711919,  0.03937472,  0.26477373, -0.05013026,  0.28274673,  0.27694547,  0.03797954,  0.07035533, 
     0.19332628, -0.29339275, -0.19198789, -0.08302156,  0.18700476, -0.18008046, -0.00572624, -0.16398796,  0.17816119,  0.03664730, 
     0.13544783, -0.00998232,  0.24433210,  0.17898999,  0.20628399,  0.13874064, -0.02519870,  0.26744485,  0.30075994, -0.05333776, 
    -0.03634759, -0.06285650, -0.02798432,  0.07522257,  0.24933624, -0.46554404,  0.09166748,  0.00078615,  0.25393090,  0.18401010, 
    -0.23852108, -0.07081544, -0.01406691, -0.09122895, -0.31940991, -0.32298571, -0.11911893, -0.16090456, -0.20799842, -0.01658155, 
     0.10187156, -0.06994007,  0.15969537, -0.08225252, -0.16068700,  0.21104938,  0.32713780,  0.13617349, -0.18557857,  0.24846004, 
    -0.16177720,  0.02017315, -0.23385271, -0.17312647, -0.25236019,  0.19695111, -0.27813345, -0.44715786, -0.11135332, -0.24552816, 
    -0.16213654, -0.09245090, -0.01040956, -0.24248601, -0.06922032,  0.02414746,  0.00181184, -0.02690946, -0.16868165,  0.06466772, 
    -0.04876909, -0.02863931, -0.34824598,  0.14960597, -0.22208054,  0.09023038, -0.02698228,  0.06649866,  0.14642107,  0.12784736, 
    -0.23861028, -0.01682669, -0.37991714, -0.31763065, -0.11776459, -0.07410954, -0.09895639,  0.11375889, -0.04339804, -0.04049449, 
    -0.06404571, -0.01735991,  0.00752177,  0.03618214,  0.12143503,  0.12475146,  0.22612083, -0.22578740,  0.03285157, -0.27394384, 
     0.00241820,  0.07239968,  0.00306848, -0.23614545,  0.12289260, -0.58980554, -0.30942029,  0.01876454,  0.10376796,  0.26884267, 
    -0.16068378,  0.28968203, -0.17503552, -0.18661019, -0.17056973,  0.06300095, -0.16286981, -0.36979687,  0.00539712,  0.00676804, 
     0.14363556,  0.33259657, -0.24774681,  0.11073621, -0.09057808,  0.12823029,  0.12637202, -0.06871764,  0.15451555, -0.02245704, 
     0.26703045,  0.18469980, -0.07128539,  0.33712757, -0.09187510, -0.30648842, -0.13603583,  0.13654031, -0.23871784, -0.10144781, 
    -0.12750447, -0.03183722, -0.28453466,  0.05195928,  0.11043721, -0.24914590, -0.00653820, -0.14219712, -0.34396085, -0.22600889, 
    -0.13476115,  0.12682454, -0.39082131, -0.01068450, -0.25199178,  0.08203037, -0.24258864, -0.58005393,  0.08155087, -0.15888253, 
     0.09774768,  0.05201546,  0.21519743,  0.16972835,  0.00802301, -0.05227152,  0.18029332, -0.12662865,  0.02493815, -0.05777342, 
     0.02309612,  0.08427049,  0.15673602,  0.02402900, -0.10991261,  0.11687853,  0.21879482,  0.18234870,  0.20095132,  0.20175715, 
    -0.10600505, -0.12590639,  0.07357543,  0.05195636,  0.10547295, -0.09221150, -0.23406009,  0.15035079,  0.05366547, -0.17895567, 
    -0.16623569, -0.13435785, -0.09110438,  0.15693022, -0.21515147, -0.18874484,  0.18505646,  0.12599653, -0.21379101, -0.08982859, 
    -0.02247089,  0.21128482, -0.05806872, -0.13800494,  0.07071093, -0.07569589,  0.07062306,  0.15923761, -0.29585662, -0.09024544, 
     0.28801116,  0.26559332,  0.15790689,  0.09214792,  0.16296926, -0.07654496, -0.17942499,  0.19354329, -0.07401475,  0.19506042, 
     0.18276519, -0.04867016, -0.22487916, -0.15722601, -0.32891184, -0.23295057,  0.04756136,  0.26145452,  0.26202127,  0.11939398, 
    -0.08366644, -0.18379134, -0.16544372,  0.07403932, -0.20958674,  0.03386674, -0.26709947, -0.29808098, -0.06234005, -0.29772696, 
     0.13952522,  0.06951202, -0.17572191,  0.07457370,  0.24141935,  0.06236020,  0.23604050,  0.14782403, -0.08190788, -0.23609276, 
    -0.05760006, -0.10327491,  0.02380633,  0.14014447, -0.23492245,  0.09345446,  0.17329615,  0.23792595, -0.12752168,  0.00438006, 
    -0.63814086,  0.22273174,  0.02822199,  0.21862291, -0.29350844, -0.01346327,  0.04615132,  0.14880550, -0.04460224, -0.20637599, 
    -0.12800901,  0.16594823, -0.11062325,  0.06605577,  0.09140632, -0.10826226, -0.09490969, -0.27428570, -0.06473665,  0.02993882, 
    -0.21937819,  0.10569774, -0.18285204,  0.06118392, -0.01074900,  0.19231893, -0.28167510,  0.06084006, -0.18426089, -0.11194777, 
    -0.34396404,  0.14073929,  0.00365481,  0.31884602,  0.04718802,  0.17853220, -0.24137245,  0.23192652, -0.00084781,  0.09151024, 
    -0.17566197,  0.11460127, -0.37506509,  0.10367047, -0.04054527,  0.20621784,  0.29630241, -0.28376058,  0.00159590, -0.40201509, 
     0.20473894,  0.03731969, -0.20710799,  0.05053355,  0.18967389,  0.24948642, -0.13667835, -0.19054168, -0.08889655, -0.19878906, 
     0.19464198, -0.27728409, -0.18913145, -0.19038218, -0.26096961,  0.08631386,  0.31687978, -0.05627847, -0.03146169,  0.11933473, 
     0.01507305,  0.12121236, -0.06805327,  0.24555163, -0.11102303,  0.17710564, -0.03346905,  0.03789917, -0.24556482,  0.34246591, 
     0.01482236,  0.39919978,  0.09388322,  0.16399181, -0.02015295,  0.16763255,  0.05213925,  0.02753810,  0.01802070,  0.01781868, 
     0.12837298,  0.13797368,  0.15898782, -0.10886253, -0.06245539,  0.02247886,  0.31135675,  0.25265461,  0.31936333, -0.01467541, 
     0.04861617, -0.14769439, -0.21350434, -0.23913002, -0.35062847,  0.09348737,  0.12254024, -0.06300640,  0.15179142,  0.30492890, 
    -0.07337248, -0.01693070,  0.08432641,  0.15623417, -0.06209294, -0.12936468,  0.18625301,  0.02054623,  0.09525748, -0.13321540, 
    -0.24346285, -0.01826567, -0.14767571, -0.14272475,  0.21401018, -0.35462388,  0.09229577,  0.01081565,  0.19221939,  0.25272664, 
    -0.24705422,  0.05036864, -0.14828297, -0.02518889, -0.04180023, -0.13349953,  0.23432292,  0.07680439,  0.15499164,  0.18396391, 
    -0.18748637, -0.12302895,  0.09858025,  0.04583189, -0.00375430,  0.13804717, -0.35581341, -0.16593209,  0.04223300,  0.16507685, 
    -0.10317989, -0.24973953, -0.07633010, -0.06281611, -0.05418833, -0.06020062,  0.11106485, -0.06737922,  0.03979075, -0.00408701, 
    -0.18135588, -0.15943106, -0.03124949,  0.13789627,  0.22463125,  0.13529661,  0.02066088, -0.02186306,  0.07770342,  0.36846191, 
    -0.07668041,  0.17133835, -0.12915464,  0.16483699,  0.46040741,  0.15579265, -0.07805577,  0.11992831,  0.19722269, -0.20206901, 
     0.09832722, -0.22033033, -0.02880236,  0.01450228, -0.08877029, -0.12987193, -0.18604343, -0.23959939,  0.04422391, -0.01046827, 
     0.02042355,  0.23347801,  0.33516735,  0.21704435, -0.10901358,  0.21459022,  0.05134330, -0.32035378,  0.06362601,  0.23291375, 
    -0.12754840, -0.13497505, -0.09417301, -0.27069625,  0.32988274, -0.03696010, -0.00340451, -0.05994112,  0.24355075, -0.12972982, 
     0.22542039,  0.06264176,  0.03691675, -0.27730891,  0.36066341, -0.12975711, -0.06435528, -0.19850743, -0.11884537, -0.20011438, 
    -0.15468955,  0.26882592, -0.00242015,  0.35560465,  0.12915339, -0.00531491,  0.08467462, -0.10201328,  0.00987601, -0.10465422, 
    -0.09548984,  0.02062093, -0.04228431,  0.04136358,  0.12275480,  0.16592042,  0.36480007,  0.11237635,  0.30714273,  0.22393909, 
    -0.37100539,  0.16629867,  0.03602666,  0.08729673,  0.04144756, -0.40613478,  0.17292118, -0.22127958, -0.04871297, -0.07114527, 
     0.12569439,  0.07820845,  0.25074521,  0.04319520,  0.15281512, -0.26572320, -0.26089379, -0.24736036, -0.04334427,  0.03266276, 
    -0.06580734,  0.33096907, -0.18538548,  0.30568379,  0.20292501,  0.00695540, -0.41164404, -0.07141895, -0.07966381,  0.09760699, 
    -0.01664633,  0.06577551,  0.12536678,  0.19566870,  0.02771874, -0.40323412,  0.13685386, -0.31216136, -0.02747736, -0.03169694, 
    -0.16352117,  0.19097984, -0.27011910, -0.18109772, -0.20901132, -0.08558111,  0.11345239, -0.02960399, -0.04484627, -0.20405091, 
     0.20627116,  0.07287883, -0.29497921, -0.19043680,  0.05178000,  0.04177938,  0.13580234, -0.01070052, -0.16576119, -0.11684862, 
     0.14507087,  0.07142577,  0.19263519, -0.19562975, -0.09507394, -0.13496725, -0.03605725, -0.26849416, -0.08549664, -0.00076295, 
    -0.10808014, -0.05438539, -0.07636911, -0.18549222, -0.08144397,  0.09255076, -0.10803222, -0.26825839, -0.16463761,  0.10143279, 
     0.01334112, -0.17666480,  0.08742650, -0.13917013, -0.05860905,  0.10200310, -0.08659367, -0.20632887,  0.08729193,  0.12534043, 
    -0.30088249, -0.10454106, -0.13593630, -0.20861861, -0.01089565, -0.08176303,  0.15019478,  0.27313331, -0.04131196,  0.00776660, 
     0.06778517,  0.13377371, -0.31474146,  0.13647611, -0.24033399,  0.18610831,  0.06644627,  0.01899912,  0.17891839,  0.21583205, 
     0.16346541, -0.08717324, -0.25600907,  0.15113935,  0.21969502,  0.21021053,  0.21598923,  0.35133129,  0.29155576,  0.03502180, 
    -0.08053821, -0.12843646, -0.16069123, -0.09976436,  0.09516452,  0.19002214,  0.18088095, -0.10377844,  0.17758618,  0.07654554, 
     0.18837310, -0.26837146, -0.17363568, -0.25753528,  0.25295937, -0.30737656,  0.34094739,  0.18671674, -0.11069547,  0.11885600, 
    -0.06545424,  0.08841217, -0.24866085,  0.02559012, -0.18539250,  0.22703181, -0.02530130, -0.15489587,  0.15451042, -0.29204702, 
     0.15754403, -0.15631345,  0.06638039,  0.23874879,  0.32624471, -0.40691659,  0.18189260,  0.09491201,  0.12983914,  0.08519839, 
    -0.16934681, -0.03429662, -0.16969916, -0.16310477,  0.21250732, -0.07638107, -0.16215096,  0.03701863,  0.13219428, -0.22597390, 
    -0.16333789, -0.18279162,  0.15239002, -0.09173601, -0.29623428, -0.14424081, -0.13890220,  0.00990821, -0.26360133, -0.01318851, 
     0.27415112,  0.23693442,  0.13209842, -0.00962585,  0.19110575,  0.09876133,  0.22410083, -0.00470536,  0.01411142, -0.06618226, 
    -0.26046622,  0.21547861,  0.26916385,  0.05629722, -0.06377513,  0.01663904, -0.23187493,  0.19995239, -0.25646260, -0.24556875, 
    -0.24201965, -0.10301829,  0.02847270,  0.05089458, -0.17528407,  0.16867164,  0.26980570,  0.00266558, -0.12327772, -0.11883614, 
    -0.17009230, -0.10284978,  0.18728277,  0.08951297,  0.06922079,  0.06729917,  0.00791986,  0.08816288, -0.39836422, -0.19061236, 
    -0.14338878, -0.15140739, -0.13772422, -0.07127649,  0.21125172, -0.14521872,  0.18358047, -0.20626782, -0.16097903, -0.20189013, 
    -0.25539562, -0.10517778,  0.18324916,  0.03573356, -0.10246904, -0.35041216, -0.05608131,  0.15862629,  0.04484976,  0.27920768, 
    -0.12354404,  0.40998685, -0.52187979,  0.16222906,  0.13113172,  0.11868123,  0.01169077,  0.25294766,  0.05351692, -0.25553641, 
     0.23822281,  0.19260384, -0.05527946,  0.28231311, -0.14096211, -0.03059497, -0.01869518, -0.42119586, -0.00100020, -0.07573171, 
    -0.16319384, -0.19656491,  0.36295035, -0.11039679, -0.21679774,  0.00524835, -0.00482150, -0.16654611,  0.13536011, -0.14809351, 
    -0.27184907, -0.09880142,  0.29652902, -0.11157374, -0.00133092,  0.22260953, -0.24440280, -0.09430357, -0.23640014,  0.04956985, 
    -0.16146609, -0.14576252,  0.11561343,  0.14728504,  0.19315432,  0.20662306,  0.09967391, -0.22772245,  0.31335515, -0.23917004, 
     0.14649837, -0.09394035,  0.05661890,  0.19488026, -0.18986751, -0.01206882, -0.13848880,  0.02792924,  0.20529148,  0.19402222, 
     0.05337055, -0.20646971, -0.19075519,  0.01847384, -0.16224448,  0.06757380, -0.03442066, -0.05376849,  0.14068310,  0.18641305, 
     0.22471257,  0.21760741,  0.03905368,  0.03722637, -0.04939758,  0.07110596,  0.02390091, -0.13568634,  0.07306033, -0.07124983, 
    -0.10295758, -0.11826790,  0.00862636,  0.21574251, -0.38858488,  0.17943303,  0.11695287, -0.14968194, -0.14842735, -0.18357837, 
     0.19826603,  0.20240991,  0.04413152,  0.24241871, -0.01001437,  0.01668361, -0.00565950,  0.16013113, -0.38080952, -0.12988029, 
     0.01021807, -0.22930080, -0.27842546, -0.15639479,  0.34561926,  0.12047023,  0.19798955,  0.18365520,  0.27434835,  0.10144663, 
    -0.12034563, -0.07985257,  0.14582896,  0.21475640, -0.04797226, -0.25051317,  0.14797847,  0.23867488, -0.08305106, -0.20533837, 
    -0.01177315, -0.14947316, -0.15683037,  0.29128033, -0.22108293,  0.06963524,  0.18793173,  0.08107569,  0.09928512,  0.26019913, 
     0.15034512, -0.20679611,  0.11775383,  0.30320683, -0.20134304, -0.27383044,  0.04972816, -0.12064587, -0.16946904, -0.11094049, 
     0.23494931,  0.15802665,  0.09959027,  0.20409079,  0.01290088,  0.15960935,  0.24124935, -0.16847630,  0.16801663, -0.18860759, 
    -0.09615681, -0.15318325, -0.01573214, -0.10226590,  0.07762185,  0.30721286, -0.16526720,  0.08152807, -0.24778754,  0.01900509, 
    -0.18354358, -0.09373143,  0.20560566, -0.29223487,  0.01294438, -0.21045236, -0.09960845,  0.02297268, -0.14621393,  0.17932205, 
    -0.00106445, -0.05875591, -0.12842438, -0.01573028, -0.22948235,  0.03780803, -0.13708229,  0.26555103, -0.19027390, -0.36380771, 
    -0.31085187, -0.02992195, -0.18997677,  0.05598595,  0.19344430,  0.29867938, -0.07230952,  0.38328880,  0.00694039, -0.03788031, 
     0.07715315,  0.11098962,  0.00614944,  0.01650704,  0.26585865, -0.36897352,  0.03869700, -0.14516300, -0.01002362,  0.24815591, 
    -0.27398446,  0.08099864, -0.15788041,  0.11792683,  0.23543712, -0.35274890,  0.09127162, -0.23573337, -0.17556041,  0.11853259, 
    -0.21562837, -0.19517891, -0.13038924, -0.26989904,  0.16243975, -0.05880019, -0.07007881,  0.21855547, -0.01722227,  0.09521638, 
    -0.04429074, -0.17302206, -0.06280468,  0.16002575, -0.19510712, -0.05443725, -0.15423565,  0.23187692,  0.19737647,  0.22568728, 
     0.23329167, -0.12541354,  0.02655171,  0.23139019,  0.27425516, -0.14275740, -0.24708644,  0.09333015, -0.16236134, -0.11148827, 
     0.05859213,  0.00629427, -0.04058250, -0.12811498, -0.01924541, -0.14583740, -0.02607265,  0.11252837, -0.17182679, -0.37472877, 
    -0.04827699,  0.01819389, -0.22180130,  0.17508937, -0.12843427, -0.04796394, -0.22074486, -0.01265253, -0.16443081, -0.31988442, 
    -0.02121558, -0.16068862, -0.10245115,  0.21042633,  0.20912312, -0.25742009, -0.17168091,  0.30829921,  0.13758188, -0.09961447, 
    -0.25517902, -0.05379843,  0.13267903,  0.00330487,  0.09601165, -0.05287194,  0.18713669, -0.18340670,  0.09638855,  0.17854916, 
    -0.27159646,  0.21778575, -0.10654909, -0.21778142,  0.04338053, -0.03299435,  0.04256717,  0.17073022, -0.29450786,  0.11929020, 
     0.18681172,  0.09537770,  0.28414294,  0.29003006, -0.03711388,  0.25794098, -0.19993320,  0.05838507,  0.11844154,  0.30283028, 
     0.23611553,  0.06762656, -0.14032350,  0.04067885, -0.10419859,  0.16586071,  0.02971774,  0.27209756,  0.22811449, -0.08951452, 
     0.10717126, -0.15003614, -0.14376654,  0.26605803, -0.09816832,  0.28022370, -0.05719278,  0.19013496,  0.08477637, -0.02322314, 
    -0.07733154, -0.17220022, -0.29061681, -0.09638648,  0.02581433,  0.16226792,  0.01973501,  0.20749527, -0.46796498,  0.17214353, 
    -0.31646636,  0.20555204,  0.08919127, -0.11203744,  0.12383571,  0.35456362,  0.05197781,  0.33282349,  0.31406444, -0.01864069, 
    -0.04762807,  0.13183913, -0.28784660,  0.03886143, -0.09155840, -0.06711204, -0.34322226, -0.14215280, -0.14927852,  0.01333192, 
     0.19681042,  0.31015155, -0.25029460,  0.06402066, -0.15303153,  0.09489158, -0.09673576,  0.18968374,  0.24241798, -0.00756616, 
     0.10642104,  0.07676665, -0.23415619, -0.03907340,  0.07861590,  0.09178361, -0.20088261,  0.19820657,  0.08049536, -0.23346864, 
    -0.18261854,  0.01697315,  0.22814357, -0.00054276, -0.03692100,  0.01787460,  0.14057055, -0.22640163,  0.23763254, -0.16470703, 
    -0.27339062,  0.09832056, -0.01710251, -0.08280836, -0.02504824, -0.05684221,  0.17196181,  0.15071870, -0.12137169,  0.02754159, 
    -0.07369570,  0.06161572,  0.16749379, -0.09861233,  0.31222892,  0.01138019,  0.22030205, -0.17042436, -0.09932044, -0.00565377, 
    -0.14685909, -0.19158584, -0.23727942,  0.09756207,  0.19032493, -0.13907671,  0.48863307, -0.02327567,  0.07704642,  0.30707428, 
     0.16849010, -0.05485871,  0.01928720,  0.13640925, -0.31117401, -0.26488659, -0.04406759,  0.07591242,  0.31688759,  0.04702537, 
    -0.02569827,  0.25947785, -0.08183078, -0.09940332,  0.07878365, -0.20932671,  0.03415634,  0.26009262, -0.07852057,  0.03067196, 
     0.07940477,  0.05518198,  0.28535545,  0.07704051,  0.31839299, -0.12599066,  0.14827982,  0.04509577, -0.33644578, -0.00926978, 
     0.06175464,  0.06303938, -0.15226370, -0.12553769,  0.14506286, -0.14943796,  0.02871135,  0.13031512, -0.10935683, -0.26170057, 
    -0.23679395, -0.08185863, -0.36799696, -0.17837425,  0.13143933, -0.26199615, -0.06547029, -0.22399564, -0.18503165, -0.02634156, 
     0.04839728,  0.02979792, -0.18226512, -0.07134915,  0.19515829, -0.08663121, -0.31092858,  0.19439463, -0.07866270, -0.19233191, 
    -0.19847716,  0.12422393,  0.17430648,  0.06148862, -0.16014965, -0.16664909,  0.19199078,  0.07209063, -0.18360750, -0.14833605, 
     0.51705498,  0.08362702,  0.06768070,  0.10703029,  0.21534570,  0.03808940, -0.20909210, -0.16977693,  0.08142206, -0.09915280, 
     0.09923808,  0.20427422,  0.22358137,  0.21011356,  0.19281174,  0.29281721,  0.38916215,  0.25447905,  0.15205058,  0.19903448, 
     0.25778803, -0.03535686,  0.01849415,  0.04103889, -0.23448616,  0.21178049, -0.03406741, -0.20090999, -0.07629823,  0.09179614, 
     0.11106006, -0.21228753,  0.13020384, -0.30522498, -0.19973983, -0.12225528,  0.12672859, -0.12291414,  0.03515867, -0.08853201, 
     0.00772725, -0.15355563,  0.08351868, -0.17253070,  0.24515936, -0.11833152, -0.13999210,  0.20431855, -0.37567484,  0.04578055, 
     0.22264124,  0.25716808, -0.14444478, -0.22500910,  0.22966576, -0.15240891, -0.01312073,  0.17968658, -0.09619047,  0.07128922, 
    -0.19894856, -0.09139343, -0.23730376, -0.14449717, -0.11287456, -0.05000158,  0.02494415, -0.20629969,  0.03786774,  0.22755340, 
     0.04410854,  0.21940170,  0.12621923, -0.24669011, -0.24288242,  0.08364250, -0.11147236, -0.15139796, -0.06574825, -0.22600178, 
     0.27710477, -0.24127381,  0.03356401,  0.37845129, -0.00909786,  0.41713887, -0.28936651,  0.09828191,  0.07412583,  0.39472762, 
    -0.04110042, -0.30021057, -0.13023266, -0.00014822, -0.18084395,  0.22092712, -0.01636275, -0.26256263, -0.02747737,  0.21100459, 
    -0.02007685, -0.36361352,  0.11108937, -0.11859805, -0.29401502, -0.19998756,  0.24038349, -0.07052885, -0.02567919,  0.05808752, 
     0.05822105, -0.17943782, -0.06168960, -0.19278857,  0.20884477,  0.17434610, -0.25258341, -0.13222261, -0.15330249,  0.05689125, 
     0.06226265,  0.29322234,  0.22088659, -0.10920499, -0.12260722, -0.17062122,  0.24263743,  0.18540877, -0.11649365, -0.07848670, 
     0.19933778,  0.19856498, -0.07614548,  0.06036975,  0.28258944, -0.08646385,  0.10431289,  0.24580529,  0.30810291,  0.12994021, 
    -0.07399730,  0.19795127,  0.23528247,  0.12915392,  0.26583391,  0.37781441,  0.05090577, -0.14516696,  0.01724956, -0.11734646, 
     0.30004260,  0.09928924, -0.22801813,  0.17246269, -0.30691916,  0.06867355,  0.13121466,  0.33019099, -0.14931925, -0.21530201, 
    -0.03236574,  0.09201568,  0.18493293,  0.10648115, -0.02208295,  0.15060146, -0.22121322, -0.13383561,  0.02322624,  0.29341114, 
    -0.14752328,  0.52625340,  0.06073514,  0.06048483,  0.09169623,  0.05069454, -0.07149631,  0.02858983,  0.36818039, -0.12234379, 
     0.02867452,  0.16648786,  0.00253575, -0.12642682, -0.14567611,  0.02149343,  0.08288802, -0.09579338, -0.25258219,  0.16158651, 
    -0.06181080, -0.13716500, -0.29172933, -0.02938107, -0.30469593,  0.15038694,  0.37750807, -0.20312810, -0.40627810,  0.03927151, 
    -0.28991145, -0.09980933, -0.08427450,  0.03934122, -0.04744351, -0.19322561, -0.04980145,  0.24670753, -0.13980448, -0.07416387, 
     0.13626593,  0.19564034, -0.30608699,  0.08831128,  0.09564836,  0.29213944,  0.06011234, -0.24270104,  0.10149675,  0.04807833, 
    -0.14931376,  0.19900997,  0.02121551, -0.12143948,  0.25334549,  0.14849874,  0.14571698,  0.22093873,  0.05030352,  0.27691910, 
     0.03218687,  0.12961230, -0.25282604,  0.23191965,  0.03041953,  0.12520394, -0.30574593, -0.18201990,  0.17002727,  0.10729218, 
     0.38921279, -0.11562383, -0.32559252,  0.08762646,  0.05145126,  0.43394881, -0.00575097,  0.09588589, -0.23989260,  0.03104135, 
    -0.03609131, -0.04979813, -0.19885096, -0.14662361,  0.21026896, -0.50989425,  0.00949819,  0.04798431, -0.09449976, -0.02987936, 
     0.01993861,  0.00369240,  0.13063838,  0.16482031, -0.12978846, -0.37532926,  0.04143051, -0.29993984, -0.10184535, -0.33077678, 
     0.22092329, -0.02011024,  0.26436988, -0.13265404, -0.12613241, -0.22117782, -0.24145468, -0.07033226, -0.15367344,  0.00825379, 
    -0.13644570,  0.05475980, -0.01471269, -0.00950566,  0.00544991,  0.28515053, -0.31713304, -0.23537429, -0.17684278,  0.17601615, 
    -0.09837864, -0.06334770, -0.09859328,  0.23540072,  0.12928860, -0.48059934,  0.29694092, -0.12142839,  0.09883665, -0.21917726, 
     0.14012751, -0.17146109,  0.00423408,  0.11704165,  0.12430498, -0.14903833,  0.11692338,  0.24765342,  0.27400371,  0.14376453, 
    -0.23376337,  0.20455191, -0.15633494,  0.03324040,  0.03949344,  0.13516398,  0.14045025,  0.09919982,  0.19499420,  0.19342121, 
    -0.34828651,  0.40595520,  0.13700332,  0.23328571,  0.25621161,  0.16632390, -0.00663827,  0.24672315, -0.00493666,  0.05421970, 
    -0.05723663, -0.20285541, -0.28120214, -0.15350154, -0.27542225,  0.35931891,  0.22359185,  0.42030916, -0.43287125,  0.10416017, 
    -0.12247027, -0.12749858, -0.36511490,  0.03344272,  0.03938620, -0.34049356, -0.50944269, -0.04771565,  0.02502616, -0.04382574, 
    -0.14544499, -0.05211598, -0.17144965, -0.04568340, -0.16118181, -0.07628825,  0.26821285,  0.01559058,  0.02369468,  0.07969670, 
    -0.05930087,  0.11752607,  0.29487851,  0.23760055,  0.00313324, -0.20455457, -0.13270551, -0.23397592, -0.32963952,  0.08360831, 
     0.05080275,  0.02780595,  0.06338684, -0.35108337,  0.03367566,  0.07197400, -0.28759983, -0.13508143, -0.36473089,  0.31078857, 
     0.09940950,  0.21017435, -0.15234166, -0.03342158, -0.05676262, -0.14984325, -0.07784728,  0.08652804, -0.18980472, -0.05339533, 
    -0.29230061,  0.13833432,  0.13883954,  0.12897927, -0.02821209, -0.10334092,  0.20051706,  0.05543043, -0.13955973,  0.25912315, 
     0.06190398, -0.31998736, -0.12674676, -0.17977121, -0.39362633,  0.06340326, -0.03014535, -0.27875242,  0.00243944, -0.05483079, 
     0.10988893, -0.10479721,  0.00989961, -0.31162205,  0.13743183, -0.02037109,  0.10634442,  0.15931369,  0.00183352,  0.28567368, 
    -0.00374318,  0.06937028,  0.08567634, -0.11830263,  0.10107204, -0.11892931,  0.17517115, -0.23087052,  0.20196156, -0.02662042, 
    -0.05642129, -0.31250757, -0.29517111,  0.20709610, -0.06027300, -0.18689053, -0.21411796,  0.10718057, -0.07469937,  0.14300400, 
     0.01801332, -0.17339838,  0.15629233,  0.23261105, -0.05542020,  0.00998956,  0.31080401, -0.34190908, -0.10038498,  0.11470774, 
    -0.16589728,  0.13619789, -0.13215642,  0.11897480, -0.22188897, -0.16069861,  0.21059306, -0.17458047,  0.03119210,  0.07121320, 
     0.00913140,  0.26797333,  0.28297034, -0.10683738,  0.04425510, -0.13972670,  0.14483395,  0.07186531,  0.26139987, -0.12617318, 
    -0.06299708, -0.21798238, -0.08518199, -0.07886411, -0.23652595,  0.33558962, -0.02981612,  0.18109119, -0.18709500,  0.18273835, 
     0.01014464, -0.10328338, -0.24128890, -0.12682280,  0.26384318,  0.36491725, -0.11332666,  0.24066752,  0.31677452,  0.16130078, 
    -0.00190247, -0.26071116,  0.08867132, -0.05985655,  0.12401303,  0.00161730, -0.00814836,  0.01239029, -0.04242257,  0.06675769, 
     0.04796091,  0.20851357,  0.03288681, -0.22838955,  0.11585621,  0.23574203, -0.08478513, -0.08312342,  0.06716834, -0.19708940, 
    -0.09206037, -0.21788765, -0.07366764,  0.07782664,  0.02734527, -0.36060023,  0.13266464,  0.22229041, -0.08706336, -0.05610643, 
     0.23298988,  0.03177071, -0.01537580,  0.29783547,  0.22624856, -0.21264200,  0.25792384,  0.25458515, -0.23127125, -0.00497771, 
    -0.21486929,  0.23068671, -0.13011405, -0.00998045,  0.31945232, -0.07203338, -0.10489058,  0.32660174, -0.08895380,  0.24380441, 
    -0.29318130, -0.07004759,  0.10175767, -0.11075140,  0.20927215,  0.21122907,  0.05843540, -0.14351289, -0.14277741, -0.08555600, 
     0.18736185,  0.04441186, -0.11417332, -0.06019014,  0.01456280, -0.22106722,  0.03095489,  0.02230451,  0.23619767,  0.13641046, 
     0.19736826, -0.05685120, -0.03207629, -0.10008556, -0.06441406,  0.03957287, -0.39523494, -0.10969577, -0.18224551,  0.17939462, 
    -0.19918407, -0.26625067,  0.29524302,  0.09746723,  0.11651419,  0.43823093,  0.03765274,  0.07703635, -0.00975833,  0.12209139, 
     0.32053581, -0.16222876, -0.35186589, -0.11203989, -0.30410162,  0.30603015, -0.26670000,  0.06157416,  0.11491106, -0.32187802, 
    -0.00289527,  0.09785856,  0.28044307,  0.13072893,  0.02578192, -0.54096717, -0.30945638, -0.12903187, -0.14814749,  0.08163384, 
     0.04319579, -0.50632232, -0.43130437, -0.45889071, -0.26173672,  0.38344771,  0.21515033,  0.11176548, -0.26858312, -0.22238719, 
    -0.05506749, -0.20666587, -0.53756261, -0.10218291,  0.05071132,  0.11883809, -0.00628156,  0.02011604,  0.10270452, -0.23424836, 
     0.02264679,  0.05409776,  0.15175386, -0.72926670, -0.04159250, -0.23558190,  0.14774023,  0.24238548,  0.25166634, -0.10713408, 
    -0.08859964, -0.23321566,  0.01962337,  0.14187960, -0.34492755, -0.09219825,  0.07019749,  0.10586913, -0.40017903,  0.12328061, 
    -0.17733997, -0.43216270, -0.17612144,  0.01187288, -0.05190436, -0.41949219,  0.30460683,  0.27998474,  0.31126320, -0.28706804, 
     0.39236498,  0.08695190,  0.13213247, -0.12959652,  0.20658243, -0.20106432, -0.12470704, -0.25985903,  0.13743442, -0.02288311, 
     0.07972904, -0.08398072,  0.01713670,  0.17381006,  0.20580092,  0.00730918, -0.04710474,  0.18850219,  0.00056012, -0.20030586, 
     0.15544407,  0.09205639,  0.09904107,  0.14742059, -0.17347005,  0.40029958, -0.13225909, -0.18331286,  0.06790106,  0.25821412, 
     0.08396461,  0.18688093, -0.11277825,  0.01477588, -0.04745360, -0.14756376, -0.23109300,  0.16677408,  0.00675910,  0.19158943, 
    -0.15439154, -0.05486616, -0.09714743,  0.06349458, -0.18566306, -0.12964983,  0.02253672, -0.05324459,  0.10464697, -0.02232999, 
     0.11699054, -0.02971384,  0.11574447,  0.13810420, -0.31779921,  0.19426526,  0.04988002, -0.23984452,  0.29328197, -0.34684795, 
     0.23113765, -0.20270242,  0.22164187,  0.07295503, -0.21889509, -0.08311653,  0.06586459, -0.09153493,  0.05399249, -0.16807942, 
     0.18745400,  0.30781510, -0.06118467,  0.31637099, -0.13211179,  0.16815688, -0.11300296,  0.12584919,  0.04087935,  0.09779380, 
    -0.12815696,  0.21486574, -0.12530893,  0.10323057, -0.15137114, -0.26507199,  0.09194180, -0.21607117, -0.18199849, -0.24378625, 
    -0.07078698, -0.09445334, -0.30220413, -0.15167890,  0.04264925,  0.02218506, -0.05409381, -0.18751347, -0.06152413, -0.41061455, 
    -0.07761860, -0.15895686,  0.31238359,  0.06388078, -0.11905494, -0.19960715, -0.02460133, -0.18349217,  0.18158522,  0.06028368, 
    -0.17040408,  0.00988453, -0.03619275, -0.16674346,  0.31841484,  0.15673678, -0.10103779, -0.06309859,  0.19989991,  0.07924318, 
    -0.05264422, -0.31036547,  0.10852129,  0.06035305, -0.01696388,  0.16360302,  0.26154947,  0.10234122, -0.06104810, -0.40753812, 
    -0.10244169,  0.36165139, -0.17188860,  0.09717260,  0.07373683, -0.10826417,  0.22015953, -0.22575262, -0.32425404, -0.05202439, 
     0.17247292,  0.02054453, -0.00638951, -0.21169610,  0.11608486,  0.12914127,  0.20441054, -0.19582140,  0.06886354,  0.14681530, 
     0.17029083, -0.09998009, -0.04091880,  0.07083430,  0.04829792, -0.04891242,  0.15344729,  0.17053351,  0.17729625,  0.10255307, 
     0.25129992, -0.16210015,  0.04214377,  0.30649573,  0.24159585, -0.13351014,  0.07603277,  0.25690410, -0.29927540,  0.05978446, 
    -0.22702812, -0.27870318, -0.06062624, -0.47803414, -0.44829363,  0.39475560,  0.05688279,  0.22537486,  0.19866334, -0.02640405, 
    -0.29232639,  0.06810764, -0.03737168, -0.33002526,  0.18970053,  0.18432561, -0.19592339,  0.03119397,  0.03817846,  0.05626556, 
    -0.00361700,  0.23605065, -0.13074735,  0.03846201,  0.07034976, -0.28830642,  0.15593411, -0.09640886,  0.07950314, -0.34002006, 
     0.09876613, -0.14320385, -0.01283641, -0.22512881,  0.00379452, -0.04725572,  0.22730346,  0.24290085, -0.25505599,  0.11660752, 
    -0.16163196,  0.02793547, -0.11389264,  0.02878703,  0.04203107, -0.28230566, -0.34389421,  0.06764749,  0.09429508, -0.15725926, 
     0.12167301, -0.06957843, -0.13379768,  0.10370671,  0.14875229,  0.38670424,  0.30050707, -0.04825865, -0.28203869,  0.11682887, 
     0.13707390, -0.26124427, -0.06650038,  0.25828913, -0.32020837,  0.14986522, -0.30479780,  0.34228396, -0.11110250, -0.09583338, 
     0.16450106, -0.13689446,  0.16544798,  0.09158657,  0.16252370,  0.20839252,  0.31212804,  0.25681484, -0.18868795, -0.01267094, 
    -0.24386428, -0.22860606, -0.35486466, -0.11672305,  0.28254840,  0.01625370, -0.15579121,  0.29748863,  0.04623011,  0.01013498, 
    -0.03728553, -0.32818681,  0.00567781,  0.13460732,  0.14206231,  0.01632055, -0.02397483,  0.31103137,  0.04991111, -0.13001387, 
    -0.22553039,  0.40904045,  0.00984733, -0.29076427,  0.17479317, -0.23108050,  0.05124541,  0.08923012,  0.00156134, -0.18815474, 
    -0.07275277, -0.08946065,  0.07436505,  0.16138099,  0.24596819, -0.22784027, -0.06680667,  0.16920720, -0.14042537,  0.35514367, 
    -0.04312398,  0.19871861, -0.01066495,  0.06741560,  0.19082363,  0.10466798, -0.30538476,  0.24199012, -0.01060251, -0.02378292, 
    -0.19643025,  0.11374801, -0.05737270,  0.04400230,  0.18246730, -0.26876256,  0.05329358, -0.14005801,  0.03949180,  0.17529826, 
    -0.03874520, -0.32583854, -0.27008781,  0.09519447,  0.11153239,  0.45428294,  0.40935230, -0.16573696,  0.14510351, -0.23819038, 
     0.21552706,  0.10975879, -0.25920513,  0.09549453, -0.06796428,  0.23784214, -0.00476643, -0.14562413,  0.12916099,  0.32401571, 
     0.09709123,  0.08956038, -0.04398604, -0.23011553, -0.06766684,  0.01258356, -0.20071265,  0.34879628,  0.18049583,  0.21544704, 
     0.10283709, -0.27426881,  0.06623086, -0.12843271,  0.06269642, -0.09238944,  0.29933715,  0.03388464,  0.05239639,  0.02617055, 
     0.14009467,  0.07504531, -0.06321680,  0.23627609, -0.02622878,  0.06453337,  0.08186851,  0.07937538,  0.30588439, -0.06447030, 
     0.00455578,  0.07419740,  0.38248393, -0.20571762, -0.00700655, -0.23417419, -0.01246852,  0.14507355, -0.05020599,  0.33929536, 
    -0.26970616, -0.18135761,  0.19491275,  0.20311204, -0.13950680,  0.13120387, -0.13753852, -0.05908520, -0.06478044,  0.26382810, 
     0.16306129, -0.28364375, -0.07964039, -0.24589923,  0.17862166, -0.11784384,  0.03909189, -0.05886754, -0.27664033,  0.00014164, 
    -0.07855959, -0.01855689,  0.31078619,  0.13759047,  0.06218868, -0.03558918, -0.08707048,  0.23543814, -0.37848100,  0.23843719, 
     0.27232346, -0.02690669,  0.30892101,  0.24888566, -0.19301565, -0.31865162, -0.03498778,  0.08472102,  0.13423869,  0.08996437, 
     0.01931013, -0.12735705,  0.04592082,  0.11845149, -0.15764150,  0.03475326, -0.22175503,  0.33183956,  0.21329018, -0.25608954, 
    -0.02111743, -0.07419467,  0.09199036,  0.04191707,  0.16520917, -0.28009218,  0.31209370, -0.03228540, -0.30762503, -0.23843338, 
    -0.08879237, -0.28219697, -0.07813629, -0.05683763,  0.14621525,  0.06433451, -0.03023270,  0.01868215, -0.05443053,  0.29408243, 
    -0.13025197,  0.08931494, -0.16629884, -0.19285668, -0.19633485,  0.15844235,  0.19015267, -0.13942355, -0.08965612, -0.02526894, 
    -0.21305819,  0.14435486, -0.05498352,  0.24749838, -0.18631069,  0.30957726, -0.09856338, -0.08181491,  0.02470131, -0.08855779, 
    -0.25000769,  0.07712825, -0.05814157, -0.24216747,  0.37163305, -0.06660663,  0.21009380, -0.09938630,  0.16747183, -0.22402851, 
     0.21367110, -0.14087786,  0.31356415, -0.09054061, -0.16640078,  0.06363917, -0.17696911, -0.11243490,  0.23500022, -0.22157805, 
     0.28790903, -0.18888155,  0.04292123, -0.03921573, -0.41857567,  0.32745549,  0.44006255, -0.25845230,  0.23114349, -0.34105709, 
     0.07019158,  0.05941525,  0.03825317,  0.14435001,  0.24450727,  0.01454456, -0.28955564,  0.25702137, -0.15373415,  0.15024783, 
    -0.49652797,  0.02062681, -0.08299118, -0.14950214,  0.33263612, -0.11289095, -0.36638007,  0.22919333,  0.12073200, -0.24014413, 
     0.04084175, -0.08254523, -0.13769653,  0.13522162, -0.18653372, -0.21479197, -0.18505965, -0.06583254,  0.01424349,  0.18172474, 
    -0.05083371, -0.10516759,  0.03331298, -0.33856997,  0.49572098, -0.24307105,  0.07061184, -0.20939681, -0.29187128,  0.27592358, 
    -0.42744210, -0.11235996, -0.08127555, -0.27113536,  0.05092416, -0.13334315,  0.15600172,  0.08383031, -0.31264344, -0.17488398, 
     0.35181609,  0.06946070,  0.11635575, -0.12976453, -0.33084458,  0.03544632,  0.03122274, -0.10465166, -0.08992198, -0.60930264, 
    -0.03429839,  0.01057974, -0.29254988,  0.25203592, -0.09084237,  0.11403056,  0.12780657,  0.14386788, -0.04622615,  0.17472905, 
     0.13208671, -0.20133868,  0.16787764, -0.34455752,  0.11300508,  0.04155910, -0.01981388,  0.23557188, -0.27701625,  0.02649011, 
    -0.20832308, -0.12643287, -0.09977313,  0.08025745, -0.10165385, -0.03402553, -0.25785577,  0.11614761,  0.09119526,  0.10450872, 
     0.27904251, -0.23693767, -0.18744001,  0.23855819,  0.04812598, -0.04136648,  0.00864215, -0.00578483, -0.13263372, -0.18245284, 
    -0.09613387, -0.09921510, -0.05181452, -0.11343963,  0.37175375,  0.08031677,  0.31631401, -0.23111410,  0.10459928,  0.06182275, 
     0.13921624,  0.17480075, -0.20810987,  0.19009434,  0.41280583, -0.23310648, -0.06390668,  0.19878775, -0.18141709, -0.09548423, 
    -0.00098111,  0.12065522,  0.15268010,  0.07199010,  0.10018846,  0.11218704,  0.23546688,  0.14944622, -0.18687017,  0.09496028, 
     0.20454989,  0.02977816, -0.26858035, -0.30318815,  0.21113501,  0.16297314,  0.18072028,  0.19453229,  0.01444119,  0.16679706, 
     0.19041571,  0.05849184, -0.21526371, -0.30726039, -0.39933649, -0.20041563,  0.15604027,  0.15504944, -0.08720622, -0.22989868, 
     0.15340038, -0.16987219, -0.08173535,  0.23116155,  0.21454038,  0.11972857, -0.02749362,  0.01729455, -0.15894397,  0.08754528, 
    -0.03648760, -0.01579882,  0.00454705, -0.05242651,  0.14371531, -0.10659334, -0.16796912, -0.13497736,  0.14370972, -0.06306649, 
    -0.12949289,  0.24584711,  0.24989441,  0.11553162,  0.14855763, -0.19906740, -0.10148592, -0.14151601,  0.06775159, -0.03638007, 
     0.04947093, -0.22414145,  0.19898631,  0.12572148,  0.27523655,  0.15645446,  0.22204588, -0.02673910, -0.00962918, -0.14391164, 
    -0.38617522,  0.12969637, -0.11548060, -0.16886458, -0.32684693, -0.18736281,  0.02070283, -0.09175880, -0.31919611, -0.19730608, 
    -0.09263823, -0.18918608,  0.19606662, -0.41276103, -0.09417827,  0.11476601, -0.13227862, -0.05739151,  0.16121010, -0.24279919, 
    -0.41226780, -0.13227676, -0.26109251, -0.25141466, -0.23112318, -0.20650172,  0.24758989, -0.19067161,  0.12738392, -0.25812364, 
    -0.03031876,  0.01882326, -0.02641554, -0.18702939,  0.18355201, -0.03972673, -0.01297651, -0.14702536, -0.37509507,  0.20536928, 
    -0.14473268,  0.17924123, -0.27188638, -0.12671497,  0.18048929, -0.06863589,  0.08287180,  0.24495526,  0.37518451,  0.25809133, 
     0.36850035, -0.16976665, -0.25695536,  0.42277783, -0.16020118, -0.04393680,  0.21998595, -0.17731242,  0.07713140, -0.22791301, 
     0.33028543, -0.04913424,  0.19522907,  0.38956502,  0.02313282,  0.14521566,  0.32503977,  0.05145167,  0.13752916, -0.11571675, 
    -0.04138821, -0.17404933, -0.00819713, -0.17594753, -0.07499725, -0.00680116, -0.00967294,  0.04519253,  0.18133694,  0.29151633, 
    -0.08265493, -0.00357335,  0.05956315, -0.05564531,  0.11846354, -0.28657517, -0.20632069, -0.11151391, -0.21617895,  0.03721458, 
     0.05525649,  0.13477451, -0.10072584,  0.10647165,  0.16065250,  0.35012096,  0.23925431, -0.08321058,  0.23167324, -0.03988563, 
     0.03907625,  0.16792221,  0.12160145, -0.14590277, -0.02059513,  0.04779128, -0.23277190, -0.12152978, -0.06141270, -0.00456131, 
    -0.24340661,  0.02973030, -0.08205512,  0.28314203, -0.21361791,  0.06638898,  0.19060357, -0.21255468,  0.02781864, -0.33380577, 
    -0.09814282, -0.25742981,  0.27991152, -0.05858066, -0.18444495,  0.14628579, -0.13392644, -0.16694504,  0.29461229,  0.07799936, 
    -0.04227661, -0.02775080, -0.00770987,  0.07412244, -0.18905123,  0.12360641,  0.11857190, -0.33577588, -0.22852008,  0.22517344, 
     0.00943031, -0.23138770, -0.01493003, -0.10297178, -0.39462793, -0.06141062, -0.19724585, -0.19310834, -0.01560078, -0.07864422, 
    -0.15476197,  0.33643040,  0.21911496,  0.37817121, -0.11282852, -0.17784907, -0.00352172, -0.09511949,  0.00592963,  0.23615469, 
    -0.00127951,  0.29133514, -0.01602906,  0.20793809, -0.33219340, -0.22529979,  0.03633874,  0.01820280, -0.16602232,  0.06451024, 
     0.01663033,  0.13269541,  0.21680257,  0.21618222,  0.29862663,  0.17690927, -0.10926392,  0.31500077,  0.09785723, -0.14947957
    
};

const type_t B_fc1[64] = {
-0.13346510, -0.28084689, -0.22275136,  0.31958094, -0.17914888,  0.10318182, -0.01101491, -0.06122011,  0.09888682, -0.00569509, 
     0.12978289, -0.23274468, -0.29640564, -0.19318427,  0.09058355, -0.03195362, -0.01103483, -0.00530158,  0.18062504, -0.20509705, 
     0.31095919,  0.21578747, -0.08642130,  0.20253690,  0.36391500, -0.07257410, -0.34933895, -0.34388411,  0.18090458,  0.00701416, 
     0.15717664, -0.01606878,  0.33012104, -0.02681470,  0.25616503,  0.37290868,  0.31006944,  0.00457054,  0.12007876,  0.00064624, 
    -0.11732879,  0.00631197,  0.22608316, -0.12804238, -0.10129573, -0.20283481, -0.29769275,  0.21991415,  0.14587910, -0.05665014, 
    -0.18016009, -0.17899230, -0.07106913,  0.10472485,  0.01681508, -0.01724531, -0.13668688, -0.31524923, -0.01449324,  0.04176578, 
    -0.10317515,  0.03716573, -0.01144233, -0.18152922
};

const type_t W_fc2[384] = {
-0.07625250,  0.30544385,  0.33111936, -0.60485572,  0.41427776, -0.15743750, -0.38375497, -0.30559871,  0.13864516, -0.09765032, 
    -0.52281100,  0.20141393,  0.30416042,  0.19170144, -0.16077186, -0.11100287,  0.10720024,  0.31287080, -0.30208606,  0.11167918, 
    -0.10279603,  0.05677573,  0.39958298, -0.16090186, -0.07664088,  0.42398462,  0.22508496,  0.31018230,  0.10699043,  0.09367495, 
    -0.31178638, -0.33032542,  0.00572829,  0.39240360, -0.14413764, -0.26884401, -0.24020560,  0.03005636, -0.18224366,  0.30630061, 
     0.13801286,  0.18465669, -0.13807143,  0.20805331,  0.41791904,  0.12385809,  0.22950043, -0.31238097, -0.03817583, -0.43906412, 
     0.22771236,  0.09251109, -0.02788272, -0.13914815,  0.20330976,  0.10562418, -0.12381329,  0.22332585, -0.11483723, -0.38325515, 
     0.26063246,  0.11213074, -0.04781809,  0.08729847, -0.25655746,  0.01660614,  0.07013582,  0.08673643, -0.65295619, -0.34396040, 
     0.55241126,  0.40747759, -0.42799100, -0.26902696,  0.24623498, -0.17471272,  0.20942900, -0.47852063,  0.05558302, -0.28620982, 
    -0.09858774, -0.54163390,  0.46655682, -0.42952728,  0.27739713,  0.47109821, -0.45985842, -0.05742893,  0.24143456, -0.52592266, 
     0.14175576, -0.05965691,  0.23086521,  0.27361944, -0.26099595,  0.55448639,  0.07113446, -0.57737207, -0.26556250,  0.23778154, 
    -0.30056572, -0.68255651,  0.14659713, -0.32892719, -0.04466998, -0.53819573,  0.29115450, -0.35088065, -0.32446480, -0.39995131, 
    -0.35638133,  0.24015537,  0.54940975,  0.41762710, -0.02498617,  0.24827163, -0.28823709,  0.42298174,  0.68655556, -0.58512115, 
     0.09068485,  0.05607634,  0.15789096,  0.47567391, -0.49588493, -0.70576572, -0.49998918, -0.67619067, -0.10568846,  0.13121396, 
     0.16385542, -0.08485395,  0.01373923, -0.03328567, -0.10000311, -0.25217783,  0.26239970,  0.16466494, -0.32415700,  0.04138316, 
    -0.17726156,  0.18098232, -0.21098295,  0.22749071,  0.19434561,  0.19664618,  0.00422880, -0.13451988,  0.10955954, -0.05504281, 
     0.10023673, -0.45247570,  0.27544981,  0.30643642, -0.02501798, -0.11348704,  0.28543898,  0.04425121, -0.03466801, -0.07350251, 
     0.28528363, -0.13067912,  0.19713330,  0.02177912,  0.03142092,  0.42389780,  0.08981844,  0.24076265,  0.13757056, -0.00078482, 
     0.00040467, -0.28182164, -0.10096353,  0.15628031, -0.11826678, -0.02260534, -0.44694281, -0.32163012,  0.23389010, -0.31882805, 
    -0.28104916, -0.09883467, -0.27759382,  0.32604855, -0.23433019,  0.03821306, -0.42651850, -0.74207622, -0.03827421,  0.00798917, 
    -0.00830396, -0.27001229,  0.11322253,  0.26734179,  0.16295816, -0.38111016,  0.39765763, -0.04878967, -0.20901918, -0.40982753, 
    -0.16191997, -0.05365949, -0.13977809, -0.29171038, -0.15679179,  0.06821077,  0.10369461,  0.02319074, -0.32579240,  0.24638538, 
     0.10621767, -0.20121194,  0.10620064,  0.16005370, -0.31991374,  0.19655159,  0.07335050,  0.08436173,  0.00705762, -0.01480370, 
     0.12668620,  0.27927586,  0.37437075, -0.55692291,  0.25041568,  0.28882292, -0.07533482,  0.04748529,  0.26283383, -0.08943623, 
    -0.21751687,  0.19502890,  0.04706680,  0.33576971, -0.00342025,  0.10872092, -0.11566295,  0.06847295,  0.01846057, -0.17146127, 
    -0.21116473, -0.53636223, -0.06901028, -0.21812929, -0.47554237, -0.29045492, -0.16921990,  0.00842120,  0.02932323,  0.06913532, 
    -0.22925937, -0.42464280, -0.00200548,  0.33353248,  0.08074565,  0.06192364, -0.41058379, -0.01791860, -0.45836163, -0.04220571, 
    -0.04948045, -0.35589561, -0.02743204,  0.07475884,  0.34242228,  0.70847720,  0.04392289,  0.30190909,  0.08687988,  0.17321944, 
    -0.41449121, -0.05135618,  0.15543328, -0.17751950, -0.03028555,  0.06553922,  0.21923822,  0.60466081,  0.02771624,  0.00379787, 
    -0.11310257, -0.11998081,  0.19825399,  0.36361381, -0.14046136, -0.32828861,  0.28199166, -0.36861846,  0.25043175, -0.42709723, 
     0.10816369,  0.58335948, -0.01836767,  0.16599590, -0.20663652, -0.48452777, -0.49630478, -0.65520567, -0.23864168,  0.37571186, 
    -0.16126172, -0.95774883,  0.07503761,  0.26571581,  0.17722100, -0.19644913, -0.72766340, -0.24361470,  0.62908614,  0.22688873, 
     0.18842290, -0.97475392, -0.48048198, -0.18022059, -0.10522342,  0.04350204,  0.31544662,  0.16368687,  0.42805150, -0.39964151, 
    -0.15000419, -0.56014901, -0.81441921,  0.37606966,  0.89044648,  0.16894418, -0.09976251, -0.01099870, -0.53201586, -0.08902783, 
    -0.06328999, -0.78270090, -0.48027337, -0.29859316, -0.43166605,  0.16767246,  0.08679596,  0.26941189, -0.43251610, -0.39949930, 
    -0.11478785, -1.27963102,  0.02717352,  0.22856472,  0.01289872,  0.44963828, -1.18228698, -0.90704799,  0.01584872, -0.13658589, 
    -0.47982445,  0.01420037,  0.35903057, -1.39989066,  0.28033736, -0.02664610,  0.36752772,  0.15420516,  0.27361652, -0.10129227, 
     0.12679185, -0.13686819, -0.20704016, -0.01648728,  0.00317573,  0.10558828,  0.46169177, -0.55872959,  0.24968220, -0.06351165, 
     0.16028759,  0.14117855,  0.66392362, -0.37883976,  0.01038343, -0.11759951, -0.69629163, -1.05922401,  0.12249480, -0.07227397, 
     0.10513052,  0.09161608, -0.05228846,  0.23416866
};

const type_t B_fc2[6] = {
-0.53880978,  0.08742706,  0.17572807,  0.10285710,  0.07265250,  0.05662758
};

#endif // WEIGHTS_H
