#ifndef WEIGHTS_H
#define WEIGHTS_H

#define SVM_SIZE 3780 // HOG descriptor size
#define SVM_THRESHOLD -2.0f // Tunable threshold

// Weights Array
// 'static const' allows HLS to synthesize this as BRAM/ROM
static const float SVM_WEIGHTS[SVM_SIZE] = {
0.14220688f, 0.08701671f, -0.01376788f, 0.07945879f, 0.09637691f, 0.05515010f, 0.00517142f, -0.00747555f, 0.04499769f, 0.10067861f, 0.03271062f, -0.05012019f, 0.02148723f, 0.03962204f, 0.06925896f, -0.00018455f, -0.04454355f, 0.04874398f, 0.05102688f, 0.00495538f, -0.03910748f, 0.04333354f, 0.03549425f, 0.06823695f, 0.01052714f, -0.02994685f, 0.05707595f, 0.02782536f, -0.01392407f, -0.08746288f, -0.02980103f, 0.00297126f, -0.01133657f, -0.03930802f, -0.02746013f, 0.03034517f, 0.08866219f, 0.04348635f, -0.04242682f, 0.00688549f, 0.02109070f, 0.08333762f, 0.02989781f, -0.02671918f, 0.06909582f, 0.00452652f, -0.07080970f, -0.05337320f, 0.02196948f, 0.01889713f, 0.06299804f, 0.00543599f, -0.04676568f, -0.02504867f, 0.05731038f, 0.05670179f, -0.06028244f, -0.02047835f, 0.01128782f, -0.03505242f, -0.04243440f, -0.02546834f, 0.01695312f, 0.04222612f, 0.04572449f, 0.03365955f, 0.04501933f, 0.06806080f, -0.01350250f, -0.05471023f, -0.04505625f, -0.06132762f, -0.00523286f, -0.07174773f, -0.06516022f, -0.02458132f, 0.01125132f, 0.01564017f, -0.07734680f, -0.09989646f, -0.07975541f, 0.06023831f, -0.00535611f, -0.14312742f, -0.04485043f, 0.03045888f, 0.10976341f, -0.03108955f, -0.11151429f, 0.00321336f, 0.00904091f, 0.01700513f, 0.07288014f, 0.06407760f, 0.06967367f, 0.00630595f, -0.09052445f, -0.05586842f, -0.12213305f, 0.03546692f, 0.07571760f, 0.15545227f, 0.20551874f, 0.12689838f, 0.13752920f, 0.05489432f, 0.00493098f, -0.04954241f, 0.06843607f, -0.03567358f, -0.17197218f, -0.06502452f, 0.02965045f, 0.08567673f, -0.04558970f, -0.14810464f, -0.03675390f, 0.06048850f, -0.04722904f, -0.14996555f, -0.08848944f, 0.06304808f, 0.03242303f, -0.04810229f, -0.12828432f, -0.02333013f, 0.02389511f, 0.01898816f, 0.13009062f, 0.20173870f, 0.14695051f, 0.15132907f, 0.07013592f, 0.02562176f, -0.04519936f, 0.00911071f, -0.07993922f, -0.00479490f, 0.02706594f, 0.13763139f, 0.14013411f, 0.20257203f, 0.12717142f, 0.02164431f, 0.05281565f, -0.00075506f, -0.08366665f, -0.03824420f, 0.08747557f, 0.02436374f, -0.03030438f, -0.10000385f, -0.00387259f, 0.00009280f, -0.05481591f, -0.06470359f, -0.05826903f, 0.03871292f, 0.02130504f, -0.04011674f, -0.06543803f, -0.08311371f, 0.03970722f, -0.07083793f, -0.02156457f, 0.01264285f, 0.13071028f, 0.12840794f, 0.22615448f, 0.17183166f, 0.06075689f, -0.01757035f, -0.13355103f, -0.06363582f, -0.09595077f, 0.01440082f, 0.09990450f, 0.10368350f, 0.09931354f, -0.01557618f, 0.03483369f, 0.00642470f, -0.02355966f, 0.00053979f, 0.07815941f, 0.02956237f, 0.00142055f, -0.05785935f, -0.05119836f, 0.08226513f, 0.07926238f, -0.04865257f, -0.02937962f, 0.04994344f, -0.01306138f, -0.00626416f, -0.07970256f, 0.01845856f, 0.03257676f, -0.05101625f, -0.06134884f, -0.04330464f, 0.00290993f, 0.09228923f, 0.08588079f, 0.07672757f, 0.03855865f, 0.06312087f, 0.02812961f, -0.03807379f, -0.03573414f, -0.02073503f, 0.02193801f, -0.01627625f, -0.05665207f, 0.06112906f, 0.12200830f, 0.08521206f, -0.01380697f, -0.03112516f, 0.04686591f, 0.01002958f, 0.00913038f, -0.07231523f, 0.02545455f, 0.14643251f, 0.05652057f, 0.00475056f, 0.02430109f, 0.02692828f, 0.05656742f, 0.03543113f, -0.01703675f, 0.07043516f, 0.05157684f, 0.04510232f, -0.01874864f, -0.01222825f, 0.00142918f, -0.00403895f, -0.02748544f, -0.08275446f, 0.01729810f, 0.09153512f, 0.06537855f, -0.01272788f, 0.02363404f, 0.07132419f, 0.05001510f, 0.00893093f, -0.03260250f, 0.03395097f, 0.03806943f, 0.01397746f, -0.04122676f, 0.03775417f, 0.07408549f, 0.09535027f, 0.01351218f, -0.01451951f, 0.07365015f, 0.00816393f, 0.01421366f, -0.03270785f, 0.00804304f, 0.05475257f, 0.01379549f, -0.02777643f, -0.02391721f, 0.02537781f, 0.02845698f, 0.01662739f, 0.01309293f, 0.03276989f, 0.03922894f, 0.06411762f, 0.02174651f, 0.04716822f, 0.08498659f, -0.02146612f, -0.02467741f, -0.03770099f, -0.02171425f, -0.02867237f, 0.03563856f, 0.00745146f, -0.00296717f, 0.04180043f, 0.02665707f, 0.00072869f, -0.05407139f, -0.02004899f, 0.06040520f, 0.00585849f, -0.04430566f, -0.03011959f, 0.02197428f, 0.06700971f, 0.05174863f, 0.04152783f, 0.03875913f, 0.09131583f, 0.01016030f, -0.05601355f, -0.01308632f, -0.03119908f, -0.01115967f, -0.04141064f, -0.03054584f, -0.05173969f, -0.02439763f, 0.03618899f, -0.01760658f, -0.00695579f, 0.05712093f, 0.08645110f, -0.00049349f, 0.01570040f, -0.03382657f, -0.00468645f, -0.02610935f, -0.06313711f, 0.04013862f, 0.08988092f, 0.00688436f, 0.00555390f, 0.05256957f, 0.03554566f, 0.01799390f, -0.04281619f, -0.10078798f, -0.05668398f, -0.08773899f, 0.03209417f, 0.09655758f, 0.19898431f, 0.21123944f, 0.12267426f, 0.07437587f, -0.02030291f, -0.00099835f, -0.05730913f, 0.06731789f, -0.03151658f, 0.01668986f, -0.06321623f, -0.08769562f, -0.08957645f, -0.10125546f, 0.02188458f, 0.05037453f, 0.10436327f, 0.11977554f, 0.11702522f, 0.05236936f, -0.02500631f, -0.03329010f, -0.01193965f, 0.10330242f, 0.10833797f, -0.01973529f, 0.02648421f, 0.14499973f, 0.16562448f, 0.08248371f, 0.06007863f, 0.02825081f, 0.02080258f, -0.03321615f, -0.01884305f, -0.04675807f, -0.01054858f, 0.00035437f, 0.05572111f, 0.09693947f, 0.16047761f, 0.14651634f, 0.03586969f, 0.05595115f, 0.08778101f, 0.11683545f, 0.03505994f, -0.05977113f, -0.05557070f, -0.01657628f, 0.07674358f, 0.08558249f, 0.06492653f, 0.09535741f, 0.08783214f, -0.01317985f, -0.07084481f, -0.05700791f, -0.00318255f, 0.09102792f, 0.09153478f, 0.02673073f, -0.05481395f, -0.02647000f, -0.04528833f, 0.07221069f, 0.12372726f, 0.21385576f, 0.21045382f, 0.09714195f, 0.00158611f, -0.10163704f, -0.08546550f, -0.12650427f, -0.03774182f, 0.05594936f, 0.04888855f, 0.07613472f, -0.00727428f, 0.11133545f, 0.12091615f, 0.10668634f, -0.00688499f, -0.03999674f, -0.02203978f, 0.02372246f, 0.09949343f, 0.12058983f, 0.10044089f, 0.07472994f, 0.04229969f, -0.09927386f, -0.08341053f, -0.05187539f, -0.03460455f, 0.02468624f, -0.01351875f, 0.05415685f, -0.03646339f, -0.05665713f, -0.07172456f, 0.00559089f, 0.12474572f, 0.05314513f, 0.07777350f, 0.05729206f, 0.00651605f, 0.00147496f, -0.05173830f, -0.02837187f, 0.01801635f, 0.06025751f, -0.03332935f, -0.05817570f, 0.00171669f, 0.11669479f, 0.09319027f, 0.04410650f, -0.06332892f, -0.03612805f, 0.01862489f, -0.00479971f, 0.01648267f, 0.01661886f, -0.00652055f, 0.03206045f, -0.00166633f, 0.00351935f, 0.03392616f, -0.03136585f, -0.05174079f, -0.05694744f, -0.04078454f, 0.02057636f, 0.04386839f, -0.01721145f, -0.00127751f, 0.01146716f, 0.03752688f, -0.01082706f, -0.03865558f, 0.01687908f, 0.04497556f, 0.06304450f, -0.00802228f, 0.01222865f, 0.06269365f, 0.07543600f, 0.01451252f, -0.02773319f, 0.00770547f, -0.02035089f, 0.05132309f, 0.00768057f, 0.01739950f, 0.01920314f, -0.04705715f, -0.02952963f, -0.02301789f, -0.01972677f, 0.03790798f, 0.10638049f, 0.05274475f, 0.03339287f, 0.05468884f, 0.05953360f, 0.03529527f, -0.00566610f, -0.00193197f, 0.02080169f, 0.03330938f, 0.03146970f, 0.02806432f, 0.04571288f, 0.06684655f, 0.01392846f, 0.05651996f, 0.05157478f, -0.02034230f, -0.03184172f, -0.02566517f, 0.02054079f, 0.00271820f, 0.07564249f, 0.04900330f, 0.03456327f, 0.01808402f, -0.00768164f, -0.01957827f, 0.01002726f, -0.01600545f, 0.02407146f, 0.03217321f, 0.02429960f, 0.01147068f, -0.00068265f, -0.04739204f, -0.06293334f, -0.00466573f, 0.03376255f, -0.02323172f, -0.01606844f, -0.00233800f, -0.02383045f, -0.07171824f, -0.03371746f, -0.06930736f, -0.02120033f, -0.00564452f, 0.00648579f, 0.05691113f, 0.02032048f, 0.01376297f, 0.01527896f, 0.02937457f, -0.03026915f, 0.03678691f, 0.01502084f, 0.02778700f, -0.00216105f, -0.00672881f, 0.09813890f, 0.11664025f, -0.03598117f, -0.03919920f, 0.03333692f, 0.06911065f, -0.00688043f, -0.02071793f, -0.02377289f, -0.04720698f, -0.05506145f, -0.05784589f, -0.01982474f, 0.19229837f, 0.14490386f, 0.06520482f, 0.00722807f, -0.04044806f, -0.01218275f, 0.01450074f, 0.00786357f, -0.05580218f, 0.03716330f, -0.01067049f, -0.02164383f, -0.04249747f, -0.03817950f, 0.07526339f, 0.06114582f, 0.00936755f, 0.07015612f, 0.16418527f, 0.10725910f, 0.04114309f, 0.05620950f, 0.04617449f, 0.14084602f, 0.09147830f, -0.15771071f, -0.06042427f, 0.16151522f, 0.10523778f, 0.00531797f, -0.05037243f, -0.07769668f, -0.02211478f, -0.02494331f, -0.17197439f, -0.02706148f, 0.21049134f, 0.11817290f, 0.05168639f, 0.01312929f, 0.00348203f, 0.09255426f, -0.03757972f, -0.01759015f, 0.05579364f, 0.15164939f, 0.08654876f, 0.03279837f, 0.04657723f, 0.05176867f, 0.12494401f, 0.05789527f, -0.00769350f, 0.06708169f, 0.14613683f, 0.05533569f, 0.02900895f, 0.02769893f, 0.06250308f, 0.12885511f, 0.05457205f, -0.22648188f, -0.08813819f, 0.15187703f, 0.07217081f, 0.00864320f, -0.02537948f, 0.03179519f, 0.08958409f, -0.08815177f, -0.21482980f, -0.09767947f, 0.09730553f, 0.04551238f, -0.02909603f, -0.01899098f, 0.04397885f, 0.12533987f, -0.11528922f, 0.01626792f, 0.09298581f, 0.15470005f, 0.05876828f, 0.03025369f, 0.02406567f, 0.09159066f, 0.14290820f, 0.07733163f, 0.03509175f, 0.08572323f, 0.09809343f, -0.04853466f, -0.04876606f, -0.01324495f, 0.02158344f, 0.04659807f, -0.04593539f, -0.14855365f, -0.06681244f, 0.10753791f, 0.00430445f, 0.00543167f, 0.03683015f, 0.11223325f, 0.19203611f, -0.04828398f, -0.12460568f, -0.02321028f, -0.01069118f, -0.06706578f, -0.08118425f, 0.01435074f, 0.10150284f, 0.15125854f, -0.04335531f, 0.05591943f, 0.12895679f, 0.10751963f, -0.01115037f, -0.00639904f, 0.03796861f, 0.04563577f, 0.03168806f, -0.04094350f, -0.03233296f, 0.00251422f, 0.00781654f, 0.01453494f, 0.04847662f, -0.00206888f, -0.01961320f, -0.04264503f, -0.07896445f, -0.04848587f, 0.00095729f, 0.00781726f, -0.02754153f, -0.01550950f, 0.06608882f, 0.10730464f, 0.17183562f, -0.00395777f, -0.02980199f, -0.03718114f, -0.03534936f, -0.02207812f, -0.04397376f, 0.01307153f, 0.04660648f, 0.04328957f, -0.05123632f, -0.02936028f, 0.02774285f, 0.02728675f, 0.03094461f, 0.05920382f, -0.01177467f, 0.00007985f, -0.01867635f, -0.02865364f, 0.00905485f, 0.06984592f, 0.06237222f, 0.01856235f, 0.05151566f, 0.05507157f, 0.02320203f, 0.00503398f, -0.00716401f, -0.06717453f, -0.03422527f, -0.03159444f, -0.01323699f, -0.03603125f, -0.00625465f, 0.02510428f, 0.01468703f, -0.04095098f, -0.00132615f, 0.01738636f, 0.02669330f, 0.01174703f, 0.03541297f, 0.05055034f, -0.02210437f, 0.00594014f, -0.02269678f, 0.01794040f, 0.02531532f, 0.01089374f, 0.00819037f, 0.04527921f, 0.04577461f, 0.05879640f, 0.03373579f, 0.00465631f, -0.03007186f, 0.02261895f, 0.07900754f, 0.08226468f, 0.05706682f, 0.03574290f, 0.02236860f, 0.02761093f, -0.06090976f, -0.03742447f, -0.06859931f, -0.10875233f, -0.08727141f, -0.00573177f, 0.03532074f, -0.01200024f, -0.02489102f, -0.03744109f, -0.03513023f, -0.00270937f, 0.01899708f, -0.07929072f, -0.05578713f, -0.02135353f, -0.00143463f, -0.02746685f, -0.06162964f, -0.01606992f, 0.03563951f, 0.09693648f, 0.09914810f, 0.05543864f, 0.01784158f, -0.01487209f, -0.05595596f, -0.04161705f, -0.04584208f, 0.05449436f, 0.25720428f, 0.18581949f, 0.07237350f, 0.02873109f, -0.00418701f, -0.03896156f, -0.00002259f, -0.04759803f, 0.03607240f, 0.06647986f, -0.07359656f, -0.06001517f, -0.02488087f, -0.04892710f, -0.06079874f, -0.09020786f, -0.01446897f, 0.06473582f, 0.11179508f, -0.04447200f, -0.09735057f, -0.08456942f, -0.08752414f, -0.08049684f, -0.09699323f, -0.10170762f, 0.09066031f, 0.28813090f, 0.19149262f, 0.04045123f, 0.00344071f, -0.01626201f, -0.02446075f, 0.02997444f, -0.16664576f, 0.06793628f, 0.29466907f, 0.16633787f, 0.08297891f, 0.02668781f, 0.03968338f, 0.09838399f, -0.02375386f, -0.06167049f, 0.06187770f, 0.10665894f, -0.07074615f, -0.15108300f, -0.12209872f, -0.09964248f, -0.06083939f, -0.08724695f, -0.14809527f, 0.02670840f, 0.06786489f, -0.07532137f, -0.14048259f, -0.14194043f, -0.05644175f, -0.03556792f, -0.11785293f, -0.16561508f, 0.01303146f, 0.25190980f, 0.16607427f, 0.10212440f, 0.07258691f, 0.11881538f, 0.14698936f, -0.02194954f, -0.14766239f, -0.03540287f, 0.13218419f, 0.11459496f, 0.06474798f, 0.08329606f, 0.14282866f, 0.23203166f, -0.01933918f, -0.17695519f, -0.05708378f, 0.07890363f, -0.03520084f, -0.10047949f, -0.09379661f, -0.01753190f, -0.00736551f, -0.13917564f, -0.16276633f, -0.14309499f, -0.02264085f, -0.04272318f, -0.10737293f, -0.09596023f, -0.03205109f, 0.06607241f, -0.06580551f, -0.13408772f, -0.03707795f, 0.10888238f, 0.04981655f, 0.04145088f, 0.10589817f, 0.17632436f, 0.30186650f, 0.05300181f, -0.07577857f, 0.03357344f, -0.00855703f, -0.01782022f, -0.02364931f, 0.06123020f, 0.19072360f, 0.30150339f, 0.11497158f, -0.11513450f, -0.12004774f, -0.02058516f, -0.06202672f, -0.15326170f, -0.12190622f, -0.08285165f, 0.05466436f, 0.00411975f, -0.04842720f, -0.08846913f, -0.07024085f, -0.12197365f, -0.14197687f, -0.15544740f, -0.08942547f, 0.08059561f, 0.06185221f, -0.00357070f, 0.00935020f, -0.01268213f, 0.00604706f, 0.00438063f, 0.08335228f, 0.16662922f, 0.26147454f, 0.08567342f, -0.01462989f, -0.02675679f, -0.04487952f, -0.01125595f, -0.00082026f, 0.09895153f, 0.09634101f, 0.11232069f, 0.04650135f, 0.00978669f, -0.10449956f, -0.10612206f, -0.10178840f, -0.09028924f, -0.10444233f, -0.04782131f, 0.06605395f, 0.05079891f, -0.04136608f, -0.12024422f, -0.06553629f, -0.06387174f, -0.01542822f, -0.02809120f, -0.05606272f, 0.05322084f, 0.03802853f, -0.03566702f, -0.02602643f, 0.02583391f, 0.02149598f, 0.01655045f, 0.09548771f, 0.07383503f, 0.08394399f, 0.03691782f, 0.02635621f, 0.03274464f, 0.06520032f, 0.06742788f, 0.05627300f, 0.08519857f, 0.02268526f, 0.04382186f, 0.02094969f, -0.04192169f, -0.08813078f, -0.02116529f, -0.01502280f, -0.01573578f, -0.03310195f, -0.06213280f, 0.01001298f, 0.00331941f, -0.02432918f, -0.04177850f, -0.02861206f, -0.01887320f, 0.00490587f, -0.01381042f, -0.07572561f, -0.06735137f, -0.06777236f, 0.00481577f, -0.01705148f, -0.05219629f, -0.02523650f, 0.03550563f, 0.08146990f, 0.00634346f, 0.04427710f, 0.02578552f, 0.01004137f, 0.07954759f, 0.09942007f, -0.03670126f, -0.02632202f, 0.04395669f, 0.04453831f, 0.03788215f, 0.01178032f, -0.00196714f, 0.00880717f, -0.04547987f, -0.05442092f, 0.00847861f, 0.02613268f, -0.04835356f, -0.01902510f, -0.03534182f, 0.04253482f, 0.05209816f, 0.02013353f, -0.06836634f, -0.09053822f, -0.05599782f, -0.05277272f, -0.01570282f, -0.04282366f, -0.00199552f, 0.07966457f, 0.11143832f, -0.03872784f, -0.04041745f, 0.01695699f, -0.00828456f, -0.01491181f, -0.03023339f, 0.03206882f, 0.10783912f, 0.07560549f, -0.06715760f, -0.08781777f, -0.05308271f, -0.02861352f, -0.04981316f, -0.06071349f, -0.00447067f, 0.04494229f, 0.03902263f, -0.07430290f, -0.10054288f, -0.05089735f, -0.04190384f, -0.02934493f, -0.05657680f, 0.00213244f, 0.06091591f, 0.06691019f, -0.06003495f, -0.08785180f, -0.06851917f, -0.02918417f, -0.05528486f, -0.01737309f, 0.04833141f, 0.17019010f, 0.10912365f, -0.05220615f, -0.07144638f, -0.05983207f, -0.03118971f, 0.05023319f, 0.01579901f, -0.03445376f, 0.08863020f, 0.10065919f, -0.04590275f, -0.09552198f, -0.08932859f, 0.01664390f, 0.04563182f, -0.01934119f, -0.02256417f, 0.06193953f, 0.05506236f, -0.06764034f, -0.07147099f, -0.07358164f, 0.00191869f, 0.01576585f, 0.03145081f, -0.02148470f, -0.04100755f, 0.01614594f, -0.06026736f, -0.09487516f, -0.10211477f, -0.04405658f, 0.00919732f, -0.01958909f, -0.05324310f, 0.04096355f, 0.11193465f, 0.02298365f, -0.01698051f, -0.00744270f, 0.08695863f, 0.08115974f, -0.02664086f, -0.06129887f, -0.03432303f, 0.05945576f, 0.04748386f, -0.03653727f, -0.02257679f, 0.01959488f, 0.09233540f, 0.03268698f, -0.02155892f, -0.03477443f, 0.02225919f, -0.03967550f, -0.04604873f, -0.06148955f, -0.00571568f, 0.01521659f, -0.06332754f, -0.05844077f, -0.05740705f, 0.03827345f, -0.00856428f, -0.05458414f, -0.05326773f, -0.07513586f, -0.02266656f, -0.05320707f, -0.01542752f, -0.02200030f, 0.05958380f, 0.00657070f, -0.08537154f, -0.07873308f, -0.05110110f, 0.07180342f, 0.06932130f, 0.04684021f, 0.00923824f, 0.04928930f, -0.03045312f, -0.05543188f, -0.09124646f, -0.04823764f, 0.07952806f, 0.13350633f, -0.01574597f, -0.01381200f, 0.02675239f, -0.03330354f, -0.08177416f, -0.07740926f, -0.07305454f, -0.01064288f, -0.02793594f, 0.00499170f, 0.04449085f, 0.03889190f, 0.00967706f, -0.09644551f, -0.08626376f, -0.04241197f, 0.07190247f, 0.04827642f, 0.04746539f, -0.05041470f, -0.05315861f, -0.01862447f, -0.03207539f, -0.10673732f, -0.05182288f, 0.05427841f, 0.07662369f, 0.00279931f, -0.04714571f, -0.03616466f, -0.01607333f, 0.04076809f, -0.03192685f, -0.03711917f, 0.09441893f, 0.07786033f, 0.02903733f, -0.00102813f, -0.02421151f, -0.00122323f, -0.06385856f, -0.11199459f, -0.03062424f, 0.06449631f, 0.06218328f, -0.02012647f, -0.05541837f, -0.03605321f, -0.01785827f, -0.00627394f, -0.08857963f, -0.05301896f, 0.03486730f, 0.04894234f, -0.00313508f, -0.02826515f, 0.01697915f, 0.03070598f, 0.04996109f, -0.02323378f, -0.03929515f, 0.09871515f, 0.08200210f, 0.02964666f, -0.00001437f, 0.02043746f, -0.01699585f, 0.05762164f, 0.02793319f, -0.01708596f, 0.00140747f, -0.03163053f, 0.03605635f, -0.03943850f, -0.03598326f, -0.02278279f, -0.02578944f, -0.08290541f, -0.06281791f, 0.01476469f, 0.04247726f, 0.03603667f, -0.00435895f, -0.01051201f, -0.04422390f, 0.00516243f, -0.00815932f, -0.04758007f, -0.03027076f, 0.00660121f, -0.00879251f, 0.00342649f, -0.02555650f, -0.02728291f, 0.03718493f, 0.04994858f, -0.03902185f, 0.01141083f, -0.00779724f, 0.02477513f, 0.08813135f, 0.00664365f, -0.06182730f, -0.06079298f, -0.02653546f, -0.00932031f, 0.01413916f, -0.00807847f, -0.06776333f, -0.04647524f, -0.05580891f, -0.02159752f, 0.02224989f, 0.02766943f, -0.09498069f, -0.01946554f, -0.03536705f, 0.00461275f, 0.03577326f, 0.00866768f, -0.04728900f, -0.01500173f, -0.03839800f, -0.04469283f, 0.02011703f, 0.01059794f, -0.01533598f, 0.05952725f, 0.03249363f, -0.06354809f, -0.05868419f, -0.03004783f, 0.01417971f, 0.04541815f, 0.01290298f, 0.03539448f, 0.04569328f, 0.01656866f, -0.02676222f, -0.02603366f, -0.03048792f, 0.03489986f, 0.00335593f, 0.03156376f, -0.04626594f, 0.00455180f, 0.00371754f, -0.08150380f, -0.03582116f, -0.03946006f, -0.05677054f, 0.03168193f, -0.00478960f, -0.03127593f, -0.00120530f, 0.04826492f, 0.01979713f, -0.03666665f, -0.04430105f, -0.03812801f, 0.01670278f, 0.01624622f, 0.00037255f, 0.04997438f, 0.06258873f, -0.00798094f, -0.01170200f, -0.01513221f, 0.02325301f, 0.03611948f, 0.07451487f, 0.00129446f, -0.05074625f, 0.01398554f, -0.03734138f, -0.05875426f, -0.06874673f, -0.02787236f, 0.02506423f, 0.00542493f, -0.03154286f, 0.05007189f, 0.07025076f, 0.05028305f, -0.04241689f, -0.04208325f, -0.01709472f, 0.02284463f, 0.04857741f, -0.04191029f, -0.07628697f, -0.06025827f, -0.08509829f, -0.11843724f, -0.10401954f, -0.04321968f, 0.01729217f, -0.00705562f, 0.03249511f, -0.04623614f, 0.02059876f, -0.01073296f, -0.02199586f, -0.03649373f, 0.00870934f, 0.03281728f, -0.00613266f, -0.00482775f, -0.01327373f, 0.03347876f, 0.00876682f, -0.02717716f, -0.03317226f, -0.03888039f, -0.00444652f, -0.05792719f, -0.04848361f, -0.08186572f, -0.05710724f, -0.05325759f, -0.05443236f, -0.04315235f, 0.00583112f, 0.03093131f, -0.00095169f, -0.04767888f, -0.00044700f, 0.04571201f, -0.00756562f, -0.05306161f, -0.03885922f, -0.03157284f, -0.05579717f, -0.09361680f, -0.00604987f, 0.01038138f, 0.02408392f, -0.03499976f, -0.06920120f, -0.05245658f, -0.06159669f, -0.00639733f, -0.04494976f, 0.01714649f, 0.06577164f, 0.04029775f, 0.02914352f, -0.04031361f, -0.03297959f, -0.01042184f, 0.08809274f, 0.06226407f, -0.03737799f, -0.01251153f, 0.02972564f, -0.03752253f, -0.10264369f, -0.11252902f, -0.07441550f, -0.06689173f, -0.06169741f, -0.01782745f, 0.02202142f, 0.01898130f, -0.02315035f, -0.03309963f, -0.04561546f, 0.03627059f, 0.05875991f, 0.02599559f, 0.02207157f, 0.03670288f, 0.02104873f, 0.04381852f, -0.04543309f, -0.05621466f, -0.02086448f, 0.01914147f, 0.04451418f, -0.03567785f, -0.00029825f, 0.04746776f, 0.01977876f, -0.00272985f, -0.05994013f, -0.06115510f, 0.01205133f, 0.05410452f, -0.03555935f, -0.00761072f, 0.02923923f, -0.03868193f, -0.02810306f, -0.03602309f, 0.00127737f, 0.04362625f, 0.00334069f, -0.03611285f, -0.00503397f, 0.03765331f, -0.04846275f, -0.01477326f, -0.02250488f, -0.07513044f, -0.00890927f, -0.00051946f, 0.01185286f, -0.01003140f, 0.00298677f, 0.00163245f, -0.00534446f, -0.06148051f, -0.06638966f, 0.00724559f, 0.06457655f, 0.01190777f, 0.00221970f, -0.00982892f, -0.04726913f, 0.01850882f, 0.00983356f, -0.02174415f, -0.04325838f, -0.00323637f, -0.00297973f, 0.00026922f, 0.02180519f, -0.03215759f, -0.02360096f, -0.01666170f, -0.04004007f, -0.00636413f, 0.01468461f, -0.06664811f, -0.04601419f, -0.04381393f, -0.06803971f, 0.03647623f, 0.04302639f, 0.00258319f, -0.07612517f, -0.07030334f, -0.06136919f, -0.03886234f, -0.01314137f, 0.01911414f, 0.04587305f, 0.04237390f, -0.08297928f, 0.00480401f, -0.00773476f, 0.00358188f, 0.02050143f, -0.02162337f, -0.05169874f, -0.00012742f, -0.00325120f, -0.01689488f, 0.02573539f, 0.02927648f, -0.00320714f, -0.01379980f, -0.02564489f, -0.01289367f, 0.02739702f, -0.05092224f, -0.08866832f, -0.07263182f, -0.05214504f, -0.02187221f, -0.01310768f, 0.01423683f, -0.03745552f, 0.01048772f, -0.04050993f, -0.00185480f, 0.02265523f, 0.00108990f, -0.02095413f, -0.01058924f, 0.00072634f, -0.06956374f, 0.01025116f, -0.01112354f, -0.02183232f, 0.04244735f, 0.04092969f, -0.03262653f, 0.01647279f, 0.08716576f, 0.04960518f, -0.00455238f, -0.00038049f, -0.03015627f, 0.00512232f, -0.00056675f, -0.03204509f, -0.00564072f, 0.02522425f, -0.05660840f, -0.01158114f, -0.04804199f, -0.00819852f, -0.00297629f, -0.00806812f, 0.05592801f, 0.05979076f, 0.07904907f, -0.02175989f, -0.08518066f, -0.03032858f, -0.03763683f, -0.00563093f, -0.02037574f, 0.00395597f, 0.06018048f, 0.08731795f, 0.06175195f, -0.02031947f, 0.00846169f, -0.00962234f, 0.00007412f, 0.04090345f, -0.04239592f, -0.04031589f, -0.02838702f, -0.04793526f, -0.03345323f, -0.02623540f, -0.01384673f, 0.00834047f, -0.01068460f, 0.08623998f, 0.08325353f, 0.06697915f, -0.00198632f, -0.08352986f, -0.02299359f, -0.01876251f, 0.01105759f, -0.03071576f, -0.09322738f, -0.08357102f, 0.01186307f, -0.03439853f, 0.01506711f, 0.01209310f, -0.02589574f, -0.04080797f, -0.08989061f, -0.06955713f, -0.07186312f, -0.03530556f, -0.02545882f, 0.00298104f, 0.01948509f, 0.02233590f, 0.00734320f, -0.01631501f, -0.06030984f, 0.01999151f, 0.03133462f, 0.01194248f, 0.00238817f, 0.00367019f, -0.01110593f, -0.04010311f, -0.08855744f, -0.11287951f, -0.07606984f, 0.00701423f, -0.01586139f, 0.05860033f, 0.06460033f, 0.00245526f, -0.01338079f, -0.09916054f, -0.08942559f, -0.07006373f, -0.02209834f, 0.00036670f, 0.05428436f, 0.06660163f, -0.02464987f, 0.00972208f, -0.03677575f, -0.04596371f, 0.00331489f, 0.04358757f, -0.00440847f, -0.04789021f, -0.05485480f, -0.05136716f, -0.05573577f, -0.05129141f, 0.00614267f, 0.03108923f, 0.00722827f, -0.00624443f, 0.01202646f, -0.03621128f, 0.04064270f, 0.08582985f, 0.05077684f, -0.08119323f, -0.04244990f, -0.01771308f, -0.00767061f, -0.00080504f, -0.00122222f, -0.02469484f, 0.01100576f, -0.04964520f, 0.05462694f, -0.00081732f, 0.02800136f, -0.01678480f, -0.03812981f, -0.09251490f, -0.00744820f, 0.06048032f, 0.08374661f, -0.03105808f, -0.01073183f, 0.01484076f, -0.02825689f, 0.01173552f, -0.01015701f, 0.02002386f, 0.08561784f, 0.01066517f, -0.00452430f, 0.03382400f, 0.05235727f, -0.02479134f, -0.00435038f, 0.02177562f, -0.05824524f, 0.01442411f, -0.00146737f, 0.02915600f, 0.00338518f, 0.01033500f, -0.03272932f, -0.05369752f, -0.10024658f, -0.02735352f, 0.07513323f, 0.06756218f, -0.00037398f, 0.01311846f, -0.00656217f, -0.02072049f, -0.03956786f, -0.04679459f, -0.04416704f, 0.02432386f, -0.00728355f, 0.01550792f, 0.02207758f, 0.03588253f, -0.01192555f, 0.02045945f, 0.00646942f, -0.03749116f, -0.00810281f, 0.01784174f, -0.05162252f, -0.00971329f, -0.01499665f, -0.06411968f, 0.04262387f, 0.04485347f, 0.01865268f, -0.03711115f, -0.04692267f, -0.00181704f, -0.00969203f, -0.00463003f, -0.03206004f, -0.02260927f, -0.00811325f, -0.02168896f, -0.00602083f, -0.05044857f, -0.02608082f, -0.04497171f, -0.09727038f, -0.10511259f, -0.02828168f, 0.03361166f, 0.03225032f, -0.04440031f, -0.01533185f, 0.00432577f, 0.02931938f, -0.02123684f, 0.00234789f, 0.03711000f, -0.01063073f, -0.04319476f, -0.03705485f, -0.02658964f, -0.02791163f, 0.02292087f, 0.05749632f, 0.02936134f, 0.03727895f, 0.02361546f, 0.04034632f, 0.06746678f, 0.02385794f, -0.03652600f, -0.01531960f, -0.06846234f, -0.05694011f, -0.01310512f, -0.04914779f, -0.08237840f, 0.00379402f, 0.01166199f, -0.02109052f, -0.01989201f, 0.00313483f, 0.00300333f, 0.01603092f, -0.04192269f, -0.06493008f, 0.06726040f, 0.07024490f, -0.02453311f, 0.01601781f, 0.04215630f, -0.00992071f, 0.02743651f, 0.00580410f, -0.03359508f, 0.00195552f, -0.03107240f, 0.06064344f, 0.08675467f, 0.08101072f, 0.00006409f, -0.04968550f, 0.00868256f, -0.03509455f, -0.00716330f, 0.01222103f, -0.02585874f, -0.01512659f, 0.00743100f, -0.03923900f, -0.00893243f, -0.03246118f, -0.07806226f, 0.03402713f, 0.03811001f, 0.06046701f, 0.03197982f, 0.00393756f, -0.06164168f, -0.06959577f, -0.02060063f, -0.05425380f, 0.02996514f, 0.00057555f, 0.08946212f, 0.09163959f, 0.08223514f, 0.02396795f, -0.02167904f, 0.03298924f, -0.00752049f, 0.01790886f, 0.00358924f, -0.10116302f, -0.05283721f, 0.03364951f, -0.01151719f, 0.03555780f, 0.03919085f, 0.00855604f, -0.01132865f, -0.06284842f, 0.03083427f, 0.04116222f, 0.00620865f, -0.05565884f, -0.04309982f, 0.00799665f, -0.00972532f, 0.04647589f, 0.01421972f, -0.14254700f, -0.06809850f, -0.01342114f, -0.01846823f, 0.00094956f, -0.02538494f, -0.02288370f, -0.00968518f, -0.08939774f, -0.11194850f, -0.06804566f, 0.01500636f, 0.03939623f, 0.07877743f, 0.07780845f, 0.04115901f, 0.00149989f, -0.04851238f, -0.07570531f, -0.03715766f, -0.01060424f, 0.04110543f, 0.07883669f, 0.08885632f, 0.03627041f, 0.03193691f, -0.02427255f, -0.16375258f, -0.10383882f, -0.05315420f, 0.02519887f, 0.05872851f, 0.03155334f, 0.02909782f, -0.00335163f, -0.10952488f, -0.17335016f, -0.10320854f, -0.00946354f, 0.02185772f, 0.03504923f, 0.02986652f, -0.01408936f, -0.03738041f, -0.10540104f, -0.07522534f, -0.03073745f, 0.00668783f, 0.01421575f, 0.04214436f, 0.03003363f, -0.00130257f, 0.04624096f, -0.02592810f, 0.06033403f, 0.02750720f, 0.03263586f, -0.01480467f, 0.01666857f, -0.03406168f, 0.01892573f, 0.07570001f, 0.08116541f, -0.13782068f, -0.07701673f, -0.01172793f, -0.01386095f, -0.00336418f, -0.01623457f, -0.05388346f, -0.00263120f, -0.08493624f, 0.05915018f, 0.02787712f, 0.05254821f, -0.01148423f, 0.00467835f, -0.04067348f, -0.04761294f, 0.01448922f, 0.03189345f, 0.05448986f, 0.02865318f, 0.01723967f, -0.02865445f, 0.00211246f, -0.04670478f, 0.01180321f, 0.07872693f, 0.08040629f, -0.00074744f, -0.01732350f, -0.00099772f, -0.05122546f, 0.00727182f, 0.00782590f, 0.01169037f, 0.04457282f, 0.00779427f, 0.08393575f, 0.01590443f, 0.04129681f, -0.04256136f, -0.00795870f, -0.05204782f, -0.04663551f, 0.00663796f, 0.02190893f, -0.00920242f, 0.01357620f, 0.02679167f, -0.07714254f, -0.01963091f, -0.01883138f, -0.03164191f, -0.00464321f, -0.00044707f, -0.01593691f, 0.00428354f, 0.02567592f, 0.00118009f, 0.03874013f, 0.01791822f, 0.02206555f, 0.03644553f, -0.02363170f, -0.00390846f, -0.02462184f, -0.05416652f, -0.05684919f, 0.02107611f, 0.06020689f, 0.08128760f, -0.02183895f, 0.01640000f, 0.01337754f, 0.03287630f, 0.04575856f, -0.07249751f, -0.03259230f, 0.02352245f, 0.01377421f, -0.00866425f, -0.04493286f, -0.01458912f, 0.01984200f, -0.01850810f, -0.09596132f, -0.04988127f, 0.01619481f, -0.00765950f, -0.05417859f, -0.00045858f, -0.00792236f, -0.01583176f, -0.04776600f, 0.00724366f, -0.00038302f, -0.00810480f, -0.05523385f, 0.03914423f, 0.04116097f, 0.03013930f, 0.02650981f, 0.02887094f, 0.01772438f, 0.00904050f, 0.00894747f, -0.00946139f, 0.11051220f, 0.10533459f, -0.07541879f, 0.00890181f, -0.04237699f, -0.07150202f, -0.02751340f, -0.04069938f, -0.01584402f, -0.01374756f, -0.06052803f, 0.00573685f, -0.02709302f, -0.01814511f, -0.01212174f, 0.00059110f, -0.01294790f, 0.01463925f, 0.04549980f, 0.01123844f, -0.00572902f, -0.00714936f, 0.02673743f, -0.02206436f, 0.00750610f, 0.00412862f, -0.04894328f, 0.06414308f, 0.06025059f, 0.03860020f, 0.05881253f, 0.03646703f, -0.02971017f, -0.04332724f, 0.01660087f, 0.00549216f, 0.09403738f, 0.03578919f, -0.01985720f, -0.04386543f, -0.04758676f, -0.02018500f, -0.00510145f, -0.03158583f, 0.00564002f, 0.02887828f, -0.00561493f, 0.05575796f, -0.01765560f, -0.00601844f, -0.01759064f, 0.01687300f, 0.04699219f, 0.02088489f, 0.04341713f, 0.01167672f, 0.01403384f, 0.04209894f, 0.01352117f, -0.05537336f, -0.05323009f, 0.02853361f, 0.01343423f, 0.10317455f, 0.03733775f, -0.13813835f, -0.07226947f, -0.01557012f, -0.02693305f, 0.00722806f, 0.00674772f, 0.01279988f, 0.03137691f, -0.02834391f, 0.04627284f, 0.00045777f, -0.02169177f, -0.06132018f, 0.01164291f, 0.05345495f, 0.02741830f, 0.03956160f, 0.02062308f, -0.07080547f, -0.04990091f, -0.02425148f, -0.01660467f, -0.03683312f, -0.00709436f, -0.04336122f, -0.00615552f, 0.00606988f, -0.10366784f, -0.08402070f, -0.00629122f, 0.03346967f, 0.04345332f, 0.03469061f, 0.03940455f, 0.03215137f, -0.03970810f, -0.11889536f, -0.06168205f, 0.02571609f, 0.04480163f, 0.04094009f, 0.00613825f, -0.00902543f, -0.00394865f, -0.08929075f, -0.09050660f, -0.03448574f, -0.01131114f, 0.02556841f, -0.01427339f, -0.00955581f, -0.03200871f, 0.00114545f, -0.01023814f, -0.10086914f, -0.03389138f, -0.02910282f, -0.03173996f, -0.01210530f, -0.04528356f, 0.00097710f, -0.00061455f, -0.02157082f, -0.12283665f, -0.01840640f, 0.02847746f, 0.04001711f, 0.02328466f, -0.01248686f, -0.06718590f, 0.00433187f, -0.08360376f, 0.04469829f, 0.07091558f, 0.10304933f, 0.02767378f, 0.01810451f, -0.05025912f, -0.04128608f, 0.04143724f, 0.03354211f, -0.03961388f, -0.00939291f, -0.04000392f, -0.03892744f, -0.01638540f, -0.05608931f, -0.03698109f, -0.01188304f, -0.04088424f, 0.08607755f, 0.04505884f, 0.03265649f, 0.02720903f, 0.03474736f, -0.00760120f, -0.05937229f, -0.00029856f, 0.00449795f, 0.08214611f, 0.06453992f, 0.09566326f, 0.00287441f, 0.01664508f, -0.03773436f, -0.01106962f, 0.03281213f, 0.04173882f, 0.00830357f, 0.05228109f, 0.07230468f, -0.04394530f, -0.00734506f, -0.01487630f, -0.03814527f, -0.02109841f, -0.00271665f, 0.09424071f, 0.03362426f, 0.04965875f, 0.01085226f, 0.03423434f, -0.01829455f, -0.04434580f, -0.02710627f, -0.03106420f, 0.00060337f, -0.01643811f, 0.05797547f, -0.00046529f, -0.03238238f, -0.04294170f, -0.04760330f, -0.06294799f, -0.03832091f, 0.06031711f, 0.08567247f, 0.10776933f, -0.00940027f, 0.00050952f, 0.00456497f, 0.00980371f, 0.00011775f, -0.00759937f, 0.00346426f, 0.06612073f, 0.03311010f, -0.04630341f, -0.01925182f, 0.01701906f, 0.01752960f, -0.04273539f, -0.01502415f, 0.01110384f, -0.01074324f, 0.07172921f, 0.02327902f, -0.02410668f, -0.03721120f, -0.02765992f, -0.03242142f, -0.03425998f, -0.05966287f, -0.05297857f, -0.00069269f, 0.00533929f, -0.02602890f, -0.04273057f, -0.06891525f, -0.04522612f, -0.00112248f, -0.04474262f, 0.02446392f, -0.02851160f, -0.07164615f, -0.00363617f, -0.04499093f, -0.03616046f, -0.02711942f, -0.05668980f, 0.03338219f, 0.01166991f, 0.00160901f, 0.02178537f, 0.04372664f, 0.00240730f, -0.01241023f, 0.03906556f, -0.01429636f, -0.05267059f, -0.01083456f, -0.02049216f, 0.00637179f, 0.00354130f, -0.05103906f, -0.07632716f, -0.05440046f, -0.00048426f, 0.00144271f, -0.01049677f, 0.00519310f, 0.02674329f, 0.02206149f, 0.02079475f, -0.01701334f, -0.00467080f, 0.04811371f, -0.00447569f, -0.04114946f, -0.03489932f, -0.00463250f, 0.00137985f, -0.05610905f, -0.02646801f, 0.00972980f, -0.02428350f, 0.06716386f, -0.00264842f, -0.01119470f, -0.02187428f, 0.05025886f, 0.05294452f, -0.01013986f, 0.00919452f, 0.03185128f, -0.01574445f, -0.03545784f, -0.03088169f, -0.01383868f, 0.00568184f, 0.02001688f, -0.04132438f, -0.04237523f, 0.02144873f, 0.08976731f, 0.05709320f, -0.01540908f, -0.02553431f, -0.00286272f, -0.00929673f, -0.09069489f, -0.09117656f, 0.04344377f, 0.08733770f, 0.00096842f, -0.00262368f, -0.04296707f, 0.05526442f, 0.02473573f, -0.01356205f, 0.00944229f, 0.03382588f, -0.01384862f, -0.02570257f, -0.02877086f, -0.04397272f, -0.08286071f, -0.07282301f, -0.05717496f, -0.03489725f, -0.00523276f, 0.05799410f, 0.05605744f, -0.01559720f, -0.06489559f, -0.01145201f, -0.03874993f, -0.07710225f, -0.04469733f, 0.01000314f, 0.07048725f, 0.05200295f, 0.01457496f, -0.09073168f, -0.08195996f, -0.07701465f, -0.09565801f, -0.03494176f, 0.01292511f, -0.03628336f, 0.00300741f, -0.00562933f, 0.02616334f, -0.04881904f, -0.04109621f, -0.02397161f, -0.03433697f, 0.00568263f, -0.04025758f, -0.00803653f, -0.05199948f, -0.01771033f, -0.03721548f, -0.07497248f, 0.00871673f, 0.01350150f, -0.00402248f, 0.02359854f, 0.05601454f, 0.05126546f, -0.01483802f, -0.04309867f, -0.02667329f, -0.03537582f, 0.02301991f, 0.01517839f, 0.04153754f, 0.01971517f, 0.03319620f, -0.04315807f, -0.02101523f, -0.04130836f, -0.00939591f, 0.04550238f, 0.03405215f, 0.00843782f, -0.01724946f, -0.04297230f, -0.04402691f, -0.07349335f, -0.09984682f, -0.04917935f, -0.01232895f, -0.02344751f, 0.09341469f, 0.04286065f, 0.00702630f, 0.00601643f, 0.01847014f, 0.03792880f, -0.03575705f, -0.00277296f, -0.00942756f, 0.09377453f, 0.01411023f, -0.00573644f, -0.07982834f, -0.06798704f, -0.07520963f, -0.05696588f, 0.01503328f, 0.04909950f, 0.04096609f, 0.00890730f, -0.01496129f, -0.05930917f, -0.04670669f, -0.01050257f, -0.07576844f, -0.02327405f, 0.03449378f, 0.08304538f, 0.02364690f, 0.03121693f, 0.01154231f, 0.05359297f, 0.03020721f, -0.03372703f, -0.03218933f, -0.01937849f, -0.01149164f, -0.02936184f, 0.01868721f, -0.00983937f, -0.02879703f, 0.00136796f, -0.01660693f, -0.03313846f, -0.03233317f, 0.04975972f, 0.00897793f, -0.07158498f, -0.05801866f, -0.00937280f, -0.00079183f, -0.04788900f, -0.03573359f, 0.03224968f, -0.03857479f, 0.01049539f, -0.06010999f, -0.04362676f, 0.01516417f, 0.02939763f, -0.01884414f, -0.02770572f, -0.05722976f, 0.02860079f, -0.03842110f, 0.04364299f, 0.00718645f, 0.02756329f, 0.04377366f, 0.02333263f, 0.01301208f, 0.01229460f, -0.04848924f, -0.08278128f, -0.02133792f, 0.00259289f, -0.00927624f, 0.01562299f, -0.04387003f, -0.02227553f, 0.01531887f, -0.00823279f, 0.03438092f, -0.04335470f, -0.02008111f, 0.03225326f, 0.04925218f, 0.04024925f, 0.00176196f, -0.04982425f, -0.07633732f, -0.04479566f, -0.08080665f, -0.04737025f, -0.01782617f, 0.03308449f, 0.00525268f, -0.03288986f, -0.02824059f, -0.05599303f, -0.04797683f, -0.02362407f, -0.00155248f, 0.04388019f, -0.00604312f, -0.07313990f, -0.03037389f, 0.01770978f, -0.00546517f, 0.01823950f, 0.00790744f, 0.01050576f, 0.04252796f, 0.04364776f, -0.02753715f, -0.01405497f, 0.03621437f, -0.11316343f, -0.10426580f, -0.07229170f, -0.01973684f, 0.07494999f, 0.02346291f, -0.02134618f, -0.02775154f, 0.02538194f, -0.10140798f, -0.04808388f, -0.03580519f, -0.03845504f, 0.03068894f, 0.03751277f, -0.01815715f, -0.01798142f, -0.03314295f, -0.01625751f, -0.01329330f, -0.01328941f, -0.01367010f, 0.00910593f, 0.00789530f, -0.03730641f, -0.03872661f, -0.00381611f, 0.07748362f, 0.08592649f, 0.00748874f, -0.02784007f, -0.00422039f, -0.02688841f, -0.08897797f, -0.05840365f, 0.04216449f, -0.06532514f, -0.02989645f, -0.01771291f, -0.05951270f, -0.01184106f, -0.00583479f, -0.06750923f, -0.04139679f, -0.02400188f, 0.00785076f, 0.02459163f, 0.04252680f, -0.06556063f, -0.02406702f, -0.00900549f, -0.03133266f, -0.00044908f, 0.02338778f, 0.05899020f, 0.06045531f, -0.01738918f, -0.08693273f, -0.05210736f, -0.06457555f, -0.09248994f, -0.05184340f, 0.01779108f, 0.05522424f, 0.05602255f, 0.04225954f, -0.08596892f, -0.08781808f, -0.07139194f, -0.06410078f, -0.01349669f, 0.01207264f, 0.00674379f, 0.02573388f, 0.03413067f, -0.08276886f, -0.08048234f, -0.05226634f, -0.03988216f, 0.01366408f, 0.01758186f, 0.02167426f, 0.06933219f, 0.07173216f, -0.04730991f, -0.09639629f, -0.08259965f, -0.07583273f, -0.00929325f, 0.02311614f, -0.00747843f, 0.04782544f, 0.05567961f, -0.04626097f, -0.08704776f, -0.05605731f, -0.02373546f, 0.02604614f, -0.00501492f, 0.00952013f, -0.00747715f, 0.03645238f, -0.03121703f, -0.05537628f, -0.08150015f, -0.03244918f, 0.05681447f, 0.02055843f, 0.00320680f, 0.06613375f, 0.10437546f, 0.00151847f, -0.06480022f, -0.06555147f, -0.00702786f, 0.04084408f, 0.01137685f, 0.00746156f, 0.01242431f, 0.04592768f, -0.00253571f, -0.06860755f, -0.06135799f, 0.00374436f, 0.11761638f, 0.05213056f, 0.05063407f, -0.01275331f, -0.00936047f, -0.05192577f, -0.07797218f, -0.07923525f, -0.06302683f, 0.03852515f, 0.03512380f, 0.03851313f, 0.02955051f, -0.04416637f, -0.08923995f, -0.07594441f, -0.07098498f, -0.11817744f, -0.03920730f, 0.02509592f, 0.02421847f, 0.01151017f, -0.00303026f, -0.06058558f, -0.08742231f, -0.10090625f, -0.05453387f, 0.08184193f, 0.06716987f, 0.04271881f, 0.04821337f, 0.02442972f, -0.03390736f, -0.06315709f, -0.09551769f, -0.07142430f, 0.04928577f, 0.02822507f, 0.05422332f, 0.03284682f, -0.05561224f, -0.06538150f, -0.03495681f, -0.02680708f, -0.07300551f, -0.02446154f, 0.05608158f, -0.03306536f, -0.01566087f, -0.06245975f, -0.04880571f, 0.00306020f, 0.00691308f, -0.03601190f, -0.03422897f, -0.05490897f, 0.03856694f, 0.03138785f, 0.01301684f, -0.01007595f, -0.01186054f, -0.04305355f, -0.05236771f, 0.05159938f, 0.03819928f, -0.05608400f, -0.02568358f, -0.02899227f, -0.04487988f, 0.01319816f, 0.00636653f, -0.04224091f, 0.00716628f, -0.03287085f, 0.00218231f, 0.04069223f, -0.03120673f, -0.02161626f, 0.04664645f, 0.05602202f, 0.01132883f, -0.00033068f, -0.02897505f, -0.08068643f, 0.00172388f, -0.03522949f, -0.03440179f, 0.00935188f, 0.06675712f, -0.00630611f, -0.03330655f, -0.05007708f, -0.04550794f, -0.02313269f, 0.01323704f, 0.00081648f, 0.02433803f, 0.04169006f, -0.01419544f, -0.01450286f, -0.05428847f, -0.08699496f, 0.01249474f, 0.00031518f, -0.02495684f, -0.04092689f, 0.02344062f, -0.03932907f, -0.09072417f, -0.10084838f, -0.10407394f, -0.10388144f, -0.08662983f, -0.03924402f, 0.06818553f, 0.00883534f, -0.02800138f, -0.06789583f, 0.02412299f, -0.09801836f, -0.00491726f, -0.03156537f, -0.02626361f, 0.02821832f, 0.06396752f, 0.00601727f, -0.03312551f, -0.03117818f, -0.05390711f, -0.07872465f, -0.08630908f, -0.04009771f, -0.00052536f, -0.05220853f, -0.01892049f, -0.02086091f, 0.03200771f, -0.02916861f, -0.01977207f, -0.01533321f, -0.00272435f, 0.01317671f, 0.00035568f, 0.00661674f, -0.01160653f, -0.00492474f, -0.05470302f, 0.00312398f, -0.02878313f, -0.04400321f, 0.02774367f, 0.03473967f, -0.04492513f, -0.05384254f, -0.03964371f, -0.01130258f, 0.01994701f, 0.04550246f, -0.04114661f, 0.01656879f, 0.00848011f, -0.01297563f, 0.01169943f, 0.03406596f, -0.05793754f, -0.01761161f, -0.04080095f, -0.02936560f, 0.01968722f, -0.00647294f, -0.05839773f, -0.05816520f, -0.05184986f, -0.00388405f, 0.04287386f, 0.00596937f, -0.03056524f, 0.05164482f, 0.00236600f, -0.07065151f, -0.05274892f, 0.01949015f, -0.02223593f, 0.02235360f, 0.02147512f, -0.08185630f, -0.04902231f, -0.05226258f, -0.04805773f, -0.00106449f, 0.01164889f, 0.03054937f, 0.07933967f, 0.07045663f, -0.04168855f, -0.06314442f, -0.08580359f, -0.09763514f, -0.01143821f, 0.01444510f, -0.01497446f, 0.02948188f, -0.00900250f, -0.07940151f, -0.01777588f, -0.07495411f, -0.07940064f, -0.03746589f, 0.00793437f, 0.06364883f, 0.07886429f, 0.04228803f, -0.08343572f, -0.06597306f, -0.09348924f, -0.12706757f, -0.01242265f, -0.01054098f, 0.04030276f, 0.05715881f, 0.07497432f, -0.02254072f, -0.06198260f, -0.08158272f, -0.06053385f, -0.00771429f, -0.01352667f, 0.02943208f, 0.00227164f, 0.00673274f, -0.03869801f, -0.06157592f, -0.06468843f, -0.02147750f, 0.09657508f, 0.05297425f, 0.03631725f, 0.06713192f, 0.03557143f, -0.08482561f, -0.06391048f, -0.07521881f, -0.09061799f, 0.03034824f, 0.00265965f, 0.02050681f, 0.02331403f, 0.02615293f, -0.08442013f, -0.06862834f, -0.07357768f, -0.05649097f, 0.06269716f, 0.06254839f, 0.02896832f, 0.01586903f, -0.01512247f, -0.08156140f, -0.08022181f, -0.09326633f, -0.06682990f, 0.07812811f, 0.07188685f, 0.02610673f, 0.05257984f, 0.00163534f, -0.04681229f, -0.03830079f, -0.06504598f, -0.06987783f, 0.01913222f, 0.00455147f, 0.02542433f, -0.01470559f, -0.01063585f, -0.11282658f, -0.09514201f, -0.08785342f, -0.08354806f, 0.04455180f, 0.06871044f, -0.00238399f, 0.01475559f, -0.02969750f, -0.04724810f, -0.03334626f, -0.02363900f, -0.06360486f, -0.01776806f, -0.00164677f, 0.02242258f, 0.02716982f, 0.00805625f, -0.01701497f, 0.01700081f, -0.00663137f, -0.03134803f, 0.04732799f, -0.00024163f, -0.05768345f, -0.04755556f, -0.03229494f, -0.05568072f, 0.02775755f, 0.03346678f, -0.02127491f, -0.00157733f, -0.01867037f, -0.00009106f, -0.00110690f, -0.05263690f, -0.05067387f, 0.02857573f, 0.05083109f, -0.00875947f, 0.00625632f, 0.00392337f, -0.06696047f, -0.05708898f, -0.03642490f, -0.05732368f, -0.02471408f, 0.02524971f, -0.00925757f, -0.02639298f, -0.04578177f, -0.03627383f, -0.00264632f, 0.01260146f, -0.00361781f, 0.03046104f, 0.04529180f, 0.00643237f, -0.00584617f, -0.00168402f, -0.08165574f, 0.01882850f, -0.03832205f, -0.05694736f, -0.04224266f, 0.02465569f, -0.05376296f, -0.09025627f, -0.09668122f, 0.00562687f, 0.00650395f, 0.01543309f, 0.01113025f, -0.01743492f, 0.01521082f, 0.01429193f, 0.01680127f, -0.02838476f, -0.05436711f, 0.01431077f, -0.02673359f, -0.02049389f, -0.02680511f, 0.00468528f, -0.03338932f, -0.05643860f, -0.07886443f, -0.06916369f, -0.06495886f, -0.04095765f, -0.02499716f, -0.01909123f, -0.03313877f, 0.00543886f, -0.00798854f, 0.01616432f, 0.01121326f, 0.00419049f, 0.00733804f, 0.00034664f, -0.02977617f, -0.03136450f, -0.00532127f, 0.00671338f, -0.01744590f, -0.07253306f, -0.03982913f, 0.00341359f, -0.00653554f, 0.02667975f, -0.00968392f, 0.00347994f, -0.04293977f, -0.01437421f, -0.00925942f, 0.02129523f, 0.03867766f, -0.01553512f, -0.01012543f, -0.01384173f, -0.00028501f, 0.02091804f, 0.01996468f, -0.02159594f, -0.01098244f, -0.00865081f, -0.01304261f, -0.02943507f, -0.02993634f, -0.06957038f, -0.03765574f, -0.05595493f, 0.01538540f, 0.07811009f, 0.00413132f, -0.00862935f, 0.02235016f, -0.04417656f, -0.09497122f, -0.07090257f, -0.00175522f, -0.05247516f, -0.01584843f, 0.00390810f, -0.01337756f, -0.03203104f, -0.04986871f, -0.04093192f, 0.01820714f, -0.00867584f, 0.00796084f, 0.04861568f, 0.03504321f, 0.04489203f, 0.01955243f, -0.01447343f, -0.00324829f, 0.00340352f, 0.00114430f, -0.01117191f, 0.02769342f, -0.02300642f, -0.08153922f, -0.04303919f, -0.12145800f, -0.15553197f, -0.11331618f, -0.03351861f, 0.04219697f, 0.05129327f, -0.00206271f, -0.11762495f, -0.09858645f, -0.11162007f, -0.11987717f, -0.01065155f, 0.01188679f, 0.01560554f, 0.04336726f, 0.03097337f, 0.02656373f, 0.00402021f, -0.06044189f, -0.07684581f, -0.05188753f, -0.02487630f, 0.06040394f, 0.04797190f, 0.06064041f, 0.01976182f, -0.00263990f, -0.04093474f, -0.03392006f, 0.04754714f, 0.08760720f, -0.00116532f, 0.03464959f, -0.01920011f, -0.14272730f, -0.09638484f, -0.11477511f, -0.11651662f, -0.00113825f, -0.00772416f, -0.00393682f, 0.00223826f, -0.01408282f, -0.11729819f, -0.10339665f, -0.10754374f, -0.10133404f, 0.00747643f, 0.02518474f, -0.01830545f, 0.06444971f, 0.04692262f, 0.02032041f, 0.00507821f, -0.05782159f, -0.04906957f, 0.02363206f, 0.05292912f, -0.00426458f, 0.05373131f, 0.02192726f, -0.02527404f, -0.08084098f, -0.01382218f, 0.00406450f, 0.04935600f, 0.05566579f, 0.02448229f, 0.00410969f, -0.01632790f, -0.10662254f, -0.10929195f, -0.10645310f, -0.10262793f, 0.00542514f, 0.04904883f, -0.00782091f, -0.03963849f, -0.10385715f, -0.11938065f, -0.08578837f, -0.05691069f, -0.06502828f, -0.01937874f, 0.01673319f, 0.05203648f, 0.09342409f, 0.04201364f, -0.01998550f, -0.07991621f, -0.02752025f, -0.00988152f, 0.06317463f, 0.04418548f, 0.00863912f, 0.01218948f, -0.05826363f, -0.04946311f, -0.01828770f, 0.00236303f, 0.00834620f, 0.06280320f, 0.03471401f, 0.01260654f, -0.02721411f, -0.06642669f, -0.06958770f, -0.01360058f, 0.01595352f, 0.00612755f, 0.02046411f, 0.06398234f, -0.03678251f, -0.06814455f, -0.02906338f, -0.06346607f, -0.04608853f, -0.03670179f, -0.00639023f, 0.01751330f, -0.02030112f, 0.02233196f, 0.03845848f, -0.00440777f, 0.00630470f, 0.01326919f, -0.00076256f, 0.02556481f, 0.05426740f, 0.03310547f, -0.04430200f, -0.02354389f, 0.01040912f, -0.04388725f, -0.08988342f, -0.05254913f, -0.02380512f, 0.02805908f, -0.01163285f, 0.02450654f, -0.02505633f, 0.00852070f, 0.00539624f, -0.02102385f, -0.01807280f, -0.01010625f, 0.03411611f, -0.01511104f, -0.06244622f, 0.01617566f, -0.01147432f, 0.00581516f, -0.01096314f, -0.00560653f, -0.01390015f, -0.02001400f, -0.07252186f, -0.01071465f, -0.00078804f, 0.02119882f, -0.00818333f, -0.04627472f, 0.01216713f, -0.01884009f, 0.04037403f, 0.01576054f, -0.07082642f, -0.00289683f, -0.02375927f, 0.01038773f, -0.01634777f, 0.02653944f, -0.01492126f, -0.03502264f, -0.05936148f, -0.05672506f, -0.00015717f, 0.03462891f, 0.01303435f, 0.04729469f, 0.01152073f, -0.00212946f, -0.05324206f, -0.01430507f, -0.02928696f, 0.03688815f, 0.09194438f, 0.00736208f, 0.00464568f, 0.02286579f, 0.01084233f, 0.02506156f, 0.05918748f, -0.06432364f, -0.05016920f, 0.01180399f, -0.00028157f, -0.00348210f, -0.00126487f, -0.00337382f, -0.01467339f, 0.00543517f, -0.04874716f, -0.02854914f, 0.06196122f, 0.04215584f, 0.01918682f, 0.01065481f, 0.00964616f, -0.01337614f, 0.03606564f, -0.08404101f, -0.05175860f, 0.01523725f, -0.04276337f, -0.05500612f, -0.03954400f, -0.02385991f, 0.02683264f, 0.00343033f, 0.00018159f, 0.00561187f, 0.05274323f, 0.04579970f, 0.00556087f, 0.01314872f, 0.01325446f, 0.04022682f, -0.00453492f, -0.06556140f, -0.07484556f, 0.01006405f, -0.01759894f, -0.02519851f, -0.02726159f, -0.00929742f, -0.00898596f, -0.01080054f, -0.01990160f, 0.01877016f, 0.09296624f, 0.02009329f, 0.04508794f, 0.04115767f, 0.08724739f, 0.10160773f, 0.02147797f, 0.00301505f, 0.00748141f, 0.03085450f, 0.01064646f, -0.01773488f, -0.10056441f, -0.09480815f, -0.02147176f, -0.03792889f, 0.01859885f, 0.03011124f, 0.05840356f, 0.00471074f, -0.04302836f, -0.11026204f, -0.09974334f, 0.02149242f, 0.06417561f, -0.04391692f, -0.02403180f, 0.06601522f, -0.04016288f, -0.04817193f, -0.05859114f, -0.00884634f, 0.04436050f, -0.01263637f, 0.02499958f, 0.05426293f, 0.09674795f, 0.06050017f, 0.05980666f, 0.00801128f, -0.00291975f, 0.11232467f, 0.06858001f, -0.01307691f, 0.01135905f, 0.02982183f, -0.00025361f, -0.03085521f, -0.10488399f, -0.08875039f, -0.00369807f, 0.02251264f, -0.00664892f, 0.00260953f, -0.03504423f, -0.05939260f, -0.13149653f, -0.05164327f, -0.00316663f, 0.04851161f, -0.00066358f, -0.03843968f, -0.00659472f, 0.04720887f, 0.07793550f, 0.07134159f, 0.02571560f, 0.02263502f, 0.08836176f, 0.03666226f, -0.01170987f, 0.02704508f, 0.07484568f, 0.03969455f, 0.03274484f, 0.06010828f, 0.07342418f, 0.07934054f, 0.01790542f, 0.03484944f, 0.05650249f, -0.00539744f, -0.06894366f, -0.14411347f, -0.06326932f, -0.00193410f, 0.06406548f, 0.01714272f, -0.00296738f, -0.01975810f, -0.04228464f, -0.08478801f, -0.07382163f, -0.04286017f, -0.01678844f, 0.04098702f, -0.00492702f, 0.03049495f, 0.06261934f, 0.09794258f, -0.00043904f, -0.01511792f, 0.02313363f, 0.07860183f, 0.11286690f, 0.04734297f, -0.01454120f, -0.00949979f, 0.04632617f, -0.02010294f, -0.06309662f, -0.04641771f, 0.01068871f, 0.05443642f, -0.02297447f, 0.01074258f, 0.03141156f, 0.04071791f, 0.02419585f, 0.03517489f, -0.02725486f, 0.02457484f, 0.05498434f, 0.00455475f, -0.07321670f, -0.02227783f, 0.02628787f, -0.03005229f, -0.07011427f, -0.06456643f, -0.04712586f, 0.00292671f, -0.04578339f, 0.02017453f, 0.01197309f, 0.10933112f, 0.08094216f, 0.04136606f, 0.03436007f, 0.06119536f, 0.07617502f, 0.02677681f, -0.04572846f, -0.03847158f, 0.00028690f, -0.00727884f, -0.04640444f, -0.05698265f, -0.02479412f, -0.01378746f, -0.06038765f, -0.01519081f, 0.04944266f, 0.05236650f, 0.02839802f, 0.01413531f, 0.03726940f, 0.03114507f, 0.07373084f, 0.03442353f, -0.02753021f, -0.00836340f, -0.04098709f, -0.00232644f, 0.03398776f, 0.06743145f, 0.02519400f, 0.01304771f, -0.00901473f, -0.00834116f, 0.02792183f, -0.00100344f, 0.02070122f, -0.00329223f, 0.00222386f, 0.02289800f, 0.01970254f, -0.02802731f, -0.06874712f, -0.03083425f, -0.08380389f, -0.05026421f, -0.00747184f, -0.00204269f, -0.01875018f, -0.03507347f, -0.05681975f, -0.03163730f, -0.02655923f, 0.02359996f, 0.00076282f, -0.01820688f, 0.01198335f, 0.02962342f, 0.02313768f, 0.04176542f, -0.02364347f, -0.00423352f, 0.05140887f, 0.05129296f, 0.05176027f, 0.05563103f, 0.05663524f, -0.02347914f, 0.04881320f, -0.03443857f, 0.00086184f, 0.03278928f, -0.05087772f, -0.03213321f, -0.00203972f, -0.01232374f, 0.02125300f, 0.07190813f, -0.09139103f, -0.01822869f, 0.00343820f, 0.02446630f, 0.00902941f, 0.05337994f, -0.00033275f, 0.00282787f, 0.00948654f, -0.04937842f, -0.02377577f, 0.02837450f, 0.01218303f, 0.01126229f, 0.03286972f, 0.03247520f, 0.00042467f, 0.01997360f, -0.01214215f, 0.02726600f, 0.12587814f, 0.05613736f, 0.11327420f, 0.10003391f, 0.15652595f, 0.13279644f, 0.04673234f, -0.13780560f, -0.04311370f, -0.02438034f, 0.00460090f, 0.00082101f, 0.01273695f, -0.03247075f, -0.02407554f, -0.04585700f, -0.13097392f, -0.10328818f, -0.03581454f, 0.00022729f, 0.10346806f, 0.10423159f, 0.11444387f, 0.05068660f, -0.02366963f, -0.04481768f, -0.02142085f, 0.08235842f, -0.02630868f, 0.03476470f, 0.04171171f, 0.08904597f, 0.08520360f, 0.03872727f, 0.00595947f, 0.05609600f, 0.10604409f, 0.07242391f, 0.11123331f, 0.12453996f, 0.10327564f, 0.17038069f, 0.09639876f, -0.19180039f, -0.14298824f, -0.08167067f, -0.12089918f, 0.01629179f, 0.03857788f, 0.03299605f, 0.00334815f, -0.08065422f, -0.13339532f, -0.06733815f, -0.00407003f, -0.04009631f, 0.09774920f, 0.11554620f, -0.00813001f, 0.00888416f, -0.06760211f, -0.02671439f, 0.00602453f, 0.06495195f, 0.08385782f, 0.11316483f, 0.13243437f, 0.11103031f, 0.14330534f, 0.04293730f, -0.00523671f, 0.03450137f, 0.12439154f, 0.12243697f, 0.13263538f, 0.13160725f, 0.09197855f, 0.10517405f, 0.01490985f, -0.19863437f, -0.11972431f, -0.02827309f, -0.00579961f, 0.08403765f, 0.12368161f, -0.01411511f, -0.01633844f, -0.14066572f, -0.20698867f, -0.15196934f, -0.03525226f, -0.01749927f, 0.10506277f, 0.07532187f, -0.01341722f, -0.04663937f, -0.11563262f, 0.03274643f, 0.08372934f, 0.16478296f, 0.11015555f, 0.09598200f, 0.12002801f, 0.11208791f, 0.15277922f, 0.06319074f, -0.00125655f, 0.01366690f, 0.07615228f, 0.07778155f, 0.05554523f, 0.06307997f, 0.04870483f, 0.10225246f, -0.01693787f, -0.13143218f, -0.09758178f, -0.00931696f, -0.01031364f, 0.10242607f, 0.09766084f, -0.04007719f, -0.02030202f, -0.06991262f, -0.20005424f, -0.11063633f, -0.02222663f, 0.01109980f, 0.05510576f, 0.05572084f, -0.07853590f, -0.06020283f, -0.16640460f, 0.03965254f, 0.05234797f, 0.14386021f, 0.15129846f, 0.12528481f, 0.13522693f, 0.10716948f, 0.12223994f, 0.04298876f, -0.02565540f, -0.00233435f, 0.00816518f, 0.04326929f, 0.02763651f, 0.01339686f, 0.01595398f, 0.02066890f, -0.02110194f, -0.11918496f, -0.04175967f, 0.03046026f, 0.08633798f, 0.12172294f, 0.12608991f, 0.02206375f, -0.01817010f, -0.13206209f, -0.13222954f, -0.07845329f, -0.07006227f, -0.05834974f, -0.00108903f, -0.02878077f, -0.01019022f, -0.02164950f, -0.08455182f, 0.01605643f, 0.05665892f, 0.01183601f, 0.07631039f, 0.04379019f, 0.07138738f, 0.04586585f, 0.03806666f, 0.00048287f, -0.02685302f, -0.00128935f, -0.03813653f, 0.00248565f, 0.03099348f, 0.03111620f, 0.00090604f, 0.01098659f, -0.01300634f, -0.06488828f, -0.01963454f, -0.03208211f, -0.01866220f, 0.03852766f, 0.01757827f, 0.03314268f, 0.02164060f, -0.03168095f, -0.06238985f, 0.02986298f, -0.01026447f, -0.02504761f, -0.02861697f, -0.01327563f, -0.02778637f, 0.02341933f, -0.02696965f
};

static const float SVM_BIAS = -3.60214920f;

#endif