#ifndef WEIGHTS_H
#define WEIGHTS_H

#include "conv5.h"

const type_t W1[54] = {
-0.74330831,  0.26777455, -0.33915782,  0.06807705, -0.14988419,  0.25455815,  0.47547188,  0.48828462, -0.34457886, -0.34528309, 
     0.35356891, -0.23076485, -0.12085932, -0.56112313, -0.35655534, -0.89545733, -0.29265976,  0.70386595,  0.08008195, -0.46879494, 
     0.85224658, -0.46617255,  0.44187775,  0.36781490, -0.51459128,  0.06065446, -0.13165830, -0.00814246,  0.39531034, -0.16793382, 
    -0.66657144,  0.78777391, -0.57550436, -0.58297604, -0.34841111, -0.02423927, -0.69063932,  0.88352954, -0.56801510, -0.24310787, 
    -0.38011247,  0.48787636,  0.12598431,  0.12446303,  0.87019169,  0.65863442,  0.49493152, -0.09836873,  0.19399889, -0.65585470, 
    -0.15026841,  0.18747136, -0.11502611,  0.73695844
};

const type_t B1[6] = {
 0.00291751,  0.39817873, -0.00925885,  0.68743187,  0.24373141,  0.05591786
};

const type_t W2[216] = {
-0.29058087,  0.62868607,  0.07983179,  0.48201105, -0.12825522, -0.01382538, -0.38362634, -0.57887155, -0.42116666, -0.28471291, 
    -0.07520235,  0.10857110,  0.14618804,  0.33758447,  0.16593228,  0.38177994,  0.39257944,  0.54509807, -0.30234489,  0.41296130, 
     0.25272447,  0.08149191, -0.32339075, -0.24294783,  0.35500443, -0.29139087,  0.00082769, -0.05036063,  0.52857506, -0.46879727, 
    -0.16370200, -0.52430451, -0.41517916,  0.46266621, -0.49240646, -0.57008529, -0.50626165, -0.18801539, -0.51194829, -0.23328215, 
    -0.13414665,  0.22754611,  0.44413292, -0.12051997,  0.12232948, -0.05865714,  0.43393302,  0.02239349, -0.15013120, -0.28731629, 
    -0.64101237,  0.48882946,  0.25910884,  0.04497640,  0.29734752,  0.00038306,  0.46527314, -0.21127091,  0.18319914,  0.02373895, 
    -0.08728102,  0.50636411,  0.48185715, -0.08992098,  0.24831632,  0.65136439,  0.25944737,  0.09395260, -0.38636890,  0.57541621, 
    -0.35432202,  0.19733852,  0.45833760,  0.71341199,  0.45606583, -0.25338873, -0.05983857,  0.19398201,  0.19098340,  0.38679600, 
     0.43812749,  0.24493237, -0.09397112,  0.10682999, -0.34088826, -0.07537709, -0.52170420,  0.64006168,  0.02108689,  0.13787220, 
     0.03907177,  0.48155811, -0.12505347,  0.13374154, -0.18341975, -0.54616708,  0.06219727,  0.50455117,  0.34422868,  0.34797961, 
     0.42823821,  0.41230866, -0.16011034,  0.45227441,  0.21693929, -0.34189543, -0.41911587, -0.26852253,  0.55102843,  0.30296955, 
     0.62511945,  0.38992071,  0.01585954,  0.09577887, -0.23710063,  0.34689668,  0.30736190, -0.17245704,  0.36572787, -0.31675711, 
    -0.37549302, -0.11733808, -0.22803272,  0.09722917,  0.49672776,  0.05244710,  0.19537848,  0.07529273,  0.00220199,  0.08586550, 
    -0.22011380, -0.32735714, -0.34403226,  0.13388532, -0.53725767, -0.45731592,  0.54818130, -0.39979896, -0.09991822,  0.45038483, 
     0.45129862, -0.27049387,  0.18510209, -0.32921940,  0.26381549,  0.55527908,  0.49202999, -0.66926241, -0.21363296,  0.26853514, 
     0.15109435, -0.11595078, -0.18500149,  0.29484954,  0.56587261, -0.55881983, -0.47165951,  0.29799452,  0.06232416,  0.37580526, 
    -0.35034761,  0.28462821,  0.65688866, -0.04472707, -0.46112305, -0.66791904, -0.33855405, -0.04413602, -0.37865165,  0.00910919, 
     0.05377452,  0.28535762,  0.30082554,  0.31427076, -0.42639893, -0.12103384,  0.09267768, -0.29826680,  0.19686353, -0.47181717, 
     0.23494823, -0.35401273, -0.19128126,  0.12857319,  0.43467304, -0.01938341,  0.51894456, -0.37033755, -0.49735719, -0.07196118, 
     0.66474557, -0.20945713, -0.38772455,  0.51832122,  0.00237826,  0.13771088,  0.47652742,  0.32933727, -0.20493798,  0.54151869, 
    -0.19357616, -0.34842604,  0.36294550, -0.53751284, -0.46226543,  0.48157871, -0.29658666,  0.29505676, -0.59226590,  0.34834710, 
     0.20631753,  0.44289252,  0.51581168, -0.39939326,  0.11371544,  0.56510204
};

const type_t B2[12] = {
-0.28205279,  0.41487050,  0.17292780,  0.33996066, -0.06571332, -0.20368122, -0.17061408,  0.13914923,  0.30306721,  0.24055648, 
     0.00785779, -0.05249219
};

const type_t W3[576] = {
 0.07956413, -0.12350815, -0.41632399,  0.21677777,  0.35363120,  0.45836774,  0.33327860, -0.08894830,  0.19670244, -0.21575317, 
     0.44538152,  0.14279887, -0.25980020,  0.51080889,  0.10577619,  0.07893078, -0.25736487, -0.03203535, -0.05046679, -0.22379516, 
    -0.18934840,  0.27917907,  0.42837939, -0.09154873,  0.12977368,  0.28192136, -0.25611731, -0.04218698,  0.35962793,  0.03949605, 
    -0.06175936,  0.02468485, -0.05984958, -0.07899261, -0.33430949, -0.10491821, -0.11014313, -0.20393650,  0.00804994, -0.70631111, 
     0.09051587, -0.24440409,  0.21869661,  0.01114695, -0.19051021,  0.08982631,  0.34050912, -0.08604494,  0.42998895, -0.00014320, 
     0.17823192, -0.30314717, -0.30373251,  0.14632326,  0.16683984,  0.15852688,  0.01968077,  0.25437307, -0.26136461,  0.15470906, 
     0.06720447,  0.16165631,  0.47585335,  0.30837652, -0.41618374, -0.19754423, -0.15931417, -0.06372121, -0.18681028,  0.25940028, 
     0.18238515,  0.21833560, -0.68636298, -0.13687515, -0.29864869, -0.43047121,  0.32860181, -0.29033604,  0.43824127,  0.30286825, 
     0.17569046, -0.16737212,  0.32332590,  0.21586207,  0.33409965, -0.13060355, -0.03404637, -0.19236916,  0.28195000,  0.22236829, 
    -0.03357517, -0.14302234, -0.11241058, -0.00586732, -0.00035225, -0.05311505,  0.27880976, -0.30750522, -0.31367278, -0.34605789, 
    -0.09946439,  0.22689036,  0.42957172, -0.10342387, -0.38567293, -0.18543373, -0.00975114, -0.07899629,  0.04501599, -0.20495908, 
     0.37216699,  0.07319155,  0.07113165,  0.21861500, -0.40817413, -0.01765043, -0.31935546,  0.21230756,  0.20295417,  0.43564683, 
     0.10727002, -0.30943674, -0.10704757,  0.44850630,  0.15213235,  0.09651698, -0.00994103, -0.03719753,  0.61445111,  0.11628197, 
    -0.01779564, -0.30485854, -0.28741488, -0.02848508,  0.11682148,  0.28611341,  0.04207827, -0.01311817,  0.00769868, -0.20490089, 
     0.13716614, -0.13307032,  0.01373590, -0.19452749, -0.48798868,  0.25471106,  0.20738019, -0.32878485,  0.16356315, -0.41861668, 
     0.18010768,  0.32144532, -0.16677012, -0.16469938,  0.30259562, -0.45044234,  0.23807073, -0.22470254,  0.01127682,  0.37431803, 
     0.26708671,  0.34350318, -0.34460530,  0.47622269, -0.10586630,  0.30571809,  0.04829842, -0.55724877, -0.30387625,  0.38233000, 
    -0.11244871,  0.27770054,  0.06037136,  0.18132444,  0.34148741, -0.10571068,  0.16095063, -0.17334956, -0.25188309, -0.09394725, 
     0.24672903, -0.38972166,  0.40903956,  0.12929921,  0.15250060,  0.19021985, -0.41930577, -0.02869575, -0.51764041,  0.07763644, 
    -0.18388979,  0.26698968, -0.21570472, -0.06067213,  0.16601948,  0.20215888, -0.63074994, -0.30037886,  0.53384489, -0.28513524, 
    -0.42095223, -0.09023822,  0.38517687,  0.18763788, -0.20269533,  0.15803143,  0.21184477,  0.20122740,  0.37471616, -0.01448310, 
     0.26506093, -0.06216523, -0.03091037,  0.08975098, -0.02852983,  0.40765810, -0.08712674, -0.04470031, -0.24107659, -0.16470589, 
    -0.17772885, -0.22131824, -0.33176491,  0.10279916,  0.38850656,  0.35834417, -0.06958205,  0.39784637, -0.44206029, -0.12256127, 
    -0.39288318, -0.25077522, -0.03917038,  0.17084010, -0.06542728,  0.06103352, -0.25170028,  0.32118931, -0.11373693, -0.23286976, 
     0.24701530,  0.45813492,  0.09950081, -0.26667401,  0.24590227, -0.43112645,  0.27976367,  0.37436974,  0.16527835, -0.27272817, 
    -0.11718431,  0.19962311,  0.18500867,  0.01406010, -0.38447616,  0.10689722, -0.24314833, -0.10526354, -0.21368395,  0.00313219, 
     0.44549954,  0.15160219,  0.08490296, -0.13877669, -0.17860670, -0.53130651,  0.48807776,  0.13823357,  0.43670487, -0.28137258, 
     0.39374110,  0.25122821, -0.24508049, -0.10673975,  0.26996684, -0.00613478, -0.04482767,  0.23861329, -0.00451780, -0.29770446, 
    -0.07380403,  0.07163662, -0.35682431,  0.05756699,  0.00992863, -0.26356193, -0.36096385,  0.27116215,  0.29086262,  0.29148573, 
    -0.11480136,  0.14594962, -0.28424367,  0.34722230,  0.03987283,  0.06754743,  0.31476244,  0.16420515, -0.18747717,  0.34764311, 
     0.40232539,  0.37599161,  0.03392972,  0.39285031, -0.15313499, -0.11390065,  0.00617704,  0.38823247,  0.60421151, -0.28869030, 
    -0.14995734,  0.15660553,  0.28305444, -0.20453513, -0.18788339, -0.22905427, -0.04712936, -0.07850092, -0.29662594, -0.15659167, 
     0.44125697, -0.02494560,  0.43096736, -0.13307469, -0.03525373,  0.34985963,  0.32789418, -0.25016636,  0.42663109,  0.41284895, 
     0.04454940,  0.20319562,  0.30103496,  0.13677606,  0.14274047, -0.34214088,  0.44999084, -0.42001694,  0.46615171,  0.10594951, 
    -0.31531665,  0.09025353,  0.23461533,  0.44272077, -0.16453850,  0.48188919, -0.34302706, -0.42741859, -0.17715319, -0.33871189, 
    -0.14927769, -0.27033409,  0.01501210,  0.03494692,  0.04665609,  0.33071306, -0.02796374, -0.34989911, -0.31695971, -0.39373907, 
     0.39182538, -0.54520327, -0.15586700,  0.19978739,  0.16918123, -0.28462097, -0.08561444,  0.11192650, -0.05896587,  0.22267619, 
     0.01099417, -0.36999726,  0.36984739, -0.29956108, -0.19970728,  0.16911200, -0.17674558, -0.28972074, -0.13280563,  0.04282873, 
     0.11439820,  0.31027234,  0.35033596, -0.07157861, -0.53179574, -0.10504481, -0.07112230, -0.00372966,  0.13744266, -0.29745862, 
    -0.21181688, -0.14212133, -0.23486932,  0.39770171, -0.06319853,  0.28774911, -0.29820105,  0.36359158, -0.28184572, -0.45399612, 
     0.12094581,  0.26691836,  0.06428358,  0.01442144, -0.52391976,  0.08350435,  0.30336055, -0.30253065, -0.40963620, -0.09683539, 
     0.16414469,  0.13544481, -0.58975708,  0.02608912,  0.51909530, -0.39297694,  0.33513373, -0.45117110, -0.13666263, -0.08089375, 
    -0.36970630,  0.19058953,  0.35461122, -0.41959226,  0.04066393, -0.69726628, -0.23617245,  0.29202345,  0.25672513, -0.12753107, 
    -0.33509022, -0.13164185, -0.22153029,  0.21528959,  0.16508844, -0.54181367, -0.38129109,  0.05779091, -0.04643306, -0.07697558, 
    -0.13737710, -0.12825458, -0.40586090,  0.19252914,  0.31241986,  0.32822958,  0.16030127,  0.29782325,  0.47509181, -0.12900448, 
    -0.16718262, -0.11428253,  0.46348575, -0.43198392,  0.03253644,  0.18073680, -0.18498842,  0.02363749,  0.11028655,  0.03664648, 
     0.49926123,  0.10951776, -0.44952747, -0.55763537, -0.13483176,  0.18243240, -0.22825895,  0.23813170, -0.18657491,  0.14418696, 
     0.28204805,  0.44900396,  0.44066292,  0.28014991,  0.30835432,  0.21367149,  0.48447961, -0.12240813, -0.01714885,  0.24973598, 
     0.14593922,  0.29088020, -0.29196554,  0.20282529,  0.34634548, -0.02198755, -0.27510417,  0.32128242,  0.43300551,  0.52273417, 
     0.20903526,  0.16672459,  0.01170573,  0.41254976,  0.29890949,  0.01032052,  0.10840431, -0.10562657, -0.14418559,  0.34694132, 
    -0.36740085, -0.12995836,  0.31564921,  0.20660718, -0.05541229, -0.10837344,  0.13501123, -0.18581784,  0.42576888, -0.35860020, 
     0.30718586,  0.07454427, -0.36269924,  0.36095393, -0.31399062,  0.48151207, -0.12302247, -0.05758833,  0.22746815,  0.09112632, 
    -0.27338758,  0.10932960, -0.28027710,  0.17173511,  0.19837236, -0.26862454,  0.26986319, -0.06453542,  0.10564455,  0.35161939, 
    -0.19849682,  0.13550384,  0.02376360, -0.33980542, -0.00207372,  0.00377288,  0.09611426, -0.16076156,  0.08400257, -0.12495501, 
     0.25515902,  0.05756331, -0.34018415,  0.29091078,  0.04677560, -0.26539975, -0.00609892,  0.31733724, -0.07448643, -0.12128773, 
    -0.12273525,  0.10421292,  0.32529840,  0.12385970, -0.18425095,  0.07900256,  0.38083816,  0.29845083,  0.23941188, -0.12940937, 
     0.17415425, -0.24759379,  0.33021134,  0.49476942, -0.12010309, -0.08150996, -0.07960906, -0.29289040,  0.19335155, -0.30729848, 
     0.19028658, -0.15866390,  0.01764121,  0.27858281,  0.46231288,  0.40504530
};

const type_t B3[16] = {
 0.21429349,  0.31397057,  0.14472629, -0.04769589, -0.15155865,  0.16938302,  0.14441873, -0.04783029, -0.14947920, -0.07445337, 
     0.11042069, -0.06151693,  0.09197482, -0.05711859,  0.22699571, -0.20192589
};

const type_t W4[1152] = {
 0.38192266, -0.00161592,  0.24193317, -0.00434802,  0.30472606, -0.23960085,  0.31848177,  0.30468568,  0.23051769, -0.29961145, 
    -0.10284813,  0.02869596,  0.37605336,  0.06753798, -0.44693631,  0.01524742, -0.04629581,  0.53460878,  0.18607192,  0.30068389, 
    -0.08958197, -0.12645246, -0.24878678, -0.24851966, -0.27460203,  0.16777250, -0.06870979,  0.20074283, -0.17359571, -0.12383903, 
    -0.09076206,  0.10504486,  0.37254849,  0.05781543,  0.23979194,  0.29925576,  0.31464118,  0.03025542, -0.16144980,  0.03009008, 
     0.23450358, -0.16571309, -0.22992210,  0.21951254,  0.10782053, -0.30022857,  0.05441135, -0.17759973, -0.21842040, -0.16382489, 
    -0.05970014, -0.04716102,  0.03668804, -0.10906623,  0.18070674,  0.19567209, -0.19993970, -0.40678012, -0.07720415,  0.10782588, 
     0.05949455,  0.47518253,  0.40221766,  0.05470130,  0.22554541,  0.03698187,  0.12330372,  0.44609481, -0.00989244, -0.14428060, 
     0.00182124, -0.22019880, -0.06639722,  0.18750368, -0.18587826, -0.16723597,  0.18868370,  0.27182668,  0.00266258,  0.32412642, 
    -0.51361287,  0.35691741, -0.19415545, -0.11724848,  0.28598353, -0.07846404, -0.68588215, -0.29238355, -0.30807418, -0.09361705, 
     0.14798065,  0.00635891, -0.17959611,  0.20251022,  0.48662007, -0.06928243, -0.04283723, -0.30883816, -0.00872729,  0.17601386, 
     0.16942105,  0.17928497, -0.35599202,  0.34533566, -0.08304752, -0.26114765, -0.28013587, -0.22869165,  0.29539853,  0.08624946, 
     0.22523032,  0.39772764, -0.11340580, -0.01200217, -0.07138309, -0.23217976, -0.10879312, -0.22448069, -0.30465865, -0.03694841, 
     0.21131638,  0.24674346,  0.20605393,  0.14234564,  0.11106484,  0.02731172, -0.09310122,  0.13178997, -0.36925483, -0.09775139, 
    -0.27712834, -0.26012525,  0.18291710, -0.05999161, -0.27768981,  0.13175690,  0.08178683,  0.14443526,  0.20007312, -0.01092756, 
    -0.44944599,  0.23459822, -0.07212927, -0.06960075,  0.63909638, -0.00092479, -0.01486663, -0.11846080,  0.32588124,  0.10913134, 
     0.15197684,  0.17866141, -0.13362789,  0.08589042, -0.32489559,  0.29935580, -0.38840693, -0.05836009,  0.00399483, -0.21669528, 
    -0.09244426, -0.25410369,  0.06891347,  0.36072382, -0.09717120,  0.19269834,  0.02752421, -0.42734373, -0.01146923, -0.09417605, 
    -0.00942339,  0.26650032, -0.11527999,  0.14651182, -0.09588968,  0.44005913, -0.07333872,  0.12237790, -0.85804266, -0.02610076, 
    -0.34100741,  0.16418383,  0.10808858,  0.20077826, -0.21934249, -0.38108888,  0.13245162, -0.09029728, -0.31206250, -0.19077232, 
    -0.19456223, -0.25996318, -0.12478082,  0.30362129, -0.48649970,  0.21135752,  0.28454775,  0.32104483,  0.08484822, -0.06517288, 
    -0.28810170, -0.15986869,  0.27533740, -0.32380340, -0.16161270, -0.04671063, -0.45960996,  0.23606928, -0.21191160, -0.15822148, 
     0.25737423, -0.09517621, -0.28044978,  0.01796855, -0.65364587, -0.21848181,  0.06436723,  0.17422216,  0.02368319, -0.51274174, 
    -0.36930919,  0.30119914,  0.10089166,  0.40886346,  0.31261370, -0.07714559, -0.39379492,  0.23887871, -0.15217687, -0.04427601, 
     0.47157151, -0.23575811, -0.14518668,  0.24387571, -0.15483136, -0.09441265,  0.13758142, -0.08696438,  0.18217359,  0.27490312, 
     0.22785304, -0.00063619, -0.16525991,  0.17463879, -0.11143276, -0.21829714, -0.23706208,  0.37266263, -0.40014839,  0.19529849, 
    -0.30467770, -0.19837280,  0.17350502, -0.17002894,  0.03368704, -0.02710505,  0.06231124,  0.12122659, -0.08092566,  0.25713170, 
     0.08312009, -0.28313163,  0.36443722,  0.15682475,  0.40633956, -0.25886178, -0.32601300,  0.29394820,  0.10224387,  0.16101916, 
     0.11950884, -0.19715005,  0.07753790,  0.24803987,  0.17934218,  0.09005298, -0.04292538,  0.28816402,  0.30926397, -0.12462058, 
     0.03990771, -0.01968484, -0.02813377, -0.27932817,  0.20679517,  0.34130555,  0.22455060,  0.05553935, -0.18199424,  0.31385186, 
    -0.07646170,  0.28004634,  0.24971306, -0.19414224,  0.09884360,  0.42792398, -0.20172602, -0.05287205,  0.00278691,  0.06066753, 
    -0.18513167, -0.28334910,  0.00700203,  0.11991142,  0.23707968, -0.11574794, -0.36884180,  0.29161331, -0.18375714, -0.02661262, 
    -0.23222251,  0.27208874,  0.27738222, -0.04348348,  0.25672051,  0.06592210, -0.18284647,  0.01643373, -0.31248698,  0.08319406, 
    -0.17796800, -0.30126342,  0.05431012, -0.28183141, -0.12999989, -0.28443223, -0.32247648, -0.00692905,  0.10347331,  0.14108080, 
    -0.35290399,  0.32894239,  0.14671774,  0.14531825,  0.06174027, -0.02256845, -0.17681213,  0.01261114, -0.04683331, -0.09236108, 
    -0.35286674, -0.03547199, -0.42449081,  0.16536081, -0.40717360,  0.40763336,  0.06476083, -0.18337487, -0.15228580,  0.11618405, 
     0.39733490,  0.33778951,  0.03961028, -0.04333694, -0.29014170, -0.27818206,  0.00765726, -0.24504216, -0.03606278, -0.46766394, 
     0.28262335,  0.14149712, -0.28460285,  0.06880136,  0.06654260,  0.21815827,  0.07778099,  0.09940614, -0.19880702,  0.17742316, 
     0.22584915, -0.34480402,  0.31694621,  0.34801009,  0.14997323,  0.02133820,  0.33986333,  0.09203398,  0.18270132,  0.07877234, 
    -0.15599811,  0.23612937, -0.15179147,  0.31614736, -0.30275083, -0.17440511,  0.41305727,  0.28268570,  0.28434920, -0.06009123, 
     0.37233680,  0.13093311, -0.28005120,  0.37022939, -0.04207225, -0.07815535, -0.09317189,  0.10825881, -0.42528754,  0.20710714, 
     0.13166523,  0.32518810,  0.20386928, -0.32304689,  0.18432763,  0.22445624,  0.17625083,  0.23159260,  0.02972635, -0.03324926, 
    -0.18522704,  0.05149715, -0.32047477, -0.03846199,  0.27059940,  0.28848878, -0.18961567,  0.01080103, -0.03184836,  0.19102347, 
     0.62704569, -0.27343610, -0.15660574, -0.36437473, -0.28310770,  0.30169299,  0.03709361,  0.16177121,  0.20167829,  0.02142095, 
    -0.19148198, -0.11562716, -0.08191233, -0.41203561, -0.06284568, -0.31757295,  0.35468879, -0.26495963,  0.24406093, -0.18981387, 
     0.00283180, -0.34260616,  0.36574683,  0.18845762,  0.13672158, -0.30220866, -0.02213985,  0.09090377,  0.35173923,  0.07314617, 
    -0.10201567,  0.17179374,  0.25538948,  0.40887710,  0.10212211,  0.33545050,  0.11607587, -0.25743714, -0.02266679,  0.02639868, 
     0.24305397, -0.01801637,  0.13421103, -0.21377771,  0.15786861,  0.14178419, -0.20705661,  0.30836242, -0.15631455, -0.20217837, 
    -0.32884791, -0.31527969, -0.27093849,  0.27215955,  0.24911095,  0.19737552, -0.22056586, -0.19027320, -0.21950333,  0.36368668, 
     0.23811282, -0.04931445,  0.02500646,  0.18634377, -0.17935765, -0.15230799,  0.29467779, -0.17871387, -0.11901588, -0.23747650, 
     0.18716219, -0.12451051,  0.22696202,  0.24346063, -0.21774772,  0.33536670, -0.06302758, -0.05895834, -0.04852209,  0.21086565, 
     0.09754392, -0.03578163,  0.20915471,  0.07811237, -0.12728235,  0.19696917, -0.02182025, -0.02714147,  0.33918202,  0.12082900, 
    -0.26999873,  0.29351702, -0.29814154, -0.69275528,  0.01586128, -0.31060982, -0.60272443, -0.13883862, -0.23284312,  0.18544951, 
     0.04885289, -0.21878800, -0.48719549, -0.11386859,  0.24591345,  0.01053383,  0.37242067, -0.30900791,  0.32306263, -0.25874469, 
     0.13877325,  0.11292923,  0.13192789,  0.13475281, -0.10625829,  0.40228280, -0.14753143,  0.03146437, -0.16867337, -0.19432178, 
    -0.14601105,  0.11840575, -0.13637483, -0.30675146,  0.23074703, -0.01230514,  0.14312299, -0.12673756,  0.34134966, -0.17417546, 
    -0.31828603, -0.07991273, -0.24093841, -0.23438787,  0.23719345, -0.21579000, -0.18852079,  0.22112989, -0.25037760, -0.26066536, 
     0.50662315,  0.17092521,  0.48433387,  0.00802123, -0.07586475, -0.34553897, -0.20227490,  0.20198086, -0.30622250,  0.42091540, 
    -0.19761744, -0.11530026,  0.34116945, -0.27459401,  0.16128424,  0.22653663,  0.43939683, -0.07239417,  0.46087646,  0.23586528, 
    -0.11375152,  0.32235697, -0.20027684, -0.00742957, -0.34769481,  0.42493552,  0.08844421,  0.05825452,  0.11039956,  0.08018830, 
     0.10577014, -0.07312957, -0.06333702,  0.19901407, -0.15957193, -0.34691647, -0.33393529,  0.28946722,  0.30915076, -0.26372969, 
     0.27043855,  0.32072610,  0.04012960,  0.16376272, -0.25627178, -0.30899367,  0.00920705, -0.26223314, -0.00256031, -0.21676813, 
     0.43100420,  0.20505254, -0.01762948, -0.20749433, -0.24398620, -0.02901031, -0.26219356,  0.26425028,  0.31620038,  0.09412891, 
    -0.06032632,  0.18203919, -0.11115245,  0.34984502,  0.09953115,  0.16621020,  0.20793581, -0.09068517, -0.10532016,  0.23590456, 
     0.03437449, -0.14282511,  0.25213200, -0.18249837,  0.16984227,  0.40542462, -0.34943661, -0.12457564, -0.49828747,  0.42302486, 
    -0.05279470,  0.31664199,  0.16569349,  0.25091609, -0.28407523,  0.39139745, -0.24723551, -0.34928623,  0.09552313, -0.24460791, 
     0.30137026, -0.46105164,  0.26885673, -0.31865591, -0.16581656, -0.13338317,  0.16758649, -0.43517402,  0.25420690,  0.32303804, 
     0.09900447,  0.08227462, -0.45788935,  0.00345514,  0.35421786,  0.28045973,  0.00076686, -0.02910766, -0.31620479,  0.05188127, 
    -0.26758501,  0.16644570, -0.11409570,  0.16476442,  0.16141343,  0.08082781,  0.19697168,  0.43020540,  0.20395383,  0.01833017, 
    -0.57431227,  0.14567448, -0.03568324,  0.25649488,  0.10310937,  0.02689541, -0.26580742, -0.09236187,  0.16528565, -0.13100080, 
     0.00750254, -0.11717323,  0.26627013, -0.14233409,  0.33549801,  0.26303914,  0.01844022, -0.17159100, -0.18212496,  0.03568564, 
     0.24440937, -0.13709605,  0.09954921, -0.11161761, -0.16838162, -0.69466043,  0.36397296,  0.47802922,  0.08843587, -0.01538205, 
     0.21463323, -0.28191435, -0.08033406,  0.15465668,  0.38715538, -0.35478526, -0.11361074, -0.30025288,  0.09311759,  0.26726118, 
     0.17804903, -0.06019561, -0.31191647, -0.02999989,  0.09936912, -0.41220996, -0.03902460, -0.37109095, -0.13118079,  0.25019559, 
     0.25304067,  0.06528596, -0.21033126, -0.26473558,  0.25140125,  0.10262235,  0.11987602,  0.18390109, -0.13927591, -0.12795928, 
    -0.16458534,  0.10965969, -0.08845770,  0.17281844, -0.03480285, -0.29810819, -0.40776417,  0.00407750,  0.18468180,  0.15086925, 
     0.22682939,  0.31000751,  0.22474192,  0.12887502, -0.27958807, -0.28878650,  0.56829745,  0.12963839,  0.03728219, -0.01027378, 
    -0.00109383, -0.18520926,  0.21429849,  0.20920019, -0.04830982,  0.27415445,  0.35638708,  0.12562431, -0.07371306, -0.30800700, 
     0.50668418,  0.30474141,  0.16765043, -0.27518019,  0.34157377, -0.18350770, -0.17175330,  0.18566427,  0.22820808,  0.01656184, 
    -0.04908801, -0.10690456,  0.05053170, -0.34886503, -0.27817881,  0.18315752,  0.16956702,  0.41793880,  0.02750647, -0.11922967, 
    -0.09939847, -0.31176078,  0.09565924, -0.18904963, -0.00039172, -0.26570514, -0.42098087, -0.03165151,  0.33365956, -0.15733019, 
     0.14754474,  0.26817572, -0.07409385, -0.04735204, -0.64471501, -0.31834194,  0.20319551, -0.17111140,  0.25186804,  0.00914677, 
     0.22420818, -0.14020935,  0.17194051, -0.12047666, -0.00145458,  0.20637116, -0.16239308, -0.08838163,  0.39393809,  0.13218616, 
     0.01673585, -0.16494289,  0.22553515, -0.17453076,  0.13055526, -0.17631511, -0.12589300,  0.06753023,  0.29409453,  0.01641918, 
    -0.42781657, -0.09392363, -0.25389004, -0.06309587, -0.18884873, -0.17729494,  0.15460004,  0.35310265, -0.00362129,  0.13897893, 
    -0.25696594, -0.14546783,  0.18621753,  0.20929983,  0.04272426, -0.15994309,  0.53766376,  0.15087059, -0.07872250,  0.08571527, 
    -0.17887796,  0.32849899, -0.55263025, -0.27317515, -0.07539013,  0.20341352,  0.03049301,  0.02193483, -0.04544492, -0.14753121, 
     0.22357157,  0.02790567,  0.31494722,  0.34763575,  0.34874389,  0.22356489, -0.15690450, -0.05222728, -0.04812974,  0.04243581, 
     0.30129695,  0.02197813,  0.14204033,  0.06147799,  0.19523841,  0.01594986,  0.26449874,  0.01550389, -0.19070590, -0.12600964, 
    -0.12931301,  0.04133673, -0.17945851, -0.06407245,  0.17971510, -0.12539697, -0.28843006, -0.14501084,  0.19603077, -0.03524842, 
     0.07995781, -0.01322754,  0.20016326, -0.02306008,  0.23937912,  0.26645401, -0.23092365,  0.08154655, -0.17421119,  0.14640278, 
    -0.01979030, -0.12844431, -0.11568522, -0.12202891,  0.06097762,  0.26815182,  0.19147213, -0.09772813, -0.01736168,  0.25281098, 
     0.19807765,  0.14316358, -0.08685771, -0.36408895, -0.11942708, -0.13739583, -0.10999648, -0.17710353,  0.06997212, -0.32493129, 
     0.23916709, -0.29610133,  0.34851831,  0.13455835, -0.06737965, -0.02783527, -0.01004515,  0.10476609, -0.06888637, -0.06874545, 
    -0.23754428,  0.15983184,  0.04015588,  0.11971149, -0.33420920, -0.17033616,  0.00931473,  0.22400700,  0.14670055,  0.03538391, 
     0.23261511, -0.03485082, -0.02332149, -0.29906905,  0.10552103,  0.18675102,  0.17524979,  0.02423188, -0.41353521,  0.04155299, 
     0.04267387,  0.24214397, -0.21810208,  0.37191179, -0.00972982,  0.05203579, -0.08758750,  0.23970591, -0.08883229,  0.28256649, 
    -0.01795710, -0.00608329, -0.16333950,  0.33871198,  0.22133273,  0.11022645, -0.23928592, -0.07396436, -0.04941848,  0.13171905, 
    -0.01616438,  0.48591778, -0.31315154,  0.26796708, -0.34790704, -0.04780386, -0.06968586,  0.15926096, -0.23352350,  0.13659608, 
     0.05916118,  0.07691167, -0.20945852,  0.21457231, -0.06853002,  0.32220265, -0.19114459,  0.16693954,  0.12868100,  0.10104740, 
     0.11503663, -0.38008875,  0.23191819,  0.40694737,  0.35126847,  0.02698471,  0.10557688, -0.21101312,  0.05489865,  0.05942798, 
     0.16771407, -0.03694206, -0.07920331,  0.22921385, -0.10827078,  0.10112461, -0.12931266,  0.13938296, -0.20012069,  0.15798657, 
     0.06323762,  0.32018825, -0.22937724, -0.21337456, -0.12415905, -0.11188067, -0.04104731,  0.24735484, -0.37712780,  0.38051751, 
    -0.25996581,  0.03829250, -0.19645520, -0.05561768, -0.04838560,  0.38605946, -0.36270407, -0.28283808, -0.33807638,  0.00774696, 
    -0.06704444,  0.02188986,  0.34467649, -0.01595954, -0.04810540, -0.14365028, -0.53134686,  0.32339859, -0.28071892, -0.42471573, 
     0.43469369,  0.37044910, -0.50508904,  0.16224027, -0.24332532,  0.31028420,  0.19335206, -0.12924911,  0.02837020, -0.22363748, 
    -0.15115570,  0.29596302, -0.00775455, -0.10776905, -0.26187396,  0.11875569, -0.03934776,  0.04559536,  0.18125111, -0.05203373, 
     0.26636976,  0.05459673, -0.10806058,  0.17780450,  0.39077121,  0.10210876, -0.31479737,  0.31311625,  0.37972912,  0.04940347, 
    -0.31367901, -0.19672602, -0.17129578, -0.13124673, -0.25613436,  0.04860429, -0.26450059, -0.15581077,  0.38237005,  0.12311416, 
    -0.08637393, -0.14419521,  0.10207851,  0.01901204,  0.36518428,  0.21472764, -0.22030984, -0.47663069, -0.34971255,  0.06755362, 
     0.10143200,  0.26712316, -0.00776721, -0.49317291,  0.31427872, -0.08654927, -0.12993041,  0.33412167, -0.06256093, -0.25187680, 
    -0.06187135, -0.09338086,  0.05602910,  0.25838679,  0.25949579, -0.07662799, -0.18317366,  0.40416458,  0.36947635, -0.40120333, 
    -0.06257286, -0.15662818,  0.06750455, -0.18210846,  0.12530479, -0.35710177,  0.27983636,  0.48860884, -0.41928238, -0.05546041, 
     0.20148878,  0.07686990, -0.21917538, -0.10746799, -0.25920385,  0.35145211,  0.20820017,  0.08762287,  0.26820371, -0.39335245, 
     0.01706344, -0.33920634,  0.22840135, -0.24990998,  0.11496282,  0.02514778,  0.30333570, -0.30573410,  0.08065280,  0.06127618, 
     0.01261298, -0.27181211, -0.23436897,  0.13634227, -0.11100712,  0.33801302,  0.18358712, -0.06513532,  0.24630424,  0.04526051, 
    -0.04381333,  0.21736751
};

const type_t B4[24] = {
 0.22476768, -0.05346350,  0.11265100,  0.31198242, -0.07271005, -0.14395157,  0.22251770, -0.13578093,  0.07519822, -0.05421887, 
     0.17906056, -0.00162701, -0.13890806, -0.09054085,  0.24382137,  0.34417728,  0.21321006, -0.08984867, -0.23605034, -0.21827999, 
    -0.03507124, -0.06550866, -0.10364041,  0.25760412
};

const type_t W5[2304] = {
-0.11789753,  0.21395169, -0.21249847, -0.30054146, -0.02671378,  0.34974781,  0.29496327, -0.02808156,  0.22635365,  0.09705489, 
     0.38031641, -0.13616952,  0.05380616, -0.10454463, -0.39879811, -0.16176943, -0.22685823,  0.01958501, -0.28843230,  0.05257333, 
     0.18624946, -0.06015174, -0.31151327, -0.23223291, -0.12709294,  0.18362562,  0.14746225, -0.19391614,  0.06121816, -0.34564918, 
     0.17401022,  0.20712306,  0.09721524, -0.20724268, -0.12192526, -0.21609844,  0.19957526, -0.28445879,  0.02785759,  0.25533587, 
     0.00495273, -0.19266604,  0.03221741, -0.24124472,  0.21486481, -0.10424823, -0.00907893,  0.15425256,  0.00236054,  0.28924111, 
     0.01522917, -0.16667525, -0.11877982,  0.17358063, -0.02982409,  0.04283644,  0.03497230, -0.32524669,  0.21161282, -0.35005286, 
    -0.21939455,  0.17244908,  0.26190540,  0.51620626,  0.26460618, -0.44268313, -0.25962615,  0.13629945, -0.09981558,  0.01479524, 
     0.22309175,  0.17095965,  0.26561016,  0.00974038,  0.30504653, -0.23314871, -0.38679251,  0.10029951, -0.21375212,  0.15922654, 
     0.00367864,  0.15848857, -0.00457641,  0.01406913,  0.03484127,  0.21297663, -0.08846615,  0.08869132,  0.36050853, -0.21292326, 
    -0.33165097,  0.29077885, -0.17550121, -0.18488213,  0.16369613, -0.14164864, -0.12278653,  0.23328407, -0.54588634,  0.05768186, 
     0.01139516,  0.45150506,  0.01534188, -0.09440716, -0.07710295, -0.16479963,  0.17277665,  0.11669488,  0.25363979,  0.27480692, 
    -0.04701457, -0.08475834,  0.23592238,  0.09217902, -0.26282570, -0.11147257, -0.07999420,  0.08960160, -0.10068090, -0.02816298, 
     0.17100954, -0.26660126, -0.21897306,  0.26500067, -0.25735536,  0.27670270, -0.23441528, -0.06598627,  0.22175354, -0.10336263, 
     0.24154134,  0.01283606, -0.29039678, -0.08851591,  0.10379342, -0.04689682,  0.14579476, -0.26968670, -0.25326484, -0.08615288, 
    -0.20886844,  0.01687261,  0.18692820, -0.33853608, -0.27164361, -0.26062527, -0.22011343, -0.31660718, -0.06964703,  0.00998125, 
    -0.18720035, -0.01908409, -0.01390508, -0.03251354, -0.16580817, -0.07173957, -0.20257355, -0.06962489,  0.48195243, -0.08148376, 
     0.14893560,  0.08748455, -0.04540162,  0.15377456, -0.19485399, -0.29293737, -0.06983141, -0.25573653,  0.10415785,  0.05647567, 
     0.31793514,  0.13746893,  0.04602823,  0.26162529,  0.30118981,  0.25882053,  0.04426805, -0.20956318, -0.30336550,  0.00416287, 
    -0.07228724,  0.09981406,  0.21066026,  0.10121719, -0.11501669, -0.17780130, -0.16472155,  0.15282901,  0.33990979,  0.17582309, 
    -0.02083774, -0.01771812, -0.18408546, -0.32616428, -0.08441427, -0.09359023, -0.33008033,  0.04951433,  0.14082730, -0.09321893, 
     0.26055515,  0.17929237, -0.06118542,  0.07575762,  0.00311797, -0.21170245,  0.08435537, -0.23984692, -0.34075195,  0.50977880, 
     0.00660372, -0.11050514, -0.16251080,  0.11876358, -0.15344794, -0.04235851,  0.32874247,  0.05565988,  0.35426432,  0.42361775, 
     0.14611830, -0.01025084, -0.04462890,  0.44328630,  0.16964127, -0.33916703, -0.08737314,  0.36227438,  0.17476600,  0.17118977, 
    -0.00022993, -0.13424020,  0.11042280, -0.20639737, -0.02610634, -0.28693065, -0.10855801, -0.39322299, -0.02898381, -0.36393452, 
     0.28028396, -0.33501285,  0.18915196, -0.16641437,  0.06935452,  0.33704090,  0.19743253,  0.15791181,  0.04907514,  0.01127726, 
     0.05396772, -0.15228310, -0.37888899, -0.32765108, -0.35732737,  0.15585910, -0.18190895, -0.24525204, -0.21714903,  0.14147367, 
    -0.29438359, -0.04634563, -0.05769918,  0.08678466,  0.26605260,  0.20364201,  0.29868764, -0.18463916,  0.29058841, -0.28832990, 
     0.08695856,  0.18090637, -0.04152309, -0.13545318, -0.28749397, -0.13721147, -0.13841072,  0.00875877,  0.07764612,  0.24441750, 
    -0.08219957, -0.33438405, -0.24124347, -0.19108082, -0.10416751,  0.27278101,  0.21188824, -0.10327206, -0.26238376, -0.09166290, 
    -0.07542929,  0.07315536,  0.07786023,  0.38939318, -0.19754298, -0.01349257,  0.10781542,  0.16107665,  0.15659453, -0.07028135, 
    -0.04817325, -0.02938322, -0.15570974,  0.17752478,  0.24410218,  0.10852295, -0.32694495, -0.23713413, -0.17193708,  0.20946969, 
     0.16825646,  0.01863847, -0.38490373, -0.05961231,  0.08065332,  0.01011265, -0.00692230,  0.22059430, -0.26178125, -0.14780271, 
     0.19605492, -0.08972428,  0.01222251, -0.01659158, -0.17870641,  0.11302311, -0.13505724,  0.16698277, -0.01199236,  0.23233972, 
    -0.08841299, -0.33770671, -0.25865495,  0.14792633,  0.34874865, -0.38505420, -0.15781207, -0.24004148, -0.15073456,  0.06654972, 
     0.27402461,  0.31061587,  0.26751113,  0.31588179, -0.01110028,  0.12791774,  0.12855721,  0.15527342, -0.19608532,  0.08925629, 
     0.24967784, -0.27845517,  0.08259699, -0.16230938,  0.05411669, -0.23447672,  0.29754698,  0.14980729,  0.24304071,  0.04477787, 
     0.03969849, -0.05984581,  0.09708825,  0.02857838,  0.00808483, -0.07395698, -0.17233697,  0.19650111,  0.17640170, -0.19240759, 
    -0.37100658,  0.23670058, -0.15178211, -0.12740995, -0.06713116,  0.06573571,  0.22808629,  0.13773182, -0.21825874,  0.35734645, 
    -0.04018835,  0.30078369, -0.30615047, -0.11726232,  0.05022601,  0.14387308, -0.08065587, -0.11075407, -0.03961293, -0.10523785, 
    -0.19042422, -0.26800087,  0.12490984, -0.12752913,  0.27078208,  0.23157431,  0.18736854, -0.35447374,  0.00231188, -0.11548410, 
    -0.19456139,  0.15759107,  0.16308053,  0.01285238,  0.26686931, -0.22645529, -0.23748712,  0.12742844, -0.24378708, -0.16714786, 
     0.12940235,  0.05016616, -0.24812610,  0.07290740, -0.25340241,  0.03306598, -0.07855089,  0.00033451,  0.06671659,  0.21244003, 
     0.12541969, -0.09172263,  0.21137248,  0.26055056, -0.14095315,  0.41905534, -0.01098824, -0.11733025,  0.28575107,  0.20855430, 
    -0.02098450, -0.19850001,  0.05872748, -0.10903880,  0.01539266, -0.03165075, -0.00620971, -0.03409774, -0.12773354, -0.14011548, 
    -0.32549402,  0.30849320, -0.15837543, -0.05284286,  0.11859403, -0.12311332,  0.33723295,  0.20897490,  0.33000004,  0.21931505, 
     0.09193483, -0.00102725,  0.22265781, -0.01667068, -0.34310594,  0.04781629,  0.08675844, -0.03666622, -0.03645688, -0.14918172, 
    -0.13330048, -0.25887069, -0.17725752,  0.17607377, -0.10719208, -0.16723137, -0.06670172,  0.20721957,  0.20123459,  0.17947447, 
    -0.03747339,  0.15987833,  0.09116384,  0.06526686, -0.17643322, -0.19806018,  0.25423130,  0.26630953, -0.33641335,  0.22217023, 
    -0.09046987,  0.18053515, -0.17736138, -0.13201503, -0.16168210, -0.15304232,  0.12544449,  0.11064040,  0.09661245, -0.18043877, 
     0.17130630,  0.11065660, -0.11312519, -0.14632837,  0.08000676,  0.24612683, -0.17320313,  0.03250816,  0.03812116,  0.00815172, 
     0.29010752, -0.21145456,  0.29670256, -0.05792023,  0.19205374, -0.22944322,  0.20326634,  0.28222844, -0.17622177,  0.19101276, 
     0.01729924,  0.01816822,  0.08774693,  0.09276494,  0.39523000,  0.31618941,  0.34583303, -0.07148453,  0.02862329, -0.05831763, 
     0.23479666,  0.08103547, -0.01037386,  0.00236847,  0.00162168, -0.25275430,  0.29116952,  0.26029986, -0.04851518, -0.02071382, 
     0.06956273, -0.00605769,  0.16642384, -0.23228274,  0.20251165, -0.26339471, -0.45869625, -0.25192451, -0.34090573, -0.14587337, 
    -0.25718251,  0.00291311,  0.09211419,  0.03051761, -0.04602676,  0.04716071, -0.00568415,  0.00681621, -0.21421662,  0.03941847, 
     0.24205993, -0.17438869, -0.21850663, -0.15362857, -0.09010180, -0.23391011,  0.08274214, -0.20900077, -0.22803605,  0.25916570, 
     0.22656085, -0.24986292, -0.13783063,  0.00878181, -0.22836709,  0.15744853,  0.40278974, -0.02149845, -0.31671402,  0.21232587, 
    -0.03548344, -0.01003936,  0.04207087, -0.22577307, -0.35994473,  0.18124475,  0.21164265, -0.08242783, -0.17486380, -0.32864588, 
    -0.04403497,  0.45491248, -0.10958639,  0.12215763, -0.01290053,  0.20371707,  0.15294719,  0.19967683,  0.23749828,  0.48938027, 
     0.20877482,  0.27219275, -0.20048434,  0.07342566, -0.01458981, -0.13865739, -0.15942156, -0.00772387,  0.20688741,  0.04855762, 
    -0.12604162,  0.01356892,  0.18413651, -0.09970178, -0.15294831,  0.12805097, -0.25903025, -0.02705546,  0.02079929, -0.25435656, 
     0.04036730,  0.29242215, -0.11203679,  0.18915333,  0.19044383,  0.01627440, -0.06459925,  0.10454319, -0.07902801, -0.03542634, 
     0.02308891,  0.07799929, -0.19206561,  0.25365946,  0.13825314,  0.13464457, -0.18361679,  0.27806851, -0.32221174,  0.37165621, 
    -0.04144193,  0.10082842, -0.13206822, -0.05388406,  0.22311622,  0.05381993, -0.15091905,  0.19407736, -0.10412315, -0.01555390, 
    -0.25083447,  0.07074136, -0.05951345, -0.38391858, -0.32037434, -0.10187332,  0.18684128,  0.10720271, -0.19073544, -0.07505154, 
     0.34629083,  0.10788371,  0.20653307, -0.29372784,  0.08306737,  0.11868653,  0.27118626, -0.57597649, -0.25944969,  0.56996089, 
     0.48379785,  0.14858139, -0.58270752, -0.22278890, -0.32354796,  0.17776074,  0.30489942, -0.11842687, -0.18445633, -0.18301623, 
     0.33324185, -0.12499827,  0.09197173, -0.44782552, -0.26095212, -0.35748026, -0.36930650, -0.43642151,  0.24192254, -0.32046443, 
    -0.03436996,  0.18803596, -0.37214416, -0.12414856,  0.18361720, -0.29724762,  0.30791026,  0.04364543, -0.23903665, -0.10085337, 
    -0.10154766, -0.39376938, -0.09955413, -0.20250197, -0.16897783,  0.04231367,  0.27724203, -0.13475282,  0.06573031,  0.16991664, 
     0.04962164,  0.14835934, -0.16761629, -0.22261262, -0.10627024,  0.05563663, -0.13171178, -0.43542546,  0.07121241,  0.29226729, 
     0.06243766, -0.16190408,  0.17751145, -0.12855935, -0.00642154,  0.28231689,  0.30831549, -0.24420333, -0.12110043,  0.18686059, 
     0.11282043,  0.05622697,  0.12920165,  0.05123570,  0.14391057, -0.62751228, -0.23949870,  0.00587624, -0.09491545,  0.35905677, 
    -0.24934778,  0.15340328,  0.22578366, -0.60342562,  0.15633862,  0.13690360,  0.08479881, -0.06421191, -0.23929010, -0.07917108, 
    -0.06291313, -0.12695552, -0.17044827, -0.15408072, -0.06967025, -0.02600141,  0.17856550,  0.27849838,  0.23656540,  0.08634755, 
     0.19273727,  0.10449576, -0.12568623,  0.05252834,  0.05439614, -0.02618018, -0.01756760,  0.14915530,  0.12823175,  0.29161507, 
     0.05433013,  0.10195634, -0.13798560, -0.31647813,  0.12004759,  0.02944848,  0.31590280,  0.10534285, -0.11427748,  0.30285728, 
     0.09904835,  0.29798979,  0.10381499,  0.25070024, -0.16843355,  0.15218033,  0.09672594,  0.14538978,  0.18398143,  0.06568532, 
     0.25190103, -0.09776817, -0.19885641, -0.02662132,  0.03219014,  0.15212958,  0.06838964, -0.05129108,  0.00360022, -0.11459702, 
    -0.25061804, -0.23446333,  0.13350771,  0.01222115, -0.16227977, -0.00082082, -0.41548115,  0.07750227, -0.29839209, -0.08928628, 
    -0.19258058, -0.02819441, -0.01622101,  0.16943042,  0.14848204, -0.30359754, -0.42803219, -0.15778540, -0.31917751,  0.30029342, 
    -0.24863613,  0.21401863, -0.18063547, -0.06992037,  0.24626416, -0.13496915,  0.31742480, -0.16106716,  0.01857339,  0.00809404, 
     0.23389077,  0.03926774,  0.09982058, -0.07392149, -0.24775852,  0.15898199, -0.30811444, -0.15050341,  0.23458213, -0.23192455, 
     0.07960075, -0.15459360,  0.18129277,  0.09335921,  0.18039939, -0.11372297,  0.27538633,  0.30892324,  0.14970431,  0.49542266, 
     0.21234231,  0.23470476,  0.11074502, -0.17140090, -0.60237175,  0.06879532, -0.07975807, -0.20235157, -0.15705404,  0.27076074, 
     0.08549532,  0.00890941, -0.02353148, -0.14865050, -0.08597785, -0.09976964,  0.29303679, -0.14478782,  0.38071597,  0.10980000, 
     0.00022134, -0.09900542, -0.00856516, -0.13219470, -0.26446748, -0.12156356,  0.12142088, -0.28745374, -0.11014885,  0.01896182, 
     0.18691342,  0.17720839, -0.32054928,  0.39656818, -0.38141188, -0.00224567,  0.07098754, -0.23510289,  0.07761372, -0.02746705, 
     0.10009473,  0.02738220, -0.09810741,  0.15982166, -0.22111590,  0.04318305,  0.10787765, -0.40169370, -0.30452928, -0.13969639, 
     0.08489299, -0.08275792,  0.10588992, -0.19932374,  0.20629314,  0.24026513,  0.21309499,  0.01333931,  0.20530134,  0.30834132, 
     0.37042049,  0.30021346,  0.28118560, -0.07979786,  0.13162504, -0.26865548,  0.29575709, -0.18526974, -0.05796370, -0.09945966, 
     0.35406095,  0.30959144,  0.05857561, -0.26849848,  0.02934474,  0.28658885,  0.04910412, -0.14464410,  0.23338409,  0.18191534, 
     0.06466136,  0.10256347, -0.17349604, -0.03735137, -0.28222802,  0.24195066, -0.08736919,  0.24735460, -0.15443738, -0.06535020, 
     0.20447849, -0.23612633, -0.18422009,  0.00221093,  0.04671125, -0.15716766,  0.06763440,  0.04747072, -0.27585983, -0.18237714, 
     0.04761550,  0.09586934,  0.00670544,  0.08141138,  0.18822005,  0.01372741, -0.10679968,  0.07095850,  0.03369014, -0.09853572, 
    -0.17963217,  0.28079084,  0.21563339,  0.04910995, -0.19251384,  0.20544203, -0.10312621, -0.14313444,  0.08828732,  0.12376612, 
     0.24933916, -0.04545140,  0.16780886, -0.28096771,  0.22501805,  0.29208401, -0.05750800,  0.02831829, -0.05567959,  0.02589704, 
     0.01473857, -0.27797332, -0.21438348, -0.03881902,  0.15993033, -0.30718124,  0.04043223, -0.07404010, -0.06119301,  0.27322492, 
     0.08784001, -0.08552530, -0.04261421, -0.00067224, -0.21476361,  0.23247609, -0.05617648,  0.00734621, -0.06225839,  0.34712100, 
     0.24132746, -0.04775120, -0.07781526,  0.30513713,  0.08711708, -0.12647688,  0.04238755,  0.23008031,  0.14304924,  0.31242320, 
    -0.20853542, -0.05810774, -0.24488916, -0.02288107,  0.11030040,  0.34499052,  0.03457844,  0.08090112, -0.07758851, -0.22182000, 
     0.06844465,  0.13274959,  0.15299307, -0.30168626, -0.23402616,  0.15275948, -0.18413502,  0.35295972, -0.15335757,  0.12757617, 
     0.18833494,  0.24402553, -0.19327302,  0.08769656,  0.14904399,  0.01439162, -0.14423530,  0.00106634,  0.15015055, -0.38430545, 
    -0.20013106,  0.22491330, -0.00310456,  0.04104343, -0.07087172, -0.03816480, -0.02370600, -0.06936148,  0.17036851,  0.24875934, 
    -0.24890739, -0.07448155,  0.08250820,  0.23244087,  0.06779368,  0.30337393,  0.05664691,  0.22172737,  0.12218348, -0.05352787, 
     0.03424735, -0.12588668, -0.04504168, -0.01284220, -0.23799813, -0.10244867, -0.04581655, -0.24450605,  0.29711711,  0.25075892, 
    -0.17915779,  0.03864192,  0.22958186,  0.11439646,  0.13535069, -0.13003284, -0.19689432,  0.01324440, -0.08024374, -0.21659803, 
     0.25440776, -0.23263429, -0.23759741, -0.18845233, -0.06441669, -0.37113640,  0.00748091,  0.15853891,  0.19255958, -0.23704943, 
     0.06261806, -0.11491162, -0.25798312,  0.31954584,  0.25972068, -0.12184442, -0.21889153, -0.30130708,  0.00188029,  0.46787870, 
    -0.10910208, -0.09686636, -0.39457777, -0.15781489, -0.26600873,  0.34340060, -0.09473246, -0.11025490, -0.33313656,  0.13463102, 
     0.08097886,  0.38171059, -0.07236056,  0.22295317,  0.08546574,  0.02299688, -0.12336006, -0.25154904, -0.12411648,  0.12074409, 
    -0.13245210,  0.11635699, -0.22090110,  0.09466069, -0.08415288, -0.19411165,  0.34571692, -0.12250248, -0.03961302,  0.00410175, 
    -0.19801955,  0.03760033,  0.28870943, -0.06816914,  0.17570034,  0.23493502, -0.15718047,  0.16947012,  0.20562230, -0.24507730, 
     0.07567724, -0.22909983,  0.01470758, -0.61023283, -0.18926907,  0.21753179,  0.09362499, -0.43284947, -0.34135142,  0.35627651, 
    -0.12944379, -0.15753888,  0.05744661, -0.18532269, -0.17814022,  0.34287325, -0.14455870,  0.31876484, -0.09553070, -0.19821265, 
    -0.05640311, -0.18863502,  0.10103010, -0.08672687,  0.25655448,  0.00293393, -0.29050434, -0.16659817, -0.18774429, -0.13716924, 
    -0.19535044,  0.22667696,  0.06566293, -0.01497580, -0.08114274,  0.00993098,  0.00530537,  0.05790403,  0.05869155, -0.20032507, 
     0.13106215,  0.14263086,  0.20520744, -0.05540819, -0.29960659,  0.08114275, -0.20131524,  0.02573472,  0.27161565, -0.07854702, 
     0.20875710, -0.30699921, -0.36716834, -0.28771111, -0.04417064, -0.30985352, -0.03121987,  0.31591034, -0.10877924,  0.13867389, 
    -0.18225586,  0.07820613,  0.09800059, -0.03305976, -0.29893059,  0.10197331,  0.31706724,  0.03587203, -0.03752400, -0.01911533, 
     0.17223766,  0.31121549, -0.20942341, -0.11111802, -0.16934191, -0.24678469, -0.01468871, -0.12651002,  0.09201744, -0.18409517, 
     0.01943557, -0.03527600, -0.05353411,  0.24072310,  0.08151353, -0.20439062,  0.31542498, -0.05419940,  0.06285215, -0.20136385, 
    -0.12399659,  0.24475653,  0.08437621,  0.00542547, -0.26045087,  0.18448830, -0.29395229, -0.23590365, -0.44861728,  0.02433590, 
     0.23915285,  0.42641184, -0.00055087, -0.20429786, -0.02358115, -0.21762662,  0.37891328,  0.05110703,  0.12323362, -0.15931009, 
    -0.06582560,  0.23698202,  0.11434965,  0.00441316,  0.07962373,  0.25498223, -0.17969412, -0.26500040, -0.08826452, -0.03943494, 
    -0.16576768, -0.14731988,  0.38496456,  0.20025279,  0.26011094, -0.35744166,  0.07972332,  0.16706534,  0.21065985,  0.18297970, 
    -0.38619748,  0.27334613,  0.14010270, -0.11382099, -0.08923495, -0.16230243,  0.00272012, -0.40644953, -0.11335374,  0.01642141, 
    -0.15515189,  0.01888013,  0.01184787, -0.32882211, -0.12243187,  0.15075113, -0.05434224, -0.08361242, -0.23645256, -0.17820467, 
     0.13116354, -0.01838598,  0.12713213,  0.32022691, -0.04603960, -0.25828046, -0.09045989,  0.08874802,  0.39985460, -0.07747258, 
     0.17790334,  0.28723401, -0.38397825,  0.14928661, -0.67996347, -0.17455946, -0.04281799,  0.02813958, -0.04623479, -0.11221307, 
     0.34926254, -0.17037025, -0.07336660, -0.12390583,  0.20977291, -0.11292049, -0.02575274, -0.30225781, -0.25058681, -0.15901791, 
     0.01382909, -0.21148336,  0.36871707,  0.38466778, -0.10145944, -0.21394669,  0.29633096, -0.04675872, -0.14297581,  0.10417908, 
    -0.04085686, -0.21303828, -0.02061157, -0.34006882,  0.23604997,  0.07975484,  0.18711069, -0.29180604, -0.09529316,  0.03194322, 
     0.18958236, -0.18635637, -0.10995083, -0.27402034,  0.04266019, -0.16031374, -0.04878129,  0.33010110,  0.04706944,  0.24725750, 
     0.00544870, -0.37002003,  0.41357702,  0.31052554,  0.32611817, -0.15599708, -0.24132399,  0.18102211,  0.14720365, -0.10520560, 
     0.05242036, -0.24565925, -0.16649362, -0.28403401, -0.24190107,  0.37745869,  0.14553650,  0.00736313,  0.30779240,  0.28784654, 
    -0.36064392,  0.10441931, -0.25215992,  0.13114063,  0.12390473, -0.03673207,  0.13280469, -0.39276528, -0.16617075, -0.26371348, 
     0.36853868,  0.14427550, -0.58669597,  0.32488027, -0.17924751, -0.26886007,  0.31544143,  0.08389334,  0.25228646, -0.08357801, 
     0.27938342,  0.07238184, -0.18363227,  0.30864131, -0.04126167,  0.07260964,  0.14272746, -0.26423052, -0.20886764,  0.07410521, 
     0.24356014, -0.16586211, -0.04523702,  0.18830012,  0.08897860, -0.16130015, -0.03377555, -0.20197941, -0.04082965,  0.01829445, 
    -0.07970573, -0.24445894,  0.18234339,  0.06385515,  0.24004100, -0.14738470,  0.03945072,  0.20215394,  0.17047705, -0.08705147, 
    -0.12821561, -0.05968559,  0.00470896,  0.25389823, -0.36960819, -0.26104414,  0.04587492,  0.18356720, -0.14174674,  0.08404940, 
     0.06409393, -0.29058999,  0.29010400,  0.27428314,  0.17876557,  0.11434649, -0.17034999, -0.11096711,  0.09249249, -0.06589761, 
     0.05510798, -0.36034790,  0.19706775, -0.41684356, -0.06664431, -0.34212628,  0.07754860, -0.23266190, -0.29460222, -0.10830516, 
    -0.14984147, -0.03986955, -0.05828159, -0.17361231,  0.16093151,  0.31454670, -0.22936040, -0.11133529,  0.02736689, -0.18057837, 
     0.12384518, -0.36203808, -0.09178384,  0.25876167,  0.24286522, -0.25492588, -0.07920916, -0.13243486, -0.14947769, -0.20274737, 
    -0.14193851,  0.22500299, -0.10636673,  0.32032725,  0.42118350,  0.18110499, -0.29191571,  0.07021084,  0.02573185, -0.21497509, 
     0.01791948, -0.15648769,  0.28670242, -0.23228212, -0.18083070, -0.16619296,  0.29944521, -0.04841236, -0.05833526,  0.05734453, 
     0.03410698, -0.62848592, -0.01872336,  0.22495970,  0.13936129,  0.12969029,  0.40982899,  0.03802668,  0.08344205, -0.26652780, 
    -0.01001719,  0.13572893,  0.13235848,  0.03639562,  0.15606792, -0.03259467,  0.00378145,  0.20529681,  0.28893241, -0.15871187, 
    -0.01344743,  0.12155711, -0.08059866, -0.22493939,  0.11657443, -0.02930637, -0.05084482,  0.04646508, -0.04174631, -0.24588348, 
    -0.09520499,  0.03479777, -0.08575683,  0.09436724, -0.10367000, -0.17364639, -0.52783620,  0.05198402, -0.06733464,  0.04675769, 
    -0.07436388,  0.17192751, -0.03960272, -0.46175981,  0.08883852, -0.13677047,  0.18855353, -0.12273094, -0.29706591,  0.00340436, 
     0.01663594, -0.10775286, -0.15366751,  0.22326855,  0.12418886, -0.59967250, -0.00742556, -0.18186666,  0.14080788, -0.14539266, 
    -0.18902579, -0.32151115,  0.13780954, -0.02519537,  0.19611347, -0.24844302,  0.02150818,  0.20654540, -0.11635682,  0.22469844, 
    -0.18299019,  0.24969269,  0.13229409,  0.18605173, -0.52166563, -0.06887285,  0.19233324,  0.32115451,  0.03651465,  0.30924541, 
    -0.03615782,  0.17039913, -0.11831214,  0.14712860,  0.07809766,  0.28330255,  0.01994971, -0.24170834, -0.22509927, -0.12387038, 
    -0.15239023,  0.03774638, -0.02743468, -0.12014234,  0.16447659, -0.45746753, -0.02085226, -0.24137294,  0.16678812,  0.22180432, 
    -0.58023953, -0.32590303,  0.12863715,  0.32004222,  0.23128659,  0.26444888, -0.03103910,  0.00117410,  0.16075343,  0.17015858, 
     0.14025228, -0.33746427, -0.11330862,  0.23281752,  0.12387434,  0.35407558, -0.10265969, -0.22372586, -0.35322139,  0.16194509, 
    -0.04114697, -0.04334758, -0.11296473,  0.36639085,  0.21125638, -0.19485664, -0.19648668, -0.05578094,  0.11042394,  0.19994150, 
     0.09526473,  0.22827204, -0.31183723, -0.28076717, -0.00535451,  0.30792540,  0.07728056, -0.18320858,  0.09351126, -0.21245599, 
     0.05483535, -0.17800274, -0.23923105,  0.20234798, -0.23941910,  0.18902186,  0.19163586,  0.25227049, -0.38199437,  0.57549834, 
    -0.09649728,  0.02043927,  0.06727231,  0.33309865, -0.02267903,  0.11421181, -0.11922731,  0.02804754, -0.21686496,  0.04517432, 
    -0.11002208,  0.08085248,  0.02819888, -0.01911365, -0.25989032, -0.13727942, -0.08468632,  0.00375478, -0.00162887, -0.04606324, 
     0.19959939,  0.27675065,  0.15613690,  0.31623653,  0.26893806,  0.14739606,  0.08022575,  0.13466129,  0.10662873, -0.06135164, 
     0.16342157, -0.41867921, -0.05176418, -0.18942550, -0.15342920,  0.08806697,  0.01168545, -0.15507729,  0.13713832,  0.02883784, 
     0.20593065,  0.03886421, -0.00075432, -0.50181979, -0.15098913, -0.05450089, -0.01390679, -0.14438395,  0.22269802, -0.00597136, 
    -0.10109318,  0.03609866,  0.30320287, -0.14812049, -0.07433693, -0.03849788, -0.15173326,  0.30926493, -0.34513202,  0.34182355, 
     0.10786755,  0.12933327, -0.33357114, -0.35608193,  0.22920434, -0.06923821,  0.22283819,  0.12844433,  0.23602484, -0.25248063, 
     0.11094239,  0.25336906, -0.27841297, -0.47902173, -0.26310092, -0.01389333,  0.01375265,  0.07248550,  0.09658071, -0.11686563, 
    -0.00429222, -0.28183115,  0.17441119,  0.03726732, -0.26906130, -0.16861551, -0.29086232,  0.03232239, -0.22683774, -0.27890670, 
     0.27223471,  0.09984845,  0.31462258,  0.14503691,  0.21118937,  0.11838557, -0.11733621,  0.26730859, -0.01196174, -0.29018188, 
    -0.20720764, -0.25380176,  0.13110553,  0.04597852, -0.17443119,  0.35173592,  0.04701125, -0.01354615,  0.21322325, -0.25936496, 
     0.00598929,  0.10930237, -0.01893058,  0.05444268, -0.35464144,  0.11469954,  0.01218025, -0.17574768, -0.07419150,  0.13644603, 
    -0.26971173,  0.06751228, -0.04675576, -0.25081560,  0.11305062, -0.19639286,  0.22616503,  0.30240563,  0.00694312,  0.01038005, 
    -0.30207768, -0.07740045,  0.07182810,  0.24605763,  0.24216314,  0.16493070,  0.19677779,  0.01115526,  0.05773813, -0.01999879, 
     0.15368307,  0.18110338, -0.12582666, -0.00024182, -0.28426403, -0.19190294, -0.25803411, -0.01940117, -0.01491567, -0.07129099, 
     0.31255057,  0.10423670, -0.24720791, -0.02109240,  0.07621236,  0.17487775,  0.21250160,  0.05121686,  0.17748804, -0.15880701, 
    -0.24363241, -0.12455913,  0.29302448, -0.13147780,  0.05719905, -0.26835176,  0.03939529,  0.04824169,  0.21265684, -0.13204183, 
    -0.27241859,  0.08967726, -0.22549008, -0.26378945, -0.28113741,  0.27878031, -0.14805882,  0.42130446,  0.03722841, -0.10509857, 
    -0.16962263,  0.03239788,  0.04652326, -0.05304675, -0.18338020,  0.39500368, -0.26866937,  0.12265154,  0.02537874,  0.16980234, 
    -0.21721894,  0.06249242,  0.06465925, -0.04137077, -0.07113904,  0.13101901, -0.08266946,  0.14230461,  0.18568340, -0.24601272, 
    -0.22504044, -0.33665228,  0.19348127, -0.25178495, -0.03184722,  0.16579282, -0.06664097,  0.24798486,  0.17572804, -0.19471531, 
     0.11900233, -0.31816813,  0.11576979,  0.12653194,  0.05877719,  0.31871167,  0.11568420,  0.10803936,  0.13817689, -0.21746534, 
     0.06229078,  0.16524787,  0.06439421,  0.17339784,  0.11174146, -0.29066694,  0.13711736,  0.22978680,  0.25272995, -0.10913545, 
     0.22955146,  0.28667814,  0.03946302,  0.00792219,  0.25210968, -0.36940014, -0.03542787, -0.12840822,  0.18280078, -0.24350095, 
    -0.09016796,  0.27000383, -0.09805782, -0.03596137,  0.16326238,  0.18106279,  0.03477637, -0.04346598, -0.06497081,  0.31440455, 
     0.15515599,  0.07632370,  0.18556292,  0.18364136, -0.03290455,  0.07553889,  0.25024962,  0.15547383,  0.05329632,  0.03046693, 
     0.15653735, -0.02329628, -0.00307917,  0.05844785, -0.31069258,  0.09257568, -0.14904073,  0.13167544, -0.14104241, -0.00509794, 
     0.04613528,  0.39152700,  0.09581941, -0.52692038, -0.04745017, -0.20535664, -0.20109673, -0.11928467,  0.15883912, -0.08916797, 
    -0.10192899,  0.21297300, -0.14049134, -0.18194927, -0.08028965, -0.35740077,  0.13285121,  0.04656193,  0.15879853,  0.21899766, 
     0.14484024, -0.03718904,  0.00738293,  0.19836496, -0.37069491, -0.11747138, -0.11839728,  0.02526533,  0.15873465,  0.26036155, 
    -0.19139014, -0.00631245,  0.07208215,  0.33232245,  0.10072784, -0.54813266,  0.19911419, -0.07155450, -0.08634789, -0.05972143, 
    -0.21212448,  0.14644547,  0.18126269,  0.20968139, -0.14882886,  0.04478301,  0.36460367,  0.10021108,  0.28346398,  0.02659165, 
     0.25479773,  0.11043057, -0.06314760,  0.30719295, -0.13413016, -0.14488371, -0.19444266,  0.07302538, -0.01061116, -0.23669522, 
    -0.29946634, -0.21581368,  0.05287540, -0.08247539, -0.27660602, -0.06412411, -0.23330963, -0.00406401, -0.03716408,  0.11465196, 
    -0.10530987,  0.23820423,  0.11828538, -0.14299005,  0.03629519,  0.12529722,  0.18266329,  0.12935218, -0.16689132,  0.03780711, 
    -0.21173847,  0.22416468, -0.17348945, -0.07753482,  0.26046652,  0.04449341,  0.11547659, -0.23612483, -0.07681733, -0.01570180, 
    -0.45285115,  0.05885030,  0.21815646,  0.22393250, -0.23105438, -0.42690974, -0.06538799,  0.01011611, -0.03820639,  0.11119530, 
     0.21857981, -0.15910925,  0.04882431, -0.18142964,  0.08146594, -0.22398746,  0.34017807, -0.06857032,  0.03794166,  0.07400895, 
    -0.26358554,  0.13695928, -0.18772963, -0.09653473, -0.19795795, -0.37750614,  0.28220323,  0.19822468, -0.24624881, -0.22442332, 
    -0.02234446, -0.13061538,  0.28389227, -0.20599397,  0.27044210,  0.22233464, -0.08028823,  0.03611602, -0.21096607,  0.27300012, 
     0.19972171, -0.30149809,  0.23850287,  0.22150803, -0.04586364, -0.08803991,  0.02055799,  0.06303382,  0.24458638, -0.16281520, 
     0.24000449,  0.30273619,  0.13081235, -0.25699773, -0.03628438,  0.33739701, -0.12244110, -0.14249249,  0.15809830, -0.13289388, 
    -0.03225958, -0.22936307,  0.06147622, -0.03554881, -0.00599904,  0.05984286, -0.18691845,  0.08661047,  0.15485436,  0.06737448, 
     0.04337130,  0.13962789,  0.04290656, -0.13230523, -0.05215055, -0.20320426,  0.12397188, -0.01249868,  0.13729769, -0.01661259, 
     0.04161894,  0.18085364,  0.07326116, -0.05816290,  0.17651418,  0.15691252, -0.02126537,  0.22090985, -0.25170961, -0.16975859, 
    -0.09419918, -0.07455201, -0.03243497,  0.17523301,  0.06246536,  0.26939315, -0.23087958, -0.15640429,  0.07627919,  0.22766598, 
     0.22843283, -0.35707453, -0.00155054, -0.02785812, -0.01598980,  0.22003582,  0.20558532, -0.28619680, -0.06306981,  0.25243598, 
    -0.08333752,  0.02539407,  0.11838415, -0.16213197, -0.12068248, -0.17024411,  0.34102550,  0.25237507, -0.15448259, -0.28152433, 
    -0.14635025, -0.21044123,  0.07485145,  0.16381262,  0.25955254,  0.07022197,  0.05391054,  0.46375677,  0.30248836, -0.10217804, 
     0.15296742,  0.13720617, -0.24677247,  0.12041210, -0.16109741,  0.01495081, -0.19552346, -0.11186230,  0.07838988, -0.01206446, 
    -0.25819322, -0.21516401,  0.08293238, -0.00610218, -0.11647230,  0.43653384,  0.06514783, -0.23181841,  0.29600969,  0.28624153, 
    -0.15247898, -0.30107597, -0.33780158, -0.23816888,  0.05296259,  0.16412616, -0.07444345, -0.16052166,  0.17473838,  0.05841159, 
    -0.09110502, -0.04507526,  0.00291958, -0.08494313, -0.24839726,  0.14168434, -0.20799533, -0.14489095,  0.12117564,  0.33050838, 
     0.02778750,  0.30299708, -0.30857152, -0.36595947, -0.00102615, -0.24147163, -0.23523223, -0.23461105,  0.00647749, -0.10629629, 
    -0.13604477, -0.11596905, -0.08352522, -0.32001767, -0.08771896,  0.27435586, -0.33379444,  0.01810649, -0.16522707,  0.17191124, 
    -0.06064468,  0.06097692,  0.07209825,  0.12563758, -0.40886557,  0.17957941, -0.16599415,  0.05721897,  0.21412374, -0.16738383, 
    -0.15278900,  0.12008304,  0.10862516, -0.13565691,  0.13440321,  0.09724101,  0.09722469,  0.14517669,  0.02395056, -0.10519616, 
     0.34424484,  0.09569902, -0.30049697, -0.21355009,  0.19994308, -0.11340164,  0.18235783,  0.31415156,  0.26729178, -0.23159288, 
     0.19898659, -0.20122997, -0.05259313,  0.05020733,  0.07686199,  0.13343148, -0.17091712,  0.16703057, -0.13755919, -0.25019246, 
     0.24626401, -0.04240799,  0.19891632,  0.36710349,  0.18264751,  0.18662134, -0.35618210,  0.19766483,  0.09057306,  0.19272137, 
     0.14241470, -0.17957190,  0.07487575,  0.34580749,  0.05890140, -0.03104899, -0.48400965, -0.00418713, -0.08329911, -0.22341427, 
     0.12299968, -0.13729081,  0.04526403, -0.17273907, -0.02876909,  0.11587361,  0.15455250,  0.15265688,  0.07882228, -0.34033397, 
     0.24308828, -0.03935551, -0.05062830, -0.03288414, -0.01365580, -0.14365166, -0.15510555,  0.06374948,  0.21531186,  0.04563072, 
     0.02079007, -0.14531104,  0.25322324, -0.24178380, -0.17652400, -0.11382531,  0.11220369, -0.01912753,  0.16042754,  0.20149444, 
    -0.00025997, -0.13100120,  0.23574463, -0.00248117, -0.03638456,  0.03024159, -0.08082680, -0.26361853, -0.23412909, -0.35097426, 
    -0.07983898, -0.17262524,  0.18448545,  0.00042441,  0.14786766, -0.12062100,  0.26551476,  0.19142795, -0.22041714,  0.09064230, 
    -0.01506231,  0.11527877, -0.20379324, -0.13623931,  0.19195613, -0.24769707,  0.19572330, -0.12558655,  0.09006693, -0.15442209, 
    -0.30481181, -0.06783962,  0.07067589,  0.15596628
};

const type_t B5[32] = {
 0.13227423, -0.11968505,  0.02277654,  0.07884250, -0.18193837,  0.11227250, -0.11597084,  0.35945091, -0.19493903,  0.15872988, 
    -0.20948869,  0.14475168, -0.18349651, -0.20443551,  0.00171171,  0.12506223,  0.22259380, -0.04852903, -0.11255701, -0.23148288, 
     0.06547678,  0.16107051,  0.36184227,  0.26131698,  0.00993226,  0.04072870,  0.21802565,  0.19349748, -0.17992559,  0.23097825, 
    -0.02100157, -0.03792165
};

const type_t W_fc1[960] = {
 0.05475806, -0.07730367, -0.18300815,  0.07297403, -0.09605735,  0.04791222,  0.17726900, -0.00200267,  0.00617134,  0.07432596, 
    -0.02143492,  0.00839920,  0.19525903, -0.03446902,  0.17518905,  0.03241268,  0.21837354,  0.02219460,  0.07845508, -0.16441634, 
     0.04646553,  0.19848260, -0.00817684,  0.16158298,  0.33726424, -0.14463070, -0.17744058, -0.02589062,  0.00123495,  0.20300898, 
     0.11057528,  0.05755456,  0.16107666,  0.18937039, -0.20987983, -0.14958359, -0.00170339,  0.19761714,  0.08196851, -0.08262052, 
    -0.02358259,  0.08295350,  0.06341189, -0.01026248,  0.33876026, -0.13858831, -0.07001591, -0.07231498, -0.00185742, -0.22204499, 
     0.10760394, -0.14923172,  0.10896954,  0.07844886,  0.28403085, -0.20212595, -0.19655314,  0.02983844, -0.14424242, -0.34560475, 
     0.19705212,  0.10959141,  0.11071844,  0.08615993,  0.16405284,  0.12827353,  0.12473600, -0.02608412,  0.01388294, -0.04327787, 
     0.01080553,  0.22469155, -0.07855257, -0.10978951,  0.05796488,  0.08275230, -0.06248437,  0.11979230,  0.06419010, -0.26532766, 
    -0.22526439,  0.03895834, -0.05198838,  0.17780356, -0.32080188, -0.22061978, -0.14586504, -0.29212493, -0.21083148, -0.18379261, 
     0.14904010, -0.08955094,  0.00403092, -0.11096151, -0.15927008,  0.20927623,  0.11151896,  0.10863654,  0.09259772,  0.22766039, 
    -0.35604557, -0.07223506,  0.00200925, -0.22732113,  0.04431939, -0.17198646,  0.00837661, -0.07651757, -0.25240326, -0.05184411, 
     0.15251656, -0.22867440, -0.19539753, -0.11611539, -0.29735142, -0.21843837, -0.02083555, -0.10583569,  0.12012778, -0.22457756, 
     0.11447981,  0.01994390,  0.02443576,  0.13945663,  0.38492990, -0.09952615, -0.00725920, -0.09029206,  0.11211453,  0.23263489, 
    -0.21003596,  0.14336076, -0.20502739,  0.09593706, -0.13952549, -0.04198450, -0.09990464,  0.14066119, -0.12878102, -0.04031339, 
     0.42290294,  0.23050731,  0.06305572,  0.23967922, -0.10942826, -0.13538454, -0.15181078, -0.12386286, -0.04734462,  0.02373631, 
    -0.15995775,  0.05772249, -0.12949575, -0.05687363,  0.07771406, -0.13549255,  0.17995840,  0.21741654,  0.10575647,  0.04346768, 
     0.16308877, -0.04563830,  0.05455197, -0.35738525, -0.15417103,  0.07041716,  0.01012274,  0.07483440,  0.06321730,  0.10627177, 
    -0.26406372, -0.01657930, -0.12488436, -0.03415361, -0.60140163, -0.18045415, -0.19226657, -0.37554458, -0.18368667, -0.21600026, 
    -0.21135859, -0.42118970, -0.26169538, -0.17952526, -0.42370147,  0.07009950,  0.13906066,  0.22558075,  0.17265117, -0.16509838, 
    -0.04581922,  0.05990643,  0.03484867,  0.07510877,  0.16262490,  0.20706232,  0.03131641, -0.55367130, -0.38326490,  0.04466703, 
     0.05679127,  0.01750546, -0.12532501, -0.12119738,  0.09866536,  0.19535026,  0.22537199,  0.18638571,  0.28514960, -0.27831060, 
     0.06195625,  0.21969740, -0.02910169,  0.04280401, -0.34552395,  0.18834214,  0.07917077,  0.13934666,  0.01769301, -0.08362665, 
     0.09553935,  0.14824277,  0.18429607,  0.00946262,  0.09854291, -0.05282876, -0.16842477, -0.03174560,  0.02250029, -0.05207872, 
    -0.05544311, -0.12429143, -0.13760376,  0.04937664, -0.13536008, -0.10905009,  0.45219851,  0.25339398,  0.31398648,  0.42651984, 
    -0.19380845, -0.04960395,  0.05317628,  0.08932289, -0.08981287,  0.40545344, -0.11405859,  0.36325273,  0.38458091,  0.10384927, 
     0.03209867,  0.31189957,  0.12014475,  0.29887205,  0.37859774, -0.28078452, -0.11715809, -0.21671638,  0.01535430, -0.16114548, 
     0.29888183,  0.08247594,  0.00529484,  0.34915340, -0.52066517,  0.03038345, -0.07118194, -0.07264130, -0.03382791, -0.10808297, 
    -0.31667289,  0.07445481,  0.21267045,  0.02353310, -0.03878256,  0.10293106,  0.45631737,  0.00964283,  0.40710080, -0.14158210, 
    -0.26610172, -0.21475244,  0.11363276, -0.04796657, -0.18007484,  0.16534801, -0.18837574, -0.05097643,  0.23245741,  0.02139265, 
    -0.04168425, -0.04290675,  0.07218154,  0.09228770, -0.12737370,  0.15521388, -0.23210661, -0.38799137, -0.31656253,  0.17304948, 
    -0.18815562, -0.14465836, -0.13681772, -0.08447216,  0.29175469, -0.03388613, -0.29196462,  0.05816942,  0.13924223, -0.17653812, 
     0.12053286, -0.21879166,  0.02330557,  0.18283649,  0.27313554,  0.18347874,  0.01695873, -0.21444488, -0.10163625, -0.10403966, 
     0.14806326,  0.04386919, -0.05505003,  0.09532920,  0.02803933, -0.03190866, -0.17971034, -0.07608300, -0.21558243, -0.09924123, 
    -0.16588598,  0.04943038,  0.00628468, -0.29082009, -0.01066542, -0.12856941,  0.10620290, -0.22264732, -0.18737566, -0.10182000, 
    -0.07083261,  0.01012244,  0.02741509,  0.13907261,  0.09975265, -0.02647595,  0.02831578,  0.08283909, -0.00692700, -0.03966473, 
    -0.08002206, -0.06316750, -0.08184754,  0.06347623,  0.05391451,  0.14748736,  0.09256899,  0.04666062, -0.01209237, -0.11250421, 
    -0.02903950,  0.02629146, -0.03920603,  0.11184668, -0.02469461, -0.19540179, -0.06825924, -0.21758828, -0.05197965, -0.02530190, 
     0.10943713, -0.01295647, -0.04718493, -0.21521659,  0.10181972, -0.11891582,  0.01370214, -0.03152640,  0.18175726, -0.12454180, 
    -0.06625078, -0.05472121, -0.04180989,  0.02802600,  0.07638670, -0.15617850, -0.10555910,  0.01973777, -0.14321035,  0.00841756, 
    -0.07156622,  0.02292645,  0.11990367, -0.02601458, -0.02011859,  0.16821247, -0.04022261,  0.16924304,  0.00272040, -0.22343434, 
     0.03859561,  0.06003629,  0.20571639,  0.21525945,  0.07755689, -0.24521087,  0.04146872, -0.04549015,  0.00182146,  0.05573363, 
    -0.03493770, -0.26100358, -0.13202262, -0.20749356, -0.01213385, -0.18011042,  0.16986944,  0.10584053, -0.17074749, -0.05505416, 
    -0.10885414, -0.11653670, -0.01004732,  0.00668107,  0.31721434, -0.03466749,  0.11745153, -0.02532166, -0.05440011, -0.06503524, 
     0.02439625, -0.00523294, -0.00222564,  0.00632272, -0.16033132,  0.02358449, -0.24867260, -0.17458387, -0.25728995,  0.20230718, 
    -0.19120862,  0.02984642,  0.19484322,  0.10693217,  0.02798392, -0.03460877,  0.11313592,  0.08772161, -0.10094408,  0.14839490, 
     0.24666864,  0.05168162, -0.13656326,  0.09930038, -0.03937968,  0.14043258,  0.21150474,  0.08156586, -0.08035689, -0.14238997, 
    -0.15112099,  0.02413448,  0.00548960,  0.01623012,  0.04663516,  0.04997951,  0.01604694,  0.05477500,  0.04971796, -0.11255313, 
    -0.00715233,  0.17948224, -0.07573934,  0.00309651, -0.16750170, -0.08226684,  0.14071196, -0.09742754,  0.10343940,  0.28147686, 
     0.24334855,  0.14230736, -0.05669847,  0.12855637,  0.05138546,  0.02213320,  0.06655647, -0.03891566,  0.03277055, -0.12034075, 
     0.21495119, -0.02790228,  0.12143450,  0.03121495, -0.22194092,  0.03752046, -0.01718584,  0.10586338,  0.10925337, -0.10755536, 
    -0.03766855, -0.07356150, -0.07783398, -0.13231014,  0.02136650,  0.00581527, -0.21208541, -0.25056344, -0.17551999, -0.17882150, 
    -0.15254888, -0.08803046, -0.15375958,  0.01946464, -0.15367752, -0.05058927, -0.02984943,  0.13046680, -0.00175816,  0.00795455, 
     0.01409147,  0.14619036,  0.05746930, -0.16161403,  0.07142730,  0.10280793, -0.16982900,  0.02334706,  0.03647324, -0.10813686, 
     0.10817216, -0.00500367,  0.03840797,  0.06243400, -0.07731636, -0.14486958, -0.00019222, -0.00070647, -0.14082310,  0.09929144, 
     0.03490825, -0.00960410,  0.13282610,  0.01009981,  0.16956559, -0.09940452, -0.02270234,  0.11685818,  0.18320677, -0.01567154, 
    -0.21010628,  0.04285960, -0.05875805,  0.13493483,  0.07421582, -0.39261308, -0.03813937,  0.14372717, -0.20626767, -0.11225908, 
    -0.13838138,  0.11715630,  0.07553478, -0.08983930,  0.00980454, -0.20204659, -0.35151735, -0.18897012, -0.25392991, -0.10417329, 
     0.03040532, -0.09813762,  0.05710601, -0.03120380,  0.08215316,  0.11706223,  0.12998374, -0.04074752,  0.01657798, -0.06356793, 
    -0.22608925, -0.01277749,  0.01742507, -0.13627002,  0.20948052, -0.02442393,  0.27269444,  0.24229878,  0.10561505, -0.00244430, 
    -0.06443415, -0.14985909, -0.14195824,  0.15410155,  0.08250397,  0.11849501, -0.35942534,  0.01364174, -0.29061544, -0.09292872, 
     0.04882002,  0.03446790,  0.11481410,  0.08167361,  0.00353699,  0.02955661, -0.16519463, -0.16611001,  0.10611605,  0.02248917, 
     0.05066993,  0.01907600, -0.07563367,  0.17660296,  0.06319805, -0.15945593,  0.14995033,  0.13261284,  0.14014098, -0.16711131, 
     0.10782488, -0.20016268,  0.05555153, -0.18354438, -0.17497171,  0.05803673,  0.06413895, -0.09691843, -0.05533656, -0.10039776, 
     0.15169176, -0.08714817, -0.09398139,  0.02593701, -0.00416038,  0.00391593, -0.06299561,  0.05616092,  0.01336678, -0.03490539, 
    -0.20254537, -0.09963465, -0.17061359,  0.19022250, -0.15455022, -0.06522595,  0.27051127, -0.77822649, -0.30223522,  0.95273048, 
    -0.21782647, -0.06798894, -0.40829891, -0.15783584, -0.42447212,  0.38821554,  0.30854028,  0.46867862,  0.39923358,  0.28398973, 
     0.11583752, -0.21653184, -0.25956109, -0.06398283, -0.15909164,  0.00846205,  0.31752929,  0.08150337,  0.34584135,  0.94288749, 
     0.00441336,  0.00726914, -0.27045307, -0.01429879, -0.11523911, -0.31483287, -0.10489003, -0.03240528, -0.24101169,  0.64748102, 
     0.09987796, -0.00215551,  0.10168377, -0.09629223, -0.35207504, -0.24555853, -0.68745506,  0.15369666,  0.02077366,  0.53598624, 
    -0.38017717, -0.08113999, -0.16428548,  0.06789842, -0.18308181, -0.34073111,  0.09210254, -0.05297851, -0.26806048,  0.01911246, 
    -0.30967715, -0.15569972, -0.05587185, -0.12641977, -0.42276409, -0.11582296,  0.09671035,  0.15691394, -0.07845198, -0.10438799, 
    -0.09998719, -0.40062869, -0.02463594, -0.28367037, -0.19576308,  0.09567696,  0.00606921, -0.31350100,  0.00315984, -0.22942531, 
     0.00023722, -0.03391114, -0.26254341,  0.04446603, -0.24026731, -0.34040585, -0.27084807, -0.41156769, -0.27442849, -0.29396501, 
     0.07992943, -0.27633926, -0.17162009,  0.11240590, -1.47533834, -0.11879653, -0.02610772, -0.15258639,  0.14679334, -0.15833354, 
    -0.21026573, -0.30880567, -0.02182465, -0.32763657,  0.09201206,  0.39049777,  0.29459384, -0.21713465,  0.66366225, -0.35725850, 
     0.30040580, -0.17748395, -0.00128335,  0.19512843,  0.19702530,  0.19925167,  0.28506142,  0.13990149,  0.26758802,  0.14061944, 
    -0.18551591,  0.16506818,  0.02607571,  0.33555984,  0.38099810,  0.07658417,  0.10691482,  0.00259366, -0.21462615,  0.21751097, 
     0.10716755, -0.00789795, -0.21698856, -0.05185429,  0.23213343, -0.26147425, -0.17419483,  0.19521493, -0.01844452, -0.16471696, 
    -0.12134989,  0.07676142, -0.15041170,  0.01032103, -0.12086998, -0.06737349, -0.06393893, -0.00125842,  0.21416584,  0.52312261, 
     0.03039613, -0.10668580, -0.27742794, -0.16109598, -0.29453066, -0.08132835, -0.04067951,  0.13730405,  0.10946381,  0.00994584, 
     0.08508871,  0.13094071, -0.11808528, -0.08504813,  0.30337504,  0.10290150, -0.78028363,  0.06872021, -0.38438308, -0.60771585, 
     0.05737107, -0.07056976, -0.02154731,  0.25645697, -0.09389577,  0.23384854,  0.34619766,  0.34656331,  0.03367105,  0.30948985, 
     0.29452315,  0.31661758,  0.27478254,  0.08443446,  0.01046671, -0.13757730,  0.03526727, -0.01754994,  0.08836119, -0.39582312, 
    -0.37913874,  0.08358157, -0.05051847, -0.10653916,  0.09930090, -0.05094675,  0.15203634,  0.17939053,  0.09620173, -2.33269596, 
    -0.15786937, -0.19418895,  0.00696325, -0.26740760,  0.08272590, -0.71833622, -0.54457325, -0.29014060, -0.52466035, -0.97494477, 
     0.00934615,  0.05745551, -0.09337254,  0.12597714,  0.50184268, -0.08177810, -0.11616547,  0.12705387,  0.03967083,  0.01008160, 
    -0.66548526, -0.28828076, -0.50346839, -0.27618125, -0.10888855, -0.16932100,  0.16673745,  0.21395740,  0.23295616, -0.09504344, 
     0.09294122,  0.02904055, -0.55590725, -0.18356679, -0.72244954, -0.19345433, -0.18947753, -0.63677847, -0.51721549, -0.27349785, 
     0.00966103,  0.04937020, -0.07708789, -0.07798897, -0.03771462, -0.02237347,  0.15983042,  0.08674181,  0.01525117, -0.29383203, 
    -0.43046632, -0.61988628,  0.04342436, -1.13683331,  0.40742064, -0.79297984, -0.03348386, -0.03890533, -0.62508655, -0.07617822, 
    -0.04538938, -0.04828602,  0.09232876,  0.30707741, -0.26739031, -0.55052274, -0.51923275, -0.43853691, -0.69626182, -0.84670168, 
     0.14689183,  0.01848451,  0.04722031, -0.00920648,  0.26842910,  0.08815516,  0.02494637,  0.14685614,  0.01276310,  0.34360522, 
     0.04654615, -0.03828940, -0.00110679,  0.15786369, -0.11531611, -0.15518507, -0.33790311, -0.07757342,  0.00419571, -0.21785861, 
     0.15741244, -0.05624519,  0.13566804, -0.12482867, -0.09140367,  0.21552819,  0.25915328,  0.09937912, -0.06827477,  0.17078292, 
     0.11893480,  0.23965874,  0.15708028, -0.00857315, -0.54495430,  0.19277018,  0.17410219,  0.03626517,  0.11914454, -0.06257096, 
    -0.13447197, -0.02164610, -0.13245286, -0.23496290,  0.13962178, -0.00334424, -0.25345922, -0.31548426, -0.24816439, -0.03393085
    
};

const type_t B_fc1[6] = {
-0.34419161,  0.03869759,  0.13984013,  0.02029838,  0.24424551, -0.05287926
};

#endif // WEIGHTS_H
