#ifndef WEIGHTS_H
#define WEIGHTS_H

#include "conv5.h"

const type_t W1[54] = {
-0.08707456, 0.46298990, -0.56390238, 0.43584666, 0.57763797, -0.37598866, 0.08660513, -0.80987394, 0.14902897, -0.65061152, 
    -0.19189219, -0.45667332, 0.48871434, -0.29749092, 0.65104026, 0.30206424, -0.37588039, 0.19517887, 0.27509937, 0.33044004, 
    0.21053183, 0.77110279, -0.50206971, -0.89143622, 0.04644916, -0.25706193, 0.56715584, -0.61450535, 0.18464758, -0.64969200, 
    -0.21302739, -0.58583575, 0.50920397, -0.29702389, 0.44481117, 0.45127937, 0.02268115, 0.20196189, 0.28640625, -0.54814011, 
    0.48432109, -0.24647520, -0.59168774, -0.16653195, 0.43168294, 0.92689812, -0.84043247, -0.33529583, 0.25194544, 0.15663227, 
    -0.27771565, 0.51036984, 0.01274078, 0.86580461
};

const type_t B1[6] = {
0.24540234, 0.11724622, 0.04712359, 0.57512957, 0.20708214, 0.25613403
};

const type_t W2[216] = {
-0.58443511, -0.24408121, -0.24439439, 0.23362699, -0.23035534, 0.10840162, 0.61190861, -0.23763415, 0.36108479, 0.35775656, 
    0.39000073, 0.35451695, 0.18319458, -0.09817821, -0.19452435, -0.46486551, -0.03986100, 0.52904153, -0.26921749, 0.38261768, 
    -0.10668013, 0.48905879, 0.40504724, -0.03080541, -0.52742869, -0.31801102, -0.25020009, 0.10936695, -0.20416735, 0.48013067, 
    0.04579331, -0.41953284, -0.45016608, 0.28436816, -0.50886494, -0.09311640, 0.14995627, 0.47275603, 0.51821989, -0.23478244, 
    0.38810453, 0.29988444, -0.33465365, -0.47364944, -0.48017064, -0.12944229, -0.16936615, 0.01017698, -0.18628605, 0.33730319, 
    0.05265035, -0.00432321, 0.34054342, -0.26831278, 0.54123509, 0.41272852, -0.06545547, -0.61167896, -0.38332334, 0.39205468, 
    0.50930548, -0.47910982, 0.48168349, 0.62837344, 0.29433450, -0.71121025, -0.35511947, -0.14093696, -0.61915851, -0.27752751, 
    0.52702832, 0.42263693, 0.51840800, 0.52265507, -0.80989945, 0.48926100, -0.15429780, -0.19882448, -0.01812176, 0.23417400, 
    -0.38179961, 0.25744575, -0.42655012, 0.04995697, 0.59971166, -0.50650114, -0.14830521, -0.10619184, -0.40775168, 0.34382391, 
    -0.37707332, -0.21394682, 0.43423396, -0.62285799, 0.52403706, 0.56318480, -0.42778236, 0.03341543, -0.18249746, -0.60649800, 
    -0.21816890, -0.13979952, 0.73533130, -0.21352342, -0.35785434, 0.58748758, -0.20336089, 0.23405688, -0.14416037, -0.03829803, 
    -0.32161656, -0.34883940, -0.28295380, -0.40624359, 0.64230710, -0.25814614, -0.24445421, -0.08585109, 0.31228647, -0.10675898, 
    -0.38656151, 0.30999005, 0.41001204, -0.52532625, 0.47856173, 0.05726529, 0.59116471, 0.44539014, 0.37129131, -0.31392378, 
    -0.56412661, -0.50714314, -0.11198555, 0.50230360, -0.03350882, 0.04399366, 0.27729771, -0.06502771, 0.62453681, -0.61905384, 
    -0.41175687, 0.33789429, 0.00088921, 0.17314093, -0.34604052, 0.05463576, -0.38604084, 0.08270942, 0.34680504, 0.38055846, 
    0.36326563, 0.44997048, 0.15248132, -0.19575725, 0.46452901, -0.10107723, 0.25736186, 0.47659394, -0.05136976, -0.10979813, 
    0.47312641, 0.07027190, -0.18479225, -0.38802370, -0.06357408, 0.37670618, 0.06549405, -0.04211900, -0.13402329, -0.00716846, 
    -0.10782812, -0.01827094, 0.03567623, 0.64413375, -0.15807772, 0.06381397, -0.38620803, -0.05990985, -0.63326162, -0.26871604, 
    0.43858948, 0.32385901, 0.47382033, -0.06413488, -0.67290407, 0.51988631, -0.49882558, 0.10308571, -0.00412298, 0.03408077, 
    -0.54894805, -0.01078376, 0.56695324, 0.24714935, -0.11395682, 0.05874046, -0.31221050, -0.76181769, 0.22675565, 0.19254717, 
    0.28795937, -0.33906955, -0.50817686, -0.49789876, -0.30772915, -0.07237665, 0.25559857, -0.31988886, -0.08148189, 0.01685846, 
    -0.08736132, 0.35708115, 0.13844021, -0.23359822, -0.05934655, 0.04328949
};

const type_t B2[12] = {
0.01670096, 0.23675729, -0.23508403, 0.33748624, 0.05539120, 0.15872492, 0.31340387, -0.22935216, -0.23985380, -0.01527085, 
    0.06621259, 0.06546928
};

const type_t W3[576] = {
0.44627923, -0.29880089, -0.38407853, 0.04904354, 0.13189536, -0.35002628, 0.51044524, 0.06573030, 0.23107225, -0.20888561, 
    -0.32699919, 0.35418206, -0.10396224, 0.09358070, 0.04274080, 0.32237950, 0.38006318, 0.00208287, 0.25739217, 0.10360457, 
    -0.29451829, 0.03157525, -0.29349726, 0.09953050, -0.29019940, 0.10340783, -0.16851330, -0.07684024, 0.18960144, -0.01310140, 
    -0.40014488, 0.39515528, -0.11084899, -0.34141278, -0.27704179, 0.02266301, -0.03269474, 0.37846592, -0.04197836, 0.41085002, 
    -0.09983843, 0.22143742, 0.29665563, -0.10441481, -0.20864509, -0.03564830, -0.08727828, -0.51511365, -0.22162920, -0.11038497, 
    0.20968604, 0.00862153, 0.27655768, 0.36504292, -0.31670395, 0.33882439, 0.05818379, 0.02472175, 0.00144218, -0.17826445, 
    0.26110610, 0.00259774, 0.49048162, -0.18525842, 0.29287595, -0.16867788, -0.12402020, -0.38180456, -0.23373987, 0.16995858, 
    0.31971353, 0.14727737, -0.14071462, 0.38949081, 0.28121337, 0.08843953, -0.13316691, -0.42212251, 0.07963090, -0.09817758, 
    -0.01741037, -0.03014475, 0.48164919, -0.18653241, -0.17122254, -0.17613538, 0.40478370, 0.30093926, 0.26659599, 0.00421297, 
    -0.40015036, -0.02267089, -0.42309237, -0.30737054, 0.05499605, 0.24436279, -0.24637644, 0.15623771, 0.16649134, -0.01631812, 
    -0.44324660, -0.02356233, 0.05634875, 0.01450562, -0.18243398, -0.01512666, -0.21594836, -0.07392663, 0.03153792, 0.14202400, 
    0.32028067, 0.37970543, -0.33227199, 0.19310305, 0.47047117, -0.15854444, 0.32052892, 0.47941762, -0.20708895, -0.01444394, 
    -0.14833647, -0.11861718, 0.21877074, -0.03416985, -0.02935779, -0.23052813, -0.25256938, -0.09293815, 0.37753528, 0.32738221, 
    0.38033417, -0.18244259, 0.07277290, 0.04844544, 0.28886318, 0.02112316, 0.24492584, -0.02526384, -0.15139392, -0.30617115, 
    -0.32011032, -0.22870322, 0.01774435, -0.34727624, 0.43492061, -0.32664099, 0.27016369, 0.27081719, 0.39175799, -0.35321611, 
    -0.03321530, -0.06474116, 0.00183526, -0.25586817, 0.40521839, -0.29195338, 0.04825136, 0.45625558, 0.07477905, -0.14631578, 
    0.18499596, -0.11936571, 0.13734998, -0.00852613, 0.43772066, -0.13185285, -0.13126609, 0.14583960, -0.41741660, 0.32274055, 
    -0.26556641, -0.15808395, 0.51909709, -0.16130492, 0.40334329, 0.38086015, -0.08185617, 0.43206924, 0.18516643, 0.10025940, 
    -0.26496732, -0.29502580, 0.18457663, 0.23579039, -0.16490696, -0.14646460, 0.25841904, 0.27067223, 0.10648784, -0.05287413, 
    -0.20937805, -0.23209801, 0.45650345, 0.19702789, 0.21321671, 0.34412658, -0.01814270, 0.49218118, 0.05273878, -0.20486332, 
    0.09772743, 0.42729497, 0.12278120, 0.10573933, -0.12176599, 0.21077648, 0.04718638, 0.06842050, 0.22505850, -0.13767403, 
    -0.24207914, 0.24222542, -0.08430741, 0.32881325, 0.14703821, 0.35466942, -0.19177364, -0.03893225, -0.04130017, 0.19140281, 
    -0.49238163, 0.29402375, -0.31543750, -0.28584543, 0.05169752, 0.09456632, 0.41531962, 0.16412555, 0.30506405, 0.09258921, 
    -0.34327504, -0.13452876, 0.26759803, 0.34979954, 0.08649124, 0.41265196, -0.05429557, 0.10525313, 0.04561810, -0.44945574, 
    0.20845824, 0.06508878, 0.24028270, -0.11620417, -0.12452450, -0.11473200, -0.38315085, 0.27727419, -0.28683856, 0.11803291, 
    -0.04047922, 0.04257996, -0.05786036, 0.16223943, -0.40549731, -0.30599374, 0.26742518, -0.29083112, -0.06817563, -0.17270164, 
    0.52164936, -0.09849442, -0.00289741, 0.13982998, -0.45616099, -0.04527371, -0.01961346, 0.07346033, -0.10651764, 0.28456384, 
    0.43477070, 0.38756931, 0.18107069, -0.06010864, -0.20150171, -0.25209284, -0.35307246, -0.14525372, -0.16434912, -0.05188238, 
    0.34998670, 0.34782147, 0.07587456, 0.05126313, 0.10797544, 0.23022352, 0.34139198, 0.43179303, 0.19034791, 0.32695743, 
    -0.17634867, -0.04824175, -0.31671980, 0.08763360, 0.46705946, -0.10742068, -0.37401110, -0.22885042, 0.31838825, -0.00018408, 
    -0.36283144, -0.00558437, -0.07249951, 0.25222763, -0.25375801, -0.11307465, 0.33398658, -0.15815948, 0.40649027, 0.39376283, 
    -0.04201256, 0.32156858, 0.34894192, 0.18824598, -0.15815501, -0.35774311, -0.13043191, 0.44662213, -0.16220397, 0.44420764, 
    0.13256179, -0.49515346, -0.14119104, 0.64590508, 0.17953964, -0.18462057, -0.27337474, -0.19306289, 0.04509752, -0.11340507, 
    0.24251020, 0.16253334, 0.24988693, -0.28334269, -0.06531733, 0.33487928, 0.30676055, 0.09379876, -0.26905677, 0.38419676, 
    -0.13287158, 0.09734437, 0.07912721, 0.30045220, -0.12441935, -0.40999672, 0.47190267, -0.01799976, 0.29998168, 0.39647719, 
    0.03373718, 0.00883081, -0.06459029, 0.14563255, 0.19446927, -0.20819515, -0.32293713, 0.34218684, -0.39307022, 0.25320420, 
    0.34190446, -0.26224440, -0.28052998, 0.31307843, 0.10080301, 0.11924881, -0.01495117, -0.24472730, 0.53694570, 0.10395484, 
    -0.21163799, -0.15702066, 0.46296325, 0.29393947, -0.29338089, -0.17053862, 0.37040198, -0.02039874, 0.18898910, 0.43550134, 
    0.44824386, -0.05981432, -0.10108907, -0.31442282, -0.02925302, -0.30595547, -0.33625054, -0.48106766, 0.28206784, -0.61728770, 
    0.37144518, 0.35761085, 0.19365561, -0.30270377, -0.38962999, 0.48086718, 0.11814911, 0.09378415, 0.35649264, 0.07307173, 
    -0.33688110, -0.37791398, 0.35625735, -0.23188740, 0.42538786, 0.34109658, -0.19912365, 0.26690441, 0.46772870, -0.26374885, 
    0.15430325, 0.34235525, -0.02346877, -0.30589432, -0.50719798, 0.39155534, -0.36952794, -0.26714772, -0.33581799, 0.36910683, 
    -0.00322185, 0.41987598, -0.02008167, 0.27425724, -0.50218540, 0.17396513, 0.12258399, 0.37371305, 0.05778066, 0.11272120, 
    -0.07031887, -0.09273156, 0.03520271, -0.24613824, -0.07669810, -0.01083683, -0.24057910, 0.07333796, -0.14924948, -0.30179241, 
    -0.40333664, 0.16847607, -0.14452980, 0.21780388, 0.27076527, -0.04110511, -0.11619193, 0.30203849, -0.22672568, -0.32170597, 
    -0.32598341, 0.43960151, -0.05122297, -0.23862566, 0.31891090, -0.25531584, 0.00523712, -0.13673887, -0.26910275, -0.33120891, 
    -0.22000585, 0.15323435, 0.13145055, -0.25143158, 0.19592364, -0.09907942, -0.10905935, -0.24283198, -0.15217564, 0.16319983, 
    -0.18141042, -0.28325287, -0.35858104, -0.00761456, 0.22155437, -0.16873403, 0.16697715, -0.27563605, 0.36669910, -0.34359637, 
    0.02241502, 0.02553317, -0.60371900, 0.01471413, 0.02131579, 0.43377313, -0.36899358, -0.03322393, 0.05276865, -0.36917329, 
    0.02112564, -0.59996265, 0.05139667, -0.14800043, -0.26783174, -0.18693592, 0.10056458, 0.12966336, -0.08311704, -0.18780075, 
    0.11065710, 0.24544692, -0.31637275, 0.67561454, -0.26403552, -0.23583733, -0.25556469, -0.09954021, -0.15742551, -0.26179206, 
    0.00706236, 0.41026568, 0.07382897, 0.07733719, 0.08851188, -0.57192922, 0.20143192, -0.06117308, -0.07770436, 0.24065882, 
    0.16553625, 0.16924663, 0.25041863, -0.21663989, 0.31360021, -0.17077419, -0.03713661, -0.27170905, 0.39766276, 0.27636266, 
    0.13356151, -0.01258959, 0.30684939, 0.44633570, -0.11773401, 0.42833561, -0.15021364, -0.26150981, 0.22718370, 0.14053079, 
    0.06335536, -0.03179653, -0.26651368, -0.26100397, -0.29244140, 0.04379274, -0.07827738, 0.35466790, -0.46224543, 0.10821240, 
    -0.05499502, 0.22968544, -0.07417508, -0.14026444, -0.29614884, -0.24394946, -0.26732215, -0.07375157, -0.14423692, -0.36213997, 
    0.08233668, 0.37254003, 0.12970568, -0.30675095, 0.25590760, 0.40621245, 0.41136122, 0.05257958, -0.07437585, 0.00932291, 
    -0.34080666, -0.26147991, -0.45293677, -0.30336067, -0.12393340, 0.03678688
};

const type_t B3[16] = {
0.26352343, -0.21750389, 0.08734615, -0.06703486, 0.34592840, -0.25151661, 0.36822999, 0.19760926, 0.03531557, -0.28708243, 
    0.11480273, -0.18976843, 0.30441427, 0.17594849, -0.09454144, -0.17596170
};

const type_t W4[1152] = {
0.12809244, -0.27554557, 0.37415296, 0.38413852, 0.06043490, -0.28311563, 0.16784753, 0.31228390, 0.01371392, 0.17735113, 
    -0.17162292, 0.20139490, -0.02196993, -0.06668888, 0.35310906, 0.14955798, -0.03978204, 0.10459964, 0.26438105, -0.28447637, 
    0.03404958, 0.51742154, 0.17502227, 0.24444932, 0.03166038, 0.33102176, -0.26384860, 0.26086548, -0.46317816, -0.15421405, 
    -0.10903579, 0.34830603, -0.11845636, -0.34922913, 0.12930548, 0.16198958, -0.27211544, -0.32400355, 0.31847438, 0.22739294, 
    -0.37897095, 0.25723204, -0.07547540, -0.07750455, -0.05896705, 0.13944922, -0.10510950, 0.31272274, 0.18470564, -0.17327042, 
    -0.37458450, -0.07406214, 0.16877571, 0.11437113, -0.09893618, -0.07895434, 0.25689158, -0.00461329, -0.10643806, 0.23936129, 
    0.06704701, 0.01429581, 0.09461394, 0.24624839, 0.15503192, -0.16771981, 0.15446205, -0.26611823, 0.15738086, 0.15153222, 
    0.48465723, 0.25862008, 0.00157857, -0.02653568, -0.21698412, 0.27582690, 0.27127278, -0.00543587, 0.30407083, 0.11835582, 
    0.00894258, 0.34012523, -0.18407290, -0.32138157, 0.33444536, 0.12698871, 0.08971596, 0.02640804, -0.44669178, 0.05933738, 
    0.07664297, 0.00701738, 0.16844365, -0.38500825, -0.23202962, -0.16195114, -0.17314835, -0.39261022, -0.02381572, 0.22749382, 
    0.29683715, 0.33980751, 0.26751629, 0.24227598, 0.01774959, 0.43442190, 0.37701425, -0.28958896, -0.07777011, 0.14742437, 
    -0.51579171, 0.16765940, 0.10268031, 0.02683715, -0.34484091, 0.05364527, 0.30035698, 0.08428014, -0.09894782, -0.12759779, 
    -0.01823073, 0.15845627, 0.13189147, 0.25305951, 0.08955549, -0.17884035, 0.29529473, 0.46220595, -0.18806197, -0.23931320, 
    0.24413317, 0.12835824, -0.23871811, -0.06905409, -0.19574143, -0.04980015, 0.06158308, 0.10854684, 0.10762288, -0.36670473, 
    0.09139397, 0.21971326, 0.24890451, -0.18924852, -0.33199295, 0.15869738, -0.05523562, -0.15339051, 0.12081694, 0.14284508, 
    -0.36202836, -0.14044788, -0.10457256, 0.11859855, 0.39870641, -0.24313997, 0.13854520, 0.28618559, -0.29900458, 0.31199047, 
    -0.31618515, 0.38899383, 0.00040806, -0.26395515, 0.06639894, -0.47841671, 0.43958476, 0.17138819, 0.04663656, -0.07846719, 
    -0.15234272, 0.28928620, -0.27207687, -0.26933479, 0.30223167, -0.05926044, 0.03726524, 0.07339735, -0.15580875, 0.37606966, 
    -0.21124819, -0.01782518, -0.43045995, -0.11138813, -0.32984012, 0.44085681, 0.25552067, 0.19183902, 0.37476319, 0.20538369, 
    0.10238212, 0.46311012, 0.07361462, -0.58139229, -0.49335203, -0.01877133, -0.20845281, -0.15786095, 0.12869902, 0.34829277, 
    -0.34159890, -0.38457036, 0.20232640, -0.08960337, -0.20506637, 0.31713292, 0.18413901, 0.04393911, -0.24328749, 0.36746556, 
    0.05041723, 0.10767928, -0.11373623, 0.00845468, -0.19710155, -0.27238035, 0.06828833, -0.24612617, -0.28409970, -0.00407196, 
    0.41935146, 0.19920096, 0.00284190, 0.14562427, 0.34997621, 0.12991120, -0.30791557, -0.24854417, -0.05055765, 0.40424755, 
    -0.17169009, 0.22290085, 0.29222289, 0.37475380, -0.10968770, -0.32358190, 0.07339088, 0.11870955, -0.13886465, -0.55010694, 
    0.13680366, -0.08186654, 0.31256592, 0.36931974, 0.14245029, -0.46210027, -0.22434016, -0.00757369, -0.37446997, -0.12417863, 
    0.40634650, -0.33702317, 0.34831837, -0.10092213, 0.00976212, -0.08574740, -0.43905383, 0.12171195, 0.24490447, -0.06213573, 
    0.03997881, 0.56466281, -0.08693011, -0.14003688, 0.10615245, -0.27448726, 0.04924359, -0.08532552, 0.23783328, -0.04552965, 
    0.01941463, -0.13735400, 0.42223340, -0.22203837, -0.10614716, 0.31146955, -0.17928390, 0.07953421, -0.32073408, -0.21339588, 
    0.02156577, -0.25846931, -0.06248135, 0.02534584, -0.10999343, -0.27915797, -0.15488006, -0.09760224, 0.32002753, -0.07183594, 
    -0.48898301, -0.10037424, -0.60359699, -0.26853099, 0.16160923, 0.18918027, 0.00508415, -0.27864113, -0.31666803, -0.24312752, 
    0.24959886, 0.05637898, -0.00373945, 0.12782738, 0.06272937, 0.22178411, -0.32492235, 0.06272230, -0.08664064, 0.34488019, 
    0.40281758, -0.12915476, 0.07136270, -0.09416310, 0.21064584, -0.24890740, -0.11172957, -0.43444398, 0.34155855, -0.22028717, 
    -0.13692404, 0.39363599, 0.06396998, -0.04588836, -0.45596182, -0.09065162, 0.25326589, 0.03603995, -0.00611392, -0.27417821, 
    0.18411988, -0.22125494, -0.02576406, 0.06323559, -0.00527768, 0.17575715, 0.23939340, 0.29921031, 0.12714475, -0.10456874, 
    0.09886326, -0.10628505, -0.15127568, -0.24488793, 0.41567820, -0.34962064, -0.23383690, -0.02278610, -0.27869129, -0.29615211, 
    0.06035111, 0.11209458, -0.07963084, 0.35633087, 0.04019953, -0.17237392, -0.14848116, 0.13194989, 0.09593071, 0.56134355, 
    0.00665566, -0.07848677, 0.29437095, 0.46924984, -0.19339406, 0.22692727, 0.53528368, 0.00983742, -0.00090042, 0.01292129, 
    0.11692169, 0.46006614, -0.20576464, 0.30322415, -0.38214234, -0.20440239, -0.49061340, -0.01650885, 0.19441238, -0.09885242, 
    -0.17328431, -0.33671519, 0.28023553, 0.09253718, -0.30348897, -0.38334692, 0.05731565, -0.01528506, 0.27972281, -0.18030605, 
    0.35289308, -0.15125078, 0.08427644, 0.20749378, -0.20569870, 0.34437501, -0.11439589, -0.22549196, -0.19577494, 0.40915129, 
    0.21765001, 0.21410367, 0.30451950, -0.34849352, 0.31045470, -0.45484915, -0.07478270, 0.45335564, -0.11079818, 0.31246033, 
    -0.17497118, 0.10583217, -0.27667394, 0.13185799, -0.23098642, -0.29993099, 0.23905689, 0.40176421, 0.05384115, 0.04535335, 
    -0.36361334, -0.07772654, -0.06586616, 0.19187833, -0.30106992, -0.00627441, 0.52606422, 0.13835940, 0.43964812, -0.08306146, 
    0.11033756, 0.14776324, -0.09613248, 0.01577372, 0.05069583, -0.18293132, 0.13205710, -0.12193935, 0.39382479, 0.27873755, 
    -0.19130491, -0.00688121, 0.35207590, -0.16482206, 0.28136173, -0.27750424, -0.25449693, 0.08803973, -0.27865931, 0.07039028, 
    -0.21993248, -0.15005229, -0.18927777, 0.17322019, 0.12308152, -0.11665139, 0.15794104, -0.04332449, -0.37457144, -0.16449800, 
    -0.09376164, 0.18155988, -0.15769854, 0.21059714, -0.25232401, -0.31107876, 0.32857600, 0.41303718, -0.18691468, -0.00217782, 
    0.40545219, -0.28702703, 0.22298120, 0.03923086, -0.28347436, 0.22907440, 0.04233855, 0.16326144, -0.08547151, 0.13850661, 
    0.10274668, -0.20390877, 0.31542829, -0.13780104, -0.10686979, -0.14374651, 0.11726791, 0.30420265, 0.11815318, 0.23664391, 
    -0.05696305, -0.26783988, -0.04110132, 0.08813564, 0.35464647, -0.02696168, -0.08486041, 0.01922490, -0.07547863, 0.36274001, 
    -0.06982175, -0.37209937, -0.16860551, -0.30742222, 0.08739789, 0.11016871, -0.33649021, -0.15604600, -0.11387769, -0.05567624, 
    0.33406651, -0.00009281, 0.22069269, 0.31471145, 0.30645967, -0.21006933, -0.32157785, 0.12148264, -0.16286401, 0.43370032, 
    0.05113062, 0.30126932, 0.33469877, 0.22411080, -0.28086373, 0.32601500, -0.06548247, -0.31870463, -0.01814696, 0.20796821, 
    -0.31708309, 0.37034729, 0.41247398, 0.00918008, -0.25960353, 0.19793460, 0.29035667, -0.16152370, 0.27620378, -0.23650435, 
    0.03120611, 0.14635395, 0.05633893, 0.04683045, -0.06214229, 0.14484714, 0.19707154, 0.21580677, -0.13391457, 0.18002672, 
    0.35155660, 0.16964617, -0.00825247, 0.05647244, 0.03334889, 0.13787386, -0.08902613, 0.16860360, 0.03316633, 0.36645573, 
    0.17212923, 0.16549745, 0.32318109, -0.01298382, -0.35977575, -0.28378481, -0.43522131, 0.24375911, -0.37386781, -0.44019285, 
    -0.23398510, 0.21634640, 0.34164700, 0.37065166, 0.08738146, 0.06694403, 0.27145961, -0.15537970, -0.24388792, -0.06212908, 
    -0.13336231, 0.38310617, 0.00104360, 0.19308507, -0.08194692, -0.37594640, -0.32737100, 0.20318611, 0.26854631, -0.37093675, 
    0.28782001, 0.19471891, -0.00753738, 0.16100667, 0.32268068, 0.25690162, 0.18057433, -0.28032902, 0.07710471, 0.00267920, 
    -0.31252116, 0.28284323, -0.36910859, 0.16845578, 0.02130183, 0.05620024, 0.10028912, -0.15062383, 0.33764821, -0.03295961, 
    -0.28348067, -0.20037356, 0.04083475, 0.23992735, 0.08082427, 0.11231091, 0.37661254, 0.47484908, 0.14589933, -0.08994234, 
    -0.13994487, 0.06081157, -0.25594231, 0.11691059, -0.34066778, -0.11421113, -0.22818588, 0.54773587, -0.49460173, 0.06503993, 
    0.40762594, -0.21483441, -0.16162327, -0.33347645, -0.18485890, 0.29631793, 0.14067493, 0.00116240, -0.23235704, -0.02451495, 
    -0.26106963, 0.00521951, 0.15972674, 0.00546212, -0.31253475, -0.09651574, -0.26498961, 0.21182980, -0.14886084, 0.34768328, 
    0.18297105, -0.09720100, -0.06032086, 0.06027156, 0.09557707, -0.13017966, 0.21289627, 0.02011580, 0.04349659, 0.31389821, 
    0.15796845, -0.19265787, 0.00016057, 0.15499271, -0.16217606, -0.09511624, 0.12246312, 0.41213861, 0.21485753, -0.09264717, 
    0.02713882, 0.21398674, -0.01278704, 0.40640566, -0.32620999, -0.08471264, -0.17340955, -0.18575834, -0.29013512, -0.10577200, 
    -0.14780097, 0.08202969, 0.06596009, 0.10400990, -0.09444495, 0.08261195, -0.20600571, -0.40636542, -0.18981385, -0.12103352, 
    0.33871877, 0.32887530, 0.14436713, 0.02684147, -0.12890922, 0.07591249, -0.10543811, 0.15974553, -0.28253955, 0.40797064, 
    0.28511935, 0.02311511, 0.00198606, -0.10579076, -0.21737160, 0.01991888, 0.14179106, 0.09451149, 0.08277450, 0.44913077, 
    -0.21472026, 0.02705943, 0.17751457, -0.01412065, 0.02647885, 0.13183026, -0.36271229, -0.05657297, -0.45974150, -0.10090594, 
    -0.59530318, 0.21813396, 0.03097067, 0.22484329, -0.09024927, -0.24915810, 0.31529608, -0.11702628, -0.24750704, 0.37560692, 
    -0.16969700, 0.35170314, 0.03440462, 0.39676747, -0.04192321, 0.46410498, 0.30241403, -0.30021355, 0.10012733, -0.23219639, 
    -0.34955513, -0.22714455, 0.05775094, 0.53801268, -0.13338077, -0.16053456, 0.10830065, -0.00860730, 0.20423150, 0.13936551, 
    0.20079060, 0.29478860, 0.10591523, -0.31480104, 0.18507269, 0.16797628, 0.04634552, -0.05441481, 0.16100113, -0.11546098, 
    0.24548723, -0.32919675, -0.07595222, -0.29090345, -0.02947080, 0.47549719, 0.14127304, -0.23148617, 0.23564433, 0.02608231, 
    -0.15525191, -0.03026415, -0.45991957, -0.24129401, -0.23186143, -0.15389836, -0.10057428, -0.30545756, 0.15757717, -0.31643611, 
    0.27299738, -0.07184914, 0.31063941, -0.03339864, -0.07168787, 0.01723928, 0.29552165, 0.21152678, -0.20813403, 0.03479350, 
    0.17196146, -0.04162210, -0.27586323, -0.00826200, 0.21051882, -0.00494701, -0.23820014, 0.20428008, -0.17999357, -0.37406379, 
    -0.35157755, -0.08590166, 0.35469958, -0.37386253, 0.09672443, 0.02326321, 0.15357861, 0.47898257, 0.04175653, -0.15593891, 
    0.11726440, -0.05441210, -0.10631043, 0.33895442, 0.28373283, -0.25474033, 0.11423270, 0.28221628, 0.06604283, -0.11005911, 
    0.16829070, -0.33192438, -0.28311363, 0.22739951, 0.23758326, 0.34948081, -0.27203375, 0.48857391, 0.10859990, 0.08998554, 
    -0.25377098, 0.06198706, -0.41879362, 0.20066367, -0.25722051, 0.32947379, -0.08351024, -0.32229581, 0.00484696, -0.45669043, 
    0.18974423, 0.22876440, -0.05926278, -0.17710389, -0.04940416, -0.19446708, -0.16564792, 0.37481934, 0.34117872, -0.22122346, 
    -0.25602651, 0.28497496, 0.11824606, 0.29479569, -0.00952363, -0.21982548, 0.01492534, 0.21528567, -0.52051556, -0.45542821, 
    -0.09210030, -0.24205694, 0.36179098, 0.27256837, -0.40794471, 0.32536286, 0.03970914, 0.18311912, -0.01488654, -0.12133000, 
    -0.08785983, 0.39791650, 0.17494825, 0.41117987, -0.23607802, -0.18383127, -0.28233042, 0.00480348, -0.29409504, -0.19391769, 
    -0.15834007, 0.18674703, 0.31206304, -0.12873530, 0.38881317, -0.08877087, -0.46428356, -0.65182352, -0.39310196, -0.26192570, 
    0.01110437, -0.09182205, -0.18363385, -0.18689895, 0.44781637, -0.25507697, 0.20475085, -0.01481801, 0.07659225, 0.10514221, 
    -0.18049918, -0.37394640, 0.35325867, 0.13571090, -0.13427141, 0.35032839, 0.02349038, -0.39779463, -0.04955520, 0.33741981, 
    0.13349217, 0.30650735, -0.19677714, -0.42913485, 0.48457426, -0.34813118, -0.01836299, -0.10582097, -0.06926780, -0.02575718, 
    -0.21963373, 0.31111225, 0.17285122, -0.17525078, -0.32129264, 0.26429629, -0.09561528, -0.12528388, -0.15177131, -0.44982621, 
    -0.22172660, 0.14680761, -0.05256473, 0.22408591, -0.33106232, 0.01709669, 0.04266666, 0.19344583, 0.09944152, 0.15580875, 
    -0.06582866, 0.33215755, 0.14088851, 0.08202671, 0.42619276, 0.24135487, -0.00529126, -0.19380297, 0.04300133, 0.48307794, 
    -0.09939814, 0.08952194, 0.22037308, 0.02486660, -0.05665784, 0.31356543, -0.46237102, 0.22727826, -0.19472308, -0.14619206, 
    0.17974824, 0.03863299, 0.15063088, 0.45521930, -0.23791510, 0.15088849, -0.02942311, 0.07097819, 0.27077091, -0.12131543, 
    -0.08289552, -0.29991722, -0.39067122, 0.42078975, 0.09216956, 0.38366303, 0.21042567, -0.19153512, -0.10171940, 0.03417264, 
    -0.25704348, 0.50881165, -0.41147020, 0.43796518, -0.19007428, -0.27749214, 0.32996804, -0.16162488, -0.01865099, -0.30830508, 
    0.17552695, -0.25645483, 0.09093794, -0.04978299, -0.30020157, 0.22004822, -0.17702080, 0.02368028, -0.04043650, 0.02281562, 
    0.12154216, 0.12755026, -0.15118724, 0.29253465, 0.23404689, -0.25374886, 0.11147353, -0.17696431, 0.44214204, 0.52656972, 
    0.14193086, -0.42242396, 0.28874341, -0.15198402, 0.29672322, -0.40336183, -0.14153907, -0.04379497, -0.02504077, -0.35104054, 
    0.24326889, -0.21100722, -0.39160976, -0.07837083, -0.03329811, -0.10699394, -0.10710659, 0.19394045, 0.20491304, 0.12459040, 
    0.13083299, 0.10639880, -0.14906141, -0.33753204, 0.39894944, 0.17057605, 0.27823004, 0.00290781, -0.26754421, 0.35092908, 
    0.01533887, -0.07165488, 0.24443109, -0.13462731, 0.15793997, 0.35003060, -0.13668992, 0.32684034, -0.20252243, 0.21191896, 
    -0.03586943, -0.00105029, 0.26022661, 0.06208888, 0.28526834, 0.03837495, 0.56367564, -0.25063726, -0.16793209, 0.14095600, 
    0.19845678, -0.27537802, 0.39683968, 0.16638444, -0.19353089, 0.46128607, 0.17072950, -0.18919069, -0.01445835, 0.18625741, 
    0.34810132, -0.22043653, -0.36993277, 0.23563847, -0.01651683, -0.27736083, 0.05949602, 0.52224624, 0.24417470, 0.14373782, 
    0.25132805, -0.25241143, -0.22604227, 0.19700964, 0.27920824, 0.30528623, 0.25944254, -0.02150378, 0.24901988, -0.12794653, 
    -0.13075431, -0.03447659, -0.29788518, 0.06532248, 0.02534520, -0.17185874, 0.01874624, -0.24453627, -0.15482895, 0.13961180, 
    0.16523299, 0.00804647, -0.04559678, -0.02047393, -0.43390539, -0.39292330, 0.39508164, -0.19075829, 0.18117957, 0.01954215, 
    -0.24104317, -0.08691490, 0.20133545, -0.06284424, -0.28802344, 0.03652190, -0.00497611, -0.24384189, -0.18914476, -0.10279036, 
    -0.35899186, -0.24753703, 0.26181245, -0.21113576, -0.08581137, -0.19660866, 0.27970007, 0.11542730, 0.05607588, -0.39572710, 
    -0.23299503, -0.36416063, -0.35149923, 0.31368476, 0.41165417, 0.24689624, 0.15324169, 0.10980019, 0.22487150, 0.29443076, 
    0.07025277, -0.12156087, -0.03830734, -0.16903318, -0.14142379, -0.24539295, 0.33363131, -0.34604731, -0.27358854, 0.04303265, 
    -0.34090087, -0.01345310
};

const type_t B4[24] = {
0.32336834, -0.17488061, 0.09158704, -0.17600518, 0.03268099, 0.18164495, 0.17893238, -0.11915058, -0.37620690, -0.02139810, 
    0.25365350, -0.29042226, 0.11350185, -0.24166165, 0.28204945, -0.09195981, 0.27440041, 0.35733873, 0.28973746, 0.15316474, 
    0.18564197, 0.12381219, 0.07004659, 0.14872459
};

const type_t W5[2304] = {
0.16675928, -0.25855035, 0.16261525, -0.42705068, -0.07917889, 0.01201590, 0.12231695, 0.12861393, -0.10476166, 0.22476789, 
    0.04359696, 0.00774176, 0.29164320, 0.13826662, 0.29221925, 0.14692631, -0.27827767, 0.32422295, -0.05113063, 0.28125975, 
    0.12683970, 0.02173045, -0.12637825, -0.10801383, 0.23001316, 0.04263720, 0.01565859, -0.18770963, -0.63213974, 0.03351088, 
    0.01602327, 0.30355012, -0.23877184, -0.14214014, -0.18949409, -0.00100735, 0.00739020, 0.29496348, -0.12350108, 0.17653123, 
    0.14075322, -0.27293596, -0.02225328, 0.17490992, 0.18430901, -0.19066162, 0.08618140, 0.07620896, -0.16887136, -0.28299987, 
    -0.14634219, -0.15221834, 0.16547665, -0.01864776, 0.17283940, 0.08421391, -0.46237546, 0.06277667, -0.24304867, -0.15927459, 
    -0.16176759, -0.15698643, -0.19588174, 0.13231763, 0.22043264, 0.03772734, -0.21267384, 0.10385046, 0.07889247, 0.01082199, 
    -0.01259961, 0.10494383, 0.13041955, -0.22606581, -0.16423906, 0.05341963, 0.00776028, 0.50269300, -0.32665059, 0.13516860, 
    -0.24259710, 0.12119322, -0.23093481, -0.13611200, 0.29502869, 0.24610856, 0.36151502, 0.46147758, 0.05059917, 0.29007158, 
    0.03375873, -0.01246792, -0.33692989, 0.06180954, 0.01696178, 0.10169317, 0.33865345, 0.16276035, -0.20182823, -0.24722697, 
    -0.20878170, 0.10205247, 0.26261830, -0.09380748, 0.09951697, -0.26535422, 0.19881153, -0.06305357, -0.29426202, 0.20258690, 
    0.28316808, -0.20450066, -0.23470694, -0.39563957, -0.07576462, -0.22429146, -0.43862855, -0.09408562, 0.24943171, -0.05426252, 
    -0.01861352, -0.31950292, 0.09056120, 0.22199610, 0.19107077, -0.17728536, -0.06052257, 0.03621366, -0.16366808, 0.00804749, 
    -0.28651199, 0.03823386, -0.27547580, 0.06138470, 0.03948039, 0.26069152, 0.26923013, 0.03857248, 0.32651085, 0.22111286, 
    -0.11414325, 0.37454170, -0.25209767, 0.08129554, 0.22859177, -0.00974281, 0.13434185, 0.19633512, 0.00050441, 0.19330822, 
    0.06190273, 0.17378861, 0.21096292, -0.19855748, 0.27853024, -0.22111759, -0.00997280, -0.29500312, -0.23580255, 0.17405127, 
    -0.01733229, -0.12246438, -0.18747346, 0.38034719, 0.31106901, -0.10734207, 0.02866348, 0.20948137, 0.18841720, -0.03679332, 
    0.27038109, 0.31362349, -0.24613521, 0.28676900, -0.27108076, -0.13043942, -0.02802505, 0.13848995, -0.19873421, -0.10404058, 
    -0.14477192, 0.24732831, -0.21850474, -0.13872343, 0.37312421, -0.27937478, 0.09371693, -0.20310977, -0.21383339, 0.22306877, 
    0.27202046, 0.29828629, -0.45348886, -0.02788778, 0.04195107, 0.16916768, 0.10206295, -0.33569402, 0.42204306, 0.05051904, 
    -0.27584320, 0.13566504, 0.18340211, 0.14270522, 0.13061742, -0.17179114, -0.46746817, -0.28630713, 0.16969094, -0.00648937, 
    -0.06681873, -0.13701135, -0.26120934, 0.01925506, 0.02697116, 0.09155422, 0.16004252, -0.03809314, -0.26058105, 0.32589483, 
    -0.18402091, -0.37012839, 0.23133218, -0.16864423, -0.03035170, 0.01190683, -0.11610827, 0.23670006, 0.03994320, 0.18671185, 
    -0.04967077, 0.27681482, -0.01321085, 0.02394909, 0.03102153, -0.37528723, 0.07500087, 0.21254018, -0.05922338, -0.06092295, 
    -0.08365545, 0.08688995, -0.02536820, -0.21018828, -0.33850017, 0.11223322, -0.17926463, 0.21075211, -0.12788309, -0.12394933, 
    0.21916701, -0.04892959, -0.07956771, 0.10139404, -0.14042349, -0.16795878, -0.20617953, 0.06114024, -0.12039032, 0.20609437, 
    0.02257874, 0.04628661, 0.26284927, 0.28122655, 0.42241162, -0.18151340, -0.26157361, -0.05208365, -0.11696377, -0.21127445, 
    -0.02837450, -0.09555569, 0.01330683, 0.34767964, -0.07534927, 0.36180061, 0.17390215, -0.18779764, -0.07373968, -0.15624563, 
    0.12647864, 0.30663636, 0.01260206, 0.28250188, -0.07144875, -0.01120737, 0.04852629, 0.30233204, 0.06609458, -0.15034612, 
    -0.10840040, 0.25677851, -0.17572626, 0.34597924, 0.17099711, -0.27576372, -0.05421865, 0.18290107, 0.02802700, 0.15806013, 
    -0.31985167, 0.18208380, -0.36454433, 0.47368231, 0.11880798, -0.09785303, -0.01496434, 0.23861024, -0.29941532, 0.14278144, 
    0.31892830, 0.13879263, -0.13030611, -0.12430057, 0.01844336, -0.06821531, -0.02291025, -0.01064352, 0.34471080, 0.20312093, 
    -0.02229385, -0.12381597, 0.17436495, 0.13400187, -0.04835212, -0.00685251, -0.13685258, 0.14881748, -0.02151721, 0.11126862, 
    0.02371803, 0.10858912, 0.15399714, 0.00208674, 0.01032276, 0.11470491, -0.30737090, -0.22093379, 0.21016082, -0.46174160, 
    0.13327195, -0.08567470, 0.31702054, 0.11813202, 0.23788120, -0.15424584, -0.24084011, -0.13558114, 0.12250929, -0.26686975, 
    0.04742218, -0.21991879, -0.18717788, 0.21957240, 0.30638191, -0.12748896, -0.18537843, -0.06710684, -0.14645652, -0.30130121, 
    -0.13000515, 0.11046246, 0.09714025, -0.22948316, -0.19674452, -0.08243231, 0.25121006, -0.10508142, 0.05202409, -0.25869486, 
    -0.23949580, -0.09711498, 0.17444859, -0.15460603, 0.08163413, -0.20849265, 0.05448387, 0.21768309, 0.23691295, -0.28137952, 
    0.13620585, -0.14798610, 0.03482119, -0.18234959, -0.29082018, -0.01430921, 0.14621566, -0.12001476, 0.01963140, 0.04320760, 
    0.11678113, 0.34109676, -0.09798037, 0.02788667, -0.22876896, -0.04615098, 0.16164479, 0.26587155, -0.01691963, -0.35462734, 
    -0.23616171, 0.17693189, -0.10750554, 0.12091260, -0.08989058, -0.37441739, 0.03089968, 0.04650291, 0.22650383, -0.07302654, 
    0.00191829, 0.39516285, -0.04091733, -0.01213099, -0.01516012, -0.16197914, 0.35219473, 0.19686241, -0.18720406, 0.19374354, 
    -0.16829680, -0.27668887, -0.04704619, -0.19220746, -0.05190136, 0.16449444, -0.08876842, -0.19003911, 0.06470409, -0.33150128, 
    -0.25556636, 0.31818137, -0.30664083, -0.03693988, 0.00395211, -0.23223251, -0.01967647, 0.11150870, 0.16827270, -0.04724080, 
    -0.40522873, 0.13616285, -0.71825379, -0.00825373, -0.31585291, -0.19047491, 0.20996100, -0.14349912, -0.22887520, 0.31179133, 
    0.02111391, 0.03744918, -0.18025054, -0.09790868, 0.28307441, 0.34185088, -0.18462309, -0.04272446, -0.30803588, -0.25779969, 
    0.17256396, -0.19376986, -0.15860453, 0.13959955, 0.12436090, 0.17617935, 0.21293285, 0.31382528, -0.05974372, 0.03585477, 
    -0.09780827, -0.09419505, -0.36740136, -0.01992145, 0.27408847, -0.05816206, 0.35556167, 0.12448820, -0.12878500, -0.08893877, 
    -0.06187054, -0.17794695, -0.25598511, -0.10961052, 0.11394842, -0.19375756, -0.13653757, 0.09994867, -0.00508466, -0.09079845, 
    0.10686106, 0.34511593, -0.35286829, 0.16642328, -0.35861489, -0.15737146, 0.14374986, -0.02284412, -0.29254323, -0.27223751, 
    0.34417894, 0.15640205, 0.11451598, -0.03716910, 0.36876699, -0.05961798, -0.10543764, 0.24971148, -0.25225085, 0.34655231, 
    -0.15314263, 0.11505599, -0.10827284, 0.11244588, 0.19735740, 0.24167991, -0.09808829, -0.13048832, 0.05577404, 0.16247681, 
    0.05668040, -0.15830423, 0.16424346, 0.13190408, -0.22837454, 0.01216340, 0.20356053, 0.11140177, 0.32442278, 0.31224814, 
    0.14356786, 0.40847933, 0.12776023, -0.25475195, -0.25368336, -0.00995911, -0.02545313, 0.11101418, -0.02043585, 0.06091193, 
    0.00641739, -0.01177463, -0.16602401, 0.14715418, 0.26268363, 0.28798288, 0.04063750, -0.15451813, -0.23474036, -0.26178068, 
    0.40847209, -0.10748389, -0.25371924, 0.13012291, -0.09400171, -0.07487974, -0.07688265, -0.22669308, 0.25298488, -0.21236406, 
    -0.45724824, -0.13938168, 0.33390784, -0.06220207, 0.00219157, -0.18925966, 0.34889251, 0.17442831, -0.02601573, -0.21915933, 
    -0.06369342, 0.30620021, -0.05486625, -0.28880751, -0.02011508, -0.17129792, -0.00437845, -0.32610533, -0.14881842, -0.24540591, 
    -0.20521805, -0.14714408, 0.10317218, -0.09087491, -0.14293087, 0.09058779, -0.02430207, 0.12774867, 0.27430043, -0.11859460, 
    0.19297479, -0.14117981, -0.03565799, -0.10158817, -0.31097221, 0.36392370, 0.09087641, -0.33444765, 0.07904332, -0.18415861, 
    -0.26775405, -0.28683901, -0.44740987, 0.05553623, 0.37732846, 0.20642647, 0.33404759, 0.08550309, 0.16193147, -0.06752269, 
    -0.45474574, 0.18108188, 0.14398922, 0.10803827, -0.17063712, 0.23608522, 0.18261890, -0.15566730, -0.10830160, 0.12897538, 
    0.10946157, 0.15949470, 0.22778833, -0.40315345, 0.04958642, -0.40680128, 0.15719329, -0.14962319, -0.32918903, 0.29410276, 
    -0.28721312, 0.10649043, -0.18507783, 0.01528287, -0.23326221, 0.04461992, -0.27809924, 0.25849032, -0.50595534, 0.22630732, 
    -0.09224552, 0.07161850, 0.13616708, 0.33662078, -0.06113660, -0.16770431, 0.07881254, 0.20379788, -0.19289066, -0.24172619, 
    -0.07930226, 0.11056127, -0.15621831, -0.21415487, 0.26932111, 0.01963078, -0.19121781, -0.21732937, 0.20789713, -0.10526379, 
    0.37042153, 0.10978515, 0.13522288, -0.28195593, -0.29666752, 0.15408674, 0.15716176, -0.13786617, 0.35811430, 0.23332408, 
    0.15302341, 0.25805023, -0.15191799, -0.06815912, 0.21813288, 0.11080313, 0.25085962, 0.20186491, -0.06966595, -0.34527218, 
    0.16907258, 0.13138279, 0.08915744, 0.27195236, 0.13754368, 0.03028771, 0.09685634, 0.17254731, 0.21402264, -0.19693570, 
    -0.11895161, 0.08614512, 0.17420024, -0.16329521, 0.15913311, 0.23587903, 0.31622356, -0.17889927, -0.16256683, 0.08330692, 
    -0.29774553, 0.20402192, 0.22613260, 0.06624427, -0.48009604, 0.08760395, 0.23692183, -0.28261739, 0.03674321, -0.02474576, 
    -0.00767454, -0.33763406, 0.23000412, 0.23100974, -0.17035212, 0.10675260, -0.00167061, 0.01338641, 0.15682082, -0.32646075, 
    0.10575631, 0.20611334, 0.16541567, -0.16335440, 0.19396421, -0.21481994, -0.00075921, 0.16104482, 0.13752350, 0.03914357, 
    -0.29590803, 0.25450093, -0.09903044, 0.24320906, -0.13817865, 0.27823064, -0.01377902, 0.31379822, 0.05207685, 0.07143732, 
    -0.06999052, -0.12176630, 0.36305216, 0.25429770, -0.10655621, 0.11493956, 0.03742488, 0.18112443, -0.03264165, -0.21515124, 
    -0.37142408, 0.18019392, -0.20284246, 0.11042905, -0.06692926, 0.24204944, -0.19743958, 0.10727070, -0.03790008, 0.14726846, 
    -0.20370840, -0.22447796, -0.00076823, -0.07985049, -0.19719364, 0.14996475, 0.22393624, 0.10067900, -0.04324451, -0.39356512, 
    -0.16056487, 0.17943281, 0.27909762, 0.12187200, 0.02173116, 0.18881941, -0.11114498, -0.18014528, -0.22956051, 0.07993373, 
    -0.10054760, -0.28747502, -0.11201698, -0.00871304, -0.16149242, 0.15474953, 0.09955857, -0.08185884, -0.11132951, -0.20293559, 
    -0.16327491, -0.00552920, 0.03384934, 0.18647932, 0.06819807, -0.07355927, 0.00988027, 0.08435189, 0.26531762, -0.27206102, 
    0.16939825, 0.20148183, 0.02812128, 0.18115905, -0.03299253, 0.11446742, 0.16008018, -0.20096248, 0.24688898, -0.23997490, 
    0.37494069, 0.17908333, -0.23960699, -0.14917284, 0.39176375, -0.04600391, -0.12886602, 0.06901103, 0.07198500, 0.12981071, 
    0.16376899, 0.05456656, 0.19603705, -0.22421095, 0.12290998, 0.07469302, 0.02048103, 0.28544781, -0.12647225, 0.01766667, 
    -0.30853787, 0.33403441, 0.06483217, 0.08141202, -0.03154139, -0.16559419, -0.06160711, -0.01896552, -0.05967314, -0.08352452, 
    -0.21081588, -0.15955682, 0.16764869, 0.22490899, 0.15018207, 0.11729059, -0.16360517, 0.55067986, -0.26459363, 0.13269553, 
    -0.10456230, 0.13513574, 0.11850624, -0.22735147, 0.18499045, -0.12558602, 0.08569662, -0.16338933, -0.29044539, -0.27328813, 
    0.03847419, -0.69941652, -0.28699484, 0.28727430, 0.22261001, 0.01522038, -0.46584266, -0.06376339, 0.23268943, 0.01168915, 
    0.05172887, -0.28988361, 0.21341868, -0.26947248, -0.04050488, 0.09982333, -0.06581122, 0.40869895, -0.03659019, -0.09520790, 
    -0.11434436, 0.06571028, -0.62707078, -0.07518082, 0.33014581, 0.26055920, -0.13070564, 0.25785735, -0.27918416, -0.14563167, 
    -0.34361583, 0.26844764, -0.14243446, -0.24766351, 0.04389385, -0.25652793, -0.01184974, 0.12588626, -0.10783709, -0.09411108, 
    -0.24352185, -0.27233675, -0.07643937, 0.07619485, 0.05366334, -0.19902879, -0.03369525, 0.07917752, 0.23462209, 0.08683322, 
    0.18103994, 0.01644039, 0.04227015, 0.28862956, 0.15890981, -0.05292189, 0.16890639, 0.02091033, -0.15716498, 0.23656698, 
    0.22505900, -0.10664374, 0.04521243, 0.26881379, -0.10509982, -0.13424203, -0.37182876, 0.26422280, -0.11916518, 0.06480618, 
    -0.11623646, -0.10901279, 0.08174672, -0.07415259, -0.10380309, -0.31758559, 0.09603824, 0.06574867, -0.10035199, 0.15591051, 
    -0.19315068, -0.16189083, -0.04488470, 0.16622387, 0.26307198, -0.02925733, -0.22891422, 0.14160763, -0.12781182, 0.11302508, 
    0.19051830, -0.20168841, 0.28452229, -0.24256298, -0.16263194, -0.14008540, 0.40115628, -0.29940575, -0.19052830, 0.28146937, 
    0.22088079, -0.00844306, -0.20019852, -0.06488467, 0.48222896, -0.34777731, -0.12500080, -0.15784876, 0.36390465, 0.20962127, 
    -0.29126847, -0.12476455, -0.05895996, -0.17604664, -0.08324128, -0.13537224, 0.39189595, 0.17476103, 0.12785026, -0.25140956, 
    0.30824712, -0.20868550, 0.07714754, 0.14358324, 0.01955782, -0.01405938, -0.23197162, -0.06572609, -0.25709388, -0.13636032, 
    -0.37078455, 0.33058840, 0.24387813, -0.17368588, -0.24443997, 0.08705022, 0.43948326, 0.24270612, 0.55996084, -0.06352711, 
    -0.04064837, 0.17899972, 0.05420261, 0.19795410, -0.29327819, 0.21619737, -0.01391331, 0.02867879, -0.19550870, 0.20959905, 
    -0.11965781, -0.12242691, -0.23340669, 0.14413112, 0.30116588, 0.10997984, 0.04241019, -0.14515178, 0.05808995, 0.12411135, 
    -0.12165333, -0.11149375, 0.03869011, -0.18367574, -0.10232247, 0.17842603, -0.01441445, 0.28904942, -0.07806789, -0.00133227, 
    0.03858438, -0.38502556, -0.00865620, -0.05891961, 0.11648827, -0.20077376, -0.10926820, 0.09772337, -0.04352906, 0.11057369, 
    -0.02650704, 0.16400087, 0.05776935, 0.15785433, -0.06508451, 0.04940546, -0.10344813, -0.13456224, 0.18989085, -0.07613806, 
    0.21284454, -0.14937662, 0.02101663, -0.08256173, -0.10730281, 0.13843603, -0.08159525, -0.27423838, 0.10888895, 0.18051369, 
    0.23228794, -0.30414042, 0.17328590, -0.38274807, 0.00337280, -0.04033234, 0.09597880, 0.23016994, -0.00283238, -0.26850647, 
    -0.30650407, 0.13450441, 0.18043782, 0.20759328, -0.00029341, -0.01869676, 0.02356566, 0.02059202, 0.15532230, -0.23706827, 
    -0.15899858, 0.06860986, 0.02619609, 0.17798321, -0.27202001, 0.22969373, 0.02349941, -0.09849914, -0.20971644, -0.25014466, 
    -0.13243718, 0.17233254, -0.29487550, 0.37738749, 0.25689867, 0.20229048, 0.12307499, -0.05066290, 0.22890474, 0.12874341, 
    0.07427621, -0.33147848, 0.11705261, 0.07601365, -0.20605087, -0.05001330, 0.28466201, 0.19945572, 0.35194337, 0.10029633, 
    0.33823705, -0.09168197, -0.27588835, 0.01976586, 0.35776362, -0.16745459, -0.00136323, -0.07845625, 0.02688897, -0.23205806, 
    0.15261249, 0.01702529, -0.16947636, 0.17867392, -0.05064525, 0.33820823, -0.02957770, 0.24645485, -0.05632243, -0.16412620, 
    -0.08495394, -0.09246054, 0.00126540, 0.30070087, 0.08221908, -0.03082525, 0.26711267, 0.17474271, -0.20277528, 0.26594952, 
    -0.12215406, -0.34669176, -0.07760990, -0.11472405, 0.06128168, -0.19798206, -0.21514353, 0.27458569, -0.14162327, 0.06663051, 
    -0.28161839, 0.35738862, 0.25280413, -0.14980921, 0.06003936, -0.23942493, -0.06002123, -0.10589392, 0.32159421, 0.13583545, 
    0.07070545, -0.15800647, -0.16145839, 0.22829787, 0.00190756, 0.25596851, -0.09009475, -0.10378747, 0.06144286, -0.17796393, 
    -0.19295894, 0.29553625, -0.00595051, -0.13301215, 0.38260731, 0.24110952, -0.13066535, -0.24285065, 0.23891510, 0.46401116, 
    -0.33540487, -0.06269842, 0.12244720, 0.00885817, 0.01381694, -0.08832761, 0.16835605, 0.18703994, 0.09221611, 0.27821416, 
    0.06340858, -0.23657057, -0.00989196, 0.09205101, -0.17146873, 0.08353622, 0.03736023, -0.02253887, 0.09891020, 0.01272291, 
    0.46599481, -0.13921759, 0.24098782, 0.01153622, -0.11093456, 0.17533700, 0.18384786, -0.03564996, 0.31878620, -0.02198506, 
    -0.01386703, 0.08690085, -0.14462152, -0.02981651, 0.06415611, 0.07788367, 0.15868367, 0.28455991, 0.06839593, 0.01035412, 
    0.13268816, -0.22217773, -0.04465291, 0.42159614, 0.33538651, 0.01562869, -0.03768245, 0.00753325, -0.37405065, 0.20652913, 
    0.08179508, 0.20868261, 0.06724631, 0.09122214, -0.20379893, 0.19676197, -0.09773181, 0.03263232, 0.32803279, -0.10393535, 
    -0.03800159, 0.11168480, -0.13074407, -0.30558583, 0.05121930, 0.00589441, -0.05148115, -0.04674328, -0.04665674, -0.16553558, 
    -0.33798379, -0.11792360, -0.14788745, 0.03978958, -0.19435929, -0.06849023, -0.11799216, 0.11929625, 0.15831283, -0.23252496, 
    -0.13498381, 0.37261510, -0.21076459, 0.03435276, -0.21400459, -0.01936136, 0.16018800, 0.34276778, 0.27484202, -0.22195265, 
    -0.13471694, -0.08968563, 0.35875893, 0.20641284, 0.17541002, 0.13409764, -0.00857487, -0.06532849, -0.05956191, -0.18302214, 
    -0.00086238, -0.07250264, -0.03578348, 0.34099326, 0.01776199, -0.04333613, -0.23166259, -0.15880005, -0.02508849, -0.15850393, 
    0.10894622, 0.23931824, -0.30116096, 0.17278147, -0.32349283, -0.04600105, -0.19865261, -0.04752075, 0.00856234, 0.23580363, 
    0.15054788, 0.03086001, 0.05570237, 0.10918747, -0.04743696, -0.15170658, -0.31923985, -0.34063581, -0.00886245, 0.02938398, 
    -0.14231610, 0.01465789, -0.18485296, 0.11306106, -0.05114166, -0.39925301, -0.20491463, 0.18091501, -0.04816791, -0.09461372, 
    0.16894281, -0.21496470, -0.35984239, -0.34483606, 0.19325092, 0.25873435, 0.14391281, 0.14759599, -0.16755171, -0.34207040, 
    0.17855950, 0.14608490, 0.11160588, -0.03015645, -0.09597135, -0.12861511, 0.26301745, 0.13416143, -0.00316801, -0.03127954, 
    -0.04878592, 0.00872454, 0.11098944, -0.06815458, -0.29156592, -0.15109673, 0.22101070, -0.24910943, 0.37101382, -0.29533485, 
    -0.00249197, 0.10562851, 0.25618327, 0.35072652, 0.25741571, -0.16038425, 0.25252756, -0.02580826, -0.27938372, 0.22236772, 
    0.01213459, -0.08566346, 0.06847794, -0.33995438, -0.14182766, -0.12573190, -0.34683824, 0.17910722, 0.21384509, 0.11308553, 
    -0.07418657, 0.04618168, -0.15363617, -0.19302866, 0.27255580, -0.20059061, -0.02951361, -0.19893132, -0.19883403, -0.12297057, 
    0.52247590, -0.18045054, -0.29312262, -0.04849885, 0.30962613, -0.49685758, 0.03701830, 0.28933927, 0.23792604, 0.18110169, 
    -0.05931788, -0.09411769, -0.06208024, -0.41394395, -0.20869458, 0.04050541, -0.07616764, 0.12291327, -0.09434844, 0.34224409, 
    0.06969996, 0.04685260, -0.25443992, -0.03727386, 0.19990057, -0.30796728, 0.29453525, -0.29338288, 0.09806672, -0.19404972, 
    0.11055032, 0.10221448, 0.05555728, 0.06228824, -0.26542276, -0.04354244, 0.06140647, 0.08184824, -0.32084405, 0.05459904, 
    -0.08563466, 0.03255122, -0.15811794, 0.25612029, 0.08588887, -0.01216523, 0.01721861, 0.22022022, 0.01195417, -0.06924696, 
    -0.12991770, 0.01728921, -0.10837650, 0.16873631, -0.12929319, -0.22891404, 0.20552915, -0.40189323, -0.05693609, 0.02263047, 
    -0.17071994, 0.04146491, 0.30932471, 0.27762404, -0.09046746, -0.27550319, -0.11255857, 0.23420177, -0.04110475, -0.12954007, 
    -0.29629722, -0.01414888, 0.03488996, -0.08628829, 0.09897123, -0.08300437, 0.24142326, 0.10146708, -0.08502115, 0.35037646, 
    -0.23408756, 0.10332996, 0.03045797, 0.27443105, -0.13042977, 0.20402530, 0.11126745, -0.26966989, 0.07450196, -0.23198599, 
    -0.07671791, -0.22309695, 0.05100811, -0.07507526, 0.25044334, 0.15891218, 0.00950214, -0.31782413, 0.04711102, -0.22104605, 
    -0.19727400, -0.03903573, 0.22383037, -0.26909348, 0.14330871, 0.12820250, -0.01111910, 0.25162563, -0.60231376, 0.23623343, 
    0.02342431, 0.20065652, -0.06428359, -0.02101327, 0.03174538, -0.02180567, 0.29999521, -0.10156769, 0.13521978, 0.06645795, 
    0.22433658, -0.40813714, 0.12376127, -0.17628650, 0.07222606, -0.02641083, 0.05912340, 0.08338330, 0.12239694, 0.20218343, 
    0.04770995, 0.09045439, -0.14181371, 0.10220328, 0.08150987, -0.31962696, 0.09695569, -0.23276363, 0.13070191, 0.10858744, 
    0.16238113, 0.11139917, 0.05046935, 0.22686817, -0.01960060, -0.14184229, 0.01778908, -0.01947617, 0.23519464, 0.32628503, 
    -0.08541276, -0.24260727, -0.04075706, -0.20828427, -0.18169174, 0.22194824, 0.31757116, -0.05256012, 0.09504829, 0.05461004, 
    0.29549614, 0.26275682, -0.14300713, 0.10737316, 0.07246412, 0.07767060, 0.14957231, 0.22606254, 0.14221625, 0.05673099, 
    0.33431438, -0.01847311, 0.04499470, 0.19302191, -0.03763334, -0.27525499, 0.25909519, 0.01556838, 0.07918264, -0.00033756, 
    -0.13484019, -0.13544078, -0.22322729, -0.03329647, -0.16018417, 0.11564068, -0.00061380, 0.11827919, 0.01998143, 0.01217640, 
    0.03885711, 0.14601600, 0.00408655, 0.01907543, 0.43065289, -0.33820343, -0.15400364, 0.07417296, -0.33553934, 0.26386759, 
    0.02279240, 0.50080377, 0.05287377, -0.12148976, 0.03186561, -0.17625591, 0.01093649, -0.00507437, -0.02945969, -0.12289234, 
    -0.32272983, 0.11927642, 0.08564255, 0.19607945, -0.13535607, -0.32620680, 0.36191937, 0.01589009, 0.35755962, 0.25657895, 
    -0.15867938, -0.48027444, -0.12234946, 0.24514772, 0.06767290, 0.02621025, -0.55329013, 0.06357675, 0.25798187, -0.23426238, 
    -0.00079334, -0.34731063, -0.19636984, -0.24831498, 0.38238308, 0.11455474, -0.02431281, 0.11753710, -0.24982251, 0.20659216, 
    -0.17432041, -0.06972747, -0.00143640, 0.17651856, 0.22615616, -0.10791539, -0.11075774, 0.01206683, -0.15708445, 0.11089975, 
    -0.09872282, 0.20760846, 0.25647536, 0.38753080, 0.24167478, -0.17224899, -0.28377530, 0.20904475, -0.11931507, -0.22762975, 
    0.24876842, 0.31494248, -0.04258237, -0.20401947, -0.12097280, -0.21274866, -0.31708798, 0.27224091, -0.26105237, 0.19592999, 
    0.01482034, -0.08963254, -0.20653297, -0.24251387, -0.16074179, -0.04604170, -0.29751262, -0.20786539, -0.04580604, -0.16538671, 
    0.35748112, -0.01905446, -0.10088421, 0.24317455, 0.11911508, 0.12692872, 0.02574763, 0.14709033, -0.01674730, -0.04137499, 
    0.28404936, -0.00512698, -0.25090161, 0.09320512, 0.02154824, 0.10008445, 0.31363076, -0.18192276, -0.06574383, -0.34855294, 
    -0.24227642, 0.42566583, -0.07618760, 0.00068238, 0.08443812, 0.18375283, -0.11684409, -0.18027134, -0.01937165, 0.01284642, 
    0.24507959, 0.08282441, -0.18350153, 0.21710658, -0.09055212, 0.53791332, -0.00996675, 0.31051308, 0.12539293, -0.07958170, 
    -0.10235369, 0.10533053, 0.41344693, -0.00246420, -0.56211966, 0.07774919, 0.16194226, 0.31020936, 0.33334070, -0.04953327, 
    -0.24861377, -0.29322517, -0.03416567, -0.06988502, 0.01460851, -0.07550213, -0.06089418, 0.55036294, 0.10718044, -0.00718825, 
    -0.05067767, -0.18746482, -0.30008298, -0.00717356, -0.08443019, -0.07442393, -0.15269579, -0.07348190, -0.38038352, 0.29728740, 
    -0.19321799, -0.06126568, -0.00161299, -0.04866697, 0.02264988, -0.01458768, 0.09634845, 0.16359045, 0.01988795, 0.06487708, 
    0.24352710, 0.34964058, 0.30771175, 0.44747221, -0.05621330, -0.18471274, -0.17097288, -0.50303894, 0.47214130, 0.07816333, 
    0.11799090, 0.00063744, -0.24527781, 0.02959131, 0.14883965, -0.22704361, -0.40318927, -0.23248193, 0.18053976, -0.14730020, 
    -0.02188419, -0.34754267, -0.08415297, 0.20829542, -0.34996259, 0.22037175, -0.03450325, 0.01665018, 0.01271889, 0.20911254, 
    -0.07885266, -0.36670324, -0.10345445, 0.31600681, -0.17563771, 0.07462985, -0.32794648, 0.11894927, 0.18820594, 0.20154788, 
    -0.03586341, -0.26522502, -0.06151296, -0.19888702, 0.08604889, 0.12491629, -0.10032311, 0.20007838, 0.16543557, 0.10829502, 
    0.18297765, -0.31659442, -0.03557546, -0.23637325, 0.04027252, 0.05076510, -0.26724812, 0.16645025, -0.14820474, -0.17640799, 
    -0.06181078, 0.13250078, 0.16245835, 0.07476389, 0.08015765, 0.32752243, -0.16567175, 0.22022355, 0.04876288, 0.11065064, 
    0.11409596, 0.15076798, -0.39346030, 0.22366722, -0.36058849, 0.00227037, 0.04718537, 0.04739244, 0.11921012, 0.27927402, 
    0.10799004, 0.00796571, 0.20121659, -0.14543390, 0.15033044, -0.01001056, 0.01534401, 0.40233260, -0.18314490, 0.40099111, 
    -0.14507832, 0.04680257, 0.06971227, 0.25467056, 0.03959236, -0.08485039, 0.24809843, 0.10246675, -0.33322221, 0.26419708, 
    0.17038484, 0.15742069, -0.16534364, -0.01145288, 0.07541721, -0.05226436, -0.00675551, -0.03848111, -0.03664580, -0.26338020, 
    -0.03918190, -0.03723362, 0.12084182, -0.28376201, -0.28390333, -0.31697667, 0.36948884, -0.20703685, -0.30126122, 0.32065874, 
    -0.23839131, -0.06451746, 0.23617545, 0.11054084, -0.12691408, -0.32140756, 0.26427275, -0.27130753, 0.26810566, -0.13086239, 
    0.02333044, -0.31831077, 0.14392981, 0.21518221, 0.33783615, -0.02444060, -0.20208441, -0.11762979, -0.34496117, 0.10856816, 
    -0.01918903, -0.18741788, -0.20686080, -0.35043213, 0.01985602, 0.11275726, -0.12419244, -0.10245592, 0.06595787, -0.06040845, 
    -0.02713426, 0.27144614, 0.32923269, 0.26531237, -0.17677915, -0.09249393, 0.20490381, -0.09444589, 0.10514793, 0.14993148, 
    0.02784283, 0.05707310, -0.21392553, -0.16511711, -0.17101550, -0.16670564, 0.08244487, -0.07800970, 0.05116232, 0.09427598, 
    -0.17235835, 0.29094741, -0.17750525, -0.02766201, 0.34321985, 0.06526995, 0.10636230, -0.08658709, 0.16072024, -0.04878244, 
    0.35043991, -0.29201639, -0.12607437, -0.13696639, 0.27509496, 0.07570700, -0.36354208, 0.01484076, 0.33582476, 0.09410515, 
    0.01655911, -0.12014546, 0.08775076, 0.20078942, -0.08823314, -0.03776222, 0.20330080, -0.23356888, 0.17542206, -0.16111822, 
    0.30461219, -0.55885583, -0.05802432, -0.01388086, -0.11489635, -0.08444957, -0.04392171, -0.18383808, 0.08995279, 0.05125583, 
    -0.09247999, 0.07785126, -0.01921190, 0.10418930, -0.13359050, -0.06179405, 0.08885761, -0.11440836, -0.03499849, -0.42610765, 
    -0.07889964, 0.13935655, 0.06736773, -0.22983776, -0.12701267, 0.37769812, -0.40457305, -0.40400466, -0.14552109, 0.13529092, 
    0.11188872, -0.17446330, -0.02131454, 0.06818703, 0.28562081, -0.09857970, -0.21934094, 0.04151639, -0.13947535, 0.19670352, 
    0.20510611, 0.07312885, 0.08906022, -0.03816216, -0.30210534, -0.40448469, 0.11286351, -0.03967783, 0.11496481, -0.13794348, 
    0.05234453, -0.19673967, -0.20902362, -0.11707074, 0.01500419, -0.03109811, 0.29293069, 0.18463051, -0.32996812, -0.33660966, 
    -0.02873287, 0.22091004, -0.18563785, 0.10049568, -0.10054845, -0.42132619, 0.05297767, 0.23690602, 0.00448757, 0.34862059, 
    0.15423623, 0.01022076, 0.10025150, 0.00490044, 0.14965355, 0.24500716, 0.19730313, -0.12352996, 0.03785058, 0.06435416, 
    0.06225903, 0.34830996, -0.09341928, -0.18526824, -0.18467414, 0.13152884, 0.01522481, -0.23846900, 0.07332065, 0.15766545, 
    -0.29256138, -0.13917154, 0.05658041, -0.21246268, 0.22393428, 0.17247756, 0.04190806, 0.06997214, -0.02599312, 0.24072340, 
    -0.10953568, -0.21791647, 0.00431721, 0.36400923, -0.20207678, -0.19182937, 0.19152011, -0.11474001, 0.12695453, -0.22385593, 
    -0.02993245, 0.08238398, -0.18119307, 0.29122353, 0.17011456, 0.00125754, 0.13534373, -0.17571728, -0.16693690, -0.01978882, 
    0.18187417, -0.06083083, -0.01676589, 0.14554487, 0.08126783, -0.14226511, 0.38790774, 0.31682843, 0.16230713, -0.00893828, 
    0.36776298, 0.35722667, -0.07490934, -0.11311293, 0.33062655, -0.06687273, -0.11988485, 0.31674552, 0.21459007, 0.27282277, 
    0.24328177, -0.16697943, 0.11352674, -0.21606162, 0.17332803, -0.20459141, -0.26578787, -0.01325052, -0.30088690, 0.06753553, 
    0.19467478, 0.16120371, 0.10801086, 0.10235509, -0.06356530, -0.09415197, 0.12443446, 0.06184975, -0.09960781, 0.02458265, 
    0.27694523, -0.09146021, -0.05018828, 0.19124448, 0.02502303, -0.15784007, 0.18781741, 0.32179984, -0.19486263, -0.15292069, 
    0.29843029, -0.00548469, -0.18466519, -0.01477906, 0.28450286, 0.10664989, 0.04404214, -0.59438008, 0.01171223, 0.17812470, 
    0.02265329, -0.04499271, 0.09576306, -0.06477268, 0.14819773, 0.25284094, 0.16060445, -0.22897172, -0.17396261, -0.17286153, 
    0.14250243, -0.22876397, -0.04254027, 0.25815105, -0.07970787, 0.37777099, -0.26933429, -0.30942473, 0.12717070, 0.28550997, 
    -0.15745892, 0.32640529, 0.11864379, -0.10467196, -0.12678373, 0.01129594, -0.17261730, 0.22060461, -0.29188579, 0.15194935, 
    -0.13390484, -0.36197451, -0.14737532, -0.17663454, 0.00307265, -0.19753811, -0.18649121, 0.16375451, -0.10013527, -0.00781901, 
    -0.29693723, -0.14994614, 0.01370306, 0.09242018, -0.24301088, -0.24572237, 0.05176165, -0.11908189, -0.12948580, -0.03494875, 
    -0.08220915, -0.13742609, -0.05609851, 0.18898074, 0.14768969, 0.06085547, -0.02841011, 0.14938621, -0.13346082, 0.41112870, 
    0.20399466, -0.19249044, -0.27811474, 0.06513885, 0.12732297, -0.08951774, 0.29599878, -0.21767440, -0.08173838, 0.02893109, 
    0.27534407, 0.09335490, 0.02231486, 0.09222838, 0.04175251, 0.13815950, -0.06857922, 0.23440212, -0.26916021, 0.41551283, 
    -0.23489109, 0.10345620, -0.27577654, 0.25559974, -0.00610285, -0.04475538, 0.24329378, 0.12993030, -0.19149514, -0.00163723, 
    0.15871251, 0.03136826, 0.22877243, 0.29465872, -0.01406550, -0.09188554, -0.30947533, 0.01706439, 0.17329934, 0.29695243, 
    -0.23035035, 0.29180256, -0.18641476, -0.13187134, -0.05304227, 0.30321717, -0.45264721, -0.37128472, 0.09538466, 0.04941247, 
    0.18612078, -0.05375474, 0.14651071, 0.21211316, -0.09120739, 0.16314611, -0.11226983, -0.02306396, 0.24653314, 0.05454428, 
    0.13833398, 0.14149812, -0.13056432, 0.27885985, 0.06312575, 0.26468709, -0.00670352, 0.09358326, -0.26683801, 0.01570442, 
    -0.07599580, 0.20111723, 0.08403756, 0.02718430, 0.00013105, 0.33177638, 0.10026994, -0.16101742, 0.22403322, -0.03173574, 
    0.25146791, -0.05799919, 0.13536994, -0.27881861, -0.02536703, 0.21642441, -0.28466529, 0.29260299, 0.21724200, 0.06835726, 
    0.05492728, 0.17982624, -0.12740874, 0.27523407, -0.20679531, 0.10154948, 0.14368990, -0.18725857, 0.02098113, -0.09025200, 
    0.06534339, -0.05049454, -0.11479875, -0.21183532, -0.08244947, -0.19563197, -0.00452541, 0.27274400, -0.06115180, 0.25569484, 
    -0.22552377, -0.38102779, 0.39293090, 0.04917058, -0.04588277, -0.33863771, 0.09707820, -0.12067264, -0.07833160, 0.04698415, 
    -0.34784153, 0.21983433, -0.27045053, -0.16506173
};

const type_t B5[32] = {
0.08409527, 0.16276130, -0.04153119, 0.14507864, -0.24637304, 0.39310697, 0.05381206, -0.26640311, 0.20918748, -0.20645492, 
    -0.07142826, -0.17254217, 0.44293043, -0.07021249, 0.01126190, -0.17993601, -0.09377939, 0.34606102, 0.21023850, 0.29499075, 
    -0.05433610, -0.02408040, 0.11425180, -0.03670233, -0.17098002, -0.11789294, 0.05631157, -0.05057593, 0.19163962, 0.01582496, 
    -0.23637836, -0.08218358
};

const type_t W_fc1[960] = {
0.08276416, -0.14182629, -0.06474791, -0.02540832, -0.08632167, -0.12216450, 0.02010295, -0.23322913, 0.23932354, -0.05883041, 
    -0.13586484, -0.13731200, 0.11863014, -0.06083562, 0.17869917, -0.13035172, -0.07792333, -0.28659004, -0.07172588, 0.10378588, 
    0.14163807, 0.25357705, -0.15825525, -0.06200014, 0.34156373, -0.13895309, -0.34936327, -0.26307175, -0.30174497, -0.28601232, 
    -0.03171391, 0.05901557, -0.11565632, 0.07307754, -0.18732153, 0.25714028, 0.17595397, 0.15067951, 0.16716132, 0.27693915, 
    0.05004223, -0.21115410, 0.22549918, -0.05348915, -0.28679329, 0.09181276, 0.10918464, 0.07334927, 0.14605364, -0.00535004, 
    -0.04521674, 0.08280397, 0.25489736, -0.11816119, -0.07937013, 0.17355911, 0.06292762, -0.08061704, 0.17712496, 0.14691719, 
    -0.39264405, -0.10249618, -0.00533265, -0.14196914, 0.27912819, -0.03677145, -0.03047998, 0.16828185, -0.00771518, -0.03775169, 
    0.07868766, 0.10464945, -0.02661040, 0.03306919, -0.19400813, 0.05510864, 0.00984545, 0.20424955, -0.05503988, -0.13502328, 
    -0.09223919, -0.00028780, 0.16773732, -0.04546759, 0.06298153, -0.18426256, -0.00868833, -0.14978431, -0.10407859, -0.13951561, 
    0.19642951, -0.14511675, -0.03386239, -0.12338396, -0.06799620, 0.17812149, -0.09715448, 0.22051807, -0.18689004, -0.12287150, 
    0.17899388, 0.12775120, -0.11015640, 0.04879069, -0.08495679, -0.07899462, -0.13481273, 0.21803747, -0.12524407, -0.04967510, 
    -0.24767374, -0.15633762, -0.12555872, -0.16298254, 0.16748495, 0.18006852, -0.04797864, 0.11935115, 0.11101003, 0.00699975, 
    0.16800021, -0.10031676, -0.01545303, -0.10180514, -0.05863127, 0.24692103, 0.25355294, 0.04425697, 0.12169355, 0.03970666, 
    -0.00432335, -0.03845508, -0.06994328, 0.03883494, 0.27078265, 0.12021904, 0.16782904, -0.02069500, 0.07812712, 0.06961737, 
    -0.20194146, 0.16574103, -0.02752248, -0.22047006, -0.12890236, -0.08987428, 0.05958472, 0.00459221, 0.07467376, -0.09140366, 
    0.09542324, 0.18799107, 0.02428614, -0.09436084, 0.12631497, 0.02339751, -0.12604842, 0.05634206, 0.15785955, -0.10426999, 
    0.23993063, -0.04171359, 0.06377459, 0.28499937, 0.21341160, 0.20174094, 0.08282279, 0.16921328, 0.12763296, 0.09738795, 
    0.18297735, -0.20543490, -0.03080273, -0.08596721, -0.27568674, 0.07427415, -0.00315155, 0.09010804, 0.17761524, 0.00376217, 
    0.15591960, -0.08363361, -0.00115433, -0.03808151, -0.35363609, 0.02204162, 0.11704382, 0.11862893, -0.07152176, 0.00963311, 
    0.11581682, 0.41328448, 0.36740002, 0.12530440, 0.28735298, 0.11050967, -0.02300184, 0.11721165, 0.10888305, -0.21261863, 
    -0.52715141, -0.16545700, -0.24330111, -0.40091562, 0.24014272, 0.04177581, -0.27519363, -0.13583541, -0.10988402, -0.26980820, 
    0.00670656, 0.17565405, 0.00069619, -0.08516780, -0.09550154, 0.11037149, 0.11654446, -0.20975266, 0.12782381, -0.15040967, 
    0.13229749, 0.03489288, -0.19187212, 0.13213602, -0.18355614, -0.23963273, 0.10928522, -0.29516163, 0.05257880, -0.10848878, 
    -0.03050796, 0.18888637, 0.05544289, 0.14226213, 0.05071225, -0.14295642, 0.00321781, 0.02424945, 0.04989651, 0.08155855, 
    0.07847414, -0.15928428, 0.01406677, -0.02946946, -0.19601227, 0.20332552, -0.11164574, -0.24615180, -0.18021721, -0.18649231, 
    -0.45582974, 0.18888687, 0.11876331, -0.40849191, -0.04740196, -0.55897444, 0.13614877, -0.68550873, 0.17894846, -0.27278864, 
    -0.18011640, 0.26635137, 0.19694798, 0.10100725, 0.18767555, -0.03871547, -0.11312027, -0.10074081, -0.16522148, 0.08880725, 
    -0.09622268, 0.30198693, 0.31573093, 0.18843740, -0.02584846, -0.40665904, 0.12674721, 0.13249338, -0.24611147, 0.31191385, 
    0.16393912, 0.20618978, 0.39841810, 0.17392267, 0.27836874, -0.30986670, -0.16813715, 0.15337484, -0.17810248, 0.05932937, 
    -0.36422953, -0.01471410, 0.11401974, 0.10054677, -0.06290209, 0.11573733, -0.05723089, 0.18993896, 0.09660760, 0.02042314, 
    0.05893864, -0.31643757, -0.09302682, 0.00865628, 0.01329473, 0.18842946, 0.07549641, -0.06197077, 0.15264079, 0.12563208, 
    -0.04769145, -0.03358492, 0.29301786, 0.32697847, -0.06464870, -0.17599232, -0.12885077, -0.02962375, -0.17259823, -0.10847088, 
    -0.10140494, -0.04625697, 0.16006187, -0.15356131, -0.05066287, -0.10523989, 0.21073005, 0.14144897, 0.20060059, 0.00357079, 
    -0.08015382, -0.04028540, 0.09152067, -0.17608993, 0.23736411, -0.09894863, -0.21263091, -0.08602092, 0.07933655, 0.03043856, 
    -0.14410929, 0.16287145, -0.05842916, -0.04483354, 0.06607752, 0.01223015, 0.07925700, 0.02931780, -0.01058658, 0.23377487, 
    -0.08451779, -0.03048466, -0.19578891, 0.08451191, 0.00330231, 0.06011090, -0.05971650, -0.01847800, 0.06971000, -0.11127250, 
    0.00416228, -0.00244911, 0.08217633, 0.21236652, -0.23106210, -0.06164493, 0.12506023, -0.12311828, -0.19433431, -0.03368758, 
    0.08645062, -0.06116060, 0.04578065, -0.04464519, -0.03637685, -0.11335289, -0.13035169, 0.13501385, 0.15432714, -0.08418564, 
    0.15415926, 0.05646968, -0.13591780, -0.07950488, 0.00606492, -0.05498457, 0.05602168, 0.22501130, 0.03454114, -0.03198794, 
    -0.17397641, 0.02872640, 0.02026827, 0.12465946, -0.09266142, -0.01785340, -0.15370087, -0.08358990, -0.11776154, -0.15286858, 
    0.06669248, -0.14461951, 0.04087785, -0.16320363, 0.04988549, 0.11468822, -0.10631631, 0.11491560, 0.04418064, -0.15969829, 
    -0.06099291, -0.05363173, 0.18141675, -0.03631116, 0.03265547, 0.19768058, -0.01096485, 0.19660580, 0.00180991, -0.06009095, 
    -0.15927583, 0.11377830, 0.09314727, 0.10088738, 0.08635740, 0.17533024, 0.08334783, -0.13001595, -0.10405952, -0.19280761, 
    -0.16100469, 0.12429470, -0.13429594, -0.01580917, -0.13534130, 0.17311974, 0.07999752, -0.07651040, 0.13936701, -0.10701186, 
    -0.12752825, 0.01392538, 0.13968772, -0.25127241, -0.26253960, 0.11259185, 0.13199556, 0.10834324, 0.16330485, 0.13938197, 
    0.18127981, 0.18985333, -0.03721573, 0.07123168, 0.08378102, -0.14258727, -0.00500770, -0.16357277, -0.09775217, -0.09010262, 
    0.03974543, 0.07511480, -0.09410002, 0.17337520, -0.03399565, -0.14883791, 0.07986433, 0.01929965, 0.02178121, -0.11768309, 
    0.01501396, -0.06340957, -0.19360869, 0.00944253, -0.13815859, -0.03758885, -0.07168028, -0.11389383, 0.18277091, 0.26935673, 
    0.04828613, -0.04722744, 0.06416449, -0.08931854, 0.05139310, -0.08016846, 0.12696764, -0.07267278, 0.14644159, -0.06051734, 
    0.11525484, 0.01290768, 0.11866271, 0.13550371, -0.02982222, -0.02551553, 0.07792084, -0.08291007, -0.21154644, -0.15974532, 
    -0.12099489, 0.11369558, -0.15195225, -0.04204928, 0.03968252, 0.16319385, 0.06514734, 0.02009866, 0.12344375, -0.02122257, 
    -0.03394161, 0.09074983, 0.06219459, -0.08349230, 0.01688906, -0.09812602, -0.04063145, -0.07139576, -0.04648468, -0.01365938, 
    0.02453387, 0.03260857, 0.21883491, 0.09144323, -0.01116139, 0.01495236, 0.05012966, 0.13807391, -0.06731720, -0.09117949, 
    -0.10011204, 0.10727452, 0.17823341, -0.12077726, -0.14361392, -0.01747336, 0.15830009, 0.17360023, 0.09940138, -0.01562696, 
    0.02877156, 0.03251862, 0.04761111, 0.22486877, -0.00783090, -0.09198910, -0.02981659, 0.14103818, 0.01708958, 0.06381562, 
    -0.04298918, -0.16364281, -0.08121712, -0.08230915, 0.00571336, -0.20601414, 0.12284257, 0.03435509, -0.15107681, -0.03827311, 
    0.08514883, -0.09022260, 0.14412841, 0.00095604, 0.05617712, -0.14747886, -0.25508603, -0.03932388, -0.17762674, 0.11847597, 
    0.20770052, 0.00813161, -0.13624109, 0.13015923, -0.07266016, 0.09570977, -0.28078207, 0.13758469, -0.18806086, 0.06192826, 
    0.16118242, 0.03017058, 0.06647363, 0.17669444, -0.16473049, -0.01292399, -0.11139745, 0.01471509, -0.17141953, -0.04910574, 
    0.15604490, -0.04050077, 0.02478681, 0.08250231, 0.06160453, -0.11067548, 0.04741456, -0.09159707, 0.05194767, -0.05850231, 
    -0.12165023, -0.40699250, -0.38722500, 0.06833603, -0.28027454, 0.09361243, 0.07854143, -0.07543346, 0.02747375, -0.02509518, 
    0.11270887, -0.00089555, -0.01338746, -0.07164642, -0.20699400, -0.09434449, 0.11258442, -0.23493075, -0.09556142, 0.10233969, 
    0.09134743, 0.15586519, 0.10594818, -0.13264646, 0.02811478, -0.20543206, -0.09184781, -0.17600520, -0.01201963, 0.14962508, 
    -0.15813471, 0.23909433, 0.14532743, -0.04244749, -0.11581643, -0.09382037, -0.08932093, 0.14366935, 0.11142102, -0.00558949, 
    0.07549143, 0.08613224, -0.03544606, 0.33112749, 0.06910261, -0.10939365, -0.40899849, -0.16110584, -0.47925109, -0.04468023, 
    -0.15964915, -0.05913102, -0.11919199, -0.28011385, 0.05975723, 0.12618287, -0.28644118, -0.03711206, -0.09174708, 0.08065018, 
    -0.28709611, -0.00280709, -0.07593421, -0.45704541, 0.01645633, 0.41913795, -0.04700254, 0.19079627, 0.23422395, -0.28058338, 
    -0.12304009, -0.53346509, -0.34557179, -0.47030881, -0.25145787, -0.49508366, 0.00438777, -0.23554175, -0.32984465, 0.20133761, 
    0.23725495, -0.24425389, -0.30658856, -0.38941583, -0.59843117, -0.10058898, 0.11913405, -0.14111435, -0.11601666, -0.01627379, 
    0.14874814, -0.32968497, -0.41797951, -0.35090914, -0.00770630, -0.00186765, -0.08584549, -0.40231824, 0.16438101, 0.43770123, 
    0.13665958, 0.00753689, 0.24038179, -0.08472578, 0.78630775, -0.05864234, -0.19691095, 0.21623988, -0.46268708, 0.29081550, 
    0.34974980, 0.16465098, 0.20929509, -0.04274996, 0.21664132, -0.25268430, 0.00749922, -0.40289676, -0.27452073, -0.39933679, 
    -0.13972150, 0.15016320, 0.07665626, -0.06631183, 0.11992817, 0.04230452, 0.18625203, 0.45063657, 0.31695050, 0.17792471, 
    0.13497522, 0.08255448, 0.02333713, 0.31503847, -0.12476899, 0.62431085, -0.01095108, 0.18891293, -0.12017835, 0.35432813, 
    0.13580607, -0.34515578, 0.02733568, -0.32994983, -0.33191991, 0.03050353, -0.15127876, 0.11758405, -0.28222471, 0.21176170, 
    0.11235718, 0.35502627, -0.10713392, 0.08062986, 0.06545061, -0.10092615, -0.23421046, -0.25514486, -0.16299522, 0.18004204, 
    0.11327427, -0.53572291, -0.25517172, -0.06116812, -0.39453685, -0.17563762, -0.29596424, -0.51687568, 0.18823236, -0.04998675, 
    0.04721446, -0.07874705, 0.23847602, -0.02594008, 0.04734045, -0.19168891, 0.27779526, 0.39107287, 0.53419149, 0.12057451, 
    0.09401637, 0.03282949, -0.18973200, -0.32958484, -0.26126495, -0.12481007, -0.46425202, -0.06357513, -0.17392251, -0.63974684, 
    -0.10143813, -0.00000235, 0.04558948, 0.06633982, -0.09328363, -0.02918089, 0.18857867, -0.37019297, -0.02154706, -0.17247596, 
    -0.18708400, -0.04629377, 0.05152215, -0.21777748, 0.08184869, -0.03959341, -0.65301204, -0.74742192, -0.16474231, -1.11519289, 
    -0.33483985, 0.12306614, 0.19995113, -0.26118970, -0.01360769, 0.28716612, 0.24466129, 0.08040135, 0.17322285, -0.21057524, 
    0.13396055, -0.01249369, 0.04801631, -0.13223507, -0.08497007, -0.05131511, 0.18627872, -0.04309358, 0.00695737, 0.09473410, 
    -0.17495835, -0.31863695, -0.01469239, -0.03132032, 0.10389029, -0.50216025, -0.37944326, -0.51609248, -0.49956301, -0.50675154, 
    0.20720112, -0.14068130, 0.08605459, 0.26136926, 0.59217000, 0.20457423, -0.39633837, -0.09836975, 0.12591070, 0.15420894, 
    -0.10491472, -0.66320223, -0.51141030, -0.56994712, -0.18419169, -0.32084432, -0.52428907, -0.18947837, -0.48853937, -0.12522671, 
    0.01832191, 0.04094287, 0.18969201, -0.16335237, -1.09634554, 0.06889191, 0.09921043, 0.19325206, 0.32263833, -0.18582734, 
    0.08987100, 0.02212869, 0.11157213, -0.13966477, -0.22901301, 0.60793936, -0.84408289, -0.44236615, -0.61278027, 0.14856468, 
    0.24661767, -0.07233803, 0.21665864, -0.01137621, 0.00782964, -0.11314520, 0.29433048, 0.14429168, 0.01459877, -0.06253807, 
    -0.11859123, 0.16368009, 0.23438883, -0.42478448, 0.23695405, -0.31917277, 0.21499857, 0.16412877, -0.07797053, 0.13240135, 
    0.03083651, 0.23984939, -0.13784353, -0.19182698, 0.31542796, -0.11056475, 0.09920643, -0.20572114, -0.03790779, -0.01431541, 
    0.23424274, -0.86224055, 0.25510034, 0.17442496, 0.15398304, -0.26812106, -0.72114784, -0.23471445, -0.22071587, -0.29583204, 
    -0.20509452, -0.62699062, -0.09760519, -0.09788188, -0.09051973, 0.11369660, -0.08256533, -0.03589553, -0.36788535, -0.07465181, 
    0.03794803, 0.07433821, -0.06175432, 0.15885031, 0.32545891, 0.08685786, -0.42353335, 0.05195715, -0.06041190, -0.17794742, 
    -0.10461013, 0.16954410, 0.23974565, 0.29840511, 0.05482093, -0.26075020, -0.58930773, -0.52774608, -0.74370158, -0.39548346, 
    0.00596595, -0.36530185, -0.12887064, -0.73030454, 0.23366089, 0.11165443, -0.48763049, 0.00478265, 0.18790647, -0.08753247
    
};

const type_t B_fc1[6] = {
-0.30216199, 0.00083946, 0.11448860, 0.06116647, 0.25104988, 0.01592620
};

#endif // WEIGHTS_H
